tree
version=v4
num_class=1
num_tree_per_iteration=1
label_index=0
max_feature_idx=202
objective=binary sigmoid:1
feature_names=adx winner_rate holder_pct total_mv pe pe_ttm pb market_score_adj mf_divergence mf_strength mf_consecutive ma_ratio_5 ma_ratio_10 ma_ratio_20 ma_ratio_60 ma_ratio_120 ma5_ma20 ma20_ma60 macd macd_signal macd_hist rsi_6 rsi_14 rsi_24 kdj_k kdj_d kdj_j boll_pct boll_width atr_pct bias_5 bias_10 bias_20 roc_10 roc_20 cci_14 wr_14 mfi_14 trix vol_ratio_5 vol_ratio_20 amplitude amount_ratio_20 vol_price_match obv obv_diff_20 cdl2crows cdl3blackcrows cdl3inside cdl3linestrike cdl3outside cdl3starsinsouth cdl3whitesoldiers cdlabandonedbaby cdladvanceblock cdlbelthold cdlbreakaway cdlclosingmarubozu cdlconcealbabyswall cdlcounterattack cdldarkcloudcover cdldoji cdldojistar cdldragonflydoji cdlengulfing cdleveningdojistar cdleveningstar cdlgapsidesidewhite cdlgravestonedoji cdlhammer cdlhangingman cdlharami cdlharamicross cdlhighwave cdlhikkake cdlhikkakemod cdlhomingpigeon cdlidentical3crows cdlinneck cdlinvertedhammer cdlkicking cdlkickingbylength cdlladderbottom cdllongleggeddoji cdllongline cdlmarubozu cdlmatchinglow cdlmathold cdlmorningdojistar cdlmorningstar cdlonneck cdlpiercing cdlrickshawman cdlrisefall3methods cdlseparatinglines cdlshootingstar cdlshortline cdlspinningtop cdlstalledpattern cdlsticksandwich cdltakuri cdltasukigap cdlthrusting cdltristar cdlunique3river cdlupsidegap2crows cdlxsidegap3methods lr_slope_20 lr_slope_60 lr_angle_20 channel_pos_60 lr_r2_60 break_high_20 break_high_60 break_low_20 gap_up gap_down limit_up limit_consec volume_spike_up volume_spike_dn k_kmid k_klen k_kmid2 k_kup k_kup2 k_klow k_klow2 k_ksft k_ksft2 qtlu_20 qtld_20 rank_20 rsv_20 imax_20 imin_20 imxd_20 corr_close_vol_20 cord_ret_vol_20 cntp_20 cntn_20 cntd_20 sump_20 sumn_20 sumd_20 vma_20 vstd_20 wvma_20 aroon_up aroon_dn aroon_osc kama_20 kama_dist sar_signal cmo_14 bop ppo apo ad adosc natr_14 stochrsi_k stochrsi_d ht_trendmode amount_1d amount_5d_avg amount_20d_avg amount_log amount_zscore_60d amount_breakout regime_days_in regime_intensity hs300_ret60_z60 cyb_rel_strength zz500_rel_strength sm_net_5d mid_net_5d lg_net_5d elg_net_5d main_net_5d lg_net_20d elg_net_20d main_net_20d main_consec_in main_consec_out dispersion_5d elg_ratio_5d buy_sell_imb_5d upward_impact_per_amount range_per_amount_5d amihud_illiq_5d kyle_lambda_20d tail_risk_5d range_compression drawdown_recovery price_impact_asym regime_id mkt_ret_5d mkt_ret_20d mkt_ret_60d mkt_rsi14 mkt_vol_ratio industry_id
feature_infos=[-8:10] [-10:12] [-6:8] [32801.5:254474064] [0.99910002946853638:4679.31298828125] [1.2226999998092651:297635.34375] [0.16750000417232513:3353.59521484375] [-5:2] [-12:8] [-10:10] [0:5] [-0.4280107319355011:0.82766222953796387] [-0.47410476207733154:1.1468217372894287] [-0.50809037685394287:2.4609854221343994] [-0.62379699945449829:5.1736111640930176] [-0.72380572557449341:6.641758918762207] [-0.41614937782287598:1.2565516233444214] [-0.53296011686325073:1.261737585067749] [-52.964492797851562:51.430015563964844] [-48.648525238037109:46.549518585205078] [-19.625043869018555:44.784832000732422] [0:100] [0.91973280906677246:98.634773254394531] [5.3144421577453613:96.797813415527344] [-1.1309472103390381e-13:100] [-1.508916418462708e-13:100] [-62.538936614990234:162.72854614257812] [-0.57358014583587646:1.554064154624939] [0.0098681608214974403:3.4135656356811523] [0.0054368157871067524:0.44964936375617981] [-0.4280107319355011:0.82766222953796387] [-0.47410476207733154:1.1468217372894287] [-0.50809037685394287:2.4609854221343994] [-59.461944580078125:448.20022583007812] [-69.694313049316406:931.4285888671875] [-466.66665649414062:466.66665649414062] [-100:0] [-4.4060019304889564e-13:100] [-3.5925531387329102:12.321330070495605] [0.00694689666852355:4.8430767059326172] [0.0026646573096513748:12.001799583435059] [0:5.190058708190918] [0.0020132153294980526:13.998739242553711] [1:4] [-63149900:280335200] [-113925320:169495328] [-100:0] [-100:0] [-100:100] [-100:100] [-100:100] none [0:100] none [-100:0] [-100:100] none [-100:100] none [-100:100] [-100:0] [0:100] [-100:100] [0:100] [-100:100] [-100:0] [-100:0] [-100:100] [0:100] [0:100] [-100:0] [-100:100] [-100:100] [-100:100] [-200:200] [-200:200] [0:100] [-100:0] [-100:0] [0:100] none none [0:100] [0:100] [-100:100] [-100:100] [0:100] none [0:100] [0:100] [-100:0] [0:100] [0:100] [-100:100] [-100:100] [-100:0] [-100:100] [-100:100] [-100:0] [0:100] [0:100] [-100:100] [-100:0] [-100:100] [0:100] none [-100:100] [-12.362533569335938:19.454833984375] [-5.8507466316223145:6.1598587036132812] [-85.375434875488281:87.057525634765625] [0:1] [-140.03054809570312:0.94685393571853638] [0:1] [0:1] [0:1] [0:1] [0:1] [0:1] [0:12] [0:1] [0:1] [-0.49431818723678589:0.63636362552642822] [0:1.7444717884063721] [-1:1] [0:1.0663390159606934] [0:1] [0:0.21548284590244293] [0:1] [-0.51841908693313599:0.48693704605102539] [-1:1] [-0.6040540337562561:1.4263187646865845] [-0.90142607688903809:0.84134000539779663] [0.05000000074505806:1] [0:1] [0:19] [0:19] [-19:19] [-0.98084187507629395:0.99676692485809326] [-0.96327251195907593:0.97629034519195557] [1:19] [1:19] [-18:18] [0.29190000891685486:855.1123046875] [0.4675000011920929:137.601806640625] [-87.401901245117188:778.08441162109375] [121.28399658203125:19362698] [72.989326477050781:12875321] [130.81680297851562:22991982] [0:100] [0:100] [-100:100] [0.93828850984573364:1845.0565185546875] [-0.83653199672698975:0.43897345662117004] [-1:1] [-98.160537719726562:97.269546508789062] [-1:1] [-35.694988250732422:73.36260986328125] [-82.774490356445312:130.93321228027344] [-145228528:136515024] [-13042714:20527754] [0.5436815619468689:44.964935302734375] [0:100] [-2.0842587367380511e-13:100] [0:1] [0.0210999995470047:27494.888671875] [0.073600001633167267:25072.23046875] [0.099799998104572296:33267.08203125] [0.020899999886751175:10.221799850463867] [-2.7592000961303711:7.5689001083374023] [0:1] [0:20] [-5.0295729637145996:24.219085693359375] [-4.1243257522583008:4.8427348136901855] [-0.10490956902503967:0.33222556114196777] [-0.11083488911390305:0.0975189208984375] [-2.9919905662536621:7.4552373886108398] [-2.4671847820281982:3.0754621028900146] [-3.3341634273529053:3.5238358974456787] [-8.5658531188964844:2.9641458988189697] [-9.9590988159179688:3.362802267074585] [-8.0010061264038086:5.6277675628662109] [-23.715078353881836:4.6509966850280762] [-28.753082275390625:6.6076583862304688] [0:25] [0:45] [-2:2] [-2:3] [-4.2944000597344711e-05:4.7579909733030945e-05] [0:0.0016159999649971724] [0:0.0046790000051259995] [0:0.00034152998705394566] [-0.77890002727508545:0.99000000953674316] [-65.629997253417969:0] [0:7.3309998512268066] [0:19] [-0.0034590000286698341:0.0011500000255182385] [0:5] [-0.094008602201938629:0.26975366473197937] [-0.089900888502597809:0.28140589594841003] [-0.11990600079298019:0.2605765163898468] [9.3665838241577148:98.030632019042969] [0.58250290155410767:3.3435266017913818] -1:74:8:93:1:19:61:25:23:18:97:51:37:68:72:107:33:4:70:0:30:2:32:34:48:16:90:36:87:96:42:6:5:105:22:14:84:24:35:76:38:80:64:21:98:43:53:17:104:13:66:47:9:31:57:100:50:59:55:108:81:75:58:3:69:78:92:89:46:103:86:44:63:56:27:102:29:54:77:20:12:85:39:88:41:67:109:94:99:60:91:15:45:82:62:101:83:10:65:28:106:95:7:40:49:71:79:26:52:11
tree_sizes=7182 7240 7182 7239 7200 7305 7169 7184 7218 7149 7196 7215 7312 7243 7269 7276 7271 7298 7299 7220 7262 7208 7198 7239 7275 7317 7273 7281

Tree=0
num_leaves=63
num_cat=0
split_feature=160 173 15 173 196 170 172 172 201 199 171 170 174 199 199 196 199 172 199 199 174 174 8 174 199 172 199 170 171 174 171 172 170 199 172 173 172 200 192 31 173 8 172 200 174 172 173 200 171 197 199 172 14 199 200 200 174 200 171 172 197 201
split_gain=51880.4 17367.6 14819.6 15052.6 8769.85 6315.61 5752.25 5116.75 6730.96 6634.09 5240.35 4506 4386.4 4177.07 4145.58 4312.46 6273.17 3977.3 3754.45 3614.99 3518.06 3513.13 3480.39 4520.41 3338.6 4416.63 3311.81 3124.13 3038.66 3028.35 2837.65 2668.88 2667.91 2636.93 2623.34 2310.48 2300 3354.77 2283.86 2243.48 2222.54 2206.6 2400.87 2551.02 2116.17 2026.57 3340.9 2924.28 2094.97 1998.94 2378.71 1991.43 1933.09 1914.39 1863.35 3505.88 1852.04 1753.02 1702.28 1601.75 1552.4 1540.3
threshold=3.0403418540954594 0.018742951564490799 0.18646939843893054 0.0153059926815331 1.0000000180025095e-35 15.500000000000002 -1.3526697158813474 -1.3236360549926756 0.73733487725257885 -0.0060232498217374078 1.0819866061210635 5.5000000000000009 0.0056794055271893748 -0.06686904281377791 0.16256699711084369 2.5000000000000004 0.01661173673346639 0.97326046228408825 0.20794978737831118 -0.025219593197107312 -0.015511460136622189 -0.046875823289155953 inf 0.012248601764440538 -0.0075788607355207196 0.617058426141739 -0.061965383589267724 12.500000000000002 0.077639728784561171 -0.031673470512032502 -1.7175631523132322 -0.88817018270492543 6.5000000000000009 -0.01914060395210981 -1.6915925741195676 -0.031813368201255791 1.8478806614875796 68.82062149047853 -10.662499904632567 0.09401299431920053 1.0000000180025095e-35 inf -1.9675106406211851 49.678802490234382 -0.0059844506904482833 -0.6903843581676482 -0.031813368201255791 57.792327880859382 1.0000000180025095e-35 0.0052021399606019267 -0.029393534176051613 -1.8624761104583738 0.2765048891305924 0.077402301132678999 46.379808425903327 32.746440887451179 0.0039884456200525173 62.800394058227546 20.036593437194828 -1.5697987079620359 -0.0071901874616742125 0.80233970284461986
decision_type=10 8 10 8 2 2 8 10 10 10 2 2 10 8 10 2 8 10 10 10 10 10 8 10 10 10 10 2 2 10 2 10 2 10 8 10 8 10 2 10 10 8 10 10 10 10 10 10 2 10 10 8 10 8 10 10 10 10 2 10 10 10
left_child=1 11 3 4 6 7 19 9 -9 21 12 20 27 -8 15 36 56 -16 40 54 26 -6 23 39 41 -26 31 45 49 -23 51 -1 -11 -12 -32 -28 -5 -38 -3 -15 -4 42 -22 60 -36 48 47 -47 -10 50 -13 -31 -42 -18 55 59 -17 -24 -39 -2 -44 -48
right_child=2 38 18 14 5 -7 13 8 10 32 33 28 -14 22 17 16 53 -19 -20 -21 24 29 57 -25 25 -27 35 -29 -30 30 34 -33 -34 -35 44 -37 37 58 -40 -41 52 -43 43 -45 -46 46 61 -49 -50 -51 -52 -53 -54 -55 -56 -57 -58 -59 -60 -61 -62 -63
leaf_value=-0.11539561994221831 -0.13525434437477812 -0.078738658514153764 -0.037238361265389874 -0.15724328955800881 -0.0022408761079391742 -0.13437876549258027 -0.034963960489994152 -0.15146634812460566 -0.071939494361409631 -0.020179007639330157 -0.13395114870235408 -0.12061546086523266 -0.07488139126955945 -0.14492387874095464 -0.17011429174765727 -0.071781799013988498 -0.036417877265653133 -0.036266198095585747 -0.0087125426124115696 -0.041261763944743818 -0.15851773008983591 -0.15124533146116736 -0.10040029618849687 -0.040104809254640467 -0.056420036852860039 -0.13689375235425111 -0.13108344384351611 -0.1082148761758146 -0.15746978756883429 -0.15715284855520345 -0.051556909028175939 -0.018281072877972829 -0.098877724206711606 -0.070750679320207246 -0.11774601608112893 -0.078915260321466674 -0.085540133984598116 -0.15216640850342364 -0.1614505999488588 -0.067081700229370406 -0.082728555798269834 -0.12905228254364046 -0.098709657868793529 -0.14042611813356518 -0.07970029658768947 -0.00030933524535030343 -0.075705289045891355 -0.099460040197884028 -0.024695435547207517 -0.14721116230494902 -0.069140252431906649 -0.095225835797453279 -0.041790603084461066 -0.10041196188057744 -0.16739143492036168 -0.032149862142668822 -0.12764834465224462 -0.039801954406524592 -0.048910676935433911 -0.07402085830401281 -0.059064323146991948 -0.037575359230152067
leaf_weight=927.72169137001038 2580.3015863895416 865.300632417202 10831.184564679861 6819.6328511834145 1099.3286636471748 3499.995365768671 1804.7754316926003 1841.8306546211243 7406.6043933331966 5471.6840183138847 2703.1193741858006 7751.2839703261852 12743.335147082806 12038.882617920637 680.34412425756454 1730.3942317664623 3903.8478361666203 3010.4010299742222 5739.7170010209084 6337.2206382751465 1733.6564111411572 2093.9466912448406 10391.31206330657 1269.4081782996655 5628.6276547908783 2445.7274805903435 3147.4455505609512 1675.801406532526 6623.2293054461479 2286.4017504751682 5586.3668595254421 2978.1255190968513 1340.6175644397736 4237.669485449791 5175.7971519827843 6516.5435843467712 4193.1547051072121 5299.8223158419132 23415.248521506786 1002.5634837150574 8093.581079185009 17171.456109166145 7518.9196194410324 2628.4300620853901 12437.315189123154 9226.1344636082649 3184.5592107474804 808.72979891300201 3435.0705884099007 3953.1181587278843 3158.806250423193 3003.1706310212612 4480.0765941739082 1667.76529276371 752.10371163487434 2160.8428840339184 10390.607775479555 1348.1937283277512 431.53863328695297 1821.8829706013203 3676.3425599336624 15753.841870754957
leaf_count=3588 10074 3288 40327 26902 4022 13659 6712 7246 28051 20200 10547 30053 48332 47217 2700 6553 14529 11203 21068 23642 6843 8237 39901 4733 21156 9556 12264 6459 26130 9019 20947 10984 5144 16040 20040 24764 15986 20857 92550 3788 30814 66844 28848 10287 47282 33722 12083 3104 12710 15521 11947 11503 16718 6404 2981 8025 40421 5026 1616 6907 13836 58665
internal_value=-0.0919981 -0.121697 -0.0780869 -0.083317 -0.0760345 -0.0683438 -0.0954916 -0.066067 -0.0572932 -0.08043 -0.0544577 -0.109917 -0.0492225 -0.108522 -0.111302 -0.1167 -0.0994866 -0.0609421 -0.044952 -0.0689043 -0.102256 -0.0900552 -0.113619 -0.130172 -0.109591 -0.0807964 -0.0802024 -0.041342 -0.129302 -0.0932122 -0.0889464 -0.041349 -0.035667 -0.0953653 -0.0814113 -0.0959065 -0.134888 -0.119525 -0.158503 -0.138939 -0.0538398 -0.116695 -0.103055 -0.0960989 -0.0908808 -0.0385271 -0.0316263 -0.00830053 -0.0569697 -0.116749 -0.105711 -0.121993 -0.0681414 -0.055574 -0.0928525 -0.0843089 -0.119672 -0.093441 -0.14439 -0.109911 -0.085691 -0.0439866
internal_weight=313931 100140 213791 184646 146519 105011 41507.5 101511 63016.7 38494.6 61174.9 75859.4 54234.1 27855.1 38127.5 34436.8 17692.6 3690.75 29144.6 13652.4 54373 31682.3 26050.4 14310.9 40803.2 8074.36 13569.8 41490.7 21486.4 30583 28489.1 3905.85 6812.3 6940.79 23199.5 9663.99 16744.1 9924.52 24280.5 13041.4 23404.8 32728.8 15557.3 13823.7 17613.1 39814.9 28973.3 10034.9 10841.7 14863.2 10910.1 5289.57 12573.7 5571.61 7315.13 6563.03 12121 11739.5 5731.36 4402.18 11195.3 18938.4
internal_count=1200575 388459 812116 703189 556018 397012 159006 383353 236959 146394 229713 292621 203126 107377 147171 133268 67907 13903 108927 51629 208970 121050 100665 55738 157370 30712 51600 154794 83651 117028 108791 14572 25344 26587 88269 37028 65361 38459 95838 51005 87859 126658 59814 52971 67322 148335 107574 36826 40761 57521 42000 20522 47532 20933 27987 25006 46974 44927 22473 16981 42684 70748
is_linear=0
shrinkage=1


Tree=1
num_leaves=63
num_cat=0
split_feature=160 173 199 173 197 32 144 198 170 160 171 201 171 198 199 200 197 174 199 172 200 170 198 172 172 199 172 199 199 174 198 199 173 199 144 172 6 171 171 174 197 172 167 172 172 199 199 174 170 174 171 201 173 174 201 174 173 200 170 171 174 32
split_gain=47083.1 17080 13003.6 12247.6 7411.99 6977.03 6529.47 5581.81 7931.96 5115.18 4745.94 4611.79 4056.15 4032.31 4121.94 5082.71 3633.27 3423.7 7128.72 5848.21 4503.52 2911.68 3552.09 2793.31 3280.4 2776.81 2680.43 2510.77 2473.33 2196.69 2608.81 2579.14 2127.87 2951.41 2079.75 2011.28 1896.04 1860.44 1857.93 1857.58 1745.76 1696.72 1626.14 1609.43 1547.89 1516.35 1470.14 1463.94 1453.53 1546.45 1536.76 1414.83 1361.96 1317.85 1285.96 1278.51 1694.82 1388.3 1276.44 1247.22 1245.39 1235.37
threshold=3.1534761190414433 0.018742951564490799 0.20794978737831118 0.0153059926815331 0.041337987408041961 0.12388906627893449 10.989950180053713 -0.045417930930852883 6.5000000000000009 2.3171788454055791 -0.86984246969223011 0.73733487725257885 -0.24989594519138333 0.065516192466020598 0.013795107137411835 50.625848770141609 -0.011245120316743849 -0.026672869920730587 -0.014893822371959685 0.617058426141739 56.460962295532234 5.5000000000000009 -0.050970295444130891 -0.50038452446460713 -2.2277754545211788 -0.056133177131414407 -1.042633533477783 0.044040873646736152 0.10824020206928255 -0.026672869920730587 0.018471864052116874 -0.047553513199090951 -0.03039242327213287 0.044040873646736152 25.099750518798832 -0.18567278981208798 2.9636499881744389 0.077639728784561171 0.24095805734395984 -0.033352501690387719 -0.014048649929463862 -1.8107659220695493 4.5933499336242685 -1.3652586936950681 -1.9012272357940672 -0.036944977939128869 0.15450244396924975 0.050076536834239967 5.5000000000000009 -0.015511460136622189 -1.0246147513389585 0.92330175638198864 -0.069897573441267 0.013090129476040603 0.92330175638198864 -0.0086533045396208746 0.0043172924779355535 56.96440505981446 1.0000000180025095e-35 -0.66547816991806019 0.0078344256617128866 0.12388906627893449
decision_type=10 8 10 8 10 10 8 10 2 8 2 10 2 10 10 10 10 10 10 10 10 2 10 8 10 10 10 10 10 10 10 10 10 10 8 10 8 2 2 10 10 8 8 10 8 10 10 10 2 10 2 10 10 10 10 10 10 10 2 2 8 8
left_child=1 9 3 4 6 13 7 12 11 48 16 35 23 14 36 -16 45 20 26 -20 25 22 53 24 -2 51 55 42 -21 31 41 -24 -12 40 -15 -9 60 43 -14 -6 -34 -31 -3 -23 -18 -10 -7 -17 49 -1 -50 58 -25 -11 -28 56 -19 -57 -13 -26 -5 -29
right_child=2 27 -4 5 39 46 -8 8 10 21 32 17 38 34 15 47 44 18 19 28 -22 37 29 52 59 -27 54 61 -30 30 -32 -33 33 -35 -36 -37 -38 -39 -40 -41 -42 -43 -44 -45 -46 -47 -48 -49 50 -51 -52 -53 -54 -55 -56 57 -58 -59 -60 -61 -62 -63
leaf_value=0.0049420631150375706 -0.034648905952223523 -0.071361421977124681 0.07549560021343471 0.0035801153738927931 -0.070204703976767729 0.026110075642109744 0.050237272681177905 0.016336397808117666 -0.058510410110130799 -0.055538179276690885 -0.042725146370734948 -0.052890884720593528 -0.063278317391802771 -0.054798370431414223 -0.043423422149196929 0.048278774249058291 -0.082712204223156949 -0.020725219602148418 0.069422975829870323 0.040949568511735542 -0.0049399649096772309 -0.035894438604340433 0.072934046752203024 -0.064549385638235757 0.025645083260312659 0.041340013448110717 0.012737210380811504 -0.021786560910020465 -0.0051654746861186434 0.048427169631079313 0.038979975773491542 -0.0036972545284633474 -0.041667196026673153 0.061679973630268684 0.00063452357817703436 -0.066710352766436123 -0.0031742782693246667 -0.046096297744735809 -0.0053972961252502644 0.0094066021907780462 0.0045972083918452743 -0.0041071843329871334 -0.043208565115624951 0.005658255190213823 0.01205270157737702 0.077202412537314635 0.080343154224026533 -0.044375241298785423 -0.025083761248358406 -0.027742956567277401 -0.068005553210262748 0.088792418294091138 -0.0041070730576311188 0.0045808972360090556 0.050843038234503951 0.015873947020041891 0.085663802588999693 -0.036895763481458059 0.091125814843617953 0.068568046815862718 -0.044912025851867043 0.092533693317899082
leaf_weight=4636.2155171781778 1921.6043596416712 15936.182301282883 9632.7805469036102 1615.0965119898319 2612.1855558305979 4978.3567505627871 21033.02308678627 1334.7473016083241 219.7824922055006 2993.3314351588488 5351.7292003631592 348.9699764251709 3381.1896602362394 7901.4873697757721 2299.1016063392162 6551.2365954816341 460.57214310765266 6324.8283995389938 14495.686006441712 7193.0538087636232 2820.1584287136793 3519.8968899548054 2815.1624439060688 1394.601656332612 5967.4344164431095 7480.3299506008625 3663.3908255249262 2264.2011690735817 4880.0296357870102 1645.7005278617144 4989.5391705185175 1799.8385587930679 3545.1865398287773 1474.2516829371452 2152.9109601825476 1606.2658351361752 8474.1591629981995 4768.2852078825235 2350.3683835715055 1018.1860836446285 4799.0506515353918 23240.771853819489 7566.3527694940567 6894.3488467931747 6667.8818256556988 3216.4196849614382 1668.5881622731686 455.85982638597488 4454.0818866044283 16488.188813000917 3922.5006472021341 7909.8196353316307 2810.0431860089302 1310.4418532848358 5597.9787325412035 14967.208316341043 397.77972464263439 1359.4717368930578 275.00111512839794 2362.8226614892483 7342.318841651082 263.74227809906006
leaf_count=17712 7516 63523 35438 6182 10383 18840 78511 5076 865 11821 20999 1378 13402 31202 9010 24475 1845 24500 53534 26957 10836 13752 10379 5532 22551 28059 13936 8808 18715 6154 18744 6923 13894 5469 8260 6374 32579 18770 9029 3890 18369 89333 29754 26383 25395 11824 6130 1784 17310 64124 15590 28908 10793 5016 20884 56869 1457 5304 1003 8731 28826 965
internal_value=0.00460981 -0.0218437 0.0187886 0.0159826 0.0227037 -0.00741794 0.0244396 0.0201528 0.0247266 -0.010817 0.000557121 0.0324385 -0.00395049 -0.0159353 -0.00578457 0.0210834 0.0262871 0.0347644 0.0288285 0.0480144 0.0533204 -0.00166676 0.00559791 0.0101611 0.0242367 0.0635806 0.0130519 -0.0572055 0.0223092 0.0109424 0.0059828 0.0430475 -0.0173611 -0.00353528 -0.0429283 -0.0290195 -0.0201289 -0.0202299 -0.0395441 -0.0478756 -0.0150587 -0.000632794 -0.0622984 -0.00838581 0.00592813 0.0685192 0.039726 0.0422497 -0.0275587 -0.0205693 -0.0451839 0.0830743 -0.0241569 -0.0372319 0.0357709 0.00392293 -0.0144282 0.0114795 0.0105776 0.0378212 -0.036168 -0.00985427
internal_weight=313822 109509 204313 194680 151241 43439.1 147611 126578 106390 83478.3 25734.9 80654.7 20188.1 36792.2 26737.8 9306.2 10564.7 77713.7 58879.4 26568.8 18834.3 53977.3 38794.8 14456.5 10251.9 16014.1 32310.7 26030.5 12073.1 34491 29876 4615 15170.2 9818.49 10054.4 2941.01 17431.6 15182.5 5731.56 3630.37 8344.24 24886.5 23502.5 10414.2 7128.45 3436.2 6646.94 7007.1 29501 21124.4 8376.58 8533.79 4204.64 4303.77 9261.37 23049.3 6722.61 16326.7 623.971 8330.26 8957.42 2527.94
internal_count=1200575 425061 775514 740076 572788 167288 558515 480004 402450 322011 98660 303790 77554 142318 102856 35269 39929 292340 222156 99206 70184 207275 148370 55123 38798 59348 122950 103050 45672 131533 114231 17302 58731 37732 39462 11450 67587 58905 22431 14273 32263 95487 93277 40135 27240 12689 24970 26259 114736 81836 32900 31289 16325 16837 34820 88130 25957 62173 2381 31282 35008 9773
is_linear=0
shrinkage=0.05


Tree=2
num_leaves=63
num_cat=0
split_feature=160 199 196 173 29 172 12 173 6 172 199 198 199 29 34 174 198 8 173 201 199 172 173 173 171 201 173 110 199 172 41 174 200 171 173 173 172 174 199 173 199 8 8 199 173 110 199 152 200 174 174 199 171 199 171 199 196 199 172 173 199 172
split_gain=42728 12677.7 13470.8 12250.4 9368.49 7294.58 8771.82 5392.73 5275.77 3759.92 5183.29 3616.88 3539.62 2996.56 2939.42 2750.84 2490.67 2847.93 2876.17 2472.13 2467.04 2385.06 2077.68 3025.27 1960.39 1949.5 1902.19 2092.12 2183.07 2593.88 1887.47 1808.48 1776.86 1745.4 1603.78 1596.19 1751.48 1786.11 1561.61 3018.34 1537.22 1426.45 1378.2 2331.12 2142.27 2013.37 1440.89 1377.88 1361.02 1350.07 1326.63 1298.6 1266.88 1264.48 1251.97 1213.71 1970.56 1210.44 1202.06 1175.06 1158.9 2572.17
threshold=2.8350746631622319 0.20794978737831118 2.5000000000000004 0.018742951564490799 0.040627604350447662 -1.3526697158813474 0.084871709346771254 0.0153059926815331 2.3195500373840336 -0.93084570765495289 -0.0060232498217374078 -0.045417930930852883 -0.053899914026260369 0.02020434103906155 12.82379722595215 0.0071873390115797528 0.022753129713237289 inf -0.0059949762653559438 0.62636917829513561 -0.031556675210595124 -0.39523491263389582 -0.069897573441267 -0.060315124690532677 0.12754447758197787 0.73733487725257885 0.0153059926815331 0.30232919752597814 0.070669822394847884 0.55400875210762035 0.041559180244803436 0.012248601764440538 39.603292465209968 0.9097048044204713 -0.022870961576700207 -0.052044548094272607 -0.47589693963527674 -0.0014421626692637799 -0.048649067059159272 -0.0077286651358008376 -0.022865440696477887 inf inf -0.047553513199090951 0.018742951564490799 0.56769078969955455 -0.0087248329073190672 0.051510531455278404 50.34272766113282 0.0039884456200525173 0.022948808036744598 -0.025219593197107312 0.52558788657188427 0.0020691184327006344 -2.0243763923645015 -0.038528708741068833 3.5000000000000004 0.15450244396924975 -0.39523491263389582 -0.091424878686666475 -0.029393534176051613 0.33600898087024694
decision_type=10 10 2 8 10 8 10 10 8 10 10 10 10 8 10 10 10 8 10 10 10 8 10 10 2 10 10 10 8 8 2 10 10 2 10 10 10 10 8 10 8 8 8 10 10 8 10 10 10 10 10 10 2 10 2 8 2 10 8 10 10 10
left_child=3 2 5 13 7 11 8 9 38 10 15 20 34 -1 19 59 17 18 35 -6 -2 49 54 -24 -13 -14 27 33 51 -30 -5 52 -28 -25 -11 -15 -37 53 39 -7 -35 47 43 44 -10 -45 -44 -40 -31 -9 -20 -29 60 -38 -21 -19 -57 -8 -34 -4 -27 -62
right_child=1 -3 4 30 14 6 57 21 42 12 -12 24 25 16 -16 -17 -18 55 50 22 -22 -23 23 26 -26 31 32 28 29 48 -32 -33 58 40 -36 36 37 -39 41 -41 -42 -43 46 45 -46 -47 -48 -49 -50 -51 -52 -53 -54 -55 -56 56 -58 -59 -60 -61 61 -63
leaf_value=-0.034148902092728958 -0.054182774691919067 0.069609331531600663 0.083837804862739285 -0.064659333177223652 -0.060946922822629646 0.06781620790611774 0.029752606530389587 0.015069886388200613 0.081006260202891839 0.082218679102360304 0.052082337785368304 0.047646344130825101 -0.051103506537955458 -0.036067551827965949 0.053338038674334259 0.014630880782761958 0.027500839915207759 -0.048436814941360824 -0.037395958402381024 0.018102635799253124 0.020082989623254093 0.0062400896836946025 -0.042834577120200668 0.028553656614144291 -0.025366578598238321 0.0077459466880958885 -0.040743588012543817 0.038014331728210171 0.085824477700779611 -0.032727937536678763 -0.015448724801113384 -0.014118699101085869 -0.0023823582830812696 -0.038585914273692901 0.033355337238201416 0.0014183711030751028 0.075168434218492397 0.0046747396521399321 -0.058033824730035759 -0.04491339142746667 0.023151700015053695 -0.015764222367580263 -0.0015893345589265376 -0.038449363192822411 -0.073702058178966745 -0.00047629198778667483 0.040190539479026163 -0.026007137241010683 0.02084328950485493 -0.047163816203161416 0.010328883476217576 0.064707831093924126 0.0015521381572103287 -0.00031917314820417079 0.086322443481844591 -0.046750423736566626 -0.0045513792731919044 0.079423837651533449 0.041336704519824241 -0.02169712520162102 0.076898736799947381 0.024241824737422271
leaf_weight=15675.431621178985 1964.6546436101198 10320.461467146873 268.35079406201839 18709.099471583962 759.37227611243725 985.36246713995934 4482.1809218376875 1002.826562717557 1046.7176599949598 3592.0685871839523 4402.726176187396 10076.748152136803 980.50797639787197 1677.2023414671421 14990.60097412765 9297.7432241737843 4275.499866977334 5163.6712794750929 6180.9620038419962 923.35669238865376 2595.2729246169329 4705.3298941254616 1485.1484368145466 20547.630518302321 1011.4942080974579 3048.9002129435539 1582.9804080575705 8565.2793571949005 1215.042783036828 1662.2926667779684 2175.4253120273352 3080.1986248940229 3289.7737238258123 1997.3156996369362 3154.7096227109432 8998.3870743662119 2737.7427648752928 2557.1822148710489 11592.345037430525 1493.8925350904465 2035.8638183027506 4100.4549179375172 10115.370530962944 7719.8404507339001 284.47881378233433 6372.3369148224592 2592.409563228488 4729.4085409343243 4133.4997134506702 6644.3412176668644 1904.6304035037756 9739.2044584900141 3667.6094334125519 695.55835527181625 2478.3099205642939 4281.0531585663557 7820.121692866087 1688.9448205828667 3011.0806080698967 15045.211600929499 3592.6992209404707 6543.702733695507
leaf_count=61314 7779 38049 982 74890 3014 3639 16921 3817 3837 13161 16386 37609 3877 6573 55793 35352 16146 20375 24205 3494 9831 18011 5852 77534 3938 11621 6216 32187 4441 6494 8479 11867 12655 7844 11869 34508 10087 9792 46022 5875 7699 15856 38827 30346 1138 24494 9722 18432 15644 26213 7282 36016 14028 2672 9059 16868 30168 6196 11290 58364 13201 24724
internal_value=0.00438227 0.0154469 0.0129094 -0.0264157 0.0216004 -0.00468011 -0.0129552 0.0081669 -0.0197639 0.0146915 0.00211678 0.02557 0.0278813 -0.015254 0.0334253 -0.00682155 -0.00885565 -0.0125554 -0.00168328 0.0287189 -0.011914 -0.021768 0.0298056 0.0276242 0.0409853 0.0177218 0.0294354 0.0330415 0.0431305 0.019404 -0.0595337 0.0211078 0.00661145 0.0226508 0.0593724 0.0101882 0.0153646 0.0363123 -0.0375816 -0.00010686 -0.00742103 -0.0421307 -0.00525838 -0.0153041 0.047938 -0.0212788 0.00693369 -0.0487543 0.00547735 -0.0390019 -0.0261534 0.0522176 0.0275464 0.0598743 0.0678072 -0.0281417 -0.0194809 0.0433488 0.0185098 -0.0198469 0.0347766 0.0429064
internal_weight=313468 230616 220296 82852 147444 72851.9 57203.7 69026.9 51032.6 56674.4 29014 15648.2 27660.4 61967.4 78416.8 24611.3 46292 42016.5 24751.7 63426.2 4559.93 12352.5 62666.8 59265.1 11088.2 20913.6 57780 49896.1 25315.3 7010.84 20884.5 19933.1 7883.83 24580.8 6746.78 16666.1 14988.9 5990.48 22901.5 2479.26 4033.18 20422.2 28131.2 15423.4 1331.2 14092.2 12707.8 16321.8 5795.79 7647.17 8085.59 18304.5 16852.9 3433.3 3401.67 17264.8 12101.2 6171.13 6300.85 15313.6 13185.3 10136.4
internal_count=1200575 877216 839167 323359 558705 280462 221305 263473 198188 215432 111084 59157 104348 239990 295232 94698 178676 162530 95119 239439 17610 48041 236425 223872 41547 79318 218020 187859 94782 26579 83369 75441 30161 93077 25030 63632 57059 22551 89824 9514 15543 80310 108364 59815 4975 54840 48549 64454 22138 30030 31487 68203 63574 12759 12553 67411 47036 23117 23945 59346 49546 37925
is_linear=0
shrinkage=0.05


Tree=3
num_leaves=63
num_cat=1
split_feature=160 173 15 173 196 29 172 27 198 199 199 198 8 174 199 199 171 174 198 174 172 197 173 199 199 198 198 174 172 199 199 199 172 174 199 173 172 173 171 12 171 8 174 174 174 199 202 198 167 174 8 199 173 173 198 199 173 173 171 199 173 3
split_gain=39016.8 15157.9 10674.2 9637.37 6664.89 4846.28 3953.08 3505.9 2956.46 2838.59 2807.44 2781.89 2733.85 3355.19 2710.41 2575.63 2276.19 2668.03 4180.7 3909.72 2675.06 4051.77 2664.7 2164.61 2147.06 2146.54 2125.51 2908.01 2080.12 4789.76 3730.42 1919.55 1912.06 2916.74 2702.65 2890.27 2296.91 1963.95 1822.31 1770.97 1735.06 1689.05 1658.83 1650.42 2370.49 1625.85 1602.04 1595.73 1589.12 1584.49 1537.61 3210.02 1750.64 1411.02 1404.75 1396.22 1384.69 1311.41 1274.47 1268.58 1196.09 1623.49
threshold=3.2672330141067509 0.018742951564490799 0.21095433831214908 0.0153059926815331 1.0000000180025095e-35 0.024221249856054786 -1.3526697158813474 0.8060385286808015 0.079467266798019423 -0.06686904281377791 0.024430563673377041 -0.045417930930852883 inf 0.012248601764440538 0.044040873646736152 0.044040873646736152 1.0819866061210635 -0.046875823289155953 -0.0098219565115869028 0.017234382219612602 0.617058426141739 -0.0096348593942821009 0.0031742439605295662 0.20794978737831118 -0.023699880577623841 0.013746049255132677 -0.045417930930852883 0.012739776633679869 -0.91280293464660633 -0.018216993659734722 -0.053899914026260369 -0.022865440696477887 -1.042633533477783 -0.031673470512032502 0.059234524145722396 -0.039508141577243798 -0.069594003260135637 -0.0057460253592580548 0.36011908948421484 0.09401299431920053 0.12754447758197787 inf -0.0014421626692637799 0.012739776633679869 -0.026672869920730587 0.074968297034502043 0 -0.026119591668248173 4.6193499565124521 0.0010011028207372876 inf -0.0079952976666390878 -0.0069767960812896481 0.19598770141601565 -0.013744530733674763 -0.0060232498217374078 1.0000000180025095e-35 -0.022870961576700207 0.62240919470787059 -0.021500536240637299 -0.04874120466411113 381912.60937500006
decision_type=10 8 10 8 2 8 8 10 10 8 10 10 8 10 10 8 2 10 10 10 8 10 10 10 10 10 10 10 10 10 10 8 10 10 10 10 10 10 2 10 2 8 10 10 10 10 9 10 8 10 8 10 10 10 10 10 10 10 2 10 10 2
left_child=1 5 3 4 6 46 11 8 10 -8 41 24 13 39 48 -9 17 47 22 20 49 45 32 56 -2 -12 27 -7 29 42 57 -18 33 -19 36 -36 54 -37 -23 -11 -13 -5 -28 44 -35 -22 -1 -6 -3 -20 52 -52 -48 -10 -34 -46 -4 -30 -16 -51 61 -49
right_child=2 14 23 7 16 26 9 15 53 12 25 40 -14 -15 58 -17 31 18 19 -21 21 38 -24 -25 -26 -27 28 -29 30 -31 -32 -33 34 43 35 37 -38 -39 -40 -41 -42 -43 -44 -45 55 -47 50 60 -50 59 51 -53 -54 -55 -56 -57 -58 -59 -60 -61 -62 -63
leaf_value=-0.043866439094040942 -0.045951369045606344 -0.0651598815321833 0.055717067399405198 -0.035035376748546843 0.087550616286075619 -0.04628562126500279 0.05473891772393772 -0.011214174085969648 -0.053267358214702666 -0.041276728320335812 -0.043463218328183395 0.0465522651578619 0.0059674271044987074 0.052589857771349779 -0.034267798008835927 0.040717369923930463 -0.025606551310536414 -0.032436867653036036 0.077095555237498142 -0.0040893940639214641 0.010648880535859483 0.060797409573723329 -0.01892906000290942 0.078228282591711384 0.029941749528254291 0.032119322391762878 -0.032501887747985021 0.011274228674082377 0.077567142774442779 0.036763286229515336 0.0048447981971650837 0.020115570243606714 0.035718663867954401 0.065151357137455915 -0.041129405739998973 0.061960750876668781 0.072211328199498742 -0.045441903334280762 0.023702782525254512 0.027285590718218733 -0.031818889610842352 0.0046367117949615254 -0.003007260187746072 0.043819162882793562 -0.0012761615763656562 -0.061589008585289373 0.0090939586057463325 0.053632536192361725 -0.037854376533270173 -0.013683630801949212 -0.040672080647107353 0.017617642624099258 -0.028088278839300679 0.018353212818468877 -0.028761872589975663 0.067316346603152513 0.029039380848635277 0.026495454806260789 0.030896857584969961 0.055721277027839834 0.090438561447124602 -0.068729526620861736
leaf_weight=7347.5517945289612 2045.2244058251381 16692.295963063836 8993.6498389393091 8418.8840370774269 3035.525520414114 5138.5385961830616 1622.0566001832485 4509.6817124187946 6630.41761700809 11567.32003647089 1145.7603573352098 8243.1575360298157 10237.348411515355 1176.6339761316776 1768.1101974844933 5073.465182363987 3506.5193666666746 3227.603050366044 8479.8930209428072 4251.9550403207541 2398.8448420464993 8854.3498629927635 4500.2588118463755 4972.6680986434221 1711.7841375470161 5211.7824745327234 8993.6730553209782 3829.3681475818157 2690.6302086859941 5320.3158059120178 17244.476354211569 6646.3908508121967 9787.3243632316589 1740.0172235220671 2261.4331736266613 1868.2447912693024 4658.7746134698391 551.07734431326389 5289.3980656266212 1025.176767796278 772.2483533769846 3937.538834258914 10144.79767742753 4948.9063444286585 12022.387707844377 1153.2716030478477 8156.6928449124098 579.08675962686539 7829.2334605306387 920.64789147675037 11624.295874714851 2964.0049501657486 5173.3096215426922 767.11688205599785 924.28214392066002 790.57432021200657 10596.762457296252 2359.8880180865526 1303.2522948086262 2309.8018338531256 489.84633865952492 509.47017462551594
leaf_count=28941 8109 67431 33398 33095 11111 20312 6030 17467 26426 45782 4515 30747 39104 4378 6966 19042 13693 12617 31154 16284 9131 32816 17448 18280 6435 19623 35185 14614 9891 19998 65995 25145 36750 6428 8883 6919 17170 2160 19972 3868 3028 15077 39058 18495 46089 4589 31210 2155 31039 3547 45847 11281 20221 2929 3584 2918 39951 8926 4942 8575 1790 2011
internal_value=0.00416864 -0.0184342 0.0179585 0.0135019 0.0196474 -0.0085897 0.00205018 -0.00958687 -0.01908 -0.00927476 -0.00850164 0.0247746 -0.0136004 -0.0281494 -0.0508962 0.0162788 0.026708 0.0293643 0.027256 0.0407244 0.0472044 0.0349356 0.017668 0.0487662 -0.0113714 0.0184965 0.000590343 -0.0217067 0.00486731 -0.00520167 0.0159137 0.00432389 0.0215179 0.0115892 0.0327724 -0.00049094 0.0429024 0.0374935 0.0469256 -0.0356944 0.0398383 -0.022393 -0.0168679 0.018876 0.0103932 -0.0128044 -0.0230947 0.0663469 -0.0564422 0.0657431 -0.0176056 -0.0288286 -0.00533602 -0.0458396 0.0301541 0.00295618 0.0412872 0.0537055 -0.00661515 0.0359402 0.0255627 -0.00363224
internal_weight=312945 118580 194365 169801 134107 90987.5 38401 35694.6 26111.5 25628.5 18714 12772.4 24006.5 13769.1 27592.9 9583.15 95705.9 85553 80939 33658.2 29406.2 17695.9 47280.9 24563.1 3757.01 6357.54 55721.7 8967.91 46753.8 24458.8 22295 10152.9 42780.6 22729.5 20051.1 4680.76 15370.4 2419.32 14143.7 12592.5 9015.41 12356.4 19138.5 19501.9 14553 3552.12 35265.9 4613.93 24521.5 11710.3 27918.3 14588.3 13330 7397.53 10711.6 12813 19590.4 5050.52 3071.36 3230.45 1578.4 1088.56
internal_count=1200575 461857 738718 647089 508915 351479 147481 138174 101665 99162 72310 48319 93132 54028 110378 36509 361434 322596 305529 126068 109784 66508 179461 91629 14544 24138 213979 34926 179053 94241 84812 38838 162013 86547 75466 17962 57504 9079 52788 49650 33775 48172 74243 73930 55435 13720 137500 17067 98470 43276 108559 57128 51431 29355 40334 49007 73349 18817 11908 12122 5956 4166
cat_boundaries=0 4
cat_threshold=132288 3319922696 335577220 544
is_linear=0
shrinkage=0.05


Tree=4
num_leaves=63
num_cat=0
split_feature=160 199 196 160 172 130 170 200 171 170 174 174 199 200 171 200 174 196 170 171 199 8 24 199 107 172 171 172 171 174 200 172 199 199 174 171 199 199 174 174 142 15 200 172 172 197 197 172 6 197 197 199 200 171 14 199 172 199 197 197 172 172
split_gain=35390.1 9343.72 11770.6 8341 4978.79 5824.44 4568.51 4477.99 4331.43 4310.9 3905.24 3330.88 3317.37 2856.46 2784.71 2726.23 2635.13 3605.27 2987.58 2693.17 2479.66 2084.24 1894.41 1880.99 1859.54 1836.84 1951.16 1831.95 2456.52 2654 1924.6 1819.53 4049.28 3881.33 1792.4 1774.5 1748.21 1679.49 1632.3 1644.64 1594.11 1557.44 1552.68 1577.52 1488.15 1433.37 2277.58 2130.77 1364.76 1362.53 1247.5 1245.39 1226.62 1640.44 1212 1197.69 1161.54 2058.45 1643.41 1147.92 1139.33 1133.59
threshold=3.3542640209198002 0.20794978737831118 2.5000000000000004 2.3171788454055791 -0.80639457702636708 -0.039119131863117211 7.5000000000000009 38.664442062377937 1.0819866061210635 7.5000000000000009 0.0095026227645576018 -0.0065478347241878501 0.024430563673377041 66.638854980468764 1.0819866061210635 84.44339752197267 -0.015511460136622189 4.5000000000000009 18.500000000000004 -2.8166910409927364 -0.018216993659734722 inf 92.674697875976577 -0.075890995562076555 0.089432332664728179 -1.2260556817054746 -1.182545483112335 -0.8434000015258788 -2.8166910409927364 -0.031673470512032502 33.778228759765632 -0.91280293464660633 -0.047553513199090951 -0.017221948131918904 -0.0028169773286208506 -2.9452551603317256 -0.04125073924660682 -0.017221948131918904 0.021391708403825763 -0.028189466334879395 31.119099617004398 0.0026936108479276304 50.625848770141609 -1.9012272357940672 -0.47589693963527674 1.0000000180025095e-35 -0.010683014988899229 0.91350343823432933 2.1516499519348149 -0.0079160560853779299 -0.0074960992205888024 0.20794978737831118 39.603292465209968 -2.9452551603317256 0.10495335981249811 0.15450244396924975 -0.93084570765495289 -0.0060232498217374078 0.0034662330290302639 0.20679578930139544 1.2527039647102358 -1.2460756301879881
decision_type=10 10 2 10 10 10 2 10 2 2 10 10 8 10 2 10 10 2 2 2 10 8 10 10 10 10 2 10 2 10 10 10 10 10 8 2 8 10 10 10 8 10 10 10 10 10 10 8 10 10 10 10 10 2 10 10 10 10 10 10 8 10
left_child=3 2 4 14 20 -6 7 12 10 11 15 31 27 23 34 45 41 19 44 -18 42 22 55 -7 38 -11 50 28 -4 -30 -29 33 -33 -5 56 -13 -10 -31 39 -25 -12 -8 43 -2 -19 46 47 -9 59 -48 -27 -28 53 -34 -21 -15 57 -1 -58 -37 -47 -22
right_child=1 -3 6 9 5 13 16 8 36 25 40 35 -14 21 -16 -17 17 18 -20 54 61 -23 -24 24 -26 26 51 30 29 37 -32 32 52 -35 -36 48 -38 -39 -40 -41 -42 -43 -44 -45 -46 60 49 -49 -50 -51 -52 -53 -54 -55 -56 -57 58 -59 -60 -61 -62 -63
leaf_value=-0.047188072039104877 -0.00057717549845744587 0.067484965204510403 -0.042822718627835404 -0.020470477762301303 0.033707206459246228 0.089678917013128204 -0.03216265801093187 0.066722596803168541 -0.027792220639647314 -0.050392545956761119 0.012663257926208711 -0.064955219775773482 -0.035169302318655102 -0.053729659491626738 -0.059846856223169737 -0.075026578645423295 0.030674092041456255 0.021250866702180363 -0.050974629649846316 -0.05662132138074797 0.053839491026223478 0.026130020328492057 0.074282856049957421 -0.041827805294563869 0.023472873250532926 0.036646848529714858 -0.046492867764867933 0.055352708549045254 -0.03491802978892946 0.018156396067220863 -0.030475266069834146 0.067298508319803232 0.033593253024089935 0.048655022063137619 -0.036134514341108613 -0.017858486329121692 0.019777464890677787 0.067552416756441941 -0.051158641751835467 0.00057126418668937699 0.041392707151091244 0.020917159236807748 -0.02839920117334916 0.030611224262302558 0.063462794348214169 0.069522500940836784 -0.0099469759628698692 0.011246431566169071 0.001536335971404629 0.035740826902454691 -0.016368892716473019 0.044657766562963407 0.016866369083601184 -0.063860741211129946 0.0076525343991844718 0.0034865410972787763 0.01865514492992959 0.035762288266637472 -0.030530066101683406 0.094202064235582306 0.038943814069385747 -0.033992977758253294
leaf_weight=3916.9872118085623 9467.2628770321608 8996.9492103010416 1893.9087664633989 7548.2460526823997 5474.354759439826 466.93302817642689 5782.7151376754045 9726.4128808677197 2972.1897264868021 6712.5458256304264 12526.857619971037 1409.0650442391634 3236.9761098027229 10906.950405478477 8512.4426622539759 424.7304063141346 2142.8661210387945 3713.9981681257486 896.69895765185356 2762.0692909508944 4555.2294232100248 1100.5548705011606 320.22822861373425 3112.5066618174314 3069.9415215998888 2027.7391862124205 4278.3248001337051 4845.3256995528936 2110.7102102935314 12058.073371574283 754.78621681034565 4102.8014340698719 674.73971648514271 2777.9503434598446 23138.105212077498 21201.746530741453 5514.9879039973021 2007.347173050046 3160.1172928512096 8623.6985996514559 7857.5538156032562 1815.7049670964479 2656.3702593445778 7090.8392032682896 4770.5602493286133 13678.027790755033 2334.7659252434969 2105.8931689113379 19885.401392176747 5418.9457551687956 2450.2817186415195 410.57519517838955 6886.2458405643702 1198.8343441188335 998.41505505144596 998.15639387071133 4543.9822071790695 924.25239740312099 2711.7191056758165 230.90991474688053 3920.6191550940275 399.43958452343941
leaf_count=15548 36307 33360 7465 29381 20611 1711 22673 36029 11634 26774 47679 5677 12725 43636 34449 1695 8058 14095 3563 10982 16934 4157 1179 12403 11684 7623 16991 18028 8272 45741 2947 15210 2543 10370 91773 82643 20856 7422 12606 33226 29412 6896 10431 26784 17696 50541 8968 8002 76604 20343 9490 1539 26187 4805 3809 3812 17331 3484 10674 842 14687 1578
internal_value=0.00396846 0.0177737 0.0152564 -0.0165586 -0.00245283 -0.0139239 0.0246086 0.0295147 0.0364802 -0.00713319 0.0413625 -0.00149915 0.0123043 -0.0221344 -0.0341812 0.0509148 0.00458618 0.0165496 0.0358129 -0.0140618 0.0152186 -0.0397705 -0.0457036 -0.00938431 -0.0119597 -0.0305197 -0.0159667 0.0187968 0.0110527 0.017361 0.0437835 0.0137576 0.0263068 -0.00187358 -0.0279804 -0.00977943 0.00311795 0.0252067 -0.0192623 -0.010673 0.023738 -0.019478 0.00708558 0.0127787 0.0449862 0.0523537 0.043047 0.0568496 -0.00789751 0.0219829 0.00763688 -0.0385096 0.00710656 -0.0287616 -0.0395554 -0.0489321 -0.0123831 -0.0313504 0.000271989 -0.0166505 0.0627107 0.046757
internal_weight=312214 186671 177674 125543 61402.6 37233.4 116271 93388.1 66481 81795.4 57993.8 65915.9 26907.1 31759.1 43747.5 37609.4 22883 15284.6 9381.26 5903.35 24169.1 13325.9 12225.3 18433.2 17966.3 15879.5 9166.92 23670.2 18070 16176.1 5600.11 23188.8 12862.6 10326.2 35235 42727.1 8487.18 14065.4 14896.3 11736.2 20384.4 7598.42 19214.5 16558.1 8484.56 37184.7 19586 11832.3 41318.1 7753.71 4478.02 4688.9 8759.82 1873.57 3760.48 11905.1 12096.9 4841.24 7255.7 21432.7 17598.6 4954.67
internal_count=1200575 710637 677277 489938 237059 145025 440218 352446 249846 316679 217356 254262 102600 124414 173259 140265 87772 58203 35354 22849 92034 52784 48627 71630 69919 62417 35643 89875 68900 61435 20975 88496 48745 39751 138810 165766 32490 53163 58235 45629 77091 29569 73522 63091 31791 138570 73342 44031 160089 29311 17113 18530 33535 7348 14791 47448 47037 19032 28005 83485 65228 18512
is_linear=0
shrinkage=0.05


Tree=5
num_leaves=63
num_cat=2
split_feature=122 173 15 199 202 199 173 170 9 197 198 200 171 198 200 192 170 151 198 197 197 199 199 174 199 200 151 174 199 171 198 200 170 174 173 170 171 173 199 174 198 198 199 173 142 7 173 174 200 200 171 199 198 167 173 202 192 197 199 173 197 170
split_gain=23178.2 17330.8 7620.56 5709.15 5277.27 5098.55 4611.06 4559.97 4475.06 4258.87 4183.32 3587.9 3431.52 3266.99 2826.56 2667.18 2660.43 2604.53 2597.23 2424.85 2303.52 2116.52 2006.71 3015.17 2565.36 2107.88 1971.08 1969.18 1870.19 1822.12 2781.54 2068.16 1958.28 1878.68 1838.78 1835.9 1812.48 1648.51 1965.08 2047.11 3039.4 2649.83 1710.74 1824.77 1444.51 1417.06 1353.28 1324.15 1435.42 1590.2 1291.36 1340.41 1284.61 1268.86 1256.54 1240.38 1215.81 1195.21 1153.72 1127.16 1157.59 1103.99
threshold=0.035724418237805373 0.0153059926815331 0.16618594527244571 0.044040873646736152 0 -0.0057467743754386893 0.0153059926815331 11.500000000000002 inf 0.037026284262537963 -0.050970295444130891 56.460962295532234 -3.7361038923263545 0.079467266798019423 50.625848770141609 -13.874499797821043 12.500000000000002 14.462560176849367 -0.018954178318381306 -0.02278418559581041 -0.032857911661267274 -0.016072562895715233 -0.059875667095184319 -0.026672869920730587 -0.014893822371959685 74.769565582275405 12.002244949340822 0.010389237198978664 0.20794978737831118 -0.19269718974828717 -0.045417930930852883 42.169101715087898 7.5000000000000009 -0.026672869920730587 0.005414357641711832 9.5000000000000018 0.14564959704875949 -0.052044548094272607 -0.018776589073240754 -0.026672869920730587 -0.025657653808593747 -0.044400520622730248 -0.029393534176051613 -0.030855029821395871 25.447150230407718 1.0000000180025095e-35 0.0069959943648427734 0.01022612862288952 17.655649185180668 27.510152816772464 0.011540111154317858 -0.034812372177839272 0.004798540612682701 4.5933499336242685 -0.027603575028479096 1 -12.993500232696531 -0.019936125725507733 -0.0048041471745818845 -0.027603575028479096 0.017202830873429779 2.5000000000000004
decision_type=2 8 10 10 9 10 8 2 8 10 10 10 2 10 10 2 2 10 10 10 10 10 8 10 10 10 8 10 10 2 10 10 2 10 10 2 2 10 10 10 10 10 10 10 8 10 10 10 10 10 2 10 10 8 10 9 2 10 10 10 10 2
left_child=1 4 6 17 -1 8 9 18 11 10 47 12 -6 14 -5 -8 22 -3 -7 -20 -14 -11 23 52 25 44 -10 -26 46 34 -31 33 -33 -32 37 -36 -21 -22 39 41 -41 -39 54 -44 50 53 -4 48 -2 -50 51 -24 -12 -17 57 -16 -48 -42 -29 60 -18 -13
right_child=2 3 28 13 5 7 15 -9 26 21 16 61 20 -15 55 45 59 -19 19 36 29 -23 24 -25 27 -27 -28 58 -30 30 31 32 -34 -35 35 -37 -38 38 -40 40 42 -43 43 -45 -46 -47 56 -49 49 -51 -52 -53 -54 -55 -56 -57 -58 -59 -60 -61 -62 -63
leaf_value=-0.023406644223903612 0.022314669146282246 -0.056192591053963063 0.048829476741204324 -0.064819198919157731 -0.034332418165769867 -0.0036992366464125856 0.047235642423105434 -0.050428439279572218 -0.027872375052990783 -0.060779703068334107 0.070476752049005956 -0.075093960375337068 -0.025624053713936241 -0.039590313591381994 0.051524926609571808 -0.025480263983327187 -0.057945113131424968 -0.024755750371884332 -0.052614839272300942 0.055231902247120823 -0.059545481509663871 0.027798221217874588 -0.00057789556422136877 0.02137229171835154 0.042277066271235529 -0.075462176242712523 -0.0043663699941849802 0.058950091545346653 0.072240106812228019 -0.061394719218755903 0.041203429138579661 0.037262498837343665 -0.069044846764226869 -0.026907339086696208 0.014343412478550244 -0.067979358977505774 0.026196622608350258 -0.030634726493143822 0.065917841588984061 0.036956413357057502 0.066240331049741447 0.077348871453918597 0.087376662087123358 -0.024880838150267745 0.032929235051847576 -0.067035163896032368 0.05058665918993388 0.022332420715103905 -0.062460757691502902 -0.0073827530225283782 -0.015007587441332718 0.031058914212973621 -0.008370408597849861 0.0015161947009873283 0.0098585387566180981 0.0038348765293310313 0.012158012680837394 -0.041464119138278702 -0.01187387365185226 0.025665839692480485 0.0094768742232930747 -0.017474255612818478
leaf_weight=19628.474375590682 1449.1961295008659 21886.168956771493 12037.562582477927 890.46348854899406 3862.3119823634624 5590.8787508159876 2050.0403926968575 2036.3747389614582 16540.33319427073 2413.0278231948614 7513.7279607206583 1453.7748339921236 3288.8313141167164 4000.1391627192497 3177.072886377573 7290.0325973182917 1671.3965250700712 9427.5268023908138 777.9221176058054 8627.4953230321407 513.26413786411285 935.80289548635483 6707.8260719925165 7739.8208237588406 18630.683353543282 660.78976541757584 19354.944250017405 715.75266544520855 4748.8890278190374 1503.1360344141722 1312.9366992563009 6127.0855267494917 466.03756122291088 4421.5725693106651 2185.5581925064325 981.19703507423401 14259.96297878027 689.58468452095985 3473.4008618742228 10046.650817587972 277.64060151576996 3222.4872832000256 934.08829529583454 590.89113168418407 7821.1461373716593 1131.670585796237 2950.0194226801395 2286.5133041292429 2526.7852396965027 2722.9299523979425 4802.9993872791529 6683.7022051215172 554.57521967589855 10800.554060563445 2934.3763741701841 2399.2708561867476 6810.1394286453724 3545.4197468608618 2922.4872192144394 1218.4452169686556 1028.0616516917944 1942.2572209537029
leaf_count=76814 5491 88978 44974 3572 15159 21639 7688 8109 64961 9745 28017 5860 12929 15993 11878 28771 6686 37317 3082 32164 2055 3542 25748 29325 70055 2683 74702 2658 17705 6089 4934 23096 1878 17261 8326 3962 53953 2697 12879 37808 1027 11945 3435 2297 29478 4562 10994 8656 10186 10573 18666 25243 2127 41867 11219 9222 25947 13884 11278 4626 3956 7572
internal_value=0.00370058 -0.00776817 0.0199363 -0.0360424 0.000634423 0.00453723 0.0137406 0.0219143 -0.00152657 0.019181 0.0215618 0.00759957 0.010953 -0.00407305 0.0178962 -0.00697629 0.0257597 -0.0467283 0.0269501 0.0341911 0.0147135 -0.0360258 0.0281805 0.0436689 0.0231779 0.0127189 -0.015198 0.0357066 0.0438062 0.0177828 0.00281655 0.0106468 0.0297464 -0.0113118 0.0248245 -0.0111635 0.037142 0.0291699 0.0309411 0.0254783 0.0184697 0.0583129 -0.00395444 0.0438776 0.0149592 -0.0127584 0.037611 -0.0105195 -0.0217337 -0.0338945 0.00723413 0.0152118 0.0650565 -0.00936248 -0.0147501 0.0311065 0.023774 -0.0336395 0.00205922 -0.0142487 -0.0322669 -0.0421431
internal_weight=311194 182370 128825 41780.6 140589 120960 102278 31292.6 89667.8 81005.7 77656.8 53772.5 50376.5 10466.9 6466.81 21272.3 68671.4 31313.7 29256.3 23665.4 46514.2 3348.83 64753.5 15808.1 48945.4 26676.5 35895.3 22268.9 26546.6 43225.3 13830.8 12327.6 6593.12 5734.51 29394.6 3166.76 22887.5 26227.8 25714.5 22241.1 18329.1 3912.07 8282.42 1524.98 26015.7 19222.3 21797.7 8985.42 6698.91 5249.72 18194.5 13391.5 8068.3 18090.6 6757.44 5576.34 9760.16 3823.06 3638.24 3917.9 2699.46 3396.03
internal_count=1199943 708696 491247 166960 541736 464922 391627 118947 345975 308739 295452 206312 192880 40665 24672 82888 260546 126295 110838 89199 177721 13287 245278 59469 185809 101818 139663 83991 99620 164792 53258 47169 24974 22195 111534 12288 86117 99246 97191 84312 69670 14642 31862 5732 99135 75200 81915 34906 26250 20759 69657 50991 30144 70638 26130 21100 36941 14911 13936 15268 10642 13432
cat_boundaries=0 4 8
cat_threshold=2684355776 2240973056 1413664901 8864 3263963411 541851660 662768992 27
is_linear=0
shrinkage=0.05


Tree=6
num_leaves=63
num_cat=0
split_feature=29 15 196 160 172 31 29 172 198 198 196 201 8 15 193 172 198 172 152 201 201 201 134 7 18 172 172 201 198 201 23 7 198 172 198 198 172 198 18 172 201 201 201 38 192 20 201 198 172 172 198 201 172 198 172 201 196 172 172 201 15 196
split_gain=30453.4 10484.4 7350.9 5153.89 4883 3917.27 3345.77 3161.12 2888.85 2675.12 2513.23 2471.52 1851.74 1674.04 1548.96 1543.26 1422.24 1389.98 1304.4 1250.98 1235.01 2249.27 1399.36 1214.28 1193.83 1149.44 1217.7 1925.86 1328.72 1184.93 1145.81 1125.68 1837.5 1466.43 2271.39 2032.88 1464.76 1178.19 1053.61 1050.39 1181.49 998.234 2398.04 989.568 1007.66 944.31 917.089 910.361 1066.29 891.621 864.683 864.143 1043.01 1837.25 1243.77 1067.69 920.283 860.439 901.695 859.884 857.062 852.63
threshold=0.027733421884477142 0.16618594527244571 2.5000000000000004 3.8382042646408085 -1.3526697158813474 0.09401299431920053 0.019678638316690925 -0.34428800642490381 -0.045417930930852883 0.065516192466020598 1.5000000000000002 0.76683613657951366 inf 0.33518658578395849 0.99050000309944164 1.2082015275955202 0.029736252501606945 1.5816240310668948 0.049373470246791847 0.62636917829513561 1.4876109361648562 1.4296665787696841 16.500000000000004 -1.0000000180025095e-35 inf -2.9674924612045284 -1.8624761104583738 0.73733487725257885 -0.032011991366744035 0.83788985013961803 41.340230941772468 inf -0.016868856735527512 -0.18567278981208798 -0.032011991366744035 -0.017927613109350201 -1.8107659220695493 -0.0015238187625072894 0.37883631885051733 -0.98364162445068348 1.0490550994873049 1.1342625617980959 1.0354831218719485 -0.45042997598648066 -6.8515000343322745 0.12187825515866281 0.86566978693008434 0.004798540612682701 0.81403082609176647 0.78458887338638317 0.020203558728098873 0.78267788887023937 -1.8624761104583738 -0.026119591668248173 -2.9674924612045284 0.82787957787513744 4.5000000000000009 -1.5275424122810362 -2.0841555595397945 0.79539614915847789 -0.074197582900524126 4.5000000000000009
decision_type=10 10 2 10 8 10 10 10 10 8 2 10 8 10 2 10 10 10 8 10 10 10 10 8 8 8 8 10 10 10 8 8 10 10 10 10 8 10 8 10 10 10 10 10 2 8 10 10 10 8 10 10 10 10 8 10 2 10 10 10 10 2
left_child=6 2 4 7 8 9 14 23 57 10 12 -9 20 19 43 47 45 -17 25 -3 21 22 41 51 31 -5 -27 49 29 -29 -30 33 -33 35 -35 39 -37 59 -11 -8 -41 42 -6 44 -1 -14 -12 -13 -49 -28 -25 -4 54 55 -53 -54 -55 58 -2 -36 -10 -56
right_child=1 13 3 18 5 -7 24 11 60 38 46 15 16 -15 -16 17 -18 -19 -20 -21 -22 -23 -24 50 -26 26 27 28 30 -31 -32 32 -34 34 37 36 -38 -39 -40 40 -42 -43 -44 -45 -46 -47 -48 48 -50 -51 -52 52 53 56 61 -57 -58 -59 -60 -61 -62 -63
leaf_value=-0.0092325852976426967 -0.028226512772591666 -0.045635047318365707 0.01765960569734935 0.079428954758261713 -0.016329359274115478 0.04099552438860582 -0.021288343582421425 -0.047205276733159426 0.047948726385299754 -0.045681480895167458 -0.04272545235883355 0.045687687428162808 -0.013824110983951249 0.054072867946785147 0.020161827868878185 -0.030026690321923684 0.034763919609083559 0.028905771748546746 0.040230591367657567 0.032292751278243707 -0.073347510040598959 0.083682144009389656 -0.040471194283773382 0.0029419836647259627 -0.049116446571222452 -0.0069226321828023312 -0.056407697270531056 -0.0129229878238465 0.0072705148788555531 0.050552072310771703 0.025029875327842666 -0.026549556540270886 0.029510066390521519 -0.049726668019116807 -0.025990697796210549 0.074285436017542214 -0.045197692142413023 -0.0096793482835031627 -0.016237421806951549 -0.016678921258807829 0.033307187622768138 -0.042255346125182128 0.059228696513571044 -0.033870148025467867 -0.061544970072813635 0.018397318924183562 0.038859099303783756 0.030854311903864003 -0.026624328323695236 0.034316275527276396 0.040487309066540744 0.070853500007383149 -0.048464059402088353 -0.031766948248583428 -0.053597567872098975 0.018617136770981983 -0.0061342400221506485 -0.048768087797051121 0.028671107623386444 0.030170066148845726 0.019101606738672932 -0.017479599777858228
leaf_weight=1047.7305932193995 1374.4013610482216 527.52703203260899 3149.1459332853556 835.6703088581562 5185.9873337894678 3254.2266767770052 14247.364503070712 1210.850197955966 5579.2651686668396 8370.7918272316456 384.28841276466846 7934.5130280405283 10862.585409745574 11344.614094525576 1054.3134303092957 1978.0833272188902 2382.951525464654 2024.4663784950972 10490.377757668495 21456.14750534296 1202.3063153475523 498.90413846075535 7120.0189830362797 4484.2477671653032 2691.1991417855024 3826.8149570524693 1111.7317854166031 827.87787066400051 12016.520607635379 6558.7842619419098 37208.064210921526 2560.697100520134 3405.5885711163282 2351.3572082966566 803.0696475058794 263.15943774580956 9969.3750990629196 6899.2987979948521 4770.5748171359301 2627.8756421208382 2148.5134369879961 1896.6076621264219 1316.6297445297241 14634.693133786321 7598.981366917491 2875.6663570255041 3312.8354185819626 3511.9669523686171 1047.3546872138977 357.87595193088055 2330.6415142565966 315.57662911713123 640.41987732052803 5399.0613406002522 2564.476715028286 8019.881842777133 9965.5992803424597 1292.034663528204 1411.1737798750401 4499.5836728662252 4783.2188307195902 4505.4293989390135
leaf_count=4173 5418 2089 11991 3091 20379 12229 56024 4814 20869 33748 1528 29918 42072 42469 4075 7696 8959 7631 39451 81189 4960 1864 28566 17168 10919 14858 4476 3221 46124 24715 141288 10100 12950 9443 3133 970 40120 26927 18809 10279 8154 7611 4908 58244 31530 10931 12493 13315 4074 1346 8770 1169 2570 21422 10329 30590 38517 5190 5315 17066 18170 17526
internal_value=0.00352482 0.0125076 0.00818476 0.015047 -0.00519256 -0.0121643 -0.0237872 0.00406036 0.0206052 -0.0156119 -0.00873516 0.0217392 -0.0130724 0.038473 -0.0391106 0.0268004 -0.000893623 -0.000217767 0.0239105 0.0304223 -0.0244733 -0.0208041 -0.0241639 -0.00350566 -0.0166796 0.0211817 0.0203952 0.0221953 0.0236623 0.0434372 0.0206947 -0.0149257 0.0054487 -0.0177005 -0.00472989 -0.0241524 -0.0421237 0.00394107 -0.0349933 -0.0144856 0.00580499 -0.0103393 -0.00102915 -0.0417951 -0.055207 -0.00707913 0.0303767 0.0354563 0.0176491 -0.0343105 0.0157833 -0.00730949 -0.00981305 -0.00476107 -0.0262462 0.0136555 -0.0151419 -0.0150451 0.00059605 0.0216634 0.034634 -0.030582
internal_weight=310321 233518 200190 132315 67874.5 53434.4 76802.8 59081.7 14440.1 50180.1 37038.8 17707.2 33341.7 33328.3 24335.7 16496.4 16121.2 4002.55 73233.7 21983.7 17220.5 16018.1 15519.2 41374.5 52467.1 62743.3 61907.7 58080.9 56611.2 7386.66 49224.6 49775.9 5966.29 43809.6 14553.3 29256.3 10232.5 12202 13141.4 19023.8 4776.39 8399.22 6502.62 23281.4 8646.71 13738.3 3697.12 12493.8 4559.32 1469.61 6814.89 34559.6 31410.4 24025 7385.48 8660.3 15364.7 4077.61 2785.58 5302.65 10362.5 7069.91
internal_count=1199943 895836 770089 506070 264019 209057 304107 227500 54962 196828 144271 67448 130250 125747 98022 62634 61962 15327 278570 83278 68288 63328 61464 160052 206085 239119 236028 221170 215348 27936 187412 195166 23050 172116 56569 115547 41090 47126 52557 74457 18433 32898 25287 93947 35703 53003 14021 47307 17389 5822 25938 134114 122123 93099 29024 33160 59939 15923 10733 20199 39039 27855
is_linear=0
shrinkage=0.05


Tree=7
num_leaves=63
num_cat=0
split_feature=160 15 173 173 152 170 110 174 170 6 201 160 174 200 174 173 170 200 200 200 174 173 174 173 200 200 201 122 160 200 174 170 173 200 174 201 10 20 174 11 35 201 170 201 174 170 200 173 170 173 201 173 174 201 138 173 170 173 174 173 164 200
split_gain=27600.9 9264.76 9123.88 8692.49 4337.16 3495.28 2910.66 2583.42 2566.04 2379.85 2159.08 2160.5 1869.72 2012.23 1697.28 2311.42 1586.06 2353.75 1874.4 3215.09 5023.39 2327.26 2597.06 1844.15 3063.22 1775.22 1658.53 1566.73 1404.06 1381.86 1367.7 1269.67 1229.86 1681.21 1265.21 1210.79 1382.17 1139.94 1064.15 1061.82 1045.05 1021.22 1346.81 1306.95 1013.43 999.865 978.526 1025.65 951.073 928.05 923.347 900.629 824.855 814.534 810.725 800.202 1204.52 887.926 767.803 765.624 760.096 737.734
threshold=2.8648570775985722 0.22468703240156176 0.018742951564490799 0.0153059926815331 0.069409541785717024 11.500000000000002 0.39235270023345953 -0.010837791487574576 5.5000000000000009 2.3495500087738042 0.62636917829513561 4.276043415069581 -0.0062375678680837146 35.713146209716804 0.030610838904976848 -0.019676038995385167 6.5000000000000009 26.129331588745121 37.38286209106446 52.406475067138679 -0.026672869920730587 -0.058068947866559022 -0.036283012479543679 -0.03565725497901439 56.460962295532234 62.800394058227546 1.0868036150932314 0.039942421019077308 2.0204341411590581 84.44339752197267 -0.017902949824929234 18.500000000000004 -0.02190958987921476 32.746440887451179 -0.012799054849892853 0.92330175638198864 inf 0.016286165453493599 -0.015511460136622189 -0.070172075182199464 -162.06013488769528 0.93560644984245311 2.5000000000000004 0.87851688265800487 -0.0098895225673913938 2.5000000000000004 67.066246032714858 0.19598770141601565 1.5000000000000002 -0.033968094736337655 0.62636917829513561 -0.013237712439149616 -0.029600340873003003 1.0637283325195315 0.19706361740827563 -0.039508141577243798 9.5000000000000018 -0.034815473482012742 -0.019409486092627045 -0.03039242327213287 102.98449707031251 39.859210968017585
decision_type=10 10 8 8 10 2 10 8 2 8 10 10 10 10 10 10 2 10 10 10 10 10 10 10 10 10 10 2 8 10 10 2 10 10 10 10 8 10 10 10 10 10 2 10 10 2 10 10 2 10 10 10 10 10 10 10 2 10 10 10 10 10
left_child=2 3 8 5 7 6 16 -5 12 -9 -8 -12 13 -1 15 44 18 -18 21 20 61 39 53 24 -21 35 32 -4 -14 46 -7 51 33 -24 58 -25 -37 -36 -19 -2 -26 42 43 -22 -10 -42 -6 -48 -41 -40 -3 -32 -35 -23 -13 -46 -57 -58 -34 -51 -11 -20
right_child=1 50 27 4 29 30 10 9 14 60 11 54 28 -15 -16 -17 17 38 19 23 41 22 26 25 40 -27 -28 -29 -30 -31 31 -33 34 52 37 36 -38 -39 49 48 45 -43 -44 -45 55 -47 47 -49 -50 59 -52 -53 -54 -55 -56 56 57 -59 -60 -61 -62 -63
leaf_value=-0.018611769561401786 0.02515164012741998 -0.021050437267378798 -0.05515084299770158 0.055241152653112906 0.027457186475547901 -0.031093634656989652 -0.051283176899847016 -0.03629150737553305 -0.040796819746606768 -0.02033276432330966 0.017416482023280784 0.02180992837516401 -0.031919538499241056 0.018713750559954802 0.032270848442181373 -0.046025291403062087 0.044038101938024911 -0.030918287760182319 0.034535004876450337 0.039247180720365447 0.0072089601524768666 0.025541578294976872 -0.018949046055606794 0.041356536856830196 0.035912653292642351 0.037679578313926841 -0.020815389603570243 -0.012193597169035376 -0.0066443030145411919 0.086331005259133703 0.04894321507792318 -0.049026019625493349 -0.015921527817096714 -0.01283651531709498 0.00021799808687466413 -0.048413412161971453 0.013532030831615192 0.033438256936652325 0.026370173553608489 -0.059722213805733108 -0.064444368243965974 0.030291605429801385 0.027308585921649971 -0.044254023450526966 0.039217826744649249 -0.0079490763310170031 -0.015623121665226001 0.06274322771007973 -0.014506139268242183 -0.06830763548274181 0.044578715711129827 0.00087977894953210941 0.050219346699892781 0.07936968494983708 0.04236441858069051 -0.032909722841959484 -0.033314570003703692 0.054248195530576131 0.056590372104765786 -0.0057455812238093595 0.0012769242485383956 0.076111702031031042
leaf_weight=5151.3078374266624 922.56329211592674 549.24514511227608 18115.511926487088 1112.9703701585531 5137.733358040452 5292.7835143506527 902.03804571926594 15490.423188835382 1689.85743047297 7712.7056160122156 29314.617954805493 6380.0663723051548 7484.340676099062 12073.094965487719 1104.2764946818352 10536.583399757743 2152.4941929578781 4832.8708434104919 1322.9783067852259 1625.0578335374594 4249.1710576862097 1236.3210406899452 5611.3480394482613 1057.8554207235575 398.69879257678986 4762.8363034874201 4723.6774305850267 2404.686128154397 20670.288009941578 695.63845583796501 1365.9500424563885 936.52659963071346 417.14295840263367 749.09950369596481 7045.5443476736546 1926.089582696557 1690.8379950374365 4076.6814093291759 2211.0846325457096 2000.424565166235 2867.8903652727604 10140.83736205101 5059.3694748878479 1738.2644634693861 1218.494088947773 1077.7064264714718 3365.6803467720747 476.53842511773109 2778.9276039302349 545.48598463833332 21857.985013991594 3402.6782067120075 1684.6553876250982 1629.9327944666147 19356.99942651391 1992.6145359575748 413.92734982073307 962.35259157419205 2916.172894179821 4720.5413431823254 8612.9344124943018 5528.8549862802029
leaf_count=20246 3511 2134 75626 4148 19516 20934 3654 62055 6750 30414 111907 24388 29783 46075 4195 42347 8092 19077 5055 6146 16244 4677 21748 3979 1510 17901 18390 9574 80319 2583 5107 3759 1611 2898 27044 7678 6443 15344 8426 8173 11712 38346 19151 6858 4620 4207 13211 1778 10884 2228 82434 13061 6319 6156 72958 7920 1629 3616 10911 18299 33394 20790
internal_value=0.00335657 0.0124567 -0.0211441 0.00909293 -0.0109856 0.0144177 0.016417 -0.0196333 -0.0117513 -0.0222528 0.0254407 0.026698 -0.00542512 0.00755046 -0.0277723 -0.0317162 0.0110285 -0.00419788 0.0138077 0.0207876 0.03087 0.00533492 0.010885 0.00243808 -0.0193123 0.0161959 0.0061185 -0.0501172 -0.0133635 0.0184443 -0.0127874 0.00419499 0.0117732 -0.00389566 0.0204938 -0.00569174 -0.0194543 0.012395 -0.012633 -0.0239533 -0.041219 0.0188345 0.00831637 -0.00773136 -0.00769685 -0.049015 0.0131839 -0.00590091 -0.0334335 -0.000813297 0.0429697 0.0146491 0.0308092 0.0561551 0.0372694 0.00449573 -0.0080622 0.0279088 0.0475143 -0.0122282 -0.00893187 0.0680853
internal_weight=309482 225665 83817.3 203258 42604.6 160653 149655 32929 63297.1 31816.1 55953.7 55051.7 45379 17224.4 17918.1 16813.8 93701.4 14462.5 79238.9 43446.4 28039.5 35792.5 30090.6 15407 5969.35 9437.62 27224.3 20520.2 28154.6 9675.59 10997.9 5705.15 22500.6 8045.1 14455.5 4674.78 3616.93 11122.2 12310 5701.92 4344.3 21187.6 11046.8 5987.44 6277.25 3945.6 8979.95 3842.22 4779.35 7477.11 22407.2 4768.63 2433.75 2866.25 25737.1 4587.39 3368.89 1376.28 3333.32 5266.03 16325.6 6851.83
internal_count=1199943 867243 332700 782675 167099 615576 572715 130011 247500 125863 212907 209253 176423 66321 71077 66882 359808 56122 303686 166020 106444 137666 115098 59576 23575 36001 104265 85200 110102 37088 42861 21927 85875 30965 54910 18100 14121 42388 48030 22568 17429 80599 42253 23102 24535 15919 34505 14989 19057 28953 84568 18168 9217 10833 97346 17785 13165 5245 12522 20527 63808 25845
is_linear=0
shrinkage=0.05


Tree=8
num_leaves=63
num_cat=0
split_feature=160 173 199 196 31 200 160 170 160 8 199 198 173 198 170 198 173 157 197 199 199 199 174 171 201 199 200 164 197 200 197 200 171 201 18 174 170 173 152 107 201 197 174 197 199 18 201 200 199 174 201 198 199 174 201 110 201 200 108 199 174 201
split_gain=25423.1 11606.9 7301.83 8840.18 4189.64 5332.17 3718.97 3483.29 3382.61 2558.89 2491.62 2185.24 2062.3 2679.32 2037.81 2954.17 1974.07 1956.88 1859.18 1639.75 1873.51 2017.95 2000.1 1635.18 1573.86 1533.5 2186.04 1516.1 1420.58 1400 1361.05 1623.22 1358.32 1335.99 1312.88 1254.05 1216.53 1401.02 1165.96 1153.61 1124.29 1272.61 1117.84 1117.28 1116.06 1115.51 1011.95 1531.14 965.258 1616.1 1474.9 1275.08 1211.12 911.567 1238.85 923.252 907.951 1000.74 900.454 886.79 879.113 853.78
threshold=3.4124705791473393 0.018742951564490799 0.20794978737831118 2.5000000000000004 0.09401299431920053 52.788536071777351 2.3876260519027714 16.500000000000004 4.8204481601715097 inf 0.044040873646736152 -0.045417930930852883 1.0000000180025095e-35 -0.0098219565115869028 5.5000000000000009 -0.050970295444130891 0.0078543655108660477 0.77176281809806835 0.037026284262537963 0.096969358623027815 -0.0075788607355207196 -0.057608967646956437 -0.026672869920730587 0.077639728784561171 0.62636917829513561 0.0042779494542628535 38.123041152954109 105.70309829711915 -0.014509793370962141 56.183252334594734 0.0060448241420090207 41.843832015991218 1.3213902711868288 0.82190516591072094 0.03750943765044213 0.013090129476040603 3.5000000000000004 -0.019676038995385167 0.053601127117872245 0.046620301902294166 1.2264270186424258 -0.021374002099037167 0.030610838904976848 -0.0071901874616742125 0.15450244396924975 inf 0.90955063700675975 34.878515243530281 -0.0079952976666390878 -0.038657013326883309 0.98003804683685314 -0.049435975030064576 0.01661173673346639 0.0039884456200525173 0.73733487725257885 0.34617704153060919 0.93962970376014721 39.859210968017585 0.0075143096037209043 -0.00065969151910394419 0.017234382219612602 1.2702647447586062
decision_type=10 8 10 2 10 10 8 2 10 8 10 10 10 10 2 10 10 8 10 8 10 10 10 2 10 8 10 8 10 10 10 10 2 10 8 10 2 10 10 8 10 10 10 10 10 8 10 10 10 10 10 10 10 10 10 10 10 10 10 8 10 10
left_child=1 6 3 4 5 11 36 8 12 17 27 34 32 43 15 35 33 44 24 20 21 22 -17 30 -10 60 -27 -3 -19 -12 31 -16 48 -13 61 -8 45 -38 53 -18 41 -28 -39 -14 -7 46 -1 -48 49 51 -50 -5 -52 54 -26 -56 57 -24 -51 -25 -15 -2
right_child=2 10 -4 7 -6 9 14 -9 18 -11 29 16 13 25 23 19 39 28 -20 -21 -22 -23 56 59 38 26 40 -29 -30 -31 -32 -33 -34 -35 -36 -37 37 42 -40 -41 -42 -43 -44 -45 -46 -47 47 -49 50 58 52 -53 -54 -55 55 -57 -58 -59 -60 -61 -62 -63
leaf_value=-0.025965273263100188 -0.013899248747937172 -0.0556662490279803 0.060443224688508379 -0.045324886096855949 0.040610810106699341 -0.04772024579612133 -0.045055288329912409 -0.044532899894505401 -0.041730937568862883 0.017834104267203603 -0.057714467550092421 -0.00014085551238499354 -0.0041689870252836795 0.01965025380361993 -0.0047892088680486474 0.057312749002087965 -0.040029755475394856 -0.069135567846921583 -0.031456167157959784 -0.0093064356758903819 0.036424116910474126 -0.003769148968076716 0.010091870521062205 -0.04728239672616652 -0.042786746979180015 -0.07163712339564518 -0.012443987896634803 -0.029243212735070762 0.0049456129607587801 0.013100209731650254 -0.032662055560147549 0.044558492893751987 -0.010112391901822067 0.030779142515854636 0.019787745892003591 0.00813290644353842 -0.0093204261771042702 -0.050631250588864862 0.050689564179451002 0.014746635828780958 -0.027755838974198612 0.045044807398266655 -0.0032262499467708818 -0.044671757132019319 0.0053560947235176621 -0.070610079453514871 -0.026926113771010396 0.010959362161434413 0.052637908634299291 0.0095069670896205175 0.04464792599542694 0.06173192761770141 -0.016344461953268212 0.018750331560611563 0.029726243700933443 0.049504377915423975 0.026789808538435628 -0.04337575801141097 0.031275329352101665 -0.0035376921371835577 -0.019401279978072103 -0.056083835094371176
leaf_weight=5854.1422135531902 7712.0294881314039 17226.011771172285 8547.5620787739754 305.5551647990942 5149.3663473427296 12068.779645502567 3656.559443578124 1969.3671835511923 670.40961614251137 2832.3079321235418 919.53907939791679 4792.5339564681053 3621.2874269634485 2268.1769125014544 7603.7145217806101 3278.1354583799839 2263.0690322518349 765.20349510014057 1100.557351142168 8210.631885945797 8204.8461863398552 14225.299801141024 3177.0107564330101 4162.9904787391424 484.09383371472359 534.37032049894333 1107.9842641353607 7929.012926787138 4190.1681376993656 2894.9781552404165 2965.7345225512981 2133.9775301814079 3081.8278142809868 12885.756725221872 2603.4476681649685 1589.8921242505312 4901.0632073134184 7371.3133998215199 9801.8317179679871 1670.5606813132763 716.00968649983406 7330.2926655262709 1496.2266394346952 3214.1559098213911 1078.7818390280008 760.53207243978977 3862.4775183498859 8615.3722974509001 6170.4089253544807 18003.364730909467 1482.7174903452396 3085.7699702978134 1804.0220085680485 10383.992894396186 14139.599317714572 10130.0174613446 4830.6672211885452 1207.7256707549095 6454.1124578714371 1605.6370780318975 3951.7833539843559 1420.4344948083162
leaf_count=23123 30248 72702 32551 1228 19418 49313 14776 7918 2675 10811 3758 18520 14023 8617 29448 12509 9090 3134 4400 31750 30849 54964 12137 16839 1929 2198 4263 32295 16264 11214 11765 8023 11908 48879 9926 6077 19245 30017 36794 6403 2770 27559 5830 12787 4125 3120 15325 33221 23268 68863 5608 11812 6989 39479 53948 38227 18268 4766 24471 6223 15482 5801
internal_value=0.00319846 -0.0137682 0.0153422 0.0130909 -0.00249107 -0.00657993 -0.00567421 0.0213734 0.0225551 -0.026358 -0.0416278 0.00583633 0.0150076 0.00296492 0.00109566 0.00648975 0.0152683 -0.0332725 0.0327559 0.0107988 0.0155257 0.00910796 0.0237703 -0.0130319 0.0343054 0.0142141 0.0266523 -0.0473379 -0.00649408 -0.00397035 -0.00300666 0.00602498 0.0217892 0.0223966 -0.0115323 -0.0289363 -0.019447 -0.0307758 0.03544 -0.0167659 0.0323911 0.0374956 -0.0426333 -0.0232153 -0.0433648 -0.0112768 -0.00881466 -0.000767684 0.0244247 0.0197374 0.0382268 0.0520837 0.0111695 0.0311857 0.036402 0.0379819 0.0118374 -0.00463469 0.0152518 -0.0351077 -0.00515982 -0.0204616
internal_weight=308475 128683 179792 171244 59432.4 54283.1 99714 111812 109842 20935.2 28969.5 33347.8 63131.8 22744.1 66852.8 48380.8 21611.9 18102.9 46710.5 43134.3 34923.7 26718.8 12493.5 18472.1 45609.9 15908.6 9688.66 25155 4955.37 3814.52 12703.4 9737.69 40387.8 17678.3 11735.9 5246.45 32861.1 13768.6 44939.5 3933.63 9154.29 8438.28 8867.54 6835.44 13147.6 19092.5 18332 12477.8 37306 27848.8 9457.15 3391.33 3286.74 35137.7 24753.7 24269.6 9215.4 4384.74 24457.5 5768.63 6219.96 9132.46
internal_count=1199943 508244 691699 659148 231932 212514 388275 427216 419298 83647 119969 128867 241846 87699 258394 186096 82892 72836 177452 165243 133493 102644 47680 72298 173052 60889 36790 104997 19398 14972 49236 37471 154147 67399 45975 20853 129881 55092 170377 15493 34592 31822 35847 26810 53438 74789 71669 48546 142239 106374 35865 13040 12597 133583 94104 92175 35171 16903 93334 23062 24099 36049
is_linear=0
shrinkage=0.05


Tree=9
num_leaves=63
num_cat=0
split_feature=29 173 15 200 173 173 160 173 198 170 197 192 173 171 111 171 170 198 197 170 198 170 164 171 201 171 18 170 198 173 8 171 173 200 171 197 171 19 171 200 173 170 171 200 200 171 200 111 171 197 200 200 197 200 197 198 173 171 201 198 173 200
split_gain=23117.6 10978.4 6020.46 5212.83 3970.5 4548.92 3625.29 3359.54 2738.02 2675.35 2806.95 2575.9 2485.55 3237 2289.86 2289.11 2042.32 1842.06 1826.28 2328.34 1726.98 2457.45 1475.41 1471.56 1409.14 1390.8 1338.9 1310.97 1210.06 1404.17 1582.58 1451.42 1175.6 1169.21 1167.19 1767.65 1150.66 1139.33 1462.48 2189.51 1699.64 1114.62 1111.22 1093.47 1088.17 1048.17 1445.5 1038 1149.53 1156.65 1020.66 1010.33 977.178 898.995 877.798 877.794 1264.26 930.031 863.018 1868.99 904.435 850.646
threshold=0.035001376643776901 0.018742951564490799 0.24046709388494494 66.638854980468764 -0.030855029821395871 0.025309894233942035 2.520784974098206 0.18453631550073626 -0.045417930930852883 16.500000000000004 0.028939748182892803 -12.993500232696531 0.0049940454773604879 -1.5788428187370298 0.66688138246536266 -0.24989594519138333 1.5000000000000002 0.065516192466020598 -0.0071901874616742125 6.5000000000000009 -0.045417930930852883 6.5000000000000009 73.918952941894545 0.77893629670143139 1.0868036150932314 -0.24989594519138333 inf 7.5000000000000009 0.018471864052116874 -0.0036961934529244895 inf -3.7361038923263545 -0.052044548094272607 65.622356414794936 0.077639728784561171 0.0060448241420090207 0.24095805734395984 0.030619465745985511 0.011540111154317858 42.169101715087898 -0.031813368201255791 12.500000000000002 -0.69342744350433339 34.168542861938484 38.664442062377937 1.3213902711868288 40.629507064819343 inf 0.098615530878305449 -0.0071901874616742125 34.168542861938484 63.124046325683601 -0.011897826567292212 57.792327880859382 0.0054508217144757518 -0.064682647585868822 -0.081473708152770982 -0.66547816991806019 0.90955063700675975 -0.012805405072867869 -0.0023410264402627941 52.788536071777351
decision_type=10 8 10 10 8 8 8 10 8 2 10 2 10 2 8 2 2 10 10 2 8 2 8 2 10 2 8 2 10 10 8 2 10 10 2 10 2 10 2 10 10 2 2 10 10 2 10 8 2 10 10 10 10 10 10 10 10 2 10 10 10 10
left_child=1 6 3 8 -5 27 23 17 15 10 12 -3 14 -14 37 44 24 -7 19 -18 25 45 -13 26 51 42 28 -6 29 30 31 -1 -33 -12 35 -23 -17 38 41 -40 53 -10 -8 -31 55 46 47 48 49 -22 -34 -15 -52 -41 -42 -2 -57 -58 59 -48 -61 -54
right_child=2 11 -4 4 5 7 20 -9 9 -11 33 22 13 16 -16 36 18 -19 -20 -21 21 34 -24 -25 -26 -27 -28 -29 -30 43 -32 32 50 -35 -36 -37 -38 -39 39 40 54 -43 -44 -45 -46 -47 58 -49 -50 -51 52 -53 61 -55 -56 56 57 -59 -60 60 -62 -63
leaf_value=-0.05445890410129281 0.03350470139533121 0.048586821591853041 0.041299406939611115 -0.05643459211586619 0.038880749974668165 -0.005801708637690528 -0.018574247436545826 0.05327462708403196 0.036723132411298057 -0.036586641886731212 -0.037876119416711464 -0.05131115014854757 -0.039691874540441791 -0.00024545041188359047 0.010859451259737489 -0.05156475808668784 0.034172031198627412 -0.047175276350673992 0.041223284562158694 -0.03854322795990954 0.0047522938432297988 0.014431043869042037 -0.028704755282157043 -0.04172579206788099 -0.046824274508091096 -0.053285882346324288 -0.059317471640054631 -0.013649708256796692 0.013932268016921073 -0.018775885011814715 -0.024920921264280228 -0.048003111331476833 -0.0085273316800573273 0.027317863457722798 -0.033888260273532263 -0.038875876005566058 0.0024552161055766621 0.041093225380937314 -0.018048134403435445 0.063333731194697179 -0.011973697794730965 -0.0058106071970025546 0.02237377205116985 -0.062408907480324551 0.04578588725648769 -0.017131385301299908 -0.020597531167765019 -0.016347427831790894 -0.045838901879023619 0.038720670700343442 0.046740922184740678 0.055251379719710059 0.017042892157259067 0.0079412918367068649 0.023713544387500129 -0.048625652389144958 -0.0031788627108756463 0.039555498125283223 0.029893823338454452 0.044929791437167632 -0.0033385846383791949 -0.041147061106299655
leaf_weight=1072.0114679783583 1979.5663615912199 816.56795431673527 19602.426654875278 3799.6716659367085 6370.3607027977705 4799.2159951478243 5910.319138482213 1399.7815583348274 22570.798489138484 2131.278695628047 2880.8089002370834 16528.748061433434 3104.2327119261026 7755.6450924575329 18786.097030565143 2915.8349258899689 2471.3505328893661 6123.0081500560045 8597.5645244717598 1984.9896027445793 8614.3519023507833 5148.5836962759495 12815.69750957191 5061.1983536481857 1502.5329856276512 2033.1656255275011 1488.6748096942902 1459.6824981272221 4295.0974938869476 3625.827702075243 9400.5332426428795 935.29161655902863 4586.14317317307 903.21550998091698 4541.9475446045399 2228.0206595957279 1488.959987834096 18729.058356404305 3937.3665041476488 3211.5217384845018 2697.721414655447 1652.8460849821568 2301.9863881915808 2377.8951153308153 1673.3407974690199 2926.109963953495 3137.9557981491089 4868.0433833748102 840.02810761332512 3534.4244093447924 2528.4462507218122 916.95403391122818 4439.1454295814037 949.215551674366 4768.4341409504414 1316.4406886249781 7943.4744675904512 1516.0368331521749 14069.520416468382 3074.0141728073359 1417.9307274669409 731.41161359846592
leaf_count=4364 7459 3107 74748 15771 24074 18760 23270 5314 85909 8576 11648 70249 12489 29971 71771 11996 9363 25184 32554 7910 33093 19734 52534 20605 6006 8264 6125 5744 16435 14395 37519 3784 17926 3476 18243 8900 5714 71190 15383 12268 10580 6404 8777 9727 6369 11373 12246 18967 3319 13462 9518 3426 17002 3624 18119 5468 30727 5707 53420 11545 5443 2895
internal_value=0.00304944 -0.0124076 0.0152171 0.0118609 -0.00955277 -0.000712713 -0.00478237 -0.0196497 0.0158559 0.0188834 0.019984 -0.0390009 0.0215285 0.00826119 0.0260479 -0.00175446 0.0146698 -0.0289964 0.027759 0.00178118 0.0025684 0.00611501 -0.0414385 -0.0165038 -0.0021223 -0.0162626 -0.0129057 0.0290873 -0.0108727 -0.0144605 -0.00898718 0.00149263 0.00603035 -0.0223132 -0.013948 -0.00166934 -0.0333035 0.0309238 0.0261366 0.0141769 0.0250902 0.0338207 -0.00709539 -0.0360592 0.00787655 0.0117439 0.01388 0.00334326 0.0107235 0.0146353 0.0101448 0.00562222 0.021268 0.0506984 0.0108181 0.00290268 -0.00271877 0.00366981 0.0225507 0.00900903 0.0296925 0.00880991
internal_weight=307289 135349 171939 152337 23951.7 20152 105188 12322 128385 109552 107420 30161 103636 26333.3 77303.1 18833.7 23229 10922.2 13053.9 4456.34 64646.4 54400.9 29344.4 40541.7 10175.1 10245.5 35480.5 7830.04 33991.8 29696.7 23693 14292.4 13220.4 3784.02 11918.6 7376.6 4404.79 58517 39787.9 15564.3 11626.9 24223.6 8212.31 6003.72 14428.9 42482.4 39556.3 17856.8 12988.8 12148.8 12285.1 8672.6 7699 4160.74 7466.16 12755.5 10776 9459.51 21699.4 7629.9 4491.94 5170.56
internal_count=1199943 536241 663702 588954 94847 79076 410351 49258 494107 420667 412091 125890 396967 101719 295248 73440 89230 43944 49827 17273 250056 209745 122783 160295 39403 40311 139690 29818 133565 117130 93008 55489 51125 15124 46877 28634 17710 223477 152287 59974 44591 92313 32047 24122 55730 162868 151495 68841 49874 46555 47341 33397 29415 15892 28699 49361 41902 36434 82654 29234 16988 19897
is_linear=0
shrinkage=0.05


Tree=10
num_leaves=63
num_cat=0
split_feature=160 199 196 160 12 200 171 170 170 9 174 199 199 198 152 174 174 174 170 199 199 197 198 200 197 197 171 199 200 14 171 199 174 111 199 198 200 109 198 199 199 200 197 199 174 160 198 170 171 154 174 199 199 199 197 200 196 170 197 165 174 164
split_gain=21027 7655.57 7038.58 5890.45 4291.65 4589.19 3412.03 3171.19 2808.63 2774.62 2723.22 2707.31 3620.64 2375.98 2229.74 2076.4 1982.51 1875.49 1790.19 1719.05 1665.62 1694.02 1613.86 1551.21 1821.1 1509.41 1619.05 2756.34 1414.3 1391.93 1380.41 1357.5 1335.88 1315.32 1278.26 1259.64 1231.52 1219.05 1200.21 1595.21 1277.14 1239.1 1490.27 1194.41 1186.68 1185.48 1174.7 1144.49 1105.53 1103.03 1099.47 1796.71 1602.87 1368.11 1046.64 1029.96 1000.54 995.166 976.714 905.513 903.805 899.595
threshold=2.7431082725524907 0.20794978737831118 2.5000000000000004 4.276043415069581 0.10603250563144685 52.788536071777351 1.0819866061210635 7.5000000000000009 16.500000000000004 inf -0.026672869920730587 -0.027240621857345101 0.096969358623027815 -0.045417930930852883 0.058321202173829086 -0.0059844506904482833 0.013946870341897013 0.010389237198978664 6.5000000000000009 -0.033292546868324273 -0.06686904281377791 0.00082451826892793189 -0.044400520622730248 44.522125244140632 0.0060448241420090207 0.037026284262537963 -1.4788930416107176 0.059234524145722396 52.230312347412116 0.036145582795143134 -2.9452551603317256 -0.036944977939128869 0.01682193856686354 inf -0.0079952976666390878 -0.044400520622730248 34.544780731201179 2.5054153203964238 -0.010446258354932068 -0.098038852214813219 0.19076673686504367 57.792327880859382 -0.02278418559581041 -0.074555955827236162 -0.023620944470167157 2.0204341411590581 0.004798540612682701 17.500000000000004 -0.24989594519138333 9.818918704986574 -0.026672869920730587 -0.027240621857345101 -0.042074063792824738 -0.074555955827236162 -0.023726936429738995 84.44339752197267 4.5000000000000009 9.5000000000000018 -0.0083578978665173036 159.482048034668 0.010889829136431219 59.305450439453132
decision_type=10 10 2 10 10 10 2 2 2 8 10 10 10 10 8 8 10 10 2 10 8 10 10 10 10 10 2 10 10 8 2 10 10 8 10 10 8 8 10 8 10 10 10 10 10 8 10 2 2 10 10 10 10 10 10 10 2 2 10 10 10 10
left_child=6 2 4 7 5 13 15 10 25 14 19 30 17 29 -7 18 20 55 22 35 -15 33 -1 24 31 26 27 58 -14 48 -12 60 38 54 -11 -4 -21 -18 39 -28 41 42 -40 -32 -23 -17 -37 -33 -2 -34 52 53 59 -52 -22 -13 57 -47 -5 -24 -9 -45
right_child=1 -3 3 8 -6 9 -8 23 -10 34 11 12 28 16 -16 45 37 -19 -20 36 21 44 50 -25 -26 -27 32 -29 -30 -31 43 47 49 -35 -36 46 -38 -39 40 -41 -42 -43 -44 61 -46 56 -48 -49 -50 -51 51 -53 -54 -55 -56 -57 -58 -59 -60 -61 -62 -63
leaf_value=-0.046030393096678196 -0.010240182373461432 0.053198894104025868 -0.010687174261894784 0.031861520701610767 0.043152355626564387 -0.044422725158833963 -0.045117531158005583 -0.024671839505951507 -0.042719505009846698 -0.016035078068626175 -0.041090479583426556 0.039174358046686585 -0.059553919426822845 0.059391714576330273 -0.010044843347025311 -0.0355296383428685 -0.033253842454872416 0.0025425693913288545 -0.033974397509537325 -0.040756818610564002 -0.0051864016914078973 0.064781490276211884 0.076199045689447575 -0.030660057909075125 -0.044489414177171199 -0.027326919629148447 0.070491382389731932 -0.054003815055097597 -0.0013082163720928015 0.018090712718633481 0.0079220581135443554 0.056233533795534987 -7.9445113039522318e-05 -0.0014936894990668385 0.038092544869698639 0.068584004654309569 0.026746503119095322 0.014188770948917368 -0.0093635670396436024 0.02234557318485483 -0.052483886108550128 0.030638141893364154 0.059174608816291045 -0.027234048241072631 -0.014284597965075186 -0.018849627528709785 -0.073555849635922141 -0.049213268755739975 -0.041925068490030304 0.03166918743755829 0.017993496860572399 0.020218086705365585 -0.017053392341727151 -0.039412867191498169 0.039317490498259923 -0.075544014046141 -0.0034848579455109656 -0.052273714322533242 -0.0013387140271833504 -0.0065654386322242242 0.019996986570352367 -2.6105448800572262e-05
leaf_weight=1396.7709384262562 8215.20121717453 9960.4069905281067 645.47527338564396 6375.6717961877584 4467.8925777822733 13269.977686151862 11764.52653311193 2437.2484770715237 1473.4003835469484 2129.8193433135748 2198.6560747027397 14481.919018134475 1530.0669480711222 2148.8902762085199 7318.3861907869577 11609.600913062692 3584.7718637138605 5145.2303912341595 3576.9864782094955 903.59159621596336 1562.2050960212946 515.39085566997528 1744.9016095548868 7583.3151410967112 1800.3458107858896 1250.6308161318302 1899.5962376892567 1429.5995079278946 3268.8206207156181 2816.3126876801252 18556.760517507792 2043.4061122089624 5346.9822871237993 3977.3322354853153 2235.3371441662312 4425.8290663063526 2677.3078975528479 2175.5924051105976 846.90881165862083 18249.8436011374 339.81276747584343 8819.4430230855942 12453.045252770185 5488.1959181129932 5975.2674427628517 18101.149406030774 150.18043297529221 294.26980777084827 4140.9805408418179 5601.2291282117367 1546.3072888255119 6368.8634199500084 963.76489740610123 3155.4267838597298 8553.0773941427469 198.2174961566925 9688.6938781738281 2539.6303998380899 3394.3329701572657 407.54005363583565 2114.956201761961 6805.7670865803957
leaf_count=5687 32257 38544 2533 24404 16959 55042 49780 9547 6023 8415 8915 54980 6199 8179 28874 47558 14437 19913 14554 3582 6015 1925 6531 30342 7298 5029 7365 5778 12577 10793 71157 7739 20540 15287 8432 17181 10176 8356 3267 69946 1349 33555 47236 21630 23361 73478 601 1187 16856 21249 5900 24280 3774 12772 32455 829 37855 10621 13103 1582 8062 26378
internal_value=0.00298661 0.0103101 0.00839714 0.0145886 -0.0043294 -0.00742117 -0.0204598 0.00564779 0.0255524 -0.0245259 0.0104907 0.00653703 0.0190872 0.00235373 -0.032203 -0.0157118 0.010865 0.0285201 -0.00207476 0.0363948 0.0175043 0.0131307 0.0052472 -0.0141349 0.000285003 0.0270765 0.0281273 0.0108376 -0.019881 -0.0136292 -0.00281368 0.0119859 0.0317427 0.0228654 0.011682 0.0546931 0.00971089 -0.0153348 0.0357456 0.0268851 0.0436945 0.0451725 0.0548099 -8.54972e-05 -0.00800468 -0.021942 0.0639165 0.0429561 -0.0208595 0.0161632 0.0102964 0.00291085 0.0365317 -0.020532 0.0324438 0.0376245 -0.0167407 -0.0229626 0.0203266 0.0605266 -0.0039176 -0.0121726
internal_weight=306141 233277 223316 150230 73086.4 68618.5 72864.2 82749.6 67480.5 24953.5 66476 57673.6 24624.3 43665 20588.4 61099.6 28492.5 19825.4 19160.6 8802.38 22732.2 20583.3 15583.6 16273.5 8690.23 66007.1 64756.5 11199.6 4798.89 15172.5 33049.4 6889.88 53556.9 14092.6 4365.16 5221.48 3580.9 5760.36 42608.6 20149.4 22459.2 22119.4 13300 30850.7 6490.66 41939.1 4576.01 2337.68 12356.2 10948.2 14186.8 11070.6 3116.21 4701.73 10115.3 14680.1 30329.5 20640.8 9770 2152.44 4552.2 12294
internal_count=1200229 905857 867313 579670 287643 270684 294372 320826 258844 100763 256651 222578 94498 169921 83916 244592 110015 75722 75080 34073 87222 79043 60526 64175 33833 252821 247792 43285 18776 59906 128080 26535 204507 53757 16847 20315 13758 22793 162718 77311 85407 84058 50503 119165 25286 169512 17782 8926 49113 41789 54839 42952 11887 18672 38470 55809 121954 84099 37507 8113 17609 48008
is_linear=0
shrinkage=0.05


Tree=11
num_leaves=63
num_cat=0
split_feature=29 173 199 173 144 152 29 170 200 172 174 201 6 199 170 200 199 174 199 165 199 172 201 199 172 199 173 200 199 174 173 199 201 201 174 173 172 173 174 172 201 173 200 173 173 200 172 170 172 174 199 173 130 201 173 172 201 172 38 8 170 200
split_gain=19352.7 8967.06 6091.24 4654.74 4134.35 3284.54 2741.39 2186.29 2059.7 2037.42 2692.62 2016.21 1989.93 1975.33 1842.18 1851.97 1502.69 1388.7 1841.72 1375.17 1270.82 2656.84 2181.71 1332.19 1263.1 1224.62 2577.04 2297.36 2466.01 4860.19 2040.71 2049.21 2226.21 2111.93 2030.01 1733.16 1680.56 1374.93 1347.03 1255.56 1759.13 1192.22 1182.43 1141.84 1141.49 1125.47 1088.25 1062.14 1015.8 1012.78 1004.97 1660.77 923.298 893.99 1217.16 889.932 875.85 857.423 849.574 814.72 813.301 805.292
threshold=0.033246539533138282 0.018742951564490799 0.20794978737831118 0.0153059926815331 8.0384497642517108 0.072581119835376753 0.021577058359980587 15.500000000000002 84.44339752197267 1.4131901264190676 -0.041304735466837876 0.62636917829513561 2.048149943351746 0.044040873646736152 5.5000000000000009 35.713146209716804 -0.079301435500383363 0.030610838904976848 -0.038528708741068833 84.17874908447267 -0.0079952976666390878 0.617058426141739 0.93962970376014721 -0.0497339479625225 -2.2277754545211788 -0.010070834308862684 -0.047366568818688386 56.460962295532234 -0.059875667095184319 -0.026672869920730587 -0.058068947866559022 -0.029393534176051613 1.0842214822769167 1.1617913842201235 0.010389237198978664 -0.042235914617776864 -1.9675106406211851 -0.033968094736337655 -0.038657013326883309 0.617058426141739 0.89682257175445568 -0.015097531024366615 56.460962295532234 0.0031742439605295662 -0.058068947866559022 56.183252334594734 -1.2260556817054746 1.0000000180025095e-35 -0.012070774449966846 -0.010837791487574576 -0.069096367806196199 0.031048356555402282 -0.11641692742705344 0.93962970376014721 -0.033968094736337655 2.31654965877533 0.92330175638198864 -0.78141444921493519 -0.57198232412338246 inf 1.0000000180025095e-35 49.678802490234382
decision_type=10 8 10 8 8 10 8 2 10 8 10 10 8 10 2 10 8 10 8 8 10 10 10 8 10 10 10 10 10 10 10 10 10 10 10 10 10 10 10 10 10 10 10 10 10 10 8 2 8 8 8 8 10 10 10 10 10 10 10 8 2 10
left_child=1 6 3 4 7 12 58 8 9 11 -11 -2 49 19 15 24 -17 18 -16 -3 22 -22 48 42 -8 27 -27 28 29 56 47 32 35 53 38 -32 -31 57 -28 -40 -41 -23 -24 -39 -26 -15 -25 -30 -18 -5 -14 -52 -7 -33 -55 -54 60 -38 -1 -29 -13 -36
right_child=2 13 -4 5 -6 52 14 -9 -10 10 -12 25 50 45 17 16 20 -19 -20 -21 21 41 23 46 44 26 34 59 30 36 31 33 -34 -35 61 -37 37 43 39 40 -42 -43 -44 -45 -46 -47 -48 -49 -50 -51 51 -53 55 54 -56 -57 -58 -59 -60 -61 -62 -63
leaf_value=-0.064993793055411253 -0.052881010364504877 -0.052801984577827858 0.054280931676761061 0.057213722676629358 0.032898127629309708 0.051119140859589643 -0.025963108033815019 -0.032359965131864087 -0.057157812814902564 -0.058414432512459674 0.004939352269124197 -0.054779745262171546 -0.03239687660818473 -0.054933485492478833 -0.035662633995400171 0.045563011103015999 -0.043050161305652285 0.043070572167838272 -0.0039678318785081176 -0.027807665709485521 0.041564623613283273 0.020261816933116114 0.043993022336879795 -0.069719759845956353 -0.054452230119587691 -0.010910027693285909 -0.01179403455541134 -0.038160898621263227 -0.061548666080765591 -0.038742117715931022 0.031689924356264006 0.0465602256406858 0.065492460524570223 -0.04770411400220978 -0.051116746837763474 -0.019694825588488875 -0.045950104977446303 0.02997275608148749 0.057871553728595274 -0.0029512702355691807 0.04727590629854167 -0.026019102091346086 -0.079998577305786689 -0.0098767812157073785 0.0050758458017420363 0.014182047771018223 0.0060654762227488942 -0.0088604299984950136 -0.0046813693391619038 -0.034090768229374145 0.022912889866700877 -0.010998217012281899 0.020549767419976928 0.043046014141961714 0.00024794465635024249 -0.015906408859700624 0.063943428103512195 0.064254474944873949 -0.019088536643568101 0.014860320440311776 0.071575902856598275 0.010414139984674416
leaf_weight=1061.9085074961185 1027.846895262599 14636.084441289306 8521.6828762292862 313.44388262927532 26991.42326015234 1825.436160966754 6597.313825070858 2824.7515116482973 1059.5951641350985 1810.7833532691002 22708.355124428868 309.38709382712841 2570.1982101947069 768.98778785765171 7696.7769018560648 2915.6861250251532 3218.1343332082033 1020.7761467695236 11331.846153467894 8821.6570788919926 6698.6107044517994 2542.7363533377647 3585.2969477027655 511.0356355458498 864.16733844578266 3753.9899531751871 1140.3210621327162 2762.5667656362057 1266.9986874312162 1492.4584924727678 2038.0319241583347 5538.4245016425848 1087.1297854334116 898.98262360692024 706.87368778884411 8420.8949423581362 1194.598769530654 9798.977351307869 8350.133183375001 2667.0389942824841 5031.7539169639349 3073.2223886549473 203.05739477276802 2201.2151114195585 11806.750293239951 2515.4371476322412 6466.4076580405235 3903.86610417068 3718.5951220542192 9664.4307162761688 5676.9543911665678 9918.2262441217899 7412.151235461235 3009.8999507427216 3707.9999371618032 2162.1095064878464 7613.1191230863333 206.96696577966213 19829.27608962357 981.84751342236996 216.29042038321495 2145.1454569101334
leaf_count=4504 4345 64238 33512 1186 103182 6974 26342 11392 4490 7827 87319 1225 10312 3228 31272 11147 12819 3827 44551 36968 25234 9678 13612 2110 3552 14781 4384 11139 5396 5952 7732 21172 4071 3696 2779 32952 4672 37076 32111 10273 19207 12011 817 8541 45661 9808 24922 15361 14533 39430 21661 39307 28343 11479 14414 8638 30018 778 79485 3749 844 8190
internal_value=0.00285003 -0.0127976 0.0129937 0.0109993 0.0153648 -0.00411087 -0.00547024 0.0110576 0.0122034 0.0128969 0.000260136 0.0166998 -0.0132823 -0.038318 -0.000857562 0.00409034 0.0112941 -0.0137402 -0.0167883 -0.0434028 0.00796507 0.0202999 -0.000615318 0.0134742 -0.00822183 0.017589 0.0271078 0.0135905 0.0162693 0.0285629 0.00679014 0.0127695 -0.00260229 0.0262613 0.0342293 -0.00968128 0.0115841 0.0171892 0.0407112 0.0444423 0.0298756 -0.00506362 0.0373438 0.0226627 0.00101519 -0.00199974 0.000513246 -0.0217723 -0.0224828 -0.0312215 -0.00342825 0.00134584 0.0185308 0.0316873 0.0194244 0.0123164 0.0596334 -0.0296694 -0.0214225 -0.0242565 -0.00277738 -0.00483581
internal_weight=304816 119884 184932 176411 136868 39543 93141.6 109876 107051 105992 24519.1 81472.8 28143.3 26742.2 72250.4 52201 32932.8 20049.4 19028.6 23457.7 30017.1 12314.6 17702.5 10765.8 19268.2 80444.9 23795.3 56649.7 52905.2 23033 29872.2 24701.4 11546.1 13155.3 20041.3 10458.9 14894.2 13401.8 17189.2 16048.9 7698.79 5615.96 3788.35 12000.2 12670.9 3284.42 6977.44 5170.86 6936.73 9977.87 18165.4 15595.2 11399.7 12256.3 6717.9 9574.26 8138.8 1401.57 20891.2 3744.41 525.678 2852.02
internal_count=1200229 480319 719910 686398 530547 155851 366077 427365 415973 411483 95146 316337 111896 114242 282088 202438 126883 79650 75823 101206 115736 46923 68813 41461 75555 311992 91725 220267 205379 89106 116273 95516 44755 50761 76944 40684 57019 51067 65975 61591 29480 21689 14429 45617 49213 13036 27032 20757 27352 40616 71280 60968 43955 47065 25893 36981 32087 5450 83989 14888 2069 10969
is_linear=0
shrinkage=0.05


Tree=12
num_leaves=63
num_cat=2
split_feature=29 29 199 196 12 172 170 170 171 6 174 144 199 199 201 172 197 174 174 172 201 199 171 199 172 171 172 170 174 6 199 172 199 199 197 171 174 174 197 197 201 196 199 199 172 199 202 201 199 110 199 174 172 199 199 174 199 202 171 172 174 3
split_gain=17686.3 5567.28 5069.55 6040.38 3060.09 3684.24 2643.79 2510.21 2143.36 2048.85 2033.99 2013.22 1564.18 2157.08 2377.6 2054.54 2133.25 1842.28 1831.38 1803.87 1732.34 1483.67 1444.46 1442.45 1374.53 1508.4 1350.49 1350.49 1307.68 1282.88 1186.16 1163.07 3281.05 3236.18 1105.66 1087.08 1204.25 1082.16 1049.97 1017.24 1005.12 1014.87 1085.38 987.773 969.612 1465.97 958.915 913.95 914.966 883.329 842.872 834.747 839.447 830.598 828.341 814.092 811.835 808.517 794.441 761.075 819.445 754.411
threshold=0.036531275138258941 0.024221249856054786 0.20794978737831118 2.5000000000000004 0.077727664262056365 -0.80639457702636708 7.5000000000000009 16.500000000000004 0.77893629670143139 2.2634500265121464 -0.0065478347241878501 15.314949989318849 0.14092477411031726 -0.0079952976666390878 1.0051907300949099 -0.88817018270492543 0.037026284262537963 1.0000000180025095e-35 -0.056185171008110039 0.617058426141739 0.74433961510658275 -0.018216993659734722 -2.9452551603317256 0.18468507379293445 -1.2260556817054746 -1.0602366924285886 -2.9674924612045284 3.5000000000000004 -0.0071679519023746243 2.1516499519348149 0.16256699711084369 -0.91280293464660633 -0.017221948131918904 -0.047553513199090951 -0.032857911661267274 -1.3849194049835203 0.010389237198978664 -0.029600340873003003 -0.0074960992205888024 0.014997170306742193 0.75460737943649303 2.5000000000000004 -0.010070834308862684 0.23376377671957019 -0.93084570765495289 -0.047553513199090951 0 0.95403131842613231 -0.081150043755769716 0.32394966483116155 -0.075890995562076555 0.01682193856686354 0.11400947719812395 -0.0060232498217374078 -0.036944977939128869 -0.046875823289155953 -0.038528708741068833 1 -0.55898952484130848 -1.4080901145935056 -0.0015755179338157175 5605774.0000000009
decision_type=10 10 10 2 10 10 2 2 2 8 10 8 10 10 10 10 10 10 10 10 10 10 2 10 10 2 8 2 8 10 10 10 10 10 10 2 10 10 10 10 10 2 10 10 10 10 9 10 10 8 10 10 10 10 10 8 8 9 2 8 8 2
left_child=1 8 3 4 5 21 10 11 28 50 31 12 13 15 -15 18 17 20 27 -14 -17 -2 -12 -21 56 38 -20 -5 44 43 -27 32 -3 -33 -11 -16 39 -34 54 -37 -35 42 -42 59 53 61 -30 -48 -49 -28 -7 52 -50 -1 -26 -6 -8 -38 -25 60 -24 -46
right_child=2 6 -4 7 55 9 24 -9 -10 34 22 -13 19 14 35 16 -18 -19 26 23 -22 -23 29 58 25 30 49 -29 46 -31 -32 33 37 40 -36 36 57 -39 -40 -41 41 -43 -44 -45 45 -47 47 48 51 -51 -52 -53 -54 -55 -56 -57 -58 -59 -60 -61 -62 -63
leaf_value=-0.032598441369575085 0.0039485223438627945 -0.014610842619290236 0.054512319505687405 0.070612771042695546 -0.037989393816336134 0.073628200034058205 -0.049913698842573413 -0.038886286359496591 -0.044616653100847253 -0.059919279190150471 -0.052318762599893077 0.038071498786176973 0.065938581511770594 0.04472546663254176 -0.036360948259704338 -0.066387024166183431 -0.044862278374648512 0.0079390490531319052 0.067209871723615339 -0.038320787330287376 0.047012487758627139 0.038019976638471911 -0.053213400029857687 0.047328845511811261 0.0070464089269815155 -0.034133418890081146 -0.0063921679294895633 -0.022498226780959765 -0.037348323429577439 0.0044240345472838366 0.037752141190869344 0.055715309876836407 -0.041947982930491221 -0.063923977953498828 -0.0019320540776163978 0.054664754642803598 0.018427574274746086 0.050751656373588722 -0.0093881501999735131 0.013472452062643983 -0.055710820387165343 0.020623879690364211 0.0054071773887465775 0.04182280637380318 0.065827235664845649 -0.0045783417489840645 -0.027365925705927486 -0.022412225123889514 0.035420489897754266 0.010872271329223261 -0.034307996313641904 -0.025424985482129254 -0.023710571504354509 0.030417947749369775 0.067008408751271994 0.035366546124037918 -0.016410927218975548 -0.038022463097166496 -0.016027869675043927 -0.017192562065676122 0.021978117371544609 -0.035984084196164258
leaf_weight=3227.45813344419 15144.303459718823 9474.2310179919004 7477.0928749740124 1755.2871612161398 402.92324569821358 183.51349884271622 4489.1616428345442 1790.3957494795322 9737.2990296334028 871.5186675041914 1560.7443238049746 14429.112121209502 741.28196457028389 14610.274103879929 1007.1268275380135 347.49289001524448 958.14757297933102 5416.7970903664827 804.18172927200794 3180.8112241327763 10810.09508895874 4049.6480754315853 427.00989148020744 1001.9099927544594 1186.3581255674362 5138.4503010809422 16102.357061237097 500.3073892146349 8970.1935148090124 25070.98480065167 645.84847863018513 4687.3967063724995 348.8783368319273 491.59334722161293 14459.090379714966 2539.5679785013199 1226.9793017953634 3214.1876092106104 2801.2248017638922 3658.0103845745325 1029.3822809755802 6724.2616968899965 2467.1070670485497 828.12910620868206 1327.0635803490877 4560.8999464213848 10948.265601798892 4354.8389884382486 2670.3809030354023 13722.915988788009 12022.425729811192 1260.2529535293579 774.03721250593662 623.84085413813591 1119.7759249210358 6134.6969245970249 3028.8519609719515 1294.5491741597652 977.20450730621815 19980.997786730528 2388.7610066831112 210.72766338288784
leaf_count=13134 58750 37146 29888 7149 1640 750 18909 7401 42336 3692 6599 55263 2902 56385 3946 1465 3988 20856 3122 12728 41970 15663 1714 3757 4547 21142 62475 1981 37182 97558 2491 18432 1407 2096 57275 9778 4674 12213 10953 14066 4259 25733 9538 3172 4957 18000 45734 17818 10202 52562 49762 5230 3090 2359 4226 23491 12185 5074 3812 79689 9090 823
