tree
version=v4
num_class=1
num_tree_per_iteration=1
label_index=0
max_feature_idx=202
objective=binary sigmoid:1
feature_names=adx winner_rate holder_pct total_mv pe pe_ttm pb market_score_adj mf_divergence mf_strength mf_consecutive ma_ratio_5 ma_ratio_10 ma_ratio_20 ma_ratio_60 ma_ratio_120 ma5_ma20 ma20_ma60 macd macd_signal macd_hist rsi_6 rsi_14 rsi_24 kdj_k kdj_d kdj_j boll_pct boll_width atr_pct bias_5 bias_10 bias_20 roc_10 roc_20 cci_14 wr_14 mfi_14 trix vol_ratio_5 vol_ratio_20 amplitude amount_ratio_20 vol_price_match obv obv_diff_20 cdl2crows cdl3blackcrows cdl3inside cdl3linestrike cdl3outside cdl3starsinsouth cdl3whitesoldiers cdlabandonedbaby cdladvanceblock cdlbelthold cdlbreakaway cdlclosingmarubozu cdlconcealbabyswall cdlcounterattack cdldarkcloudcover cdldoji cdldojistar cdldragonflydoji cdlengulfing cdleveningdojistar cdleveningstar cdlgapsidesidewhite cdlgravestonedoji cdlhammer cdlhangingman cdlharami cdlharamicross cdlhighwave cdlhikkake cdlhikkakemod cdlhomingpigeon cdlidentical3crows cdlinneck cdlinvertedhammer cdlkicking cdlkickingbylength cdlladderbottom cdllongleggeddoji cdllongline cdlmarubozu cdlmatchinglow cdlmathold cdlmorningdojistar cdlmorningstar cdlonneck cdlpiercing cdlrickshawman cdlrisefall3methods cdlseparatinglines cdlshootingstar cdlshortline cdlspinningtop cdlstalledpattern cdlsticksandwich cdltakuri cdltasukigap cdlthrusting cdltristar cdlunique3river cdlupsidegap2crows cdlxsidegap3methods lr_slope_20 lr_slope_60 lr_angle_20 channel_pos_60 lr_r2_60 break_high_20 break_high_60 break_low_20 gap_up gap_down limit_up limit_consec volume_spike_up volume_spike_dn k_kmid k_klen k_kmid2 k_kup k_kup2 k_klow k_klow2 k_ksft k_ksft2 qtlu_20 qtld_20 rank_20 rsv_20 imax_20 imin_20 imxd_20 corr_close_vol_20 cord_ret_vol_20 cntp_20 cntn_20 cntd_20 sump_20 sumn_20 sumd_20 vma_20 vstd_20 wvma_20 aroon_up aroon_dn aroon_osc kama_20 kama_dist sar_signal cmo_14 bop ppo apo ad adosc natr_14 stochrsi_k stochrsi_d ht_trendmode amount_1d amount_5d_avg amount_20d_avg amount_log amount_zscore_60d amount_breakout regime_days_in regime_intensity hs300_ret60_z60 cyb_rel_strength zz500_rel_strength sm_net_5d mid_net_5d lg_net_5d elg_net_5d main_net_5d lg_net_20d elg_net_20d main_net_20d main_consec_in main_consec_out dispersion_5d elg_ratio_5d buy_sell_imb_5d upward_impact_per_amount range_per_amount_5d amihud_illiq_5d kyle_lambda_20d tail_risk_5d range_compression drawdown_recovery price_impact_asym regime_id mkt_ret_5d mkt_ret_20d mkt_ret_60d mkt_rsi14 mkt_vol_ratio industry_id
feature_infos=[-8:10] [-10:12] [-6:8] [34102:246633129.90560001] [1.0375000000000001:5343.1971000000003] [1.1429:305727.0797] [0.18010000000000001:3182.3728000000001] [-5:2] [-12:8] [-10:10] [0:5] [-0.5375282243804238:0.54424133677245701] [-0.51263563780227339:1.0476045163259076] [-0.5019610284504763:1.6686291427701367] [-0.68623796210003107:3.7071774548656977] [-0.70568951701027172:5.1273912731962454] [-0.45555417202783655:1.238339339186926] [-0.6101273687480584:1.2714428020197626] [-53.0573002615821:66.297670636859266] [-49.008639977543339:45.44821822967463] [-24.476374704156978:31.549289324127443] [0:100] [3.1008463108644677:99.518413597733712] [5.9658561510023871:96.907356978410036] [-9.355479354174652e-14:100.00000000000016] [-8.4870382326900854e-15:100.00000000000018] [-61.411137289718084:164.66503267973863] [-0.58178124585466873:1.5869856564282412] [0.0093192133396114759:3.1504136948666752] [0.0062768005502224673:0.36665168427045308] [-0.5375282243804238:0.54424133677245701] [-0.51263563780227339:1.0476045163259076] [-0.5019610284504763:1.6686291427701367] [-62.109447791788305:393.24577861163226] [-64.171122994652407:809.78723404255322] [-466.66666666666856:466.66666666666447] [-99.999999999999986:0] [-3.8616286954017527e-13:100.00000000000016] [-3.8789306953127989:12.632706400404503] [0.01066789971545423:4.952359118727431] [0.0031473477046966374:11.605816799021882] [0:14.630681818181818] [0.0023462398739358902:12.394307195347883] [1:4] [-65725116.900000021:275923243.72000009] [-58602426.609999985:120582521.39999998] [-100:0] [-100:0] [-100:100] [-100:100] [-100:100] none [0:100] none [-100:0] [-100:100] none [-100:100] none [-100:100] [-100:0] [0:100] [-100:100] [0:100] [-100:100] [-100:0] [-100:0] [-100:100] [0:100] [0:100] [-100:0] [-100:100] [-100:100] [-100:100] [-200:200] [-200:200] [0:100] [-100:0] [-100:0] [0:100] none none [0:100] [0:100] [-100:100] [-100:100] [0:100] none [0:100] [0:100] [-100:0] [0:100] [0:100] [-100:100] [-100:100] [-100:0] [-100:100] [-100:100] [-100:0] [0:100] [0:100] [-100:100] [-100:0] [-100:100] [0:100] none [-100:100] [-12.052819548872163:18.771135338345978] [-5.7661600444567869:6.3171305918310701] [-85.257138762539071:86.950548383450993] [0:0.99999999999999623] [-152.84007164443386:0.9669480641546353] [0:1] [0:1] [0:1] [0:1] [0:1] [0:1] [0:11] [0:1] [0:1] [-0.22731818831261283:2.8484848484848198] [0:3.12121212121209] [-0.99999999999993783:0.9999999999999617] [0:0.60829268292679961] [0:0.99999999999955747] [0:0.20114942528731775] [0:0.99999999999991118] [-0.30237547892720085:2.5757575757575499] [-0.99999999999995692:0.99999999999997402] [-0.58539493293591638:1.3224688684353008] [-0.88355940130963517:1.0118024374599104] [0.050000000000000003:1] [0:0.99999999999999523] [0:19] [0:19] [-19:19] [-0.98230529721567816:0.99638505770722208] [-0.96272449568959184:0.97717560955502691] [0:18] [1:20] [-20:17] [0:406.41329999999999] [0.59499999999999997:119.4344] [-100.05030000000001:346.47749999999996] [117.803:19341765.809500001] [72.465927921155398:13171888.905186148] [133.97369065973109:23215711.128347494] [0:100] [0:100] [-100:100] [0.91162410610306321:1813.5306967396457] [-1.0191657626629433:0.44445493944048503] [-1:1] [-93.798307378271048:99.036827195467438] [-1:1] [-35.63082455573133:75.07663487738418] [-89.2853846153848:77.652307692306977] [-147141872.76308137:164263131.40250862] [-19452674.22098694:16621443.414268527] [0.62768005502224677:36.665168427045309] [0:100.00000000000001] [-2.5105843330190208e-13:100.00000000000024] [0:1] [0.012200000000000001:30405.691800000001] [0.051900000000000002:46030.3629] [0.091899999999999996:32915.587200000002] [0.0121:10.3224] [-2.7364000000000002:7.5397999999999996] [0:1] [0:20] [-5.0295728357595886:24.219086464329553] [-4.1243258261731075:4.8427350422176225] [-0.1049095681899167:0.33222557391029595] [-0.11083488597748514:0.097518923089558784] [-3.1224394000000002:10.4424843] [-1.6256785:10.416854399999998] [-2.8130054000000002:1.3327554999999998] [-20.986871200000007:3.6487238] [-20.859338599999997:4.3115636000000013] [-7.1950169000000006:2.7134184000000015] [-23.3455586:6.3259743999999998] [-30.179003800000011:5.4793036999999991] [0:22] [0:42] [-2:2] [-2:3] [-4.6049939321592878e-05:7.651857248680071e-05] [0:0.0036449999999999998] [0:0.0048659999999999997] [0:0.00049134999999999999] [-0.80649999999999999:0.99450000000000005] [-68.331000000000003:0] [0:6.8700000000000001] [0:18.978999999999999] [-0.0034589999999999998:0.0024239999999999999] [0:5] [-0.094008599422006234:0.26975366283700941] [-0.089900887675234076:0.28140590047058067] [-0.11990600166628373:0.2605765138808922] [9.3665835411471079:98.030634573303857] [0.58250289653193832:3.3435266367196155] -1:74:8:93:1:19:61:25:23:18:97:51:37:68:72:107:33:4:70:0:30:2:34:32:48:16:90:36:87:42:96:6:105:5:22:14:84:76:24:35:38:80:21:64:53:98:17:104:43:13:66:47:9:57:55:31:59:50:108:100:3:58:81:78:75:69:86:92:46:44:103:89:63:56:102:27:29:20:12:54:77:85:39:67:88:109:15:94:41:45:60:82:91:99:65:62:101:10:83:95:28:71:106:7:49:40:26:79:52:11
tree_sizes=14532 14568 14458 14567 14513 14637 14426 14381 14477 14397 14431 14522 14551 14481 14625 14555 14717 14551 14745 14504 14702 14417 14490 14494 14729 14837 14802 14817 14565 14756 14899 14849 14847 14530 14465 14738 14929 14495 14879 14791 14968 14894 14873 14817 15039 15000 14917 15077 14482 14511 15048 14934 15047 14531 14524 14942 15242 14535 14530 15219 14534 14953 15077 14563 14994 15082 15158 15117 15133 15387 14581 15105 15015 14553 15203 15214 15231 15120 15379 14513 14562 14588 15292 15092 15406 15300 15320 15235 14536 15267 15228 14573 15431 15350 15193 15294 15313 15367 15332 14504 14509 15327 15302 14563 14502 15412 15318 15284 15335 14614 15370 15375 14506 14600 15610 14599 14534 15415 15319 15387 14522 14509 14552 15351 15342 15511 15314 15210 15341 15421 15292 15276 14566 14483 15414 15388 15485 15501

Tree=0
num_leaves=127
num_cat=2
split_feature=29 173 15 173 197 196 170 172 201 199 174 172 174 199 196 199 170 172 173 199 199 174 31 8 200 199 171 170 174 172 199 170 201 173 192 29 197 170 157 171 201 14 200 174 197 200 199 174 199 170 170 172 201 170 172 173 174 199 199 171 174 172 172 171 172 199 171 174 174 197 197 172 172 174 172 165 201 200 172 8 199 173 171 172 174 129 197 174 173 172 173 201 200 172 200 196 170 197 109 202 200 196 201 199 201 173 29 197 171 172 199 199 171 3 202 31 196 197 172 199 192 197 171 172 170 172
split_gain=94980.6 31811.2 27375.5 27953.5 16627.5 11796.8 11988.7 11723.8 16302.2 13279.9 11516.2 10080.7 9341.31 8989.8 8841.32 12624.4 7668.33 7045.1 6936.15 6858.68 6361.52 6285.99 6009.71 7142.84 5765.07 5514.38 5359.66 5254.82 5106.2 5095.4 4836.81 4587.54 4390.94 4136.14 4115.57 4107.1 4005.99 3996.51 3953.02 3809.08 4247.8 3667.61 3564.65 3510.3 3494.82 3458.6 3453.1 3421.41 3113.29 3102.33 3092.48 3077.9 3062.02 3017.22 2990.48 2988.6 2982.9 3701.25 2859.23 2803.52 2518.67 2474.33 2458.1 2443.12 2592.52 3790.72 2412.07 3138.88 2361.95 2578.52 2236.13 2234.49 4307.35 2214.68 2200.55 2162.57 2104.59 2065.66 2102.87 2047.39 4026.97 2230.26 2019.31 1971.06 2625.6 1969.55 1960.49 1909.67 1902.07 1899.89 1842.82 1833.22 1778.16 1764.35 1728.6 1683.01 1750.94 1765.67 1675.04 1656.98 1611.52 1604.21 1574.35 1645.7 1546.61 1529.62 1490.77 1382.26 1482.87 1370.86 4646.3 2123.47 1735.03 1345.07 1313.21 1311.3 1294.98 1269.6 1262.04 1254.24 1250.89 1230.92 1227.39 1222.56 1323.61 1204.11
threshold=0.029933662453570521 0.018024211474545974 0.18128189425981658 0.015832230859587796 0.039294271624717554 1.5000000000000002 11.500000000000002 -0.86502480853604002 0.73557479635239542 -0.0058117524619627483 0.0058231327534685193 -1.3554495066725492 -0.057121694728770926 0.16183779575261517 2.5000000000000004 0.01806149742792618 5.5000000000000009 1.0013528437168373 -0.031226664925765309 0.21453891712006526 -0.067533679970640234 -0.0060755227786183355 0.075000946037993024 inf 35.891021883311105 -0.024460822159180658 0.080732885995633566 6.5000000000000009 0.0090585741070247101 -2.9674924754408001 -0.037992845674890967 3.5000000000000004 0.97772974785247235 1.0000000180025095e-35 -10.733499999999998 0.021448455685709942 0.0096889789051637382 16.500000000000004 0.77371794871795141 0.36746224659377719 0.80177942374995037 0.26195099184220266 62.800393380336452 0.0042027825205633871 -0.015931735759694695 44.970927364916278 -0.031556675155695484 0.011583647984710956 -0.0096914506311550058 3.5000000000000004 1.5000000000000002 -0.98364162102805064 0.85352454322684923 1.0000000180025095e-35 0.11400947761441757 -0.052565253488111745 -0.031182644791127808 -0.016802671647749731 -0.08716770567931241 -1.706604445984697 -0.018009221181855436 -0.2907385961545193 1.2372620103208383 -0.88114964099997295 0.63551703985030483 -0.0079275130503065321 1.0000000180025095e-35 -0.044272012099532569 -0.040686398516382442 0.0032111773658815017 -0.030887191681948919 1.847880701798102 2.3165496265891492 0.029977706510880723 1.3568173848433036 80.313750000000013 1.2723760969696254 25.711334861522804 1.0220694326776545 inf -0.033292545571238834 0.00081534000102312387 -0.45685865060172243 -0.47027702446994207 0.031132945824058848 0.49999999999904704 0.0054029867838752974 -0.011330141984747797 -0.045489703586241541 -0.45316228643996426 -0.012657143512067202 1.0914367764194035 68.820622903153321 1.7937704259674743 58.020207565651226 4.5000000000000009 4.5000000000000009 0.0043447278469761494 0.80338064514362628 0 41.240531047845757 4.5000000000000009 0.88637313797708406 -0.075194340767714904 1.2796712002152197 -0.045872926574923249 0.042321876492193176 0.011168253702248056 -0.45685865060172243 0.072267223752782564 -0.0058117524619627483 0.0060467395330304772 -0.014116199786620152 399864.53265000007 1 0.089896191662978367 2.5000000000000004 -0.010683014917581389 -0.34428800055624381 -0.00065969151750039357 -6.7824999999999998 -0.0076482202026476034 -0.52057813610481551 -0.67649182510891459 2.5000000000000004 0.74660374512305661
decision_type=10 8 10 8 10 2 2 10 10 10 10 8 10 10 2 8 2 10 10 10 8 10 10 8 10 10 2 2 10 8 10 2 10 10 2 8 10 2 8 2 10 10 10 10 10 10 10 10 10 2 2 8 10 2 10 10 10 10 10 2 10 10 10 2 10 10 2 10 10 10 8 8 10 10 10 8 10 10 8 8 10 10 2 10 10 2 10 8 10 10 10 10 10 10 10 2 2 10 10 9 10 2 10 10 10 10 10 10 2 10 10 10 2 2 9 10 2 10 8 8 2 10 2 10 2 10
left_child=1 16 3 4 5 11 7 9 -9 12 18 25 49 14 38 43 21 -15 55 33 53 24 23 30 77 32 36 -11 29 -14 -22 45 66 116 -3 102 46 60 71 40 117 59 104 -16 122 56 47 -18 -6 -7 94 -33 -17 -13 89 85 -31 98 100 -35 120 95 -42 73 65 79 67 -2 -32 -70 -40 -5 -73 -37 -64 87 101 -1 86 80 81 -65 -69 84 -49 -10 105 -36 -81 -48 -27 -62 93 -72 -30 96 97 -45 -58 -60 -26 -46 -23 -104 -25 -79 -53 108 -105 110 -101 112 -111 -51 -78 -19 -4 -20 -67 -28 -8 -54 -12 124 -57 -118
right_child=2 34 19 13 48 6 37 8 10 27 44 20 28 17 15 52 26 115 39 -21 22 35 -24 42 58 90 119 -29 50 31 68 51 -34 41 75 63 -38 -39 70 -41 62 -43 -44 61 76 -47 54 83 -50 113 -52 106 121 -55 -56 123 57 -59 99 -61 91 -63 74 64 -66 118 -68 82 69 -71 92 72 -74 -75 -76 -77 114 78 -80 88 -82 -83 -84 -85 -86 -87 -88 -89 -90 -91 -92 -93 -94 -95 -96 -97 -98 -99 -100 109 -102 -103 103 107 -106 -107 -108 -109 -110 111 -112 -113 -114 -115 -116 -117 125 -119 -120 -121 -122 -123 -124 -125 -126 -127
leaf_value=-0.16712193454329591 -0.18054675050258126 -0.078199335970364381 -0.056360184382993915 -0.17190682762789566 -0.16852047393000238 0.00020959963711858487 -0.085985241732990741 -0.1699886524716028 -0.035358817940502378 -0.02094888545810146 -0.10360647085468511 -0.0074951088086803452 -0.0084782152008209405 -0.17016010197234771 -0.073005768241128643 -0.13646159143830494 -0.15024905088612567 -0.052813804754466939 -0.065003208302737647 -0.0094181058592132105 -0.021376920332905114 -0.15793239936157313 -0.049986166892434139 -0.098637391756720358 -0.1313922027915406 -0.064217305519920789 -0.16853375350587307 -0.099368470828732902 -0.085096219236667173 -0.14390535947381547 -0.061689224270157349 -0.15078072144220303 -0.026326212168333418 -0.14258795073158553 -0.023861483119307844 -0.14313147506421325 -0.15855958372859319 -0.152818075272938 -0.17915348384536903 -0.072744412470380188 -0.021332641387922388 -0.044130804068259546 -0.038577842724758463 -0.089864683156693201 -0.034655162901533018 -0.056130043744061275 -0.093066429650761229 -0.13107997035502525 -0.093831467382307895 -0.044909515771578763 -0.052720615442820244 -0.12331706241292134 -0.080998251247808711 -0.096933699418225439 -0.1102438352009837 -0.018717281059056096 -0.10525698156045427 -0.020878054768891721 -0.10552868148676608 -0.076049771978620298 -0.087533805885711996 -0.073973224852611333 -0.13288614013673553 -0.059133523051811784 -0.14110308010484746 -0.17413469773134316 -0.14095361472086101 -0.10408785238290769 -0.17090744822816409 -0.13209432036827817 -0.10826425445239521 -0.092497540968886127 -0.15996841212009782 -0.089147477968822345 -0.045967921315948498 -0.14833321204479846 -0.060558596858941521 -0.12352652223402746 -0.14904035947751346 -0.062057861560183343 -0.16776579326677168 -0.13340660361207546 -0.049304057511945013 -0.038820097563197847 -0.065696981989145434 -0.12341162596867726 -0.17198652616682286 -0.17293830391929449 -0.12113555525997041 -0.013383925851407588 -0.024287372849566419 -0.023049683069128454 -0.13318905701916053 -0.049499284182180456 -0.17114823829038586 -0.086069653996503404 -0.15648953143944305 -0.13967288973468345 -0.07017575539560364 -0.12071519431735538 -0.020581441782356699 -0.073215224312283875 -0.14055867282473361 -0.13336091647499199 -0.14668584155665637 -0.070507446786505557 -0.087236168721078602 -0.14684264235022684 -0.072553529512587506 -0.025769425770254886 -0.037163378321171073 -0.10880281976451285 -0.071626509441138381 -0.16182935148059324 -0.12522957490935713 -0.00027592394457771896 -0.022726634267275087 -0.12077434610816994 -0.048853300142413028 -0.13178589061062349 -0.13470572935530006 -0.033411252609271344 -0.16305171842187954 -7.7188055134139177e-05 -0.10712911697436744 -0.060990370819839039
leaf_weight=1753.7995949238539 810.70607306063175 1481.9207920581102 6715.3937682658434 8283.4545031189919 5716.5571676939726 4003.8629806041718 1929.730423271656 2799.8441008776426 2882.8420952409506 12558.648926913738 3731.0908987671137 2298.7489757835865 1511.648374825716 1233.5735064446926 3253.9537719786167 973.43864844739437 6102.0462787598372 4662.5237718522549 3394.3042781800032 10206.837629452348 852.65688386559486 4806.0646494626999 3724.6245418488979 16836.740257263184 366.85048466920853 5073.6675583124161 8390.1369917243719 2573.9265722185373 9359.5909511297941 3137.6518513560295 850.83000518381596 6099.2409233301878 2300.5212630480528 1796.9447236359119 216.48801839351654 6503.2897582352161 4821.6253110170364 3903.3349114060402 1190.4972979575396 11874.932347074151 18098.980844751 9358.1146499067545 2390.674548625946 2641.3621483892202 4420.3853846788406 6029.6845939457417 1198.9903036653996 4877.140208363533 1845.5221667289734 535.2738216817379 11897.032559722662 6279.1953956782818 1696.3790973722935 1598.9602221995592 3507.7962289452553 1964.5190248191357 15875.372493758798 1697.8766055852175 5312.3699055016041 13293.824741452932 6084.2576841562986 1841.8547216504812 850.16383908689022 6662.5865217298269 3127.5170207321644 209.56950017809868 2947.5724039375782 3329.1344274133444 6925.1737201064825 11202.120952025056 3929.3375600278378 3567.3560498058796 7020.0915783643723 2683.6806689947844 5070.7395061701536 15800.308037191629 1192.3797496259212 1927.7606296539307 2370.8785745501518 1539.6550562828779 1227.892980709672 1191.3207077980042 3399.3870907872915 1108.4434614032507 2240.8071830123663 814.3353925049305 739.66020040214062 26218.127586320043 11828.277857422829 1989.6742929369211 6714.9160280376673 1345.9900907725096 3784.1589360237122 1892.2858248203993 622.29318909347057 1605.0691921263933 7916.9610721617937 5450.4754913598299 4330.7982497662306 4582.1892864704132 3097.5578263700008 6921.5284237265587 7357.2842154204845 1470.1406774967909 1859.7211973816156 4620.9331261068583 5261.4280508160591 1521.1518798023462 3151.9275280088186 3762.0977181941271 2612.5144032388926 1955.982217758894 4567.6567924320698 454.97294881939888 2251.7669121623039 1594.0886507183313 11410.508315056562 1458.8873129785061 4863.8424686789513 3211.7442133128643 4151.0328770428896 6838.8390888869762 1131.7289441376925 15353.320330455899 539.45087006688118 2508.999778598547
leaf_count=6948 3232 5626 25222 32890 22662 14617 7354 11107 10715 46342 14341 8425 5543 4894 12322 3801 23983 17481 12803 37445 3147 18958 13945 64559 1429 19130 33261 9873 35653 12295 3204 23978 8512 7037 800 25474 19025 15360 4743 44962 66799 34935 8900 10085 16424 22644 4585 18995 7060 1999 44603 24365 6449 6126 13526 7241 61068 6265 20438 50416 23204 6978 3314 25058 12239 833 11534 12799 27484 43650 15137 13638 27718 10243 18947 62044 4487 7481 9313 5799 4866 4645 12723 4127 8455 3160 2937 104151 45849 7314 24820 4972 14753 7083 2470 6117 31208 21315 16377 17758 11428 26213 28784 5732 7297 17477 20063 5969 11933 13916 9719 7537 17285 1798 8746 5821 42143 5654 18200 12513 16195 25394 4475 56059 2077 9445
internal_value=-0.0925896 -0.123085 -0.0790881 -0.0843305 -0.0771772 -0.0751104 -0.0686709 -0.0647759 -0.0513512 -0.0771123 -0.0472979 -0.092231 -0.0855182 -0.112693 -0.118955 -0.10082 -0.110943 -0.0609581 -0.0367719 -0.0464294 -0.105441 -0.103445 -0.11079 -0.116325 -0.0875341 -0.0661392 -0.130128 -0.0342877 -0.0900988 -0.098881 -0.137867 -0.101687 -0.0888805 -0.054809 -0.160096 -0.113753 -0.117455 -0.108255 -0.138649 -0.0489061 -0.0391021 -0.0687228 -0.0960663 -0.121072 -0.080674 -0.0901254 -0.108028 -0.121881 -0.150292 -0.0193882 -0.0699392 -0.122051 -0.0524507 -0.0441833 -0.0783881 -0.0138332 -0.098311 -0.0917798 -0.0746382 -0.0839734 -0.0953806 -0.129112 -0.0304815 -0.104745 -0.0979656 -0.0930639 -0.102603 -0.08761 -0.143101 -0.146923 -0.114519 -0.152455 -0.137234 -0.127361 -0.0584495 -0.162969 -0.068581 -0.117202 -0.108137 -0.101885 -0.0835659 -0.0704006 -0.0764104 -0.100837 -0.110496 -0.0547547 -0.094832 -0.171717 -0.114331 -0.0433432 -0.0414719 -0.075851 -0.106507 -0.0891634 -0.0904621 -0.134878 -0.139772 -0.123414 -0.0977377 -0.0810712 -0.0323174 -0.058186 -0.133356 -0.124607 -0.103417 -0.0861158 -0.106867 -0.105501 -0.091896 -0.0736473 -0.0903764 -0.061923 -0.0509141 -0.0986248 -0.102811 -0.0394258 -0.0383238 -0.0817694 -0.0540307 -0.158362 -0.119244 -0.0428683 -0.117443 -0.00536134 -0.0377662 -0.029623
internal_weight=576718 176980 399739 344448 275072 267510 194394 176980 84751.2 92228.5 81951.4 73116.2 77095.9 69375.7 61885.5 32218.3 133263 7490.19 62302.5 55290.6 48540.3 95814.5 44642.5 40917.9 37670.3 24575.9 37448.4 15132.6 72101.8 50222.9 19830.8 48711.2 12787.3 45083.8 43716.8 58144.2 25846.5 17414.3 29667.2 40748 28873.1 24448.9 21087.1 22709.7 19648.9 31071.4 21024.9 14328.4 7562.08 4994.11 21878.9 17639.9 9508.66 3897.71 6696.46 21554.5 25041.7 21904 26257.2 15090.8 13511 19455.7 24019.9 39837.6 30650.7 27523.1 10486.8 7539.23 18978.1 18127.3 10796.3 18870.9 10587.4 9186.97 5920.9 42234.9 14786.1 11413 9659.23 22449.7 9081.8 7853.91 6728.52 8226.39 7117.95 3697.18 7288.35 26434.6 13367.9 3188.66 11788.6 7430.25 9605.78 5821.62 9981.88 17613.9 16008.8 8091.84 20206.2 22792.8 3464.41 11341.9 18306.6 13500.5 18696.5 6548.69 11540.6 6143.22 4622.07 17480.4 7194.7 10285.7 8329.75 990.247 3444.15 6256.61 20634.9 4853.19 5073.41 11601.9 6080.76 8535.22 4862.82 17857.3 2503.97 13919.5
internal_count=2204894 686653 1518241 1311598 1043771 1014049 734562 667477 317524 349953 306417 279487 293738 267827 239631 123669 514032 28196 231731 206643 186737 368248 172186 158241 143666 92750 145784 56215 275324 192598 77485 187055 48800 169198 172621 224582 100010 67085 115962 152479 107517 92388 80756 88025 74686 118649 80985 55560 29722 18414 82726 68406 35644 14551 25425 79252 96005 83710 99510 57453 51725 75703 89060 153206 117489 105250 40288 28754 74338 71134 41716 74246 41356 35717 22261 166995 55870 44156 37208 86217 34569 29703 25522 31577 27450 13875 27895 104951 51648 11899 43950 28176 36973 22220 38123 68725 62608 31400 77445 86653 12857 42637 71376 52418 71856 24958 44428 23634 17665 66215 27477 38738 31201 3797 13233 23302 76810 18457 19033 45774 23549 31843 18816 65377 9318 51588
cat_boundaries=0 4 8
cat_threshold=620888256 3315730696 3576463508 9760 34734353 675549248 536936704 8202
is_linear=0
shrinkage=1


Tree=1
num_leaves=127
num_cat=2
split_feature=160 173 199 173 197 32 198 170 160 174 198 172 171 174 198 199 200 199 197 200 19 199 192 170 198 174 174 199 201 173 198 18 199 199 171 174 198 131 18 171 173 172 173 199 171 199 170 171 172 198 199 174 199 198 172 199 199 199 199 198 173 174 171 167 172 170 198 171 197 144 174 172 15 172 201 199 171 202 172 199 3 199 201 199 172 173 172 199 197 174 174 6 174 200 199 197 172 199 198 198 200 200 172 199 200 170 199 198 173 197 172 202 170 200 170 15 172 171 173 170 201 197 170 3 171 142
split_gain=86449.7 32672 23003.4 20870.5 15891.5 11813.4 11385 15379.3 9275.62 8710.93 13993.5 9009.09 8059.53 8020.33 7964.19 8823.54 10206.2 7310.74 6813.79 6062.57 5880.08 5104.35 4949.54 4882.8 6873.2 4841.34 4782.97 4737.57 4697.38 4576.61 4565.81 4139.79 3938.8 3914.02 3763.28 3654.96 3591.03 3578.09 3505.03 3426.3 3176.17 3135.35 3129.44 3040.71 3040.11 3022.28 2939.45 2953.32 2893.46 2886.21 2827.28 2813.5 2793.39 2789.47 2751.4 2688.16 2652.49 2650.11 2506.08 2487.34 2841.87 2405.07 2819.43 2311.86 2233.19 2098.54 2054.35 2048.85 2032.73 2010.25 1999.21 1990.17 1942.14 1910.57 2142.85 1876.49 1872.82 1803.93 1768.19 1872.44 1765.37 1761.04 1757.55 1902.08 1908.11 1757.3 2312.39 1750.37 1740.42 1722.51 1720.09 1715.56 1672.32 1631.42 1605.1 1592.71 1575.14 1573.49 1571.37 1563.61 1557.59 1528.29 1524.86 1507.75 1502.72 1500.74 1483.76 1465.33 1460.67 1430.77 1430.05 1315.95 1286.55 1283.61 1291.5 1262.63 1252.14 1588.62 1339.67 1236.4 1205.2 1330.32 1308.56 1188.55 1183.6 1182.3
threshold=3.1803382758774466 0.018024211474545974 0.21453891712006526 0.015832230859587796 0.039294271624717554 0.12387859592902807 -0.045068212838153925 6.5000000000000009 2.3393150324981109 -0.02642238059352375 -0.016467583537436267 0.61705842601637728 -0.87319145794834563 0.012821237139432508 0.070080516644312821 0.01510441277075736 50.625848830064449 -0.05584907177609582 -0.011245120520182781 52.788536710011563 0.021358307005729948 0.063627140334645574 -12.405999999999997 5.5000000000000009 -0.045068212838153925 -0.02642238059352375 0.012821237139432508 -0.047362396224030649 0.91088667092669484 -0.093448641350924996 0.019376632924174134 0.090850019915102567 0.15393300336512386 -0.012897185593761793 -0.24989594580880789 0.0011805980320438449 -0.040085876671661684 -0.073008299995814138 0.2904688215302294 0.080732885995633566 -0.016755510494056432 -1.9012272142335698 -0.029656955621599198 -0.00065969151750039357 -0.66251669035532468 -0.0096914506311550058 5.5000000000000009 -1.0048273068581368 -1.3652587068811504 0.0022085478072878533 -0.085997119961588805 -0.0060755227786183355 0.044040874038738471 0.0049333000660845014 -1.8107659272053038 -0.051148594984851074 -0.037161110422736558 0.15393300336512386 -0.02974492606495965 -0.065012736225298615 -0.074175363564688609 -0.032946558848362666 -1.3894858043837919 4.5899500000000009 -1.9675106859613163 14.500000000000002 -0.021997750500278742 -2.5878762040009371 -0.013769612544277663 25.130900000000004 1.0000000180025095e-35 -0.47027702446994207 -0.033602582861413481 -1.1326277468381818 0.91056128158142891 -0.023329807050843695 0.24470757275143254 0 1.3568173848433036 0.01510441277075736 332640.49310000002 -0.059116933062551273 0.89461478201410083 -0.075194340767714904 0.22258530870868456 1.0000000180025095e-35 0.011484383118237131 -0.091158511974270925 0.012445634525259599 0.031132945824058848 -0.020807252137024498 2.1390500000000006 0.017701207701122715 47.699667358807282 0.084996667091384773 -0.0073489777217841659 -1.177195568842756 -0.074555956121693953 0.066010471665942885 0.014758610280763309 48.388974535821454 56.345612628254308 1.0062534518476898 0.0029516044553958847 47.139477047250487 3.5000000000000004 -0.00065969151750039357 0.012768785039079746 0.022545805517626253 -0.0088306578511654337 1.3286315621575759 1 3.5000000000000004 33.354251338478157 3.5000000000000004 0.16605808989458873 -1.4238853940348497 0.42640237933454289 -0.048110436002719241 4.5000000000000009 0.79205970633854406 -0.007496099117805465 9.5000000000000018 361950.21635000006 0.41458704695587217 31.351450000000003
decision_type=10 8 10 8 10 10 10 2 8 10 10 8 2 10 10 10 10 10 10 10 8 8 2 2 10 10 10 10 10 10 10 8 10 10 2 8 10 10 8 2 10 8 10 8 2 10 2 2 10 10 10 10 10 10 8 8 10 10 10 10 10 10 2 8 10 2 10 2 10 8 10 10 8 10 10 10 2 9 10 10 2 8 10 10 10 10 10 10 10 10 10 8 10 10 8 10 10 10 8 10 10 10 10 10 10 2 8 10 10 8 10 9 2 10 2 8 8 2 10 2 10 10 2 2 2 10
left_child=1 8 3 4 6 14 13 9 46 17 19 33 18 29 15 35 105 53 56 28 42 58 -3 24 26 27 -10 -26 36 -2 54 34 69 70 59 -5 -11 -38 88 48 93 -20 -14 68 -23 -6 51 71 81 -18 -42 66 63 67 90 -21 -9 98 125 -31 -61 113 -63 -24 -15 120 87 119 -44 -16 -12 89 78 116 85 -62 -36 -51 79 109 -55 -25 -53 -84 112 86 -75 -1 96 -48 -27 -46 -28 -30 -32 99 -37 -39 -7 -60 102 -54 -22 -76 -99 -17 -41 -45 -98 -43 -81 -68 -85 -19 -115 -57 117 -56 -118 123 122 -122 -50 -8 -97 -13
right_child=2 22 -4 5 45 57 7 12 23 10 11 21 20 64 32 16 49 61 41 55 100 44 52 39 25 30 92 -29 40 31 94 -33 -34 -35 76 38 37 97 -40 106 50 72 43 107 91 -47 47 -49 65 77 -52 82 101 80 73 115 -58 -59 95 60 75 62 -64 -65 -66 -67 111 -69 -70 -71 -72 -73 -74 74 103 -77 -78 -79 -80 110 -82 -83 83 84 -86 -87 -88 -89 -90 -91 -92 -93 -94 -95 -96 124 108 104 -100 -101 -102 -103 -104 -105 -106 -107 -108 -109 -110 -111 -112 -113 -114 114 -116 -117 118 -119 -120 -121 121 -123 -124 -125 -126 -127
leaf_value=0.04743262918433791 0.093333104843982842 0.043433934369612175 0.07669316293739141 0.031461287071527108 -0.066283872979615369 0.045894535411665237 0.053856681551680476 -0.046939851355369419 -0.051975014152011126 0.049477566088982301 0.068644978683864863 -0.0017131543897633895 -0.049054098052210802 -0.0049682336082950166 -0.061838555673926522 -0.057101279232227797 -0.04274491185644913 -0.0014328806114133196 -0.075751708602620149 0.041111737699769196 0.021322244215234959 -0.046328036673978112 -0.071009095768238786 -0.069780424970084992 0.0793531004031343 -0.070711368762370969 0.056853754635047507 0.0010743301624311198 0.0044938081992344026 0.040417715151456667 0.051343240854493613 0.023810102221884261 0.0086054885082579389 0.078553607784647497 -0.065941784943560941 0.0047134451475541296 0.032998058635288173 0.014049227536641043 -0.00074631045048836691 -0.057268153722583121 0.010253313973958428 0.072071263139872638 -0.045229333434092696 0.057691264186528139 0.00077793433683020314 0.0068985502750586155 -0.054928939028207863 -0.067446505599263157 -0.034597770201706429 0.068442120476572443 0.056957205260892797 -0.050305189409071895 -0.070576730253888317 0.073694872018464738 0.026950129592125244 -0.063979744674012781 0.077904267499264004 0.078619761070608085 0.044788843289286985 -0.066698062051434484 -0.023608908637294323 -0.015705820721474122 0.079135362924696723 -0.04631230090444062 0.048681081884982408 -0.046319613324492574 -0.018422473382165107 0.094382267723327029 0.00021519689782253717 -0.015189078393699776 0.014018690296424033 0.010821488685316877 0.040034159492334673 -0.026197436084286704 0.033758061803929727 0.019156987696497388 -0.016580585824579608 0.027916325691267216 0.078506112874450432 -0.060219604169608136 -0.05994275377933328 -0.014668512007384031 -0.035841092546174243 0.012807367049547477 -0.06163085502803424 -0.058412768569458554 0.032920920022205959 -0.038277085718357959 -0.0583917260002959 0.015358648550128286 0.063743460788688339 0.030945007130425851 -0.009680355857041828 0.045160650586848448 0.0036368908502571237 0.079125456047305628 -0.074027315498016846 -0.030328639660055397 0.0043534987673388139 -0.03061217840963 0.0041337156990392107 -0.0033030619416069954 0.081890088740960765 -0.012115714696633195 0.013811709637911534 0.017872124008800862 -0.01128642089371315 -0.0090143636113686667 -0.025791992245041775 0.00063205769937935748 0.022755013856018129 0.024390186804411396 -0.049329403240297547 0.050480532667827649 0.010687771653717914 -0.0046293480951177454 0.019024266023291117 -0.055944299933826561 -0.023656609114326058 0.094984304610268938 0.04255938593124603 0.0043525265446246681 0.094323089441820496 -0.055870230381174724 0.050417264508139686 0.054296440542861625
leaf_weight=688.32420225441456 991.00822806358337 1200.2712698727846 16558.827398523688 3114.7413923293352 5751.0842418819666 4566.4931658804417 504.01413840055466 454.51657375693321 7773.9518088251352 3574.3160708844662 2761.4308590441942 3154.8684446662664 8241.6248003691435 2485.0273507535458 12410.505502790213 3394.9511524885893 831.85244289040565 3473.5143641233444 989.75985938310623 977.69866645336151 2977.826652109623 1839.4298503398895 29802.755635529757 2280.4253865778446 4922.6541232615709 264.6716383099556 1504.1685530841351 3182.6905552744865 10768.142809540033 2135.2034757435322 6836.4425514936447 5373.1168373078108 3107.2325054556131 21346.577656775713 6135.970691293478 2990.278565466404 4953.9078290909529 3644.8536948859692 9355.2945558130741 6375.4457461982965 4270.2546808868647 844.41661001741886 5244.9604447036982 2040.9928772002459 7135.714708417654 1869.1601363420486 4490.1990341246128 7493.8331199884415 1799.3954642862082 7526.3041866123676 13440.890156418085 7055.3478108793497 1147.7243092954159 460.37561573088169 3280.3055993616581 3720.5928906649351 6630.1530359089375 3114.0194276720285 3635.5024379193783 2420.7084318399429 6497.0502256453037 937.09433594346046 4781.1466854661703 13896.867676079273 8836.296213939786 1627.0376120656729 2448.793822452426 13975.803200438619 4634.9091400057077 2837.8331696242094 4257.6135867983103 2730.2868249416351 5314.2910362035036 3624.8079911768436 8205.9211275726557 4238.0435155928135 2798.3433633893728 4398.1936580687761 682.3924543261528 2016.4500738084316 533.26750999689102 3978.8096860051155 10206.74649168551 6715.2434220165014 1245.1972453594208 1544.2657555192709 3042.2166182100773 4419.8632578253746 6812.3599036931992 1081.4438229501247 2339.6807045787573 13881.658070206642 2537.3659480959177 3198.8471750915051 2376.2288974523544 7131.9356409013271 2068.6327923983335 11449.394761353731 4540.0358217358589 847.76586955785751 6302.8339283019304 3192.4305204004049 1596.4511636346579 2291.0857406556606 2318.4148741960526 830.6400243639946 2420.9686717391014 1379.625137090683 6507.4179802685976 4121.3715610653162 699.21380397677422 6660.4933184981346 950.90856598317623 5120.7817235291004 3388.8689872324467 1180.7018920779228 2081.6043213605881 701.46565230190754 15732.947298020124 526.91480265557766 4269.2055230438709 4886.1418757587671 220.88934315741062 483.38327704370022 7235.0287538170815 1343.2068513482809
leaf_count=2568 3608 4497 60843 11735 22887 17089 1875 1782 30634 13343 10194 12107 32443 9549 49218 13406 3258 13332 3949 3662 11298 7220 118862 9072 18083 1052 5591 12191 41158 8007 25481 20339 11853 78387 24367 11439 18658 13867 35900 25243 16285 3114 20596 7582 27300 7136 17731 29792 7034 27807 49941 27809 4570 1698 12391 14774 24347 11438 13586 9625 25196 3639 17546 54670 32984 6398 9470 50866 17759 10966 16193 10402 19952 14083 30889 16068 10819 16584 2505 7974 2105 15388 39908 25573 4927 6103 11462 17283 26970 4105 8666 52313 9773 11958 9095 26183 8249 44581 17370 3306 24108 12287 5851 8838 8823 3152 9347 5316 25317 15801 2652 25181 3741 19100 12907 4532 7899 2771 61078 1918 15995 18710 804 1912 26969 5001
internal_value=0.00467834 -0.0213339 0.0190917 0.0164 0.022868 -0.00636427 0.02489 0.0293209 -0.0101441 0.0366286 0.0310336 0.0457223 0.00608417 0.000951321 -0.0147039 -0.0039592 0.0249849 0.0592255 0.0296284 0.0137834 -0.00971335 0.0321051 -0.05685 -0.00101807 0.00583939 0.0126591 -0.0290376 0.0486167 0.0187185 -0.0123551 0.00708862 -0.0158942 -0.0427018 0.0679031 -0.0247008 -0.0198928 0.00294206 -0.00449457 -0.0256606 -0.0188011 0.0316374 0.0101794 -0.0248446 -0.00984259 0.0153083 -0.0483325 -0.0264026 -0.0446904 -0.00688892 0.0472944 0.045697 -0.0192505 -0.0593558 0.0831869 0.000260418 -0.0345829 0.0698936 0.0388022 0.0485479 -0.00963663 -0.0177611 0.0369118 0.0635921 -0.0631555 0.0369047 0.00673167 -0.00134527 0.0883963 -0.0239098 -0.0531572 0.0355111 -0.0241482 0.0163983 -0.00294255 0.00877851 -0.00672513 -0.0504821 0.0535763 0.0013794 -0.00547254 0.0019705 -0.034749 -0.0289764 -0.0211048 -0.00422552 -0.0103537 0.000778082 -0.0267261 -0.0383423 -0.0412853 0.0500752 0.0207031 0.0150817 0.0138083 0.039039 0.05655 -0.0265328 -0.0151616 0.0251852 0.0305294 0.0202536 -0.0210955 0.0424632 0.0237451 -0.0228953 -0.0423622 -0.0446138 0.0307862 -0.0374282 0.0127823 -0.0388539 0.012887 0.00509873 0.0241794 0.0346344 -0.0496839 -0.0130032 0.0123444 -0.0186691 0.0331454 0.0144561 0.0221695 -0.0204957 0.000134271 0.0646692 0.0150121
internal_weight=576450 205528 370922 354364 275957 78406.8 268336 226426 156287 172254 138069 74570.7 54171.8 41910.8 66186.2 47830.7 16981.9 34185.2 21752.6 63498 32419.2 46205.1 49240 100101 72242.5 60427 11815.5 8105.34 57619 30589.4 52321.6 29598.4 18355.6 28365.6 24225.3 30848.7 25940.9 22366.6 27734 27858.3 31678.1 14667.9 21542.1 13300.5 22856.8 7620.24 56186.7 15795.8 19061.9 12756.4 17711.1 40390.9 48039.8 16483.8 43109 5878.99 7084.67 12220.5 23348.3 15291 13155.8 17701.4 5718.24 43699.6 11321.3 12802.7 14217.5 15490.1 9879.87 15248.3 7019.04 8301.93 13678.1 40504.6 18708.3 10735.1 8934.31 11924.5 8363.84 7681.45 993.643 6259.24 26173.4 19118.1 8911.35 8211.29 6667.02 5108.19 18378.7 5571.64 2604.35 21017.4 4041.53 13967 9212.67 18850.2 11566.3 17412.7 9106.53 4483.27 10877.1 4340.15 4574.28 10497 13767.8 4225.59 8796.41 3420.62 8576.05 4965.79 2715.66 9109.29 7666.15 11983.2 8509.65 4901.29 21796.3 3981.77 17814.6 1514.31 11175.6 9155.35 2020.28 987.397 14367 4498.08
internal_count=2204894 797447 1407447 1346604 1044853 301751 1014830 854268 602561 647239 520341 278759 207029 160562 255854 183817 64207 126898 82076 241582 124953 173985 194886 384071 276080 230082 45998 30274 218614 118029 199808 114421 72037 104774 94082 119610 99272 85929 107875 107991 119342 55947 83696 51253 86833 30023 218490 62030 73401 47649 66226 156460 190389 60374 165232 22968 26129 45897 87152 58896 50889 66524 21185 173532 42533 48941 54502 56571 38355 60184 26387 32238 51998 155514 71375 41264 35186 44391 32046 29541 3803 24460 101958 74149 34241 31648 25545 19851 71975 21836 9718 79613 15364 53116 34576 70044 45005 67271 34459 16892 41257 16857 17149 39727 53404 16558 34590 12898 33566 18915 10626 34651 29314 45339 32007 19306 84139 15162 68977 5705 42543 34705 7838 3787 53152 17108
cat_boundaries=0 4 8
cat_threshold=3264483603 543948836 612435264 3 132225 3584229696 1412726932 544
is_linear=0
shrinkage=0.05


Tree=2
num_leaves=127
num_cat=0
split_feature=29 173 199 196 29 172 12 6 173 199 172 199 199 29 200 34 201 199 198 174 171 199 200 172 174 172 198 8 173 173 173 198 198 41 199 200 173 172 199 174 8 199 110 173 199 199 199 198 8 199 172 173 201 173 201 174 171 199 172 174 172 174 201 173 199 172 172 171 199 174 171 38 171 199 199 173 199 196 200 171 198 173 172 200 200 199 172 199 201 172 199 174 172 171 171 173 201 174 172 172 172 200 174 152 174 173 174 173 171 135 201 173 201 174 16 199 199 173 165 38 200 171 174 171 29 3
split_gain=78421 24328 22424.3 23855.5 16103.3 14810.3 15694.5 9692.47 9129.04 8131.31 6646.98 6167.12 5836.05 5676.76 5206.07 5069.65 4618.7 4435.26 4324.66 4305.79 3995.75 4382.26 9179.97 7452.71 5002.99 4025.57 3964.87 4505.07 5051.48 3668.15 3449.57 3875.14 3405.89 3277.06 3270.56 3160.74 3034.73 3077.48 2902.71 2734.03 2665.61 3747.46 4480.78 3616.46 2640.93 2442.79 2394.67 2362.29 2355.1 2850.9 2316.16 2144.8 2138.89 2259.16 2099.49 2058.01 2049.69 2043.65 1977.14 1976.17 2880.12 2806.25 1946.33 1938.81 1920.12 1916.95 1912.94 1902.3 1836.66 1814.9 1763.83 1741.51 1970.33 1724.64 1719.7 4144.77 1718.69 2429.98 1700.3 1657.59 1721.92 1656.91 1630.9 1602.72 1596.22 1849.28 1587.88 1585.18 1584.45 1553.42 1711.12 1613.09 1865.43 1545.93 1740.14 1523.78 1477.82 1467.28 1466.85 1516.66 1446.77 1513.3 1436.99 1429.54 1394.35 1383.32 1373.15 1331.98 1267.16 1258.72 1255.79 1250.88 1213.34 1234.56 1197.11 1183.33 1162.75 1157.63 1153.79 1133.05 1132.21 1124.01 1121.5 1156.2 1099.12 1088.95
threshold=0.028929471281961359 0.018024211474545974 0.21453891712006526 2.5000000000000004 0.040920185050055041 -1.3554495066725492 0.089896191662978367 2.3320500000000002 1.0000000180025095e-35 0.0051308941832309838 -0.86502480853604002 -0.0058117524619627483 -0.05349791630816008 0.021230076726357176 38.496690144283427 13.775800642837778 0.6178300761480594 -0.024460822159180658 -0.045068212838153925 0.0084841531789737207 1.159207474051547 0.063627140334645574 50.342728475002041 -0.15906527858193484 -0.046875822473857069 0.63551703985030483 0.023762767760590834 inf -0.0059862361373163578 -0.093448641350924996 0.010562048562059558 -0.0098219568211074231 -0.016868856713195431 0.041452021958933404 0.07001183667143597 32.967392697766009 -0.052565253488111745 -0.37515121234424026 -0.029393534103586413 -0.0011135707275133908 inf -0.047362396224030649 0.61198861411688665 0.019830105831178394 -0.022865440317200333 -0.0087248328235061661 0.0051308941832309838 0.0049333000660845014 inf 0.15614551793579293 -0.28345885895726636 0.025014809262132568 0.98634359417330708 -0.052565253488111745 1.0914367764194035 0.029977706510880723 -1.9985121819499327 -0.02974492606495965 0.74660374512305661 -0.032946558848362666 -1.0426335168632253 -0.026928148844717 0.79999870927376227 -0.091424882102736901 0.093249757176459572 -0.1652197912647623 -1.5697986950489999 -1.0355219115558854 0.16183779575261517 -0.013713953998417126 0.017908925856033878 -0.58426975629407008 0.80843789575143055 0.052534809432318148 -0.047362396224030649 0.019830105831178394 -0.026626814851722965 3.5000000000000004 52.01651790646855 -2.864444643642146 0.0049333000660845014 -0.012657143512067202 -2.2277755203183536 56.632825137833272 32.213990559853713 -0.078675933298450892 0.78458885465133765 0.15393300336512386 1.1284859923851132 -2.9674924754408001 -0.022865440317200333 -0.012799055069284302 -2.2277755203183536 -3.7361038875749992 -0.24586578364074627 -0.016256110709897794 0.84781529732718974 -0.011330141984747797 -1.9118146381868095 -0.41001455435776374 -0.39523491698999863 51.538723689283515 0.0082946466294871474 0.065065206184748856 0.022396468129462725 -0.02919522083207254 -0.021726350887289966 -0.050451469199219938 0.38256813410708529 18.500000000000004 1.2294189898783385 -0.031813367497560079 1.6965584936072668 -0.048283778049711949 -0.010018237008245277 -0.1082886692521947 -0.10018291399721095 0.10815181133750075 97.904550000000015 -0.61942729807100683 70.242475638613072 2.6764508663381386 0.029977706510880723 -2.4186061296643007 0.057869284099715528 4773115.0384500008
decision_type=10 8 10 2 10 8 10 8 10 8 10 10 10 8 10 10 10 10 10 10 2 10 10 10 10 10 10 8 10 8 10 10 10 2 10 10 10 10 10 10 8 10 8 10 8 10 8 10 8 10 8 10 10 10 10 10 2 10 10 10 10 10 10 10 8 10 10 2 10 10 2 10 2 10 10 10 8 2 10 2 10 10 8 10 10 10 8 10 8 8 8 10 8 2 2 10 10 8 10 10 10 10 10 10 10 10 10 10 2 10 10 10 8 8 10 10 8 10 8 10 10 2 10 2 10 2
left_child=1 13 3 5 8 17 7 29 10 50 11 19 79 71 -11 16 -6 18 -2 63 21 23 32 24 56 -24 27 28 36 -7 31 59 86 97 38 66 -15 93 54 73 41 43 109 -9 95 88 102 62 49 74 84 78 53 -40 -14 67 -18 111 -36 60 -26 -61 -25 -5 69 82 124 -30 112 -16 -69 -1 106 83 75 -31 108 -78 -27 -12 -81 -19 -63 -39 122 -86 -23 -44 -42 -65 91 115 -93 -38 100 -22 -49 -3 -96 -100 101 -95 -32 -76 -87 116 125 -92 -29 -43 -71 -33 113 -8 -50 -91 -84 -35 -99 -21 -80 -28 123 -10 -20 -73
right_child=2 33 -4 4 15 6 68 40 9 14 12 -13 34 26 64 -17 20 81 35 119 44 22 25 47 30 51 121 76 55 48 46 57 -34 117 58 -37 37 39 52 -41 45 42 87 -45 -46 -47 -48 96 114 -51 -52 -53 -54 -55 -56 -57 -58 -59 -60 61 -62 65 -64 89 -66 -67 -68 70 -70 110 -72 72 -74 -75 103 -77 77 -79 120 80 -82 -83 105 -85 85 104 -88 -89 -90 90 107 92 -94 94 98 -97 -98 118 99 -101 -102 -103 -104 -105 -106 -107 -108 -109 -110 -111 -112 -113 -114 -115 -116 -117 -118 -119 -120 -121 -122 -123 -124 -125 -126 -127
leaf_value=-0.07656220592345972 -0.037163321727187539 0.036036177095875109 0.071007291990943605 0.082909206036045333 -0.071009757471446736 0.094103484898578796 -0.033445418448635772 0.078229568848949937 -0.072951504859152236 -0.072047249032773084 -0.006968875486918844 0.056100686239515397 -0.010476423788444383 -0.036479366674972438 -0.050099287971864963 0.05394690005963753 0.0063874322766641753 0.029932239459846494 -0.038746537504801302 -0.010125918317500083 -0.055833791109193211 -0.0096882874642465772 0.084140056859434612 0.01961370061940133 -0.026002079652473101 0.069135156092473504 0.031787526727698655 -0.028520771462394252 -0.06141505921317994 0.068889422427832844 0.01993962606714858 0.077397082008974105 -0.061532970463865147 -0.023200844187899944 0.079718217304769023 0.058276488912846841 -0.04323112291923259 0.077780908758634582 -0.081487385174511553 0.0051289408735394025 0.0078513340524237318 -0.041224098898690192 -0.0080433864582574437 -0.071271461621790821 0.024638873969508979 0.040730820558745662 0.052559858978265442 0.082085442814364279 -0.031583071756074999 -0.0052304485588871774 0.012575079298635425 0.070034592595970835 0.017186020167877413 0.060024830468165438 0.060664446445130783 0.019102001724654243 0.088097653647256302 0.070476337604214512 -0.022445891112416391 0.071526590782038657 0.050259607325476165 -0.030062920773740315 0.084456902534154513 0.070373637661764257 -0.0010802059191428839 -0.071251033729877511 0.03544160135175977 -0.0019381747966421303 0.082031503968642713 0.043929694968654578 -0.049413356088742144 0.023143507929928295 -0.059516554465515029 0.005428244129176368 -0.05832957294817568 -0.08354138200482436 -0.040570627517846278 -0.0012415884527137893 -0.0025591364198844922 0.077577935352948213 -0.067484694058131262 0.066176315926791227 0.083637512486549992 -0.088389458866507176 -0.068137218393393553 -0.014239266937095938 0.087666353812508521 0.03272776461746555 -0.028347897593970779 0.053810531357275516 -0.039858947699963523 -0.06488220652153262 -0.0042590165588636932 0.02836898094710151 0.071181961897730503 -0.00055412147759636141 0.026375614965505129 -0.070469178771026195 -0.02983198035559952 0.078309625842448286 -0.056568526262329534 -0.054296595701778631 -0.024203318143516728 -0.028376128604241629 -0.048311661641165432 0.035260984336984567 -0.027071512129982257 0.020026063998221266 -0.062385024653048196 0.0045568930730768321 -0.03097828179535982 0.010884870015831204 -0.016538180678986075 0.047779111786290296 0.0045609340710602879 -0.046472795427453209 0.0026054261282775705 0.096049867263597752 -0.050843252812323263 0.029390363947518913 0.051571513681383033 -0.078637591473512791 0.033742807163748847 -0.0075526159931926422 0.019803512385893021 -0.043396756098795869
leaf_weight=1935.5359109938145 3635.0866910815239 365.58938191831112 17702.668627247214 509.80492244660854 1137.1016154289246 532.10869227349758 506.14784836769104 1867.2362418621778 871.73376789689064 1550.2298032641411 678.77389711141586 5278.6421533674002 5318.3125672489405 3023.3700028657913 590.97822730243206 25339.177837520838 914.71690601110458 5582.4775211364031 2510.6428463160992 2203.8346666395664 2243.9877444803715 1742.1509251594543 3253.2405547052622 1285.3416128903627 4137.4262200444937 1145.9862751960754 7143.1486306488514 9419.1342322826385 3898.7123811095953 953.94862674176693 2642.2449496239424 924.15580557286739 4367.1933236271143 4033.8058639317751 525.25553518533707 4437.5373778343201 1570.9890371412039 4736.5348983556032 290.00300341844559 3719.1733630299568 14413.052758410573 14304.785583794117 7348.8126326799393 516.25963455438614 5648.8916305601597 4686.4030947238207 1793.9480761885643 1598.3464479595423 5239.2377238720655 4096.4628786593676 3042.4367401450872 1891.3553905338049 5351.6271023750305 10121.851290941238 1288.1995025277138 2288.0770044475794 4773.3887629061937 8085.2162657082081 4802.7517644017935 3359.0416795611382 1766.5699360370636 1280.5439152419567 11637.510843634605 514.30254848301411 5333.2857700139284 528.94069589674473 2681.8790274858475 5382.1199600845575 2651.4234699457884 10295.827573642135 3073.8550189584494 2524.4817285984755 4292.1457239687443 1184.1186729520559 22185.932086929679 837.28198280930519 5952.8015164881945 11544.257320299745 7578.7681773751974 8579.6896588504314 209.45764775574207 7249.3298932760954 476.88993465900421 149.58641894161701 4674.0779100507498 6080.0376945137978 551.26769426465034 3528.6299751400948 3825.0196373164654 306.42333377897739 1184.2274616360664 1465.7421626746655 9448.5360236018896 10236.964667662978 457.38861207664013 2804.997118756175 4666.058276951313 25156.089468434453 4676.4415835738182 348.25740487873554 588.88067173957825 585.14761644601822 6098.3528339117765 4856.1942217200994 5933.5686392635107 17380.750997394323 26824.675479099154 4298.8513448387384 3909.589974835515 1677.2363105416298 591.50394682586193 3007.0299209207296 1036.6300549805164 6156.4228568524122 4070.4001289755106 7279.5397874414921 6161.5908108353615 214.21271376311779 10668.401893600821 10248.975629836321 1107.0090370029211 238.01325757801533 1161.924495279789 3007.1346562504768 1177.2483461797237 812.70053218305111
leaf_count=7758 14274 1377 65169 1866 4546 1936 1997 6848 3505 6203 2618 19592 20480 11867 2322 94261 3503 21004 9848 8474 8948 6729 11893 4868 16138 4228 26887 36786 15530 3515 10033 3392 17389 15776 1925 16450 6186 17386 1170 14221 55051 56382 28362 2069 21336 17565 6673 5855 20427 15736 11583 6968 20277 37492 4770 8674 17424 29777 18629 12368 6574 4990 42547 1894 20438 2124 10069 20696 9708 38455 12139 9563 17076 4533 88233 3378 23396 44392 29083 31490 837 26751 1744 599 18690 23482 2012 13287 14919 1138 4641 5825 36300 38645 1687 10778 17623 101187 18244 1279 2330 2316 23791 18962 23455 65343 104680 16293 15621 6433 2300 11455 4025 22979 15578 28655 23576 781 42277 38610 4118 952 4365 11574 4475 3188
internal_value=0.00444879 -0.025173 0.0159475 0.0134919 0.0221718 -0.0038181 -0.0123241 -0.0186981 0.00894598 -0.00959124 0.0189525 0.00550433 0.0344169 -0.0139128 0.0156236 0.0336858 0.0292595 0.0290182 0.0100122 -0.00162536 0.0302523 0.0332412 0.0132119 0.0384929 0.0302218 0.0349314 -0.00677561 -0.010142 -0.000216347 -0.0363417 0.025807 0.0315912 -0.0356232 -0.0587312 0.0228325 0.0258805 0.0111305 0.0162255 0.0312176 0.0388884 -0.00423218 -0.0142393 -0.0195714 0.0458443 0.00115204 0.00853292 -5.79526e-05 0.0657926 -0.0379853 -0.0442629 -0.0282823 0.0212746 0.0428775 0.056082 0.00339524 -0.0244534 0.0749589 0.0560979 -0.0123719 0.0231991 -0.00318205 0.0285356 0.078008 -0.0135877 0.0237086 0.0229441 0.00331038 -0.0325203 0.0461397 0.0352268 -0.019197 -0.0304125 -0.0278195 0.0595712 -0.0498082 -0.0023598 -0.0249275 -0.0146224 0.0118935 0.0683057 0.0741196 0.0504091 0.0249139 0.0726909 -0.0340035 -0.0414517 0.0137134 0.00518245 0.000258983 -0.0155963 -0.0174404 -0.0247112 -0.0124014 0.00420948 0.0086218 -0.0251244 0.0405917 -0.0636078 -0.0145299 -0.0223344 0.0197449 0.0238984 -0.0108584 -0.0529509 -0.0310684 0.0278452 -0.0233086 0.00709078 -0.0384546 -0.0364193 0.0398593 0.0265236 0.0337779 0.0416074 -0.0157796 -0.0424207 0.00842847 -0.0171842 -0.0646249 0.0223965 0.0043398 0.0282251 -0.0093444 -0.0222531 -0.0200548 0.00693671
internal_weight=575587 160954 414633 396931 264367 132564 105290 94939 123038 43132.7 79904.8 42738.9 37165.9 120516 18361.8 141329 115990 27274.2 14442.4 37460.2 114853 104155 21637 82518.1 63330.8 14976.4 84126.6 76745.4 45919.6 42771.6 57642.7 47108.2 6660.61 40438.1 27698 10807.3 31276.9 28253.5 22370 9789.41 52167.4 29243 26859.5 2383.5 10697.9 22924.5 10534.5 19187.3 42239.5 32929.8 24770.9 11723.1 15763.5 10411.9 6606.51 14642.8 5688.11 12016.4 5328.01 35091.8 5904 29187.8 12922.9 25007.4 16811.6 25828.7 6369.77 12354.7 10350.6 11478.3 8455.97 36389.5 34454 6070.24 28833.4 1791.23 30825.8 17497.1 9831.76 9467.92 8789.15 12831.8 25299.8 4886.12 21728.5 16687.7 2293.42 10877.4 18238.1 24497.6 23983.3 18500.2 10914.3 18464.1 16893.1 5048.98 6264.4 36190.1 5482.09 5024.7 11411 10822.1 8740.6 27042.1 12013.6 24019.2 30161.9 5483.08 13328.7 15982 10887.3 3931.19 7699.2 6662.57 9309.64 7585.96 6638.48 4248.02 35824.5 12452.8 8685.78 7381.16 5040.79 3878.87 3687.89 3337.18
internal_count=2204894 628029 1576865 1511696 1001435 510261 407390 368681 469348 166372 302976 163288 139688 466631 69718 532087 437826 102871 55116 143696 433280 392218 82420 309798 238905 56290 324366 296527 176332 167765 217978 177481 26130 161398 104743 40842 119293 107426 84189 36739 200916 113381 104464 8917 41062 87535 40497 70893 165829 129824 96654 44397 58939 38662 25250 57039 20927 44624 20554 132857 22712 110145 47415 96612 63515 97777 24392 48365 38709 43077 32835 142265 134507 22518 114088 6893 120195 67788 37429 34945 32327 47755 95653 17985 85071 65627 8741 41649 69970 94746 92852 71918 42125 70687 64501 19726 23478 144841 21210 19523 43291 40961 33824 107195 46937 90663 117431 20934 52407 62815 40755 14847 29001 24976 36005 29793 25320 16557 143464 47084 33201 27839 19444 15079 14323 12751
is_linear=0
shrinkage=0.05


Tree=3
num_leaves=127
num_cat=3
split_feature=29 173 15 173 197 198 29 171 199 198 199 172 173 173 172 174 172 198 173 199 172 172 174 171 199 198 174 172 199 199 171 197 173 197 8 196 202 198 198 197 174 197 167 171 171 173 173 144 199 8 171 199 109 174 14 173 13 171 198 171 197 12 173 173 174 171 29 171 171 198 173 197 172 174 173 174 199 197 111 202 198 8 199 171 167 198 197 197 172 151 8 174 202 197 173 173 199 196 6 197 174 198 174 172 172 197 171 172 171 172 197 172 197 171 174 15 198 171 171 20 171 197 165 14 171 151
split_gain=71680.8 27855.5 19709.4 17806.7 13107 10234.6 8132.38 7483.61 7191.44 8042.18 8254.78 6066.01 5838.33 5865.26 5436.86 5169.57 5166.62 4575.22 5877.04 4372.44 4155.02 5363.26 4038.75 5328.81 3741.56 3615.58 5244.52 3715.77 8106.77 6136.9 3359.36 3231.31 7823.82 6714.22 3214.33 3127.18 2784.71 2704.54 3087.54 2665.71 2664.19 2662.91 2582.38 2454.49 2392.25 2386.08 2373 2371.89 2363.1 4593.77 2620.89 2349.82 2258.97 2253.78 2158.78 2158.38 2120.64 2107.74 1989.04 1965.22 2787.73 2038.07 1918.8 1890.98 2006.16 1887.2 1856.85 1808.73 1765.76 1764.24 2078.34 4027.41 3587.01 2892.76 3216.44 2398.8 1693.56 1639.45 1629.97 1608.68 1581.86 1571.88 1711.57 3692.4 1547.03 1533.25 1488.96 1482.81 1474.32 1466.78 1403.25 1387.64 1346.13 1238.25 1204.81 1181.71 1181.53 1341.36 1176.91 1163.03 1148.41 1291.52 1452.07 1082.16 1077.97 1213.34 1056.58 1045.73 1041.91 1041.33 1036.86 1035.18 1023.21 1022.63 1016.55 1060.03 1015.47 1299.89 994.731 990.119 964.651 957.682 940.975 931.769 921.61 911.288
threshold=0.032238101017792918 0.018024211474545974 0.21068394094337642 0.015832230859587796 0.039294271624717554 -0.045068212838153925 0.02408322672173727 -0.24989594580880789 0.16183779575261517 0.078937329090058031 0.027669935687304918 1.0013528437168373 -0.080302513046683718 -0.052565253488111745 -0.1652197912647623 0.050425391237984292 1.2372620103208383 -0.0098219568211074231 0.0087270306562127215 0.044040874038738471 -0.50038453985736775 -2.1838705063677861 0.010351634769521169 1.052111485096199 0.21453891712006526 -0.045068212838153925 0.012821237139432508 -0.86502480853604002 -0.016802671647749731 -0.05349791630816008 -1.7620893599719987 -0.010891312424744891 -0.02845406512155518 -0.023796712183706045 inf 4.5000000000000009 0 -0.010964373917436486 -0.016467583537436267 -0.007496099117805465 0.0064055875199633414 -0.029445413272160489 4.6826500000000006 0.24470757275143254 -0.66950865500732248 -0.012821331157868763 1.0000000180025095e-35 24.081450000000004 -0.0071722881657947926 inf -3.7361038875749992 -0.0096914506311550058 3.7288604686986129 -0.0012122896412237736 0.29525876638128051 -0.082850077984124068 0.12387859592902807 -1.0511811351391607 -0.016868856713195431 0.75702859258699695 -0.00018270423886485029 0.094789309006894543 -0.0034876207812772893 -0.0039059396056977942 -0.0049218052822524441 -0.52057813610481551 0.063150381911030132 -1.706604445984697 -1.357991814532775 -0.018681849766319644 -0.020308161075371586 0.0031522700650794548 -0.79596615061974585 -0.024431483625243441 -0.033968096125249862 -0.0044964316207749535 -0.018216993336409911 0.022347019173549757 -1.3002023484495067 1 0.019376632924174134 inf 0.076957449899811028 -0.1347079396042816 4.8041500000000008 -0.03217137019463822 -0.01293982273501326 -0.014008855776830085 0.61705842601637728 15.837858681183631 inf 0.026247313773492823 2 -0.0014094925724789096 -0.045489703586241541 0.0066647633908407675 -0.039053425302029592 3.5000000000000004 2.3602500000000002 0.0031522700650794548 0.013012450082992901 -0.0099792123114423852 0.0078344254308111445 -2.9674924754408001 -0.91280293941069401 -0.017199916767774045 -1.5014189886755556 0.61705842601637728 -0.10481250685117181 1.6983275997154244 0.015335041186954392 -1.2208303255326318 -0.017906720995199018 0.52126632183166832 0.0082946466294871474 0.035318457904249374 -0.022324979401366848 -0.19592709264613203 -1.0048273068581368 0.056094473133069346 -1.706604445984697 0.011887724849385274 102.85550000000002 0.021350345499429938 -0.87319145794834563 28.509059849690811
decision_type=10 8 10 8 10 10 8 2 10 10 10 10 10 10 10 10 8 10 10 10 8 10 10 2 10 10 10 10 10 10 2 10 10 10 8 2 9 10 10 10 10 10 8 2 2 10 10 8 10 8 2 10 8 10 10 8 8 2 10 2 10 10 10 10 10 2 10 2 2 10 10 10 10 10 10 10 10 10 10 9 10 8 10 2 10 10 10 10 10 10 8 10 9 10 10 10 8 2 8 10 10 10 10 8 8 10 2 10 2 8 10 10 10 2 10 10 10 2 2 8 2 10 10 10 2 10
left_child=1 6 3 4 5 7 36 20 9 10 34 -10 -7 14 57 79 17 18 31 42 21 -2 23 30 46 26 -8 28 53 45 41 32 40 65 35 52 -1 38 58 84 -15 -19 -3 -9 118 -29 -4 -11 49 50 -38 -6 114 85 67 -22 113 -14 69 63 -61 110 88 64 121 -34 123 -48 -55 70 73 -72 -73 74 -33 116 119 106 -31 -12 86 82 -32 -84 125 -27 107 -24 -52 -36 95 -64 -80 -77 -92 -70 -51 -98 -44 -85 101 102 -94 -87 105 -28 -30 -50 -89 -66 -62 -105 -99 -21 120 -116 -75 -118 -23 -35 -5 -41 -25 -16 -20 -18
right_child=2 19 24 8 51 12 25 43 11 47 15 -13 13 16 66 -17 39 22 124 56 55 44 87 122 -26 27 104 29 77 78 81 37 33 76 89 -37 48 -39 -40 59 -42 -43 98 -45 -46 -47 54 -49 80 96 62 -53 -54 68 -56 -57 -58 -59 -60 60 61 -63 91 -65 109 -67 -68 -69 90 -71 71 72 -74 75 -76 93 -78 -79 92 -81 -82 -83 83 99 -86 103 -88 108 -90 -91 94 -93 100 -95 -96 -97 97 112 -100 -101 -102 -103 -104 111 -106 -107 -108 -109 -110 -111 -112 -113 -114 -115 115 -117 117 -119 -120 -121 -122 -123 -124 -125 -126 -127
leaf_value=-0.041430267175034188 -0.031528168527948028 -0.064523945324013149 0.055598600256593161 0.019682817824853802 -0.062430471313846547 0.08782867100261138 -0.045741204994295015 -0.058221886923161839 -0.062636064850626713 -0.057356407999609484 0.059348120225217529 0.054012039130116929 0.001801570100088236 0.08114314590181082 -0.046293409240532601 -0.06461389960616043 -0.023300296916319449 0.048942940841430707 -0.067821265964679592 -0.038200694921474453 -0.056826014658545324 0.02828871013979772 -0.020613640551557393 -0.0033430079700270997 0.078196130683102411 -0.0059852253425562857 -0.0062544148512463163 0.074896828426121956 -0.031327913791082657 0.032916377896601262 0.07756474175596989 0.05043621581962289 0.010838916787411966 0.018168744503475553 -0.011176178689415709 0.030753365454644768 -0.059682561330940589 -0.042950102296309467 0.057912672938712217 0.057921786110860886 -0.046731263644729445 -0.062920381120058919 -0.052617582603448787 -0.0073004544472057356 0.064682101731700595 0.021698098301532548 -0.033648839995151468 -0.012448496844776545 0.071008592790202885 -0.057736397461910331 0.0071148738588459317 0.0045094739165033359 -0.0087514833855708348 -0.044201336596715469 0.051660772779092014 -0.0015770389692619407 0.084470119074573455 0.053630836088270489 -0.059085419621966367 -0.076979335929608914 -0.012375966558187963 0.056591027111906403 -0.053237392934616171 0.053082160716531768 -0.03369531481896907 -0.044228971115976706 0.0098307997383399875 0.024493582894782581 0.042637576272200495 0.067035303875387822 0.058772307866693685 -0.057213032170317972 0.027514590616411778 -0.041195463238928198 -0.013216050710893738 -0.014074282660266904 0.058583531807612103 -0.007649199391795973 -0.023558262318795983 0.017208280543313022 0.025904769380141069 0.030652269107743654 -0.052276497743123623 0.02312457435778939 0.015975611847286634 0.059547074156823893 -0.034802882301426884 -0.014727495257230475 0.077378450899041828 0.030051487657777667 0.026494193121468071 0.0064939791938372939 -0.013725767322467755 0.036966375146050848 -0.013967064268464372 -0.0315381338154486 -0.051085354815040535 0.0089915199724447531 -0.023174786401870019 0.073801430370918325 -0.023214227312144422 0.021989610279508368 0.054874052876351311 -0.052572235049162835 -0.029975784556723107 0.042326636613175206 0.051605157923848927 -0.046616585661775872 0.037205520508766098 0.014253478762803022 0.017330624195775621 -0.021228628116973333 -0.02919329443274243 0.0095577272833180932 -0.061642372527419088 -0.030468058052880317 -0.034712701894957475 0.040858742516635523 -0.020937549917331655 0.048848332104478642 -0.05963976391347197 0.020172860465522288 0.036185958406457067 -0.0027903620977157532 -0.015759940598891683 0.0091512324853586687
leaf_weight=15260.48144313693 3553.4318255335093 31174.08055229485 16564.465993613005 1059.4401289075613 5582.9103579670191 3704.0881004184484 9323.9398099035025 6409.710493221879 1338.5783061385155 12013.955200701952 6341.7048419415951 6655.2332949787378 3714.4777718186378 10054.926468580961 6387.0091465562582 1224.9107438325882 7338.8224591612816 1249.0001900941133 1475.9568362385035 2818.3673118948936 2559.6426705121994 9094.2252091914415 2256.8495548218489 4077.1696749776602 8641.2392706274986 4831.9660158008337 2178.3168465346098 5062.2033652663231 406.53499628603458 4437.3410435765982 18708.142344176769 5666.1252326071262 2772.4195943921804 8266.4291027039289 4735.1876676827669 2025.8106009215117 1914.6866109222174 1678.2681691944599 5175.2737133055925 4220.9876357614994 424.40660616755486 926.60780982673168 7033.3812656849623 3751.9293677210808 5085.1177034378052 3612.179488375783 1519.9129662513733 3893.5428860485554 669.37046590447426 5762.3221918493509 12035.20106986165 1713.1349431574345 5939.0369144827127 2398.9948624670506 7296.0111070722342 5714.0551857203245 551.21408958733082 4157.1122592389584 847.27579428255558 909.34091003239155 4987.1161766350269 2285.4666729867458 2320.5417860001326 6835.3039501160383 1287.3789562433958 3544.9581839889288 2742.6943684369326 11143.052626281977 2959.5092654824257 1773.1770069599152 6612.5541201233864 1785.6873141676188 4156.9555271714926 4840.7633837461472 3054.3515788465738 1952.1644855290651 7172.972593575716 1690.0431861579418 4861.4713767468929 3564.0124488919973 4802.2330607026815 2870.5169363468885 803.1388041973114 1489.9350328296423 7568.0461107492447 269.99879951775074 2904.5709403753281 1205.6333407014608 795.87582431733608 3962.6074586808681 2266.8679850250483 1673.2508772611618 6443.0118725001812 3035.9794321507215 9763.921519741416 655.79134459793568 5291.7105063647032 2347.2251504212618 6561.614401102066 4720.6705321669579 2944.4309846758842 10242.45276324451 876.20443791151047 7585.8211027979851 1204.7725532948971 3134.1555645614862 6902.6721204966307 263.12756860256195 4851.2963475137949 9393.6944847106934 7145.8795341551304 4036.9771779179573 6943.4465528577566 1860.6696339249611 7812.8821577131748 4190.6292544454336 1269.7357444167137 1030.9440839886665 1156.5926576703787 3857.5143539756536 600.37773254513741 2792.2518777400255 2386.6056397110224 1525.0072879344225 2005.4319967478514 3067.2739202678204
leaf_count=60153 13908 126162 61520 4021 22528 13567 36945 25661 5382 48118 23509 24739 14228 36924 25351 4897 28490 4651 5928 11143 10267 34230 8758 15636 31750 18627 8381 18620 1586 16728 68735 21119 10567 31295 18271 7641 7655 6611 19206 15652 1671 3709 28044 14450 18792 13677 5973 15092 2469 23022 46096 6558 22986 9504 27139 21939 2019 15453 3387 3676 19257 8478 9227 25418 5013 14028 10525 42098 11067 6556 24503 7099 15690 19119 11817 7545 26582 6516 18916 13506 18161 10800 3204 5625 28768 1000 11420 4639 2924 14931 8565 6422 25000 11395 37825 2562 21023 8982 25754 17373 11460 38808 3255 30166 4710 11720 25682 1037 18179 35662 27100 15717 27269 7118 31357 16466 4963 3863 4492 14381 2404 10563 8975 5891 7802 11705
internal_value=0.00423432 -0.018938 0.0177007 0.0133114 0.0193285 0.0212921 -0.00881799 -0.00281675 -0.00995114 -0.0161426 -0.00454552 0.0344779 0.025617 0.0244894 -0.00233807 0.0322817 0.0271639 0.0327679 0.025742 -0.0515396 0.0108768 0.0238191 0.0454871 0.0525229 0.0486088 0.000184609 -0.0216887 0.00439753 -0.005567 0.015732 0.061193 0.0285448 0.0395686 0.0246784 -0.0180626 -0.0283855 -0.0228385 0.0192652 0.0217997 0.0147605 0.0759634 0.00129651 -0.0565935 -0.0394212 0.0366438 0.0527449 0.0416083 -0.0463651 -0.016881 -0.0221155 -0.00425443 -0.0467122 -0.0344976 -0.0165145 0.029997 -0.0186706 -0.0082792 0.0291744 0.0166116 0.0219693 0.00792359 0.0132791 0.00205337 0.0307457 0.0221166 -0.0200615 -0.0256197 0.0175142 -0.00425883 0.0184351 0.015855 0.0319268 0.00205366 0.00617681 0.0281415 -0.00961424 0.0393255 0.0367295 0.00495951 0.0442646 0.00677996 0.0657503 0.0696669 0.048599 -0.0012247 -0.0297373 -0.0171542 0.0139775 0.0114741 0.00760619 0.00186542 -0.0282114 6.89341e-05 0.0169902 -0.00634269 0.0291807 -0.0385671 -0.0309915 -0.0384077 0.0616453 0.00567939 0.0105274 -0.00551216 -0.0393871 0.0127216 0.0224059 0.0469914 0.0378109 0.0268673 0.00847353 0.00511969 -0.0416863 -0.0195456 -0.0192082 -0.0456881 -0.0507597 -0.0281975 -0.00084635 0.0227339 0.0279309 -0.00900805 0.0428936 0.0112517 -0.0379092 -0.0378344 -0.0137345
internal_weight=574278 211073 363205 318040 252683 245386 161074 37324.7 65357.9 57364.1 41456.6 7993.81 208062 204358 18526.3 11130.6 185831 128000 82454.3 49999.3 27163.1 18889.4 45545.6 37231.8 45164.7 98089.6 15841.2 82248.4 43769.1 38479.3 30768 78972.9 36093.6 25614.3 30326 21628.2 62984 42879.3 41201 57831.6 10479.3 2175.61 44769.1 10161.6 15335.9 8674.38 36523.4 15907.5 47723.6 39084.3 18739.6 7296.05 19602.4 34769.8 19959 8273.7 5230.25 7871.59 36025.7 39857.4 15327.8 14418.5 16824.9 24529.6 17694.3 6317.38 10654.7 12663 18045.1 35178.4 33405.3 12555.2 5942.64 20850.1 8720.48 12129.6 19296.9 8999.25 29804.9 9905.72 8639.3 28592.4 25721.9 7013.74 17974.1 16724.8 3837.07 8313.78 12831.1 8697.8 15646.1 3993.79 25367.6 4988.14 12030.8 3615.3 20344.7 14582.4 13595 6210.61 20506.1 17561.7 7319.22 11892.8 6517.24 5312.47 7309.21 932.498 6056.93 10681.1 12133 11622.8 9290.67 4679.04 13663.3 12003.5 7141.44 2300.68 10250.8 12123.9 1659.82 7013.24 6463.78 7912.02 3481.39 10406.1
internal_count=2204894 823137 1381757 1213277 959957 930871 622897 143739 253320 223199 159989 30121 787132 773565 71448 41912 702117 482335 312051 200240 103628 71422 170284 138708 168480 377037 61756 315281 168817 146464 114097 298321 135448 96853 118077 84875 245860 162873 156262 219782 38595 8360 179960 40111 57514 32297 136730 63210 185707 152620 72324 29086 77234 135033 75210 32206 20280 29681 137056 150819 58511 54835 64669 92308 66890 24595 41767 48071 69523 133669 127113 47292 22789 79821 32936 46885 72258 33784 114167 37015 33087 105737 94937 26202 68963 65510 14926 31576 49020 33202 60019 15649 97439 18940 46390 13629 80296 57274 53798 22998 78523 67063 28255 46883 24811 20101 27268 3506 22818 40675 46357 45883 36251 18261 54248 47823 27945 8826 38722 45676 6425 26215 24611 31242 13730 40195
cat_boundaries=0 4 8 12
cat_threshold=132288 3319793672 1409319044 673 2189725971 806095972 614534504 3 2952921316 2239924480 1414029455 4640
is_linear=0
shrinkage=0.05


Tree=4
num_leaves=127
num_cat=3
split_feature=29 15 196 29 199 172 170 170 200 171 174 174 199 199 8 199 174 174 196 171 170 171 200 199 200 172 1 172 199 172 171 174 199 197 172 171 200 174 174 171 172 170 6 199 172 200 172 197 197 199 200 197 14 164 171 197 24 172 172 199 197 172 15 200 174 174 172 172 3 197 170 199 0 199 29 174 197 149 199 170 192 172 196 172 171 174 200 199 199 200 202 196 172 172 8 3 171 174 202 199 200 200 172 172 122 200 20 107 199 171 172 197 199 200 172 170 20 172 199 13 197 202 14 174 199 197
split_gain=65121.6 17089.9 15483.8 14330.7 11196.1 14461.9 8225.12 7241.71 6602.09 7474.82 7239.84 6412.12 6097.1 6010.85 4934.26 6082.12 6090.07 4785.21 6718.24 5036.46 5019.75 4649.77 3889.95 3612.73 3432.04 3368.63 3330.69 3263.65 3263.23 3229.58 3298.85 3189.79 5750.72 4790.11 3183.93 4074.4 3706.79 3600.07 3091.08 2879.46 2743.94 2698.81 2412.09 2166.89 2108.92 2104.39 2532.8 2045.85 3107.57 2040.24 2032.94 1990.31 1957.49 1914.7 1902.48 1880.88 1867.23 1866.7 1860.43 1825.45 1799.46 1940.1 1754.36 1739.05 1732.69 1731.11 1573.65 1546.21 1540.36 1526.18 1875.2 1873.37 1512.11 1483.49 1519.98 1447.46 1429.85 1423.45 1390.34 1384.08 1377.56 1376.14 2484.06 1622.75 1419.22 1583.9 1373.63 1700.69 1514.6 2216.34 1332.88 1309.66 1304.59 1251.29 1211.63 1298.6 1200.28 1198.59 1197.34 1163.66 1145.51 1143.55 1138.45 1130.07 1121.07 1110.33 1066.46 1065.34 1047.73 1027.64 1109.04 1017.82 1008.06 1491.99 1481.77 999.013 995.924 968.065 951.062 944.727 943.919 932.966 931.243 920.356 917.368 897.943
threshold=0.03311130390948324 0.20435457660944148 2.5000000000000004 0.022662253509622473 0.16183779575261517 -1.3554495066725492 7.5000000000000009 7.5000000000000009 37.586708023842938 1.159207474051547 0.017234382011202923 -0.0063025118187390308 0.01510441277075736 -0.024460822159180658 inf -0.047362396224030649 0.021705050076551661 -0.015271377871234447 4.5000000000000009 -2.7449325255894661 18.500000000000004 0.80843789575143055 85.584970604050653 0.21453891712006526 35.891021883311105 1.4538789400863947 -7.4999999999999991 -0.37515121234424026 -0.041671619769501227 -1.2260556657599577 -1.0639696750134606 -0.024431483625243441 -0.018216993336409911 -0.022942847026357901 -0.81529654047872957 -2.8166910794838294 33.941097787083308 -0.031182644791127808 -0.0033289686512053547 -2.864444643642146 1.3954387229535854 1.0000000180025095e-35 2.1390500000000006 -0.016802671647749731 0.61705842601637728 67.066247965633337 1.7937704259674743 0.0054029867838752974 -0.0064937349015761195 0.22302557757346933 41.728942759444941 -0.007496099117805465 0.31766791998524607 102.41625000000001 -1.4975101996411087 0.0080500514072381364 90.701670421050522 -1.6204476898031905 4.1388769362214797 -0.037161110422736558 -0.012394083154661338 0.91350342315415667 -0.013514654268746816 57.792329133896004 0.010351634769521169 -0.035847728052490972 -1.5030701861778264 -1.4080900788384196 332640.49310000002 -0.0017685849847616784 3.5000000000000004 -0.00065969151750039357 inf -0.012897185593761793 0.054941832670491277 -0.046875822473857069 0.037104553478794496 75.000000000000014 -0.037161110422736558 4.5000000000000009 -11.483999999999998 -0.20188068778007057 1.5000000000000002 0.37713662744615983 -0.29411902197788214 0.012512106822432369 41.929326440393254 -0.081150042802499753 -0.0058117524619627483 46.830164399358793 0 4.5000000000000009 -1.4406643219388411 1.3193339736755245 inf 1595900.1999000001 -2.5878762040009371 -0.0012122896412237736 1 -0.018216993336409911 49.420277721105158 39.496192661959022 -0.45316228643996426 -1.7998457098828691 0.041441441441433975 64.768517691451578 0.034254286418004286 0.012759398496240521 -0.02192045018876548 -0.034720810883898105 -1.0426335168632253 -0.036841014892691086 0.0029516044553958847 62.800393380336452 4.1388769362214797 4.5000000000000009 0.0061807609202085565 0.33600898243050115 -0.06288593816222908 0.11314354294520425 -0.023796712183706045 2 0.22582302336637108 -0.020105318110542333 -0.039053425302029592 -0.0089844587240633361
decision_type=10 10 2 10 10 10 2 2 10 2 10 10 10 10 8 10 10 10 2 2 2 2 10 10 10 8 2 10 8 10 2 10 10 10 10 2 10 10 8 2 10 2 10 10 10 10 10 10 10 10 10 10 10 10 2 10 10 10 10 10 10 8 10 10 10 10 10 8 2 10 2 10 8 10 10 8 10 10 10 2 2 8 2 8 2 10 10 10 10 10 9 2 10 10 8 2 2 10 9 10 10 10 10 8 2 10 10 10 10 2 10 10 10 8 8 2 8 10 10 10 10 9 10 10 10 10
left_child=3 2 4 21 5 13 8 11 12 10 22 24 34 57 15 16 -7 62 19 -19 27 38 31 44 47 53 76 125 -11 78 51 63 50 -34 35 -4 118 -37 86 -13 64 -6 58 79 91 46 65 48 111 101 -33 59 54 -12 -46 -29 119 75 67 -31 61 94 93 96 105 -28 -59 97 -65 71 109 -62 90 -67 -75 -2 80 -16 -9 106 -17 84 -83 99 85 -69 -1 -88 89 -89 -40 122 -68 103 95 -26 -10 -41 -52 -84 -27 -32 -55 -8 115 -35 -39 -77 -98 -71 -111 -5 113 -44 -114 -23 -92 -90 -36 -47 -85 -42 -3 -15 -96 -20
right_child=1 23 6 7 41 14 17 29 9 28 25 39 -14 123 77 26 -18 18 20 -21 -22 104 -24 -25 60 100 45 55 -30 30 49 32 33 40 36 37 -38 43 72 42 121 -43 112 -45 52 56 -48 -49 -50 -51 98 -53 -54 102 -56 -57 -58 66 -60 -61 69 -63 -64 68 -66 73 92 81 -70 70 -72 -73 -74 74 -76 107 -78 -79 -80 -81 -82 82 83 120 -86 -87 87 88 117 -91 116 -93 -94 -95 124 -97 108 -99 -100 -101 -102 -103 -104 -105 -106 -107 -108 -109 -110 110 -112 -113 114 -115 -116 -117 -118 -119 -120 -121 -122 -123 -124 -125 -126 -127
leaf_value=-0.028104024544732938 -0.071579387952350887 0.027920451474955844 -0.044396856254683384 -0.044906981747192515 0.003030559310530926 0.073707890504155257 0.024121267851618586 -0.058460767204915755 0.025863367944011159 -0.035918196464899486 -0.026584284330459375 -0.063094096170822386 -0.053365259372266799 0.030139090375545449 0.025936971763877908 0.050010796578121346 -0.07112939492309249 0.026613604777867658 -0.028472581896545598 -0.049065235653891717 -0.05122467990349993 -0.035455606341958566 -0.071167729527510534 0.074615083948603278 0.074111099200956182 0.016642052676534427 0.035591006779881813 0.07601086190499802 0.015946215290806334 0.0014750268528780307 0.0098039733507434123 0.001939322729903592 -0.038672287483007904 0.073715615467125586 0.066940377786862612 -0.038776005343040536 -0.036445554642662185 0.0047629194443816946 -0.049331084360613633 -0.054495922638545115 0.042038517767830991 0.057148107399726755 -0.00044886130742533914 0.068302955372999671 -0.035390320236881115 -0.059539524306414182 0.0039102720388456092 -0.061634430386983789 0.041966003191150889 0.040264480934440718 0.041485891531417449 -0.01591495611254258 0.049901617789772194 -0.013883772766274609 0.022334436377651687 -0.006161424719711951 0.039323182073323033 0.061957752257211798 0.090932528160851331 0.071633440638071144 -0.028781412747976232 -0.026102592127366344 0.010842374560463885 0.068347307024661921 0.027235839287550336 -0.064727567086971791 -0.014823443374561452 -0.039620142349622189 -0.057291521150702719 0.082472002546148518 -0.0087264326341706441 0.029003559544187651 0.051588850353772045 -0.044171676486518013 -0.0073974218968936968 -0.0085430999428425351 -0.046834745874033044 -0.012707840895353949 -0.017255336853168528 0.07080028490166064 -0.0062175862649370174 -0.040247352762390415 -0.0037996950427412347 -0.05478545680870163 -0.051423015039586323 0.019161736070316709 0.060575001579319811 0.023634146072011808 0.043001122396329354 -0.043139834269286588 -0.0186539107480433 0.064476262811501817 0.050696160025067355 0.010785856456923879 -0.062193837471481439 0.018503783451652104 0.083363498714605189 0.018476993087575905 0.013233492208286816 0.056774423054849366 0.05691231425006521 -0.053069817253981348 0.028554442836428568 -0.044282113755822583 -0.018246429139983485 0.04828659143363797 0.030173313100867218 0.017873428255912285 0.052517196235230261 0.070685000424628538 0.021839362860471109 -0.0058292031009453014 0.00086135456797549774 -0.042854539046942863 0.056430206807643407 -0.068946361248907281 -0.039008296456610678 -0.0053406707851374772 0.032802785267110057 -0.02058703994454085 -0.0081742371406422678 0.0046368682622476912 0.055666979431924182 0.058981057895622441 0.030925889152381633 0.02585241211125594
leaf_weight=7439.4518618881702 757.38076801598072 7458.1968795359135 3363.6060965508223 2105.8659960180521 3092.6192270219326 2603.7245727926493 650.3376112729311 9790.1297000348568 1395.768457531929 4588.6047944575548 5624.7235615700483 2585.5935829132795 3485.6312874406576 4687.8405916839838 5662.1255384832621 1616.9041790664196 1006.1307535022497 3561.237839281559 852.44686852395535 5744.4426167011261 1597.4064281880856 2732.6727985441685 717.5669177621603 8776.5819758027792 4561.1846428662539 3303.8757652342319 771.08179131150246 6237.3265194743872 8944.5150467157364 2056.9361449033022 810.11678320169449 8265.8824201375246 1367.3233731240034 19702.21927434206 4906.6479348093271 2849.1068499684334 1352.4261849075556 13217.623161360621 14529.564824447036 655.76060315966606 5397.8811063468456 9033.8352471292019 28384.933158397675 2175.8369093537331 1681.1417187601328 14955.14132848382 4568.316195294261 1509.1279361248016 3290.8829983174801 747.87914696335793 11386.820568352938 4632.2421497553587 5580.3318796008825 2506.3889657407999 9450.7194057404995 783.76690329611301 535.88549068570137 2193.9431976079941 388.16894067823887 1688.1453339755535 3628.2573335319757 935.84282723069191 3003.8187165409327 456.76905287802219 2880.9328378885984 4771.0320360809565 2222.9026120007038 2829.2743536233902 523.3856243044138 1027.1705884039402 3243.0036673545837 2286.3159978985786 484.14054730534554 8507.7363872975111 4196.1593908667564 13519.908317029476 1297.0579570531845 4114.0277946442366 2588.9992698282003 1082.8219254761934 3337.2308689802885 7060.2815697789192 1539.7147455364466 1200.3165699988604 6798.5749246478081 1925.9392183423042 1038.4725311994553 1780.7174880504608 1880.1259831935167 4111.8424238860607 10645.325096234679 8636.396832421422 1154.0930373072624 1440.9947659522295 314.99093978106976 1364.2721375972033 9663.8381858021021 3961.3463847786188 5638.0394096076488 1634.0873321443796 3794.8763779252768 6727.7932458221912 4276.0978591293097 8410.5807209759951 1564.8696618825197 5491.3905035406351 6005.5354291647673 5317.6634510308504 3851.958090916276 1381.3189529031515 7325.1747666746378 7983.5187519341707 3472.8947399258614 2237.6861192286015 1832.8118236511946 12050.510591924191 13805.300845459104 2305.0446169674397 3494.3335753977299 1738.0434223264456 11418.671766772866 2428.8457364588976 5088.222679272294 6751.3867570161819 1646.0652875751257 7052.615918725729
leaf_count=29237 3096 28103 13390 8362 11859 9637 2467 39587 5298 18245 21950 10475 13978 17613 21420 6038 4114 13420 3335 22935 6402 10821 2933 32472 16827 12511 2891 23050 33900 7889 3096 31666 5390 72769 18213 11272 5318 50460 58128 2600 20179 33586 109501 8046 6630 60471 17551 6076 12348 2808 42656 18016 20777 9772 35718 3001 2025 8123 1420 6222 14227 3662 11484 1684 10850 19386 8648 11220 2076 3776 12522 8609 1823 33982 16369 52203 5203 15920 10061 4007 12936 28028 5949 4788 27279 7321 3846 6756 7048 16335 41702 31966 4294 5520 1258 5172 35691 15037 21422 6064 14084 26956 16156 33357 6157 20495 22621 20183 14339 5092 27805 30853 13364 8961 6803 49246 55216 8873 13117 6795 44171 9249 18891 25065 6190 26638
internal_value=0.00403381 0.0175505 0.0131974 -0.0170049 -0.00192988 -0.00763225 0.0216738 -0.00808599 0.0268816 0.0332075 0.0379867 -0.00268541 0.00995432 0.0171103 -0.0228082 -0.0291715 0.0333369 0.00126576 0.0138764 -0.0201028 0.033013 -0.0349427 0.0447093 0.0457083 0.0129117 0.0107012 -0.0340458 0.0420288 -0.00163895 -0.0304988 -0.016127 0.0457694 0.0406875 0.0531757 0.015695 0.00730608 0.0403745 0.0141719 -0.028306 -0.0112126 0.056674 0.043347 -0.00943193 0.0208823 0.0390131 -0.0393447 -0.0293832 -0.00644929 -0.000224307 -0.0384965 0.0222846 0.00599773 0.0257327 -0.00501535 0.0136161 0.0668373 -0.052535 0.00344979 -0.0179739 0.0331023 0.0233137 0.0419577 -0.0228513 0.0657738 0.0639727 -0.0377192 0.028989 -0.0190575 0.00125425 0.0146064 0.024201 -0.00644331 -0.0362196 -0.0409545 -0.0320255 -0.00381097 -0.000101505 0.00967388 -0.0498436 0.0158005 0.0121336 -0.0227034 -0.0155929 -0.00457047 -0.036767 -0.0158116 -0.0114748 -0.000345265 -0.00662391 -0.02296 -0.0373104 0.0494903 0.00756733 -0.032489 0.0500348 0.0613095 0.0700144 0.00811072 0.0321623 0.0273872 0.0381711 -0.0463119 0.0128712 -0.0393718 -0.0584961 0.0681733 0.0127018 -0.00108565 0.0745732 0.035172 0.0295902 -0.0139864 -6.15714e-05 -0.00354786 0.0200588 -0.0627562 -0.0301344 0.0163755 0.0527422 -0.0554844 -0.0126087 0.0304923 0.0391739 0.0471623 0.0159638 0.0199933
internal_weight=572499 348560 301888 223939 108412 96285.7 193476 149571 154141 112208 98674.6 120529 41933.6 36605.1 59680.6 49904.4 3609.86 39335 25829.2 9305.68 16523.6 74368 79168.6 46671.6 42603 19506 46294.6 14926.2 13533.1 29042.2 16663.1 78451.1 62559.3 37268.6 38447.9 28694.5 9753.41 25330.9 58020 77926.1 35901.3 12126.5 75340.5 22481.8 37895 40043.4 22814.3 14889.4 13380.3 8285.79 25290.7 8377.32 16712.2 12407.2 11131.9 7021.09 17229.1 25165.9 39412.1 3745.08 27713.6 8822.36 13505.7 15891.7 28074.5 18246 5570.94 39024 980.155 18891.2 12976.7 5914.57 39464.3 17474.9 12703.9 19595 6251.19 9776.15 12379.1 20306 4954.14 34406.9 22853.1 15792.8 11553.8 4755.21 18555.7 11116.2 10077.7 5892.56 38980.2 21182.8 3377 10501.9 7886.51 5925.46 14911.6 4617.11 17024.9 3173.8 7098.75 7537.91 6782.49 9060.92 16348.1 25193.6 19223.2 18837.6 13515.8 9733.66 8706.49 10089.4 35928.3 30622.6 5305.71 14783.2 24450.6 4185.17 8400.98 16693.2 12619 7826.73 12546.4 11439.2 1961.06 7905.06
internal_count=2204894 1329311 1154754 875583 419408 373963 735346 580395 583737 423315 371170 465760 160422 139225 234738 197398 13751 151609 98781 36355 62426 295188 296697 174557 162779 74473 183647 56024 52145 114635 64987 293764 234676 138932 146444 109796 36648 96406 228964 302981 133542 45445 292506 85134 142085 159470 90179 57639 51563 32860 95744 32127 63125 47878 42348 26051 69291 96547 153877 14111 105140 33109 52828 59088 104114 72628 21065 152457 3760 72031 49195 22836 156869 69737 50351 75482 24177 37340 49648 77088 18974 134820 89000 60972 45820 18541 72095 42858 39012 23091 155046 78960 12942 41344 29447 21999 55328 17637 64078 12013 26595 30052 25928 35824 66224 93264 73081 72386 50030 36673 32897 39215 138629 118462 20167 60067 96918 15921 31330 67266 48959 29428 46994 42678 7448 29973
cat_boundaries=0 4 8 12
cat_threshold=570557764 2246084648 2483077269 8929 1109934363 678166540 545336608 474 2743468311 940311668 629214528 2
is_linear=0
shrinkage=0.05


Tree=5
num_leaves=127
num_cat=7
split_feature=122 173 15 173 199 199 197 9 198 170 200 170 174 171 198 192 202 199 197 173 197 197 197 151 200 142 171 170 197 199 171 199 171 198 200 171 171 200 200 198 173 174 197 164 173 174 199 199 174 142 171 199 192 198 174 197 173 199 151 202 171 5 170 171 197 197 173 174 11 167 7 198 199 154 199 18 173 171 173 197 11 200 171 202 173 173 142 197 173 199 202 199 202 200 18 174 144 173 174 200 151 151 142 5 174 173 198 173 198 171 170 199 200 171 173 171 202 170 128 171 171 198 170 197 202 192
split_gain=42576.1 28823.3 14637.3 10946.7 9255.47 8933.39 8877.43 8083.59 7488.74 7435.68 6288.11 5912.09 5739.74 5537.61 5103.81 5071.17 5022.95 4818.75 6533.4 4687.97 4279.93 4879.02 4237.72 4051.43 4034.39 3955.03 3798.28 4537.15 4069.71 3779.98 3591.96 3521.81 3130.82 4856.11 3576.56 3311.45 3072.17 4256.66 4918.26 4384.46 3897.65 3070.79 3054.74 2757.09 2480.39 2468.61 2444.54 2404.61 2393.21 2267.64 2236.99 2199.41 2101.1 2044.34 2039.17 1964.67 1934.38 1897.96 1888.82 1885.55 1861.46 1773.93 1765.69 1747.32 1738.1 1726.1 1720.3 1719.05 1675.07 1640.03 1599.13 1735.09 1739.98 1571.55 1566.12 1423.74 1413.41 1395.7 1366.94 1573.81 1344.02 1332.61 1300.95 1270.93 1258.55 1239.71 1202.77 1309.01 1201.47 1188.98 1167.96 1157.74 1155.52 1153.25 1100.45 1079.04 1074.38 1072.91 1049.9 1046.06 1029.09 1024.8 1021 1006.84 950.297 940.549 925.788 908.408 1105.09 905.554 904.545 887.924 871.212 870.637 844.975 1027.62 834.984 819.025 943.958 812.708 1153.13 806.861 797.601 788.09 777.28 772.788
threshold=0.032652501252929365 0.018024211474545974 0.16116236312394386 0.018024211474545974 0.044040874038738471 -0.0058117524619627483 0.039294271624717554 inf -0.045068212838153925 11.500000000000002 59.63507644777318 6.5000000000000009 -0.02642238059352375 -3.7361038875749992 0.095907655223741242 -14.032499999999997 0 -0.014893822100720986 -0.022942847026357901 0.0087270306562127215 -0.025851534898512881 0.021865614274241722 -0.030887191681948919 12.683453881923535 50.625848830064449 16.225150000000003 0.36746224659377719 12.500000000000002 0.0060104722401256314 0.21453891712006526 -0.24989594580880789 -0.05584907177609582 -0.18681343001171188 -0.045068212838153925 42.366593009925055 1.159207474051547 -0.4690136495461516 40.921025844216437 51.538723689283515 -0.01374453066442982 -0.045872926574923249 -0.02642238059352375 -0.027094917096377343 98.455700000000022 1.0000000180025095e-35 -0.020105318110542333 -0.070796567898482529 0.078000090346960996 0.0071873389048434664 25.082250000000005 2.0972413793040814 -0.0096914506311550058 -12.779499999999997 0.0049333000660845014 -0.01083779170820187 0.011227058432580652 -0.025758631712464172 -0.029393534103586413 17.316567205817957 1 -1.706604445984697 23.578550000000003 4.5000000000000009 -2.5878762040009371 -0.020984780220375639 -0.018874553902174903 -0.0039059396056977942 -0.032946558848362666 -0.075764494269174629 4.6826500000000006 1.0000000180025095e-35 0.078937329090058031 -0.069706095370619656 -4.6632682795515681 -0.091158511974270925 0.029604570019982294 -0.091424882102736901 -1.478893025306218 -0.026893658381557935 0.017311559692228976 -0.070638050913424663 32.967392697766009 -0.47246651927465683 2 -0.0034876207812772893 -0.023183696923403326 16.638050000000003 -0.03232022677875928 0.025014809262132568 0.16183779575261517 3 -0.10348761739705496 4 62.800393380336452 0.33171521167542301 0.0064055875199633414 26.219400000000004 0.0054143576720476769 0.018218546695982777 33.354251338478157 16.995742924710068 16.113694356055259 23.568500000000004 29.416700000000002 0.014125101701088773 -0.021529906704794318 -0.021997750500278742 -0.035747888297408763 -0.019805340840610194 -0.66950865500732248 2.5000000000000004 -0.085997119961588805 51.216487241152812 0.54102024666550241 -0.048110436002719241 -0.55898955024753161 5 4.5000000000000009 -0.072525939889951416 0.080732885995633566 0.12754448245803965 -0.062025335878381264 3.5000000000000004 -0.036841014892691086 6 -2.1924999999999994
decision_type=2 8 10 8 10 10 10 8 10 2 10 2 10 2 10 2 9 10 10 10 10 10 10 8 10 10 2 2 10 10 2 10 2 10 10 2 2 8 10 10 10 10 10 8 10 10 10 10 10 8 2 10 2 10 8 10 10 10 8 9 2 8 2 2 10 10 10 10 10 10 10 8 8 8 10 10 10 2 10 10 10 10 2 9 10 10 10 10 10 10 9 10 9 10 10 10 8 10 10 10 10 10 8 8 10 10 10 10 10 2 2 10 10 2 10 2 9 2 2 2 2 10 2 10 9 2
left_child=1 5 3 6 25 7 8 10 30 16 13 12 31 90 24 89 103 49 -19 22 -18 50 74 75 -6 100 27 28 45 44 42 53 36 -34 41 83 37 39 48 55 -38 81 68 54 106 77 107 -20 -39 58 61 -8 -46 63 -17 64 -28 -47 125 -26 -54 104 -50 117 -24 -58 -43 99 -2 112 71 72 -45 -32 91 124 -44 -13 79 -29 -55 -35 92 -36 -85 -78 87 -25 -61 -5 -1 -15 -66 -23 -62 -95 -16 -30 113 -33 -3 -56 -74 -7 -22 -60 -4 -42 116 -87 -48 -107 -27 -49 115 -89 -109 118 -10 -63 -121 -70 -12 -96 -9 -14
right_child=2 4 29 15 14 9 51 23 11 -11 122 26 17 19 96 43 20 18 47 -21 21 93 32 86 59 69 56 78 97 -31 73 67 33 34 35 -37 40 38 -40 -41 46 66 76 70 52 57 110 98 62 -51 -52 -53 60 80 101 -57 65 -59 105 88 94 119 -64 -65 82 -67 -68 -69 121 -71 -72 -73 102 -75 -76 -77 85 -79 -80 -81 -82 -83 -84 84 -86 109 -88 114 -90 -91 -92 -93 -94 95 123 -97 -98 -99 -100 -101 -102 -103 -104 -105 -106 111 -108 108 -110 -111 -112 -113 -114 -115 -116 -117 -118 -119 -120 120 -122 -123 -124 -125 -126 -127
leaf_value=0.0036453960666299337 0.029113104676552801 -0.062437445603980346 0.037405605188131512 0.023102842605389987 -0.063232913017093634 -0.026889884251550783 -0.058254782489534578 -0.051068352691914523 0.040538166246398492 -0.051872404171435162 -0.070586376069697893 0.042682992327312159 0.0037856814547469844 -0.024121646938340832 -0.051112534891935769 0.06943444433879585 -0.05595832591769611 -0.032712405594926573 0.055519611116826621 -0.042543893011302895 0.027400792331612148 -0.027386541902879424 -0.009017786658108623 0.022797175342965503 -0.02310820000499288 -0.021387200038319489 -0.060329881720444137 -0.053258767740388707 0.0006519666005909327 0.071433498497382189 -0.055705887806887545 -0.0060379519020984556 -0.062067898929148282 -0.027021204522566147 0.048680175740979562 -0.067514095574608579 -0.053559262822079713 0.07998054923344243 -0.04317757954479623 -0.041508966567450338 0.066432918102793379 -0.038155440368292423 0.080287616391110955 -0.02938545973907386 0.04854507236695621 0.013170843280231458 0.064004767892129791 0.054665658133195495 -0.050422441437719956 0.031082851689876279 -0.0062369470433037734 0.022972678288247405 -0.02614991603989647 0.068649698571305429 -0.041552471752853593 -0.0721131051610754 -0.040555907474381571 0.068050007558313683 0.006177967709907882 -0.060814742915857138 0.00048721628464141391 0.058464602519097256 0.047001332788425283 0.078466898636077143 -0.0075784121789908192 0.0072127872954156277 0.03889059697075304 0.057021766132153297 -0.047144902617322099 -0.0081223002903663601 -0.05959996054329661 -0.017987081804635329 0.00039805492645807931 -0.0045521690570411322 -0.043000410617498604 -0.014435440130685678 -0.014108046953191608 -0.020325279599696485 0.023465304518623876 0.003437936874074956 -0.049702355888445404 0.0582146454358628 -0.05011878589605482 0.025411158574262811 -0.039327797327130529 0.013239273345202 0.0080701733567955149 -0.031841345465161063 0.044708344250494629 0.082420129429758418 -0.046429163616399538 0.066313374298358929 0.031996256846053332 0.022295474810290438 -0.081540585069767427 -0.035594551123564688 0.0023527192446933989 -0.064091824938965689 -0.011218689374126728 0.031827183200989609 -0.038937481706577286 -0.015603379898866477 0.031668101166145206 0.007669411454556377 -0.033756177650516909 0.0057059504857215086 0.058635262526447011 -0.019545468842998192 -0.043587791371206823 0.04583878213813903 0.0083384763433974 0.040779046186137931 -0.051199121364577264 0.017083931866260862 -0.021064885752257873 0.03223778345777125 0.030814383351248094 0.080694434153060379 -0.057207589441856027 -0.035177779002250879 0.042705777116887299 -0.012772498623371341 -0.031484155776140291 0.032456214493956463 -0.031791632978274219 -0.017670609977965279
leaf_weight=1456.3976578265429 1617.5944697260857 28247.340932533145 9942.4662059396505 2007.2269903123379 1342.3307358622551 5696.9274490773678 4633.2521395981312 7095.0408753752708 530.36327302455902 3831.6923147141933 2635.4321382194757 1631.5822118222713 11917.894503772259 781.56726720929146 4936.3649270385504 502.10703240334988 1521.8756101280451 2869.7751816809177 20518.379299819469 4273.9159505665302 10328.918508380651 3465.8661976009607 5675.0589963197708 2284.8010200560093 1391.6759857237339 3795.454258069396 2101.0913755893707 2972.2415997385979 3545.2683703750372 8899.1632420271635 4014.4415154755116 3086.257516130805 2818.1267596781254 626.1914077848196 5860.7035848945379 896.23113748431206 1103.4629967361689 4829.8689409643412 1371.1115145981312 4659.0123899430037 986.95780545473099 6885.1851063072681 959.68611025810242 2212.6484231203794 6580.4832361340523 1958.1511076837778 9158.8344364017248 2639.6194113790989 673.81753684580326 13891.424905568361 2788.8099734485149 1015.9854136109352 2340.2269401103258 402.85243307054043 11271.080723181367 673.5144244581461 2696.9958804100752 8067.8121419698 7057.514230594039 280.75594122707844 4245.9434364438057 10338.23128631711 1500.5319345891476 12187.696377292275 2161.1084730774164 6328.0324834287167 809.56901429593563 3959.2830777168274 2964.0806899517775 6075.5926467478275 1202.3792487084866 8476.1194542050362 4331.7943047136068 2398.8979079723358 4677.5084434002638 9650.4242905378342 2488.6843634545803 1904.84213770926 1572.556824028492 2080.5929768979549 592.63728459179401 1711.7022936195135 579.60198087990284 5066.1245395690203 881.17545878887177 5548.2926111519337 9517.3000070899725 982.98938323557377 6806.8388153910637 1459.206844612956 5901.9773459732533 646.52625615894794 12641.196396306157 3884.5190841257572 153.7994782179594 1015.2027336359024 1160.2967438995838 780.68355518579483 1729.8791533410549 4458.7130455672741 5580.9715724289417 5745.1131458133459 6570.2182500809431 3344.531566157937 676.6621525734663 2534.7032580673695 10627.726357847452 988.92959697544575 717.12817810475826 3458.5859147757292 793.21212001144886 6267.5851915925741 6921.3095132857561 3704.4196134358644 17770.77858223021 1720.5947395414114 4789.2883083075285 387.98724818229675 462.11013881862164 492.64817601442337 13355.024261131883 4028.1679306775331 2583.4564052075148 10121.477544441819 20900.836129769683 6477.0264457315207
leaf_count=5631 6120 116204 37347 7651 5425 22326 19023 28433 1988 15358 10785 6107 45785 3041 19979 1860 6127 11327 76692 17085 39088 13562 21945 8674 5429 15017 8563 12008 13643 33196 16246 11906 11456 2452 21961 3640 4446 17851 5420 18356 3669 27261 3584 8808 24571 7463 34048 9870 2664 52387 10773 3853 9222 1489 45251 2770 10720 30096 27021 1122 16287 38569 5605 45507 8358 24285 3044 14843 11855 23711 4877 33438 16791 9348 18675 37677 9722 7485 5967 8003 2351 6379 2290 19219 3475 21150 36340 3857 25551 5402 23536 2409 47672 14729 615 3985 4463 3190 6673 16770 22491 22592 24917 12834 2665 9698 39606 3833 2828 12934 3024 23524 27926 14032 69554 6505 18060 1438 1830 1950 50153 15714 10147 38093 82491 25124
internal_value=0.00377081 -0.00923991 0.0181196 0.012399 -0.0382565 -0.000934856 0.0180091 -0.0067639 0.0200726 0.0155459 0.00222575 0.0247166 0.0306558 0.00511408 -0.00500188 -0.00995529 0.0200854 0.0239875 0.0392051 0.00855186 0.026538 0.029253 0.0111222 -0.0198538 0.0173039 -0.0487137 0.00710616 0.0181029 0.0311941 0.0417127 -0.00381059 0.0510195 0.0142294 -0.00015881 0.00751454 0.0251372 0.0211277 0.0123619 0.043418 0.00250523 0.0375662 -0.0148004 0.00616395 -0.0149457 0.035703 0.0446633 0.0433343 0.0464237 0.0603706 0.0140431 0.0368667 -0.0436454 0.0245833 0.0673538 -0.0298612 0.0119423 -0.0171221 0.0573324 0.00713267 0.0300546 0.0152313 0.0402827 0.0168071 0.072428 0.0146314 -0.00706192 -0.0300483 0.0303404 -0.0167366 -0.0288764 -0.00348169 -0.000355995 0.0110388 -0.0365731 -0.029008 -0.0309979 0.0219946 0.0087435 -0.0172421 -0.0299123 -0.00180082 0.0353824 0.0233569 0.0321704 0.0157913 0.017127 -0.00685534 -0.013097 0.0404697 0.0480758 -0.0365758 0.0168184 0.0262346 -0.00531345 0.0219007 0.0102994 -0.0409365 -0.0110321 0.0233071 0.016338 -0.0585607 -0.0327918 0.0192439 -0.01409 0.0236399 0.0197773 0.0483745 0.0217403 0.0149476 0.0257582 0.0595686 0.0306802 -0.0406417 0.0327223 -0.0171029 0.00893725 0.0222139 0.0191071 -0.00496983 0.0478555 0.0399344 -0.0273445 -0.0512319 0.0307487 -0.0367069 -0.00376907
internal_weight=570150 299017 271133 218222 66538.9 232478 174444 171737 168794 60740.9 101814 141316 105676 96595.5 15918.3 43777.9 56909.2 79608.2 31462.1 89237.2 47867.8 46345.9 84963.2 69922.8 9821.6 50620.7 35639.9 24513.7 17888.3 52911.3 27478.4 26067.9 78857.6 25555 22736.9 12704.2 53302.6 34764.8 8375.33 26389.5 18537.8 10032.6 21065.1 40311.5 44012.1 13562.4 17434.4 28592.3 7004.22 48146.1 37980.3 5649.24 23441.9 14563.6 17518.3 21730.5 11126.1 10026 34254.7 8479.27 16861.4 35191.5 2174.35 13568.2 21057 9025.03 7694.75 11504.3 8609.84 16792.4 22793.2 21590.8 13114.7 6413.34 6105.6 37646.3 12455.2 3536.42 6625.39 5052.83 995.49 2337.89 15381.9 11808 5947.3 11495.6 32276.5 22759.2 7087.59 3466.43 7358.38 1428.09 14802.3 8365.59 14521.2 4899.72 6096.66 4325.95 8073.92 7544.97 33828.3 17016.2 10902 9041.46 11005.6 15859.8 20570.2 7482.3 6495.35 9006.88 9952.05 8802.29 10716.8 6344.04 20474.4 2703.58 5778.22 1380.46 992.473 24185.9 13847.7 6992.25 5218.89 10275.3 27995.9 18394.9
internal_count=2203861 1166003 1037858 838921 267318 898685 667334 666566 644458 232119 393035 537785 400255 372103 61969 171587 216761 302133 118594 342936 181601 175474 325851 273531 37527 205349 137530 93962 67984 198937 106673 98122 301726 98887 87431 48295 202839 132931 31540 101391 69908 39136 81079 158534 165741 51151 65462 107267 26120 183539 143198 22876 88788 54603 69703 83035 43568 37559 131152 32102 64217 132425 8269 50763 80265 35005 30305 43519 33689 66654 88831 83954 50516 25594 24125 148601 47390 13592 25978 20011 3840 8831 58320 44655 22694 43806 124930 88590 26673 13053 29167 5450 56030 32276 54995 18714 24442 16833 30575 28676 138695 67843 41708 35160 41753 60243 76953 28390 24721 34084 37072 33222 42943 23902 79916 10362 21893 5256 3818 90672 52103 27569 20932 38708 110924 70909
cat_boundaries=0 4 8 12 16 20 24 28
cat_threshold=822083780 2239928320 1426874501 8736 809648832 3246625024 1344065665 8740 1116209427 543687236 547425632 386 302121745 268445376 2818572480 10 2214792384 2172692736 2503999631 9184 2890042000 3649044672 876613760 8928 2702181440 3518138376 1409957916 6817
is_linear=0
shrinkage=0.05


Tree=6
num_leaves=127
num_cat=2
split_feature=29 15 196 29 172 31 108 8 29 198 38 193 172 201 172 201 172 36 201 198 172 202 15 130 172 152 172 172 198 8 172 192 172 172 172 201 172 198 198 198 7 172 17 172 201 198 201 172 172 198 196 8 198 201 121 201 172 196 201 20 8 3 198 201 15 201 172 198 201 172 172 198 198 201 201 198 196 196 201 198 172 15 110 20 172 172 108 196 172 198 157 196 108 196 165 198 18 198 172 172 196 172 172 198 172 172 196 198 7 201 172 196 201 110 172 196 201 201 172 198 198 201 201 201 18 202
split_gain=55269.9 13879.6 13886 13013.1 8385 5948.07 5042.55 4112.42 3775.38 3166.05 3140.44 4135.04 3102.24 3501.76 2963.63 4289.75 3606.15 2718.46 2541.74 2517.42 2395.24 2251.1 2240.53 2003.93 2003.91 2003.76 1823.28 3320.31 1776.3 2106.02 2673.69 1679.44 1652.69 1945.93 1611.42 1473.77 1499.22 1654.97 2173.31 1442.38 3717.24 2570.17 2140.51 1538.73 1406.05 1414.01 1415.64 1335.33 1313.08 1309.29 1304.08 1436.82 1302.91 1289.08 1247.45 1218.39 1682.77 1544.94 1476.86 1215.61 1206.04 1585.93 1147.32 1193.34 1139.2 1114.2 1434.6 1104.07 1959.66 1075.87 1590.16 1882.18 1349.48 1371.12 1099.95 1062.26 1606.26 1044.16 1019.91 1009.05 1207.75 1003.68 1148.1 999.591 996.963 982.178 1353.21 977.641 959.31 950.456 1798.91 942.35 967.461 935.657 928.655 925.851 919.091 915.678 2402.02 950.059 944.558 914.745 1399.93 1593.53 913.875 1423.25 1151.33 887.306 1423.41 1701.69 1504.76 1419.39 971.915 958.933 862.874 855.398 820.586 901.932 878.13 819.395 818.115 943.511 1156.13 811.419 802.052 894.924
threshold=0.03383992468478187 0.17110277898799922 2.5000000000000004 0.02408322672173727 -1.3554495066725492 0.094789309006894543 0.026390525145873905 inf 0.043584848808958014 -0.045068212838153925 -0.59510632005091424 0.99950000000000017 -0.34428800055624381 0.76912032842483513 -0.24274418905800857 0.77001045626172693 0.8479027440833421 -80.892163917241888 0.6178300761480594 -0.052973019611079857 1.2372620103208383 0 0.35420021673953478 -0.0095238095238094327 1.5919490815766875 0.041269176223509126 0.61705842601637728 0.95507531288376646 -0.0025063796885923524 inf 4.1388769362214797 -7.0444999999999984 -0.91280293941069401 -1.9675106859613163 -0.15906527858193484 0.84781529732718974 1.0285853017128892 -0.011464312595193869 -0.016868856713195431 -0.026455579978320206 -1.0000000180025095e-35 -1.7722539633009433 0.068460108799594979 -1.8322476915554933 0.97240999196340538 -0.035001732617136676 0.94889390004206764 -0.1652197912647623 1.0887973948369816 -0.045068212838153925 4.5000000000000009 inf 0.0022085478072878533 0.86566979417740619 0.059820597436872965 0.95403132118895528 -0.24274418905800857 4.5000000000000009 0.79999870927376227 -0.013632811201309802 inf 778072.20000000007 0.0080947255993373286 1.0602639335991648 -0.054065115354593012 0.82595074544321589 0.28795656960456284 -0.021997750500278742 0.95670472575162768 -2.9674924754408001 -1.8624760947103589 -0.026455579978320206 -0.013472773382795287 0.91633849519260457 0.95403132118895528 0.078937329090058031 1.5000000000000002 4.5000000000000009 0.86269233323542094 0.023036008485035956 0.24556428866846672 -0.068605837315912896 0.33333333333222193 0.033108237552438004 -1.5030701861778264 0.11400947761441757 0.0042989719366484554 1.0000000180025095e-35 1.0013528437168373 0.078937329090058031 0.21705128205127802 1.5000000000000002 -0.0027668796888025201 3.5000000000000004 242.74190000000002 0.020203558909806633 0.30989394053449543 0.099729425746738834 2.5283441267586433 -0.34428800055624381 3.5000000000000004 -0.41001455435776374 -0.61632711641355853 -0.035587451710600286 -2.9674924754408001 -2.084155621944157 4.5000000000000009 -0.026455579978320206 -1.0000000180025095e-35 0.84565100440104823 -0.41001455435776374 4.5000000000000009 0.92617059259807177 0.0904388966106663 -0.93084570525375632 1.5000000000000002 1.0464640664248699 0.94360239598450935 -1.9118146381868095 0.020203558909806633 0.01621107798119226 0.82211019677012354 1.9950510101646819 0.92284268091584842 inf 1
