tree
version=v4
num_class=1
num_tree_per_iteration=1
label_index=0
max_feature_idx=219
objective=binary sigmoid:1
feature_names=adx winner_rate holder_pct total_mv pe pe_ttm pb market_score_adj mf_divergence mf_strength mf_consecutive ma_ratio_5 ma_ratio_10 ma_ratio_20 ma_ratio_60 ma_ratio_120 ma5_ma20 ma20_ma60 macd macd_signal macd_hist rsi_6 rsi_14 rsi_24 kdj_k kdj_d kdj_j boll_pct boll_width atr_pct bias_5 bias_10 bias_20 roc_10 roc_20 cci_14 wr_14 mfi_14 trix vol_ratio_5 vol_ratio_20 amplitude amount_ratio_20 vol_price_match obv obv_diff_20 cdl2crows cdl3blackcrows cdl3inside cdl3linestrike cdl3outside cdl3starsinsouth cdl3whitesoldiers cdlabandonedbaby cdladvanceblock cdlbelthold cdlbreakaway cdlclosingmarubozu cdlconcealbabyswall cdlcounterattack cdldarkcloudcover cdldoji cdldojistar cdldragonflydoji cdlengulfing cdleveningdojistar cdleveningstar cdlgapsidesidewhite cdlgravestonedoji cdlhammer cdlhangingman cdlharami cdlharamicross cdlhighwave cdlhikkake cdlhikkakemod cdlhomingpigeon cdlidentical3crows cdlinneck cdlinvertedhammer cdlkicking cdlkickingbylength cdlladderbottom cdllongleggeddoji cdllongline cdlmarubozu cdlmatchinglow cdlmathold cdlmorningdojistar cdlmorningstar cdlonneck cdlpiercing cdlrickshawman cdlrisefall3methods cdlseparatinglines cdlshootingstar cdlshortline cdlspinningtop cdlstalledpattern cdlsticksandwich cdltakuri cdltasukigap cdlthrusting cdltristar cdlunique3river cdlupsidegap2crows cdlxsidegap3methods lr_slope_20 lr_slope_60 lr_angle_20 channel_pos_60 lr_r2_60 break_high_20 break_high_60 break_low_20 gap_up gap_down limit_up limit_consec volume_spike_up volume_spike_dn k_kmid k_klen k_kmid2 k_kup k_kup2 k_klow k_klow2 k_ksft k_ksft2 qtlu_20 qtld_20 rank_20 rsv_20 imax_20 imin_20 imxd_20 corr_close_vol_20 cord_ret_vol_20 cntp_20 cntn_20 cntd_20 sump_20 sumn_20 sumd_20 vma_20 vstd_20 wvma_20 aroon_up aroon_dn aroon_osc kama_20 kama_dist sar_signal cmo_14 bop ppo apo ad adosc natr_14 stochrsi_k stochrsi_d ht_trendmode amount_1d amount_5d_avg amount_20d_avg amount_log amount_zscore_60d amount_breakout regime_days_in regime_intensity hs300_ret60_z60 cyb_rel_strength zz500_rel_strength sm_net_5d mid_net_5d lg_net_5d elg_net_5d main_net_5d lg_net_20d elg_net_20d main_net_20d main_consec_in main_consec_out dispersion_5d elg_ratio_5d buy_sell_imb_5d upward_impact_per_amount range_per_amount_5d amihud_illiq_5d kyle_lambda_20d tail_risk_5d range_compression drawdown_recovery price_impact_asym mfk_main_ma5 mfk_main_ma20 mfk_main_ma_diff mfk_main_cross_state mfk_main_days_in_cross mfk_main_cross_strength mfk_main_macd mfk_main_macd_hist mfk_main_macd_zero_dist mfk_smart_dumb_spread mfk_pyramid_top_heavy mfk_inst_acc_velocity mfk_main_price_sync_20d mfk_main_lead_5d mfk_main_velocity_5d mfk_main_consec_above_ma20 mfk_main_acc_ratio_60d regime_id mkt_ret_5d mkt_ret_20d mkt_ret_60d mkt_rsi14 mkt_vol_ratio industry_id
feature_infos=[-8:10] [-10:12] [-6:8] [42781.51953125:259107344] [1.2453000545501709:6756.66162109375] [1.1428999900817871:279458.25] [0.18340000510215759:673.37152099609375] [-5:2] [-12:8] [-10:10] [0:5] [-0.3319740891456604:0.67938196659088135] [-0.43387696146965027:0.97859233617782593] [-0.45283019542694092:1.8953502178192139] [-0.67996472120285034:3.2993776798248291] [-0.70641821622848511:3.7997341156005859] [-0.39707502722740173:1.2383393049240112] [-0.62258601188659668:1.2771478891372681] [-56.183143615722656:65.895431518554688] [-51.398593902587891:46.549518585205078] [-24.476375579833984:44.784832000732422] [0:99.815017700195312] [3.1659057140350342:98.501625061035156] [9.9523468017578125:96.499259948730469] [-1.1309472103390381e-13:100] [-8.6103961959536901e-14:100] [-65.517242431640625:160.7984619140625] [-0.56519955396652222:1.5275559425354004] [0.006303505040705204:3.084364652633667] [0.0050376537255942822:0.46434938907623291] [-0.3319740891456604:0.67938196659088135] [-0.43387696146965027:0.97859233617782593] [-0.45283019542694092:1.8953502178192139] [-66.517059326171875:452.04678344726562] [-70.501655578613281:672.05609130859375] [-459.80392456054688:447.56915283203125] [-100:0] [-2.618193747742914e-13:100] [-3.8789308071136475:11.62141227722168] [0.0064718467183411121:4.8164348602294922] [0.0034463345073163509:13.322762489318848] [0:5.8255815505981445] [0.0030306817498058081:15.128204345703125] [1:4] [-63149900:275892864] [-98698776:140917248] [-100:0] none [-100:100] [-100:100] [-100:100] none [0:100] none [-100:0] [-100:100] none [-100:100] none [-100:100] [-100:0] [0:100] [-100:100] [0:100] [-100:100] [-100:0] [-100:0] [-100:100] [0:100] [0:100] [-100:0] [-100:100] [-100:100] [-100:100] [-200:200] [-200:200] [0:100] [-100:0] [-100:0] [0:100] none none [0:100] [0:100] [-100:100] [-100:100] [0:100] none [0:100] [0:100] [-100:0] [0:100] [0:100] none [-100:100] [-100:0] [-100:100] [-100:100] [-100:0] [0:100] [0:100] [-100:100] [-100:0] [-100:100] [0:100] none [-100:100] [-16.523616790771484:20.426435470581055] [-5.8507466316223145:5.2900052070617676] [-86.536712646484375:87.197257995605469] [0:1] [-48.620925903320312:0.96680498123168945] [0:1] [0:1] [0:1] [0:1] [0:1] [0:1] [0:13] [0:1] [0:1] [-0.36250001192092896:0.6801069974899292] [0:1.5497499704360962] [-1:1] [0:1.2999999523162842] [0:1] [0:0.20512820780277252] [0:1] [-1.0502500534057617:0.39181819558143616] [-1:1] [-0.56043714284896851:1.2937197685241699] [-0.84283000230789185:0.84826672077178955] [0.05000000074505806:1] [0:1] [0:19] [0:19] [-19:19] [-0.96089726686477661:0.99545532464981079] [-0.96260637044906616:0.96668970584869385] [0:20] [0:20] [-20:20] [0:1942.8052978515625] [0:137.601806640625] [-106.78929901123047:1830.1302490234375] [330.69601440429688:19362698] [189.94317626953125:12285762] [388.75674438476562:22991982] [0:100] [0:100] [-100:100] [0.89749127626419067:1687.7705078125] [-0.69490152597427368:0.45046991109848022] [-1:1] [-93.668190002441406:97.003250122070312] [-1:1] [-34.109310150146484:73.228157043457031] [-111.92282104492188:130.93321228027344] [-147141872:164263136] [-13589604:30499950] [0.50376540422439575:46.434940338134766] [0:100] [-2.5105842426688396e-13:100] [0:1] [0.20829999446868896:29209.1171875] [0.33700001239776611:28696.103515625] [0.4512999951839447:33972.890625] [0.18919999897480011:10.282299995422363] [-2.7592000961303711:7.6019001007080078] [0:1] [0:20] [-4.0978507995605469:24.219085693359375] [-4.1243257522583008:4.8427348136901855] [-0.10490956902503967:0.33222556114196777] [-0.11083488911390305:0.0975189208984375] [-2.7950835227966309:10.100738525390625] [-2.1163966655731201:3.4152402877807617] [-5.0097637176513672:1.6358146667480469] [-7.595360279083252:3.2084174156188965] [-12.26329517364502:3.0658433437347412] [-8.7206106185913086:4.7861728668212891] [-26.183181762695312:5.086674690246582] [-31.922115325927734:5.1919674873352051] [0:22] [0:38] [-2:2] [-2:3] [-2.9175209419918247e-05:7.7383701864164323e-05] [0:0.00057099998230114579] [0:0.00092700001550838351] [0:0.00018135999562218785] [-0.77890002727508545:0.99360001087188721] [-61.102001190185547:0] [0:7.3309998512268066] [0:18.969999313354492] [-0.00043099999311380088:0.00039599998854100704] [-2.4526591300964355:0.61316865682601929] [-1.596105694770813:0.25959837436676025] [-1.3417037725448608:0.61587274074554443] [-1:1] [1:43] [-118.29522705078125:179.56159973144531] [-0.58692258596420288:0.24544981122016907] [-0.38434836268424988:0.23757801949977875] [-7.6127033233642578:7.7472410202026367] [-90.110626220703125:88.415122985839844] [0:21.743289947509766] [0:3.9163577556610107] [-0.9907677173614502:0.99057507514953613] [-0.86461615562438965:0.85194170475006104] [-1.9661408662796021:2.170337438583374] [0:29] [0.01666666753590107:1] [0:5] [-0.094008602201938629:0.26975366473197937] [-0.089900888502597809:0.28140589594841003] [-0.11990600079298019:0.2605765163898468] [9.3665838241577148:98.030632019042969] [0.58250290155410767:3.3435266017913818] -1:74:8:93:1:19:61:25:23:18:97:51:37:68:72:107:33:4:70:0:30:2:32:34:48:16:90:87:36:42:96:5:6:105:22:84:14:35:76:24:80:38:53:64:21:98:104:43:17:13:66:9:47:55:57:31:59:50:3:108:100:81:78:58:92:75:46:69:89:86:103:44:56:63:29:27:102:77:12:54:85:88:20:39:15:67:41:109:94:45:99:82:60:91:62:65:10:95:83:101:28:71:106:7:49:40:79:26:52:11
tree_sizes=7222 7236 7174 7244 7236 7285 7292 7247 7257 7187 7241 7282 7192 7230 7194 7347 7279 7294 7333 7219 7314 7189 7299 7241 7321 7348 7316 7295 7285 7278 7290 7189 7341 7401 7446 7328 7367 7403 7360 7217 7193 7417 7407 7449 7259 7418 7239 7539 7523 7248 7192 7445 7440 7468 7499 7532 7490 7541 7468 7231 7483 7506 7507 7493 7608 7539 7516 7529 7563 7485 7492 7230 7270 7563 7266 7273 7598 7665 7257 7605 7560 7648 7225 7229 7726 7677 7265 7593 7262 7533 7249 7684 7241 7556 7640 7648 7229 7645 7723 7241 7661 7566 7551 7634 7264 7630 7777 7242 7641 7624 7680 7713 7713 7742 7285 7587 7553 7542 7762 7737 7769 7157 7559 7264 7631 7229 7263 7659 7681 7748 7712 7255 7626 7670 7668 7765 7234 7644 7207 7767 7205 7735 7727 7793 7669 7734 7798 7769 7779 7693 7857 7250 7216 7730 7594 7641 7237 7227 7674 7654 7595 7240 7622 7222 7651 7705 7817 7674 7236 7212 7690 7696 7226 7188 7217 7740 7737 7697 7259 7626 7656 7621 7699 7676 7641 7664 7670 7214 7646 7195 7628 7702 7676 7646 7188 7208 7205 7619 7683 7573 7702 7720 7264 7774 7757 7798 7241 7670 7675 7637 7540 7758 7558 7220 7661 7621 7252 7619 7655 7195 7715 7136 7647 7659 7632 7667 7207 7788 7205 7127 7710 7640 7499 7690 7668 7693 7219 7270 7704 7238 7525 7577 7670 7161 7739 7660 7518 7263 7546 7230 7199 7728 7702 7734 7264 7172 7403 7512 7203 7640 7576 7572 7723 7704 7538 7559 7603 7580 7685 7591 7253 7307 7639 7184 7228 7586 7233 7575 7230 7683 7597 7265 7551 7220 7450 7201 7511 7558 7300 7232 7536 7187 7684 7666 7689 7598 7497 7515 7680 7193 7421 7255 7517 7559 7606 7183 7516 7704 7166 7661 7685 7199 7520 7610 7508 7679 7151 7224 7415 7165 7541 7567 7524 7551 7490 7608 7569 7658 7120 7681 7768 7457 7436 7638 7456 7255 7208 7185 7263 7500 7527 7631 7478 7622 7525 7655 7151 7449 7151 7145 7516 7701 7550 7644 7208 7422 7216 7176 7571 7394 7205 7821 7212 7136 7086 7184 7176 7276 7377 7179 7537 7601 7483 7611 7222 7660 7529 7491 7159 7168 7527 7231 7527 7627 7140 7415 7151 7160 7157 7280 7180 7458 7132 7223 7334 7197 7115 7358 7614 7209 7315 7416 7240 7327 7374 7501 7473 7283 7558 7567 7594 7737 7265 7596 7540 7462 7489 7627 7418 7236 7193 7086 7447 7252 7430 7516 7479 7400 7686 7192 7699 7265 7347 7110 7686 7149 7396 7454 7556 7621 7550 7475 7524 7427 7452 7726 7457 7699 7664 7509 7616 7160 7421 7572 7417 7530 7462 7514 7218 7185 7524 7318 7557 7205 7260 7474 7451 7192 7100 7143 7164 7247 7282 7653 7464 7411 7226 7557 7123 7187 7147 7549

Tree=0
num_leaves=63
num_cat=1
split_feature=213 173 170 172 214 15 152 214 172 173 5 174 29 173 172 172 170 172 217 172 157 29 217 219 218 218 174 14 172 217 172 172 174 170 218 214 110 217 114 15 214 172 172 218 174 217 214 173 29 173 217 214 170 174 174 3 174 3 214 173 172 173
split_gain=41979.6 45638.6 23270 32635.4 22573.4 16844.3 15995.6 15841.7 12212 11992.6 9766 8433.24 8134.9 7860.47 7688.24 10004.1 6890.96 6853.47 6444 5983.04 5657.18 5400.07 4840.7 4274.69 4052.09 4025.93 4590.37 3782.83 3685.98 7323.45 5980.68 3658.51 3861.73 5864.61 4939.65 3588.66 3458.49 3163.11 3103.89 3251.92 3084.13 2951.99 2663.63 3615.84 2458.9 2380.73 2254.16 2234.72 2195.03 2127.98 2085.56 2052.3 2041.29 2003.67 1941.88 1921.78 1866.03 1738.09 1688.83 1539.33 1480.4 1474.63
threshold=1.5000000000000002 0.017245631664991382 12.500000000000002 -0.45316229760646815 -0.025834349915385243 0.23300229758024218 0.10113817453384401 0.039294270798563964 -1.3589423298835752 -0.01294055813923478 24.695000648498539 -0.010641990695148705 0.039749115705490119 -0.09344864264130591 1.8440799713134768 2.2748829126358037 13.500000000000002 0.62684389948844921 85.581661224365249 -1.6548297405242918 0.26919873058795935 0.038288831710815437 46.379808425903327 0 0.82202002406120311 1.229418992996216 -0.0062428545206785193 0.18529237061738971 -0.865024834871292 48.163391113281257 -1.7398520708084104 -2.019292831420898 -0.057121694087982171 3.5000000000000004 0.82202002406120311 0.1600102633237839 0.41357722878456121 66.613876342773452 1.0000000180025095e-35 0.13095667213201526 -0.0063437363132834426 0.93332403898239147 -0.5347420573234557 0.90341022610664379 -0.047671362757682793 28.077179908752445 -0.010000746231526135 -0.051706122234463685 0.030010123737156395 -0.011661352124065159 20.885786056518558 0.025603958405554298 1.5000000000000002 1.0000000180025095e-35 0.072099827229976668 810753.96875000012 -0.033758427947759621 1228578.2500000002 0.012056739535182716 0.10815181210637094 -1.832247734069824 -0.088138956576585756
decision_type=2 2 2 2 2 8 8 2 2 2 8 2 8 2 2 2 2 2 2 2 8 10 2 9 2 2 2 8 2 2 2 2 2 2 2 2 8 2 2 10 2 2 2 2 2 2 2 2 10 2 2 2 2 2 2 2 2 2 2 2 2 2
left_child=6 2 3 12 17 11 8 10 9 19 23 -3 24 -10 16 48 21 -5 25 -1 38 -13 -11 -6 53 57 44 -19 30 40 45 -14 33 -33 -34 -8 56 42 39 50 47 -4 -23 -44 -27 -26 -40 -30 -16 61 -15 55 -21 -2 59 -25 60 -12 -58 -7 -36 -32
right_child=1 5 41 4 7 54 35 -9 13 22 18 14 31 20 15 -17 -18 27 -20 52 -22 37 -24 51 28 26 -28 -29 29 -31 49 32 34 -35 36 -37 -38 -39 46 -41 -42 -43 43 -45 -46 -47 -48 -49 -50 -51 -52 -53 -54 -55 -56 -57 58 -59 -60 -61 -62 -63
leaf_value=-0.134437971165907 -0.011170843504516983 -0.002576478205553942 -0.061996666329628629 0.025518533505116944 -0.08483465340887264 -0.034275685265153774 -0.049969598535886339 -0.15242794110630054 0.022512191961089376 -0.019360402518990925 0.018030600801142868 -0.14630162856790674 0.0072050071664832432 -0.050642954137136237 -0.09908056561067502 -0.11776300838653959 -0.027926404390680573 -0.13704196254654039 -0.14174946907580344 -0.028071329920860325 -0.086235245506138508 -0.14003632984004527 -0.14140371041625133 -0.0025368059921255237 -0.13305467817005046 -0.083938648260639431 -0.062754732449419107 -0.049919891562376126 -0.15158607652733036 -0.12602886679757846 -0.017534985062933842 0.024357459100015438 -0.010556512308099876 -0.098053540129481698 -0.15177712826442685 0.024368939738133685 -0.034477133896214159 -0.13651538726990747 -0.0040109740800042953 -0.075209662726350948 -0.093769921731584202 -0.13138282615914396 -0.10111239821292281 -0.035576704851593151 0.028385583078252022 -0.040627991656195891 -0.11866282391448497 0.01128742066068926 0.0086828617768424377 -0.14046113406701694 -0.13826960852881123 -0.078792318207388717 -0.086397844616641739 -0.069591671978411776 0.0017572097701986367 -0.036924107816534497 -0.057847637820424291 -0.0062937756938206343 -0.14003997213416897 -0.082481890198611185 -0.087539437426205138 -0.10307464213811472
leaf_weight=7454.006033718586 3001.1007444560528 1891.8570611774921 1922.5965947210789 984.1148599088192 3426.0751062631607 5732.8262393772602 6412.1729573011398 1860.2467063963413 975.34808242321014 8632.0679498612881 38952.077491432428 16281.908198565245 3121.9056556522846 693.03524404764175 553.24427029490471 4423.772176861763 1912.3637664318085 5091.966623544693 728.07484009861946 1942.0895072519779 9443.4649176299572 2314.9145398437977 896.79670879244804 8684.7539910674095 799.10007509589195 566.10435682535172 4001.0923054516315 1649.4159645736217 223.49895107746124 2376.9013455510139 524.32691013813019 3623.0911051630974 4853.0590027272701 1340.3066439330578 1046.2058100402355 2173.9187931716442 6372.4365465044975 5902.8915583789349 821.99831175804138 2312.8687739670277 1081.1179490983486 7559.368397384882 6646.642726868391 3079.8580166399479 3492.4435600340366 5432.175641387701 895.79554533958435 3620.7546184062958 3234.8166071772575 4217.0166226923466 33307.842001438141 1551.9391832351685 6589.3928284645081 2872.0144969820976 2564.0187434852123 7636.851704210043 9218.0956663787365 9053.9668532907963 670.32182341814041 2328.4508959650993 6284.6493741869926 12813.044937849045
leaf_count=29546 11405 7168 7436 3692 13355 21962 24698 7418 3663 32898 146520 64794 11788 2670 2167 17437 7310 20201 2893 7424 36828 9193 3563 32905 3166 2206 15479 6353 891 9395 1997 13598 18439 5248 4171 8159 24414 23414 3116 8986 4227 29933 26052 11804 13089 20856 3532 13652 12208 16749 132194 6037 25699 11137 9700 29283 35602 34349 2662 9069 24520 50255
internal_value=-0.0652018 -0.05412 -0.0411929 -0.0367145 -0.0161157 -0.0929127 -0.0957445 -0.00822954 -0.103243 -0.0752465 -0.00479446 -0.105957 -0.0612901 -0.117987 -0.110367 -0.0666959 -0.120291 -0.0977311 0.00603385 -0.101713 -0.120873 -0.125452 -0.0308475 -0.0336677 -0.0778279 0.00795319 -0.0247488 -0.115725 -0.0850238 -0.0539517 -0.0945633 -0.044557 -0.0493944 -0.00869911 -0.0564958 -0.0311463 -0.0659464 -0.106533 -0.129474 -0.132581 -0.019167 -0.117313 -0.0918336 -0.0803601 0.0127169 -0.0524825 -0.063802 0.001815 -0.00705764 -0.109501 -0.136483 -0.0238755 -0.0731196 -0.0397396 -0.036144 -0.018626 -0.0775922 0.0134433 -0.0634205 -0.0482004 -0.0967087 -0.0997111
internal_weight=310071 227520 170652 161170 87679.1 56867.6 82550.8 79953.6 73964.7 25514.4 78093.4 46242.3 73491.1 48450.4 44350.4 8211.83 36138.6 7725.5 56793.8 15985.5 47475 34226.2 9528.86 21299.6 36961.1 56065.7 8059.64 6741.38 31087.9 7302.27 23785.7 36530.1 33408.2 4963.4 28444.8 8586.09 23591.7 17944.3 38031.5 36313.7 4925.37 9481.96 12041.4 9726.5 4058.55 6231.28 1717.79 3844.25 3788.06 17554.4 34000.9 17873.5 8531.48 5873.12 10625.3 16321.6 17219.3 48006 9888.42 8061.28 7330.86 13337.4
internal_count=1200575 877599 655321 617952 333780 222278 322976 303534 290119 99130 296116 181547 284172 190989 174379 31812 142567 30246 214536 62669 187326 135257 36461 81580 143730 211643 30774 26554 121188 28165 93023 140442 128654 18846 109808 32857 91369 70463 150498 143850 18770 37369 47049 37856 15295 24022 6648 14543 14375 69001 134864 68225 33123 22542 40731 62188 66955 180869 38264 31031 28691 52252
cat_boundaries=0 4
cat_threshold=335560832 2407667712 1342988429 8744
is_linear=0
shrinkage=1


Tree=1
num_leaves=63
num_cat=3
split_feature=173 173 152 171 172 216 216 170 174 174 5 15 173 216 218 174 216 172 172 215 218 215 14 171 216 172 170 144 14 215 172 173 172 3 144 219 151 170 6 192 171 174 173 111 170 3 29 3 29 173 173 216 3 218 215 218 171 15 3 216 219 219
split_gain=30957 35614.9 26965.4 26473.7 36475.6 32272.9 26075 18832.1 12864.2 11763.4 9618.4 8608.92 6479.56 5969.63 5908.74 5659.69 5525.58 5517.27 5011.71 9391.45 4845.15 7028.03 4772.7 4720.36 4473.03 4239.09 3514.69 3473.4 3415.84 3284.62 3307.81 3263.88 3189.04 2642.2 2616.78 2607.56 2607.49 2581.48 2521.92 2464.76 2378.81 3619.12 3451.96 2194.34 2127.12 2104.88 2054.59 1982.15 1903.22 1864.47 5250.8 1667.41 1666.56 1663.05 1876.54 1742.72 1435.1 1375.6 1297.05 1287.6 1206.83 1200.91
threshold=0.017245631664991382 -0.05259872414171695 0.078054029494524016 1.6222521066665652 -0.865024834871292 -0.018216993659734722 -0.058559982106089585 12.500000000000002 0.026050256565213207 0.002532967366278172 23.170599937438968 0.22123955935239795 -0.079254437237977968 0.16335706412792209 0.73859173059463512 -0.0015690333675593136 -0.012618379201740025 -1.6064791083335874 1.8440799713134768 0.06152313947677613 1.1346698403358462 0.017809827812016014 0.054304113611578948 -0.64297342300415028 0.13200516253709796 0.62684389948844921 14.500000000000002 8.1737999916076678 0.1958827078342438 0.06152313947677613 1.5209511518478396 0.0031742439605295662 -1.7398520708084104 858207.37500000012 31.09799957275391 0 11.735887050628664 1.0000000180025095e-35 2.3522499799728398 -8.9825000762939435 0.035710969939827926 -0.023693810217082497 -0.034314177930355065 -0.090103521943092332 5.5000000000000009 2610515.5000000005 0.035953471437096603 253881.39062500003 0.030010123737156395 -0.0056866568047553292 -0.0032884306274354454 -0.012200306635349987 1968716.6250000002 1.1346698403358462 0.017809827812016014 0.82595074176788341 -0.43097333610057825 0.13706114888191226 1185569.3750000002 0.20412039756774905 1 2
decision_type=2 2 8 2 2 2 2 2 2 2 8 8 2 2 2 2 2 2 2 2 2 2 8 2 2 2 2 8 8 2 2 2 2 2 8 9 10 2 8 2 2 2 2 10 2 2 8 2 10 2 2 2 2 2 2 2 2 8 2 2 9 9
left_child=1 6 9 4 5 17 12 8 10 24 25 18 32 29 37 44 -5 40 26 48 49 23 -8 -22 -2 35 38 36 -10 30 -4 -23 -1 53 -31 -6 -19 -12 -11 -18 46 42 -42 -41 52 -34 -3 -14 -20 -16 -51 -40 -7 55 -55 -27 -35 -26 -52 -13 -53 -58
right_child=2 3 13 16 7 15 22 -9 28 11 14 59 47 -15 20 -17 39 27 19 -21 21 31 -24 -25 57 33 -28 -29 -30 34 -32 -33 45 56 -36 -37 -38 -39 51 43 41 -43 -44 -45 -46 -47 -48 -49 -50 50 58 60 -54 54 -56 -57 61 -59 -60 -61 -62 -63
leaf_value=-0.018754138874644617 0.043680849020749403 -0.0098603943373403499 0.0090608774047029918 -0.068047400584151235 -0.014824892191840822 0.070001799912279769 -0.063235384253515797 -0.06287436988075383 -0.057420047499775299 -0.079610601666395178 0.074248698422169773 -0.00031917820762900474 0.036378370233550089 0.067724334821432128 0.081660190792034543 -0.070106596005303029 0.044501452352560505 -0.05058420451621224 -0.031696286147909696 -0.058865668873436076 -0.02085537791979131 -0.064388375504222939 -0.0024229985465477532 0.07883038537169143 -0.063859916975580314 -0.018770297302814359 0.031858180523624019 0.016819430489811479 0.033247749348709221 -0.035569802973739968 0.087408573130136391 0.026855893117232629 0.088553578622465615 -0.054266193252982035 0.021086177395057387 0.061856742957651305 -0.022003647963941032 -0.031794088850937638 -0.073867179478041667 0.02250940621231529 0.051835112321434763 -0.064900237912270523 -0.064823370029095759 -0.043817338770323344 0.028608686683749964 -0.017161540357158497 0.03106377298058078 -0.073769616216402475 0.059840215750078765 -0.032186294706092702 0.075782950838097912 -0.0054709652062759524 0.024317364416464926 0.036736427700051595 -0.065352080596275439 0.060625174333791568 -0.052853149432339354 0.0018600033950533627 0.042382194176142925 0.06236509634147 -0.049252830194772133 0.011101816181184316
leaf_weight=962.64253714680672 5041.5057860910892 5292.7024621665478 3788.7376765608788 8471.3016655445099 1276.6639685630798 14460.866495072842 24890.613850325346 3783.7505428791046 3296.0678685903549 20761.161334767938 774.10530859231949 3815.1730736196041 597.45103552937508 6001.6278126388788 32671.873372226954 946.926543623209 1658.0673366934061 16977.806273847818 716.51033426821232 7481.9303832799196 1393.9677808135748 1828.1841678917408 3707.1192598044872 8014.8067803382874 1641.8069995045662 840.29187668859959 889.30597533285618 3287.0335886925459 1516.6815204918385 4865.2373808771372 2090.6032332181931 2112.3867907077074 5412.0748246610165 1652.2460073977709 3507.0034841150045 8499.1615467071533 15060.608785584569 2218.2371651828289 5023.7316025942564 1764.8338680714369 1972.8798118978739 2856.7402418106794 934.34107732772827 4248.7283320724964 5819.0371763408184 515.61282543838024 7292.2365453392267 1290.2404537945986 2734.9045471549034 1370.8904193788767 14829.89178879559 2207.6539600044489 2316.5908813029528 987.78676363825798 826.8057087957859 3890.7696098089218 885.5297909528017 1545.6219887286425 3616.647522225976 1043.0826684087515 5587.5662419348955 4057.3996856212616
leaf_count=3758 19247 20579 14647 33726 4975 54628 98955 15045 13063 83036 2928 14786 2289 22695 122834 3772 6330 67093 2814 29687 5450 7266 14413 30166 6526 3284 3404 12669 5810 19119 7850 8105 20295 6531 13507 32203 58925 8720 20055 6786 7498 11355 3711 16760 22325 2008 27934 5132 10372 5383 55850 8595 8893 3777 3285 14739 3498 5993 13786 3951 22097 15662
internal_value=0.00324586 0.0124719 -0.023829 0.0210944 0.0266678 0.000834232 -0.0322148 0.0465475 0.0508354 -0.0410467 0.0550152 -0.0501197 0.0431643 0.0258941 0.0643566 0.0496408 -0.0402097 -0.020574 -0.0568888 -0.0273917 0.0674797 0.0405823 -0.0553525 0.0640607 0.0143692 0.0269577 -0.0662447 -0.0321274 -0.028846 0.00827782 0.036922 -0.0154752 0.0656493 0.00840922 -0.0118369 0.0518901 -0.0371493 -0.00435807 -0.068843 -0.00946904 0.00166847 -0.0249327 0.01434 -0.0243512 0.0546594 0.0793571 0.0138524 -0.0389052 0.0408355 0.0743202 0.0622186 -0.0514032 0.0636943 0.0309142 -0.00977773 0.0465225 -0.0139261 -0.0319909 0.0692349 0.0131393 -0.0369246 -0.000440058
internal_weight=309824 231081 78743.2 193705 177562 77217.8 37375.8 100344 96560.4 58490 91747.6 50261 8778.02 20253.2 68831 23543.4 16142.9 53674.3 45402.8 10933.3 65838.6 13349.3 28597.7 9408.77 8228.93 22916.7 34469.4 35325.4 4812.75 14251.6 5879.34 3940.57 6890.33 13140.8 8372.24 9775.83 32038.4 2992.34 33580.1 7671.63 18348.9 5763.96 2907.22 6013.56 22596.5 5927.69 12584.9 1887.69 3451.41 52489.3 19817.4 12819 16777.5 6545.65 1814.59 4731.06 6595.18 3187.43 18446.5 4858.26 7795.22 4942.93
internal_count=1200575 892194 308381 745344 681742 299382 146850 382360 367315 230563 348442 198797 33482 77818 260488 89618 63602 209764 180060 42873 248840 50987 113368 35616 31766 87954 137187 138687 18873 55123 22497 15371 26061 50776 32626 37178 126018 11648 133783 29876 71077 22564 11209 23546 85846 22303 48513 7421 13186 197853 75019 50747 63521 25085 7062 18023 25691 12519 69636 18737 30692 19160
cat_boundaries=0 4 8 12
cat_threshold=335691904 2457866240 1342832769 12840 570557201 39846544 805310592 8214 8192 2239758850 270557568 516
is_linear=0
shrinkage=0.05


Tree=2
num_leaves=63
num_cat=0
split_feature=216 173 173 216 172 216 172 29 174 170 215 216 111 3 172 174 217 174 173 173 31 172 174 216 174 217 174 14 170 172 215 131 192 174 172 216 170 173 15 29 29 174 29 151 29 170 3 172 172 170 3 216 170 172 216 14 15 29 108 15 17 215
split_gain=28211.7 29472.4 27626 23633.2 16303.7 30474.6 29729.2 13717.3 12286 8419.77 8282.24 8014.49 7943.43 6807.86 6178.66 6290.27 6148.42 10189.3 5889.63 5861.34 5548.49 5524.98 5360.68 5125.88 5113.34 4956.43 5850.63 4349.75 3619.9 3387.27 4183.39 3344.08 3306.62 3187.99 2887.45 2875.49 4438.36 3712.06 2699.64 2421.28 2389.25 2933.84 2384.34 2244.13 2013.38 1994.92 1942.24 1821.46 1816.96 2734.19 1808.83 1719.78 1702.46 1675.43 1643.77 1620.15 1607.71 1520.83 1473 1472.94 1406.03 1319.11
threshold=0.21453891694545749 0.017245631664991382 -0.05259872414171695 -0.058559982106089585 -0.865024834871292 -0.018216993659734722 0.62684389948844921 0.040926732122898109 -0.04229228384792804 12.500000000000002 0.070080518722534194 0.014847786631435158 0.32159917056560522 858207.37500000012 4.1388769149780282 0.002532967366278172 58.474763870239265 -0.014099010732024906 0.013414041604846718 -0.079254437237977968 0.10796841979026796 -1.4890000224113462 0.017777305096387867 0.12285238504409791 -0.0015690333675593136 51.940938949584968 1.0000000180025095e-35 0.054304113611578948 10.500000000000002 1.8440799713134768 0.06152313947677613 -0.13036624342203137 -5.566499948501586 0.046702217310667045 -1.7398520708084104 -0.045692106708884232 2.5000000000000004 -0.042777294293045991 0.15067129582166675 0.022597322240471843 0.036837393417954452 0.057472284883260734 0.034768443554639823 11.31690549850464 0.027322690002620224 14.500000000000002 1769405.3125000002 2.1187472343444829 -0.71823564171791066 1.0000000180025095e-35 282798.93750000006 -0.03038839157670736 5.5000000000000009 0.7662351429462434 0.15393300354480746 0.1958827078342438 0.29593282938003546 0.041527055203914649 -0.0035252848174422975 0.17315600812435153 -0.033893804997205727 -0.0049815992824733249
decision_type=2 2 2 2 2 2 2 8 2 2 2 2 10 2 2 2 2 2 2 2 8 2 2 2 2 2 2 8 2 2 2 10 2 2 2 2 2 2 10 8 8 2 8 8 8 2 2 2 2 2 2 2 2 2 2 10 8 8 10 8 10 2
left_child=1 2 3 19 5 21 16 14 -8 12 11 28 13 22 15 53 18 -18 39 34 33 35 47 -13 44 26 60 -5 38 45 58 -27 -23 -12 -1 57 37 -37 -9 -6 41 -2 51 -34 -7 -17 -36 54 49 -41 -21 -15 -46 -3 -10 -28 -25 -4 -31 -39 -14 -62
right_child=40 7 4 27 6 24 8 10 9 -11 20 23 25 42 -16 29 17 -19 -20 50 -22 32 -24 56 -26 31 55 -29 -30 30 -32 -33 43 -35 46 36 -38 59 -40 48 -42 -43 -44 -45 52 -47 -48 -49 -50 -51 -52 -53 -54 -55 -56 -57 -58 -59 -60 -61 61 -63
leaf_value=-0.017830957918440086 0.055513903245664603 0.040030381719159819 0.0012905314314953361 -0.060379265046743083 0.03577942337415823 0.011293877294235788 -0.082149603037038874 -0.053318633433383146 0.063452545337390309 -0.060044086025532788 -0.059567902085815555 0.069505682013186451 0.078539078457690537 0.044169145328566473 0.094867263375538802 -0.075542788988991083 -0.038652440879962099 0.069894747978559921 -0.053363449425860958 0.027289022557265064 0.038179949502979732 0.00020384312757819255 -0.029008448354797458 -0.017010040312537177 -0.066974764526567213 0.018510175764166466 -0.051478554416235701 -0.0023021363745600251 0.063198202550625346 0.052742936584707995 -0.063005970598331212 -0.049067684217911238 -0.05532130303065539 -0.01175285413665623 0.087276415006328253 0.043117784167242018 0.016639146026421667 -0.073545683899448197 0.003465828746148487 0.001330941584648243 0.075531123353312343 -0.034696373938508017 0.021225922674459316 -0.026233639301361002 0.066099962968431555 0.015776024141934613 0.0054093116154225393 -0.026563173916177081 0.081944995579629434 0.090103671542096184 -0.074378786478243766 -0.042717067712057855 0.032806254918823635 -0.025995091449353875 -0.014145115633967215 0.024975974106377283 0.040658695547563045 0.038523972062725786 -0.033836668018778132 -0.0057251004004383703 0.049614703174675409 -0.010652662247417019
leaf_weight=961.88291922211647 4014.2803947776556 1761.4660360962152 7202.6316730827093 24767.625330716372 3890.7778154462576 2686.5064799338579 3695.5643366575241 5483.037712842226 17642.698876008391 3764.4764347374439 10788.996061146259 6542.8358708620071 2253.7130041718483 675.31145343184471 696.44443880021572 21375.278769314289 3807.4735760241747 5002.1003779172897 947.71592752635479 691.06327390670776 2349.8307119607925 5784.4675469398499 1972.2430473566055 3426.642245978117 941.77532894909382 2432.2117146551609 2769.747880384326 3706.6715892404318 1134.7364912182093 1479.23938408494 3674.1188390552998 7399.9616383165121 13964.031698465347 5150.4966261088848 5068.1149552315474 987.0968880802393 4833.572668120265 4687.5781163871288 3385.1253738850355 1822.7403989583254 12775.941785484552 1162.0834172815084 5193.1227311939001 12628.983815491199 14712.588557198644 615.14861744642258 845.47604687511921 621.66331265866756 27464.230016440153 1654.9945204555988 1191.7536014169455 3631.4945087581873 5196.9627731889486 2113.5875160545111 709.79014581441879 923.95007279515266 1866.9087562859058 4429.1887786239386 735.35441917181015 965.67517960071564 2692.022212266922 1369.7353516221046
leaf_count=3758 15244 6717 27898 98955 14874 10352 14884 21846 66808 15045 42969 24719 8487 2578 2608 86003 15004 18889 3761 2654 8988 22483 7743 13405 3772 9381 10996 14413 4296 5626 14664 29373 55507 20131 19035 3760 18625 18772 13126 7059 48164 4597 19997 49581 55605 2366 3268 2449 103280 6204 4767 14298 19889 8302 2773 3550 7123 16910 2888 3768 10243 5345
internal_value=0.00308817 -0.000662465 0.0085038 -0.0307263 0.0165577 -0.00050267 0.0297311 -0.0282691 0.00605021 0.0120807 -0.00872185 0.0120652 0.0174801 0.0335222 -0.0524411 -0.0556724 0.0603995 0.0229805 0.0696123 0.0410999 -0.0335439 -0.0207269 0.0494447 0.0399098 0.0471694 -0.00713614 0.0176317 -0.0528192 -0.0208829 -0.063969 -0.0302877 -0.0323502 -0.0340557 -0.044118 0.0625048 -0.00204925 -0.019809 -0.0463405 -0.0316427 0.0729584 0.0639201 0.0352606 -0.00158502 -0.041508 0.0519273 -0.072988 0.0755729 0.0575998 0.0776332 0.0435792 -0.0370608 -0.0290914 0.0574098 0.00401679 0.0604511 -0.0323525 0.00332778 0.015469 0.0239917 -0.0619619 0.0468665 0.0292899
internal_weight=309123 291171 218591 37232.6 181359 79021.1 102338 72579.2 57747.7 54052.1 40128.6 21839.3 50287.7 30446.3 32450.6 31754.2 44590 8809.57 35780.5 8758.29 18289.3 55483.2 20946.4 11836.4 23537.8 19841.3 10009.2 28474.3 10002.9 27879.1 5888.71 9832.17 32377.5 15939.5 6875.47 23105.7 11473.9 6640.35 8868.16 34832.7 17952.3 5176.36 9499.93 26593 22596.1 21990.4 5913.59 18974.2 30942 3477.73 1882.82 4306.81 19909.6 3875.05 18352.5 3693.7 5293.55 11631.8 2214.59 5653.25 6315.47 4061.76
internal_count=1200575 1132570 846793 146850 699943 306922 393021 285777 223950 209066 156603 84515 194021 116646 129174 126566 169071 33893 135178 33482 72088 217304 79773 45247 89618 77375 38621 113368 39268 111547 23178 38754 127571 63100 26061 89733 44925 26300 34972 131417 68005 19841 36873 105088 85846 88369 22303 72030 116543 13263 7421 16876 75494 15019 69581 14546 20528 44808 8514 22540 24075 15588
is_linear=0
shrinkage=0.05


Tree=3
num_leaves=63
num_cat=2
split_feature=216 171 215 215 215 218 216 216 171 216 5 172 216 216 218 215 218 171 34 214 216 171 216 23 20 15 131 171 214 29 171 219 172 30 172 171 216 171 218 214 29 216 3 3 172 216 143 143 15 151 3 15 172 172 171 15 219 218 15 171 215 172
split_gain=25551.6 22816.7 20534.5 20876.4 18080.6 14525.6 12027.6 11458.6 8908.66 10893.8 8026.42 7949.75 12518.9 11399.3 7840.17 8044.3 7184.09 5531.5 5372.92 5115.94 6366.01 4428.49 4390.42 4356.34 4336.48 3841.89 3803.86 3781.54 4135.64 3649.31 3523.6 3343.57 2710.15 2584.92 2390.77 2376.55 3224.59 2371.2 2327.41 2273.63 2207.75 2185.74 2147.61 2098.11 2081.37 3726.31 2036.63 2008.18 1966.48 1860.42 1800.13 1683.97 1582.91 1533.92 1520.85 1519.07 1507.22 1414.04 1407.53 1749.87 1371.36 2080.53
threshold=0.21453891694545749 1.0698075294494631 -0.050206668674945824 0.095907658338546767 -0.010414460673928259 1.0990859866142275 -0.099103681743144975 0.094198353588581099 -0.19493000954389569 0.070669822394847884 26.28489971160889 -0.67649179697036732 -0.025740982964634892 -0.016072562895715233 1.192368268966675 -0.022922247648239132 1.5748217105865481 -1.4628839492797849 32.399433135986335 -0.012163355480879543 0.075975641608238234 -2.5158470869064327 -0.076175890862941728 51.501438140869148 0.039216930046677596 0.20981595665216449 -0.13536868989467618 0.22902134805917743 0.0069211409427225598 0.042464382946491248 -0.73897290229797352 0 -0.61110702157020558 0.054416872560977943 -1.6548297405242918 0.0104001103900373 -0.050519827753305428 0.52684429287910473 1.0706824064254763 0.039294270798563964 0.03447029925882817 0.16609505563974383 3266657.2500000005 675833.68750000012 -1.3589423298835752 -0.052736347541213029 22.616450309753422 13.136849880218508 0.24657785147428515 16.734584808349613 3266657.2500000005 0.048919707536697395 -1.4890000224113462 1.5616754293441775 0.24095805734395984 -0.11760337650775908 1 0.83096900582313549 -0.04974736645817756 0.24095805734395984 0.017809827812016014 -0.18518797308206555
decision_type=2 2 2 2 2 2 2 2 2 2 8 2 2 2 2 2 2 2 8 2 2 2 2 8 8 10 10 2 2 8 2 9 2 8 2 2 2 2 2 2 8 2 2 2 2 2 8 8 8 8 2 8 2 2 2 8 9 2 8 2 2 2
left_child=1 2 23 4 6 10 21 26 9 11 31 12 24 42 15 25 27 -15 -5 20 38 -4 -17 44 57 32 -3 28 -7 -29 -30 -6 35 46 56 -10 -37 -16 -12 49 53 -33 -13 -19 45 -1 -9 60 -22 -28 -23 -34 -26 -2 -25 -38 -14 -8 -24 -60 -21 -62
right_child=40 7 3 18 5 16 8 33 14 -11 19 13 34 17 37 22 -18 43 -20 47 48 50 58 54 52 -27 39 29 30 -31 -32 41 51 -35 -36 36 55 -39 -40 -41 -42 -43 -44 -45 -46 -47 -48 -49 -50 -51 -52 -53 -54 -55 -56 -57 -58 -59 59 -61 61 -63
leaf_value=0.0031535006945044744 0.046715518001792626 -0.010719675373594697 -0.041703418984223584 -0.060923468732417024 -0.023870832597688664 -0.038209537939581421 -0.0036081108678344929 -0.026790014093849873 -0.013054490114427884 -0.053067239626023215 0.054902553524610986 0.084521636037650366 -0.0086624335883724469 -0.060157792871348925 0.010758117452466784 0.079521165375644576 0.082779328303040911 0.070230550642663828 0.0039525460906927063 0.057132651446238053 -0.040552829099012845 0.080807744559083017 -0.026931222229084902 -0.012284066963297155 0.032255661234472967 0.017560463308000564 -0.060019575347277199 -0.063746546062029522 -0.050133450889284309 -0.0070352251344389417 0.05823254246944181 0.029772338760002882 -0.074245429953122319 0.079350021319910466 0.010267617065329734 0.010709079538433102 0.012906993681577786 0.081768004253646387 -0.040269951764015974 -0.08081844627115925 0.070342543357472545 -0.024491468347677577 -0.005806457883988563 -0.017478761289168476 -0.072155471894805631 -0.067834407160303881 0.035199392716105712 0.06496587385508 0.022410431601965281 -0.02291420236187126 -0.019509044643740734 -0.02610894441936425 -0.016467777501814853 -0.023600727678010771 0.065217785566253225 -0.066234291788789937 0.053328373431960265 -0.042457728281809048 -0.035745844417498236 0.036917382241703323 -0.029308839100719498 0.044766223048810144
leaf_weight=3339.8224712014198 2937.123738527298 4731.3295143991709 944.28780151903629 12717.580270037055 4625.5830463767052 2856.5239374786615 2849.4726918935776 2641.7639899402857 8397.6386698633432 6574.8067789375782 9515.40760871768 9133.6103093624115 1083.8377662450075 2843.7746734023094 2931.6771187484264 1957.0564780682325 1972.4194792807102 1842.4461441040039 4260.362242653966 4156.3862668573856 3535.8032674789429 6381.702897593379 3637.5004703104496 2918.7057826370001 4003.0580317974091 2733.3256720602512 10986.27123709023 5760.3242224007845 926.5651056021452 5589.4124898761511 3937.1128961443901 16411.108775287867 8688.4844395071268 1464.2438277155161 6727.1082902401686 1915.0817948430777 652.56378933787346 1962.8379779309034 688.75113563239574 8371.149139598012 13901.687042146921 2092.1626182049513 709.00015692412853 1082.1815681606531 8651.1587596237659 4139.9092472940683 2658.0527232140303 30478.722502708435 1909.7583256363869 4879.0689524114132 480.77016599476337 2297.8927171230316 2856.1083938479424 1053.6917887926102 808.17928877472878 8533.5820502191782 10665.765001550317 13165.125319004059 1164.3581063598394 2871.8140930980444 1545.8879696428776 2450.0444213300943
leaf_count=12959 11195 18491 3752 51075 18163 11308 11049 10403 32901 26295 36267 34421 4206 11440 11332 7390 7436 6977 16540 15818 14060 24110 14355 11440 15334 10556 44082 23184 3710 21810 14952 63108 35142 5526 26001 7463 2526 7419 2732 34002 52648 8249 2753 4223 34999 16725 10181 115689 7347 19288 1876 9048 11205 4162 3058 34292 40522 52248 4603 11021 6148 9360
internal_value=0.00294282 -0.000633696 0.00462173 0.00875559 0.0129232 0.0287768 -0.000183289 -0.038047 -0.00439212 0.00787133 0.03879 0.0149054 0.00342812 0.0453058 -0.0207121 -0.0275601 -0.00805919 -0.0105045 -0.0446436 0.0492997 0.0251818 0.0598094 0.0126743 -0.044198 -0.0212978 -0.039225 -0.0517291 -0.0174553 0.00954065 -0.0358186 0.0375864 0.0141247 -0.0443166 0.0205473 0.0340385 -0.0331254 -0.0483076 0.0392372 0.0484779 -0.0597345 0.0609319 0.0236236 0.0780145 0.0377748 -0.0554546 -0.0361369 0.00429908 0.0590698 -0.0184707 -0.0486091 0.0737789 -0.0641781 0.0119669 0.0281486 0.00452226 -0.0606116 0.0476476 -0.0355456 -0.00437412 0.0159538 0.037025 0.0161079
internal_weight=307999 290106 254375 234517 217539 98452 119087 35731.9 111280 63536.3 77409.6 56961.5 41350.5 15611 47743.8 42849.3 21042.4 5768.4 16977.9 54280.8 15649.7 7806.76 9630.73 19857.8 22873.8 33218.6 28967.8 19069.9 7720.2 11349.7 4863.68 23128.9 30485.2 6764.06 18476.7 19498.9 11101.2 4894.52 10204.2 24236.5 17892.5 18503.3 9842.61 2924.63 16130.9 7479.73 5299.82 38631 5445.56 15865.3 6862.47 10986.4 6859.17 3990.82 3726.89 9186.15 11749.6 16014.6 7673.67 4036.17 8152.32 3995.93
internal_count=1200575 1132570 990597 911416 843801 379341 464460 141973 434722 246674 296941 220379 160565 59814 188048 169297 82400 22640 67615 207421 60406 29738 37369 79181 89836 131928 115863 74964 29970 44994 18662 89520 121372 26110 70729 77182 44281 18751 38999 97372 68005 71357 37174 11200 64683 29684 20584 147015 21407 63370 25986 44190 26539 15357 14498 36818 44728 63297 29979 15624 31326 15508
cat_boundaries=0 4 8
cat_threshold=335560900 2676135936 1477197965 8808 2214593728 2340597760 2550456449 8932
is_linear=0
shrinkage=0.05


Tree=4
num_leaves=63
num_cat=2
split_feature=173 173 152 171 172 170 174 215 214 214 172 172 174 171 5 15 174 173 171 173 160 172 215 131 31 215 14 217 171 171 170 219 219 171 170 217 172 192 19 160 218 170 3 174 218 3 172 218 108 172 14 172 174 151 174 173 170 151 171 111 217 173
split_gain=24189.4 26741.7 21722.4 19915.6 27502.7 14658.7 14655 12690.5 10425.7 11006.6 11663.6 9031.35 8947.96 7596.2 7444.4 6657.81 5550.55 5478.68 4756.49 3977.57 3861.26 3830.92 6755.25 3746.37 3514 4109.4 3141.3 3108.03 3094.77 2723.7 2693.93 2675.07 2413.89 2359.71 2196.94 2188.64 3395.78 2146.25 2123.97 1995.84 1930.76 1783.89 1763.1 1716.49 1677.16 1651.24 1625.21 1609.31 1587.97 1584.59 1556.72 1551.77 1623.93 1395.54 1333.39 1291.17 1222.93 1185.56 1163.53 1049.23 1044.66 1030.95
threshold=0.017245631664991382 -0.05259872414171695 0.075189828872680678 1.6222521066665652 -0.865024834871292 12.500000000000002 -0.049880377948284142 -0.012768650893121956 0.039294270798563964 -0.025834349915385243 0.62684389948844921 -1.7398520708084104 0.002532967366278172 0.035710969939827926 18.949649810791019 0.22123955935239795 0.026050256565213207 -0.079254437237977968 0.80124047398567211 -0.010471360292285679 3.6245902776718144 1.8440799713134768 0.06152313947677613 -0.084251750260591493 0.14070099592208865 0.078937329351902022 0.17528685182332995 50.807584762573249 1.4290145635604861 0.98605692386627208 14.500000000000002 0 1 0.57184648513793956 7.5000000000000009 60.671178817749031 0.03781379014253617 -4.4655001163482657 0.29649397730827337 3.0010124444961552 1.441868841648102 1.5000000000000002 1609456.5000000002 -0.011364500503987072 0.90944164991378795 248856.71875000003 -0.43771067261695856 1.229418992996216 -0.0065062516368925563 -0.80639457702636708 0.22300092130899432 1.237262010574341 -0.0062428545206785193 12.623978137969972 -0.0018453542725183068 -0.0051649019587784997 3.5000000000000004 12.623978137969972 -0.52057814598083485 0.19533757120370868 72.413555145263686 -0.0060092457570135585
decision_type=2 2 8 2 2 2 2 2 2 2 2 2 2 2 8 8 2 2 2 2 8 2 2 10 8 2 8 2 2 2 2 9 9 2 2 2 2 2 10 8 2 2 2 2 2 2 2 2 10 2 8 2 2 8 2 2 2 8 2 8 2 2
left_child=1 6 12 4 7 8 17 11 9 10 -6 13 29 39 31 21 32 42 23 56 61 30 48 -8 25 40 -12 33 -9 44 38 -11 -16 37 -21 49 -37 -22 -14 -3 46 -20 -1 -29 -2 -19 -4 -38 -23 -34 -18 -51 -53 -39 -41 60 -5 -58 -40 -25 -33 -13
right_child=2 3 24 19 5 -7 18 28 -10 14 26 20 15 -15 16 -17 50 45 41 34 27 22 -24 59 -26 -27 -28 43 -30 -31 -32 55 35 -35 -36 36 47 53 58 54 -42 -43 -44 -45 -46 -47 -48 -49 -50 51 -52 52 -54 -55 -56 -57 57 -59 -60 -61 -62 -63
leaf_value=0.079634737362936511 -0.0030615332599807695 -0.0011777400947123315 -0.002667328401155506 -0.0752481198063297 0.079165726584195184 -0.056598127761183614 0.0072926673208609238 0.059442462382680722 -0.074787146673985769 -0.018370114714241801 -0.061462109422686033 -0.031002863813183529 -0.069272430342355099 -0.057637370248755308 0.032480752250081603 0.011441346252929762 -0.042874447237489399 0.035790257627415605 0.080544692087290704 0.030456527034416515 0.028285300474522559 0.060654927051549345 -0.052616118465981 -0.05921100450393442 0.061616206259537259 -0.018104370706308916 0.015801891635109932 0.003901761092023183 -0.035656455728266624 -0.076196076962418258 0.02629402453625761 0.049973233631001979 -0.0085463358622706789 -0.044999207400600233 -0.038839570985240997 -0.059526527518389764 0.062568642630338039 -0.024109181291314896 -0.056849173977967959 0.050370880772030724 -0.070096623450674578 -0.015727193005924709 -0.0031377736128082494 -0.067064271801018094 0.044968390127488045 -0.06567631244814727 0.047553031563064882 0.013316667951809968 -0.010986074347945437 0.07355499566632677 0.043374753040519333 0.061803550975626675 -0.0028359730530169518 0.0092802178196965592 0.018708623337143737 0.012398366488847906 -0.057454718320682011 -0.017418264265346522 -0.017360114931439664 -0.033510794369793116 -0.059948591161804149 -0.058691396183979706
leaf_weight=4094.2239211648703 3645.5113867372274 3819.6325736641884 2053.5823520869017 3633.6873287111521 2928.9431016296148 3727.2114654630423 2742.9773847013712 9831.2318871468306 1798.0189646035433 3409.802596822381 4859.5385826826096 14109.268479377031 24967.733374580741 2778.9749828875065 6302.2331445068121 4622.7127895653248 1632.5947499722242 582.08131346106529 974.77741695940495 2893.7412917464972 6841.1905606687069 2070.0632630437613 7116.8240467309952 20441.47980119288 4387.652192980051 6951.5308408439159 1803.6274731904268 1185.2700847685337 936.89980232715607 802.13256093859673 882.17388643324375 6456.9262416958809 640.01544840633869 2596.7064781934023 1891.1831891983747 727.64215968549252 7968.0821364969015 5942.0172821581364 4121.2331363260746 9591.8236309140921 442.54778832197189 949.97553230822086 763.13609407842159 3029.7850356549025 3624.3272290378809 1287.8147829174995 7471.2265039384365 2094.9614269435406 1234.7014888525009 44368.818499743938 769.71767488121986 3460.317046970129 1350.7819868028164 6610.9693558961153 5090.6920548826456 4849.7091704756021 4220.3452647179365 3291.8503855615854 3408.7970024943352 4930.7753361314535 223.50965909659863 4414.5277447402477
leaf_count=15625 14195 14803 8003 14937 11133 15045 10702 37366 7365 13329 19580 55805 101907 11276 24252 17879 6501 2227 3712 11129 26311 7871 28697 82967 16703 27383 6974 4627 3723 3260 3383 24636 2495 10373 7519 2894 30356 23393 16643 36546 1779 3758 2966 12218 13832 5194 28568 8083 4816 168703 2937 13187 5261 25626 19576 18736 17007 13010 13462 19699 893 17739
internal_value=0.00280666 0.0109948 -0.0212777 0.0184726 0.0233143 0.0406804 -0.0280715 0.000837916 0.0444714 0.0467564 -0.00399194 -0.00737217 -0.0375024 0.0194403 0.052534 -0.0456266 0.059434 0.0386335 -0.0430099 -0.0350633 -0.0201289 -0.0516495 -0.0251845 -0.0482157 0.021743 0.0114019 -0.0405471 -0.00777762 0.0511675 0.0112346 -0.0599119 0.0205203 0.0621149 -0.000238675 0.0030668 0.06518 0.0447732 0.0057543 -0.0622523 0.0310177 0.0319809 0.0330281 0.0666296 -0.0471079 0.0208831 -0.0340878 0.0367249 0.0523159 0.0338879 0.0696129 -0.0152369 0.0706301 0.0436544 -0.00652448 0.0393935 0.03201 -0.0514329 -0.0399118 -0.0389739 -0.0542168 0.046294 -0.0376021
internal_weight=306652 228849 77802.7 192082 176151 99372.5 36767.2 76779 95645.2 93847.2 9592.11 66010.9 56496.2 21281.1 84255.1 48424.2 69315.2 6727.26 30040 15930.8 44729.7 43801.5 10421.6 28115.2 21306.5 16918.9 6663.17 26205.9 10768.1 8071.97 33379.9 14939.9 66912.9 21990.9 4784.92 60610.6 10790.7 19394.2 32497.8 18502.1 9967.36 1924.75 4857.36 4215.06 7269.84 1869.9 9524.81 10063 3304.76 49819.9 2402.31 49179.9 4811.1 12553 14682.5 11530.1 11145.9 7512.2 7530.03 25372.3 6680.44 18523.8
internal_count=1200575 892194 308381 745344 681742 382360 146850 299382 367315 359950 37687 258293 225945 82201 322263 194658 264669 26012 120838 63602 176092 176779 41384 113368 82436 65733 26554 102548 41089 31287 135395 57594 255231 85703 18648 230979 41333 75330 132012 70925 38350 7470 18591 16845 28027 7421 36571 38439 12687 189646 9438 187151 18448 49019 56122 44265 44954 30017 30105 102666 25529 73544
cat_boundaries=0 4 8
cat_threshold=1065100 2275543040 1417699461 8744 872433796 2239945216 1561200773 12320
is_linear=0
shrinkage=0.05


Tree=5
num_leaves=63
num_cat=4
split_feature=213 173 170 172 214 12 15 216 216 214 172 173 216 216 3 172 172 152 217 172 172 18 218 215 173 217 217 219 151 215 215 216 170 216 14 172 217 107 19 216 215 170 216 216 3 215 172 214 219 216 219 219 216 170 214 217 172 170 170 3 15 3
split_gain=26091.1 28971.3 14410.5 20756.9 14430.5 11465.5 11328.6 10421.2 10788.2 10321.6 8104.94 7028.7 6586.31 6873.84 6566.08 5851.4 5486.77 5084.81 4747.73 4492.64 4163.88 4142.24 3867.51 6067.93 3832.36 3728.07 3523.92 3518.83 3367.85 3350.89 3222.12 6665.57 4520.78 3884.13 2844.4 2036.47 1989.92 2074.34 1929.19 1880.18 1851.84 1763.71 1720.5 1621.18 1796.87 1502.64 2585.64 1724.48 1494.34 1404.26 1316.85 1311.31 1307.86 1302.75 1296.99 1278.01 1268.04 1289.44 1205.98 1194.98 1179.58 1158.67
threshold=1.5000000000000002 0.017245631664991382 12.500000000000002 -0.45316229760646815 -0.025834349915385243 0.12163408100605012 0.26094897091388708 0.0079699079506099241 -0.099103681743144975 0.039294270798563964 -1.3589423298835752 -0.01294055813923478 0.036417031660676009 -0.070999231189489351 1769405.3125000002 0.13673967123031619 -2.019292831420898 0.064665041863918318 85.581661224365249 0.62684389948844921 -1.6548297405242918 0.09237499907612802 1.229418992996216 0.0054332667496055373 0.072848945856094374 40.653097152709968 46.379808425903327 0 12.623978137969972 0.13613539189100268 0.13613539189100268 0.043167786672711379 13.500000000000002 0.15185789018869403 0.17528685182332995 0.93332403898239147 20.885786056518558 0.081733081489801421 0.19002470374107364 0.043167786672711379 0.072907488793134703 1.5000000000000002 0.043167786672711379 0.043167786672711379 643030.96875000012 -0.026397594250738617 -0.67649179697036732 -0.0082917073741555197 1 -0.0058117525186389676 2 3 0.20412039756774905 5.5000000000000009 0.1600102633237839 46.165185928344734 -0.67649179697036732 4.5000000000000009 11.500000000000002 1185569.3750000002 0.12445081770420076 3266657.2500000005
decision_type=2 2 2 2 2 8 8 2 2 2 2 2 2 2 2 2 2 10 2 2 2 8 2 2 2 2 2 9 10 2 2 2 2 2 8 2 2 8 10 2 2 2 2 2 2 2 2 2 9 2 9 9 2 2 2 2 2 2 2 2 10 2
left_child=5 2 3 7 19 10 17 8 25 14 11 20 13 15 18 -12 -10 30 22 -5 60 28 43 58 40 -2 50 -16 45 42 31 32 38 51 -21 -4 -15 -38 -3 -29 -14 -22 -19 48 -45 46 47 49 -6 -18 -13 -33 -8 59 -7 -46 -30 -58 -24 -9 -1 -27
right_child=1 6 35 4 9 54 52 53 16 -11 12 26 24 36 27 -17 21 29 -20 34 41 -23 23 -25 -26 61 -28 39 56 -31 -32 33 -34 -35 -36 -37 37 -39 -40 -41 -42 -43 -44 44 55 -47 -48 -49 -50 -51 -52 -53 -54 -55 -56 -57 57 -59 -60 -61 -62 -63
leaf_value=-0.061294081367758782 0.0022374062364609345 -0.064419153115361172 0.0068980150695607438 0.076981316885179382 0.026067523896120368 0.028867909838185442 0.020382767606039472 0.068817056141454044 0.045752771739106246 -0.070449552223803474 -0.078636072333996221 -0.016754739803941519 0.030926582070328168 0.01764070605240909 -0.026829035747423464 0.075805210315480737 -0.051843782443882352 -0.012839768218730414 -0.066017747266289367 -0.058732423803030225 0.041957848569412509 0.022738298190441448 0.08045882673107535 -0.0097733839299238134 -0.044647993542681896 0.078393146993686227 -0.063326941209223012 0.058783633655673288 -0.0097772043505586666 -0.040724776387321304 -0.068467183797422185 -0.025839581656319222 0.027428838704209719 -0.031834679487142185 0.015180936600328369 -0.050851038763940752 -0.060412973193988896 -0.02377556868072497 -0.016001018916012494 0.014330816862716034 -0.027093517885513799 -0.012575180616481996 0.038074973444927912 0.065066064255696873 0.0074753832455505768 -0.044058750125040208 0.062832185936511548 -0.0015065466947528962 0.078391449875301347 0.036819730878713909 0.046623830990195569 0.039467326322062547 0.063874546024677667 0.01997999529509055 0.079270037853491557 0.049600849297097342 0.070614468372653103 -0.005175371572575721 0.013463914193544528 0.025640485441213064 -0.008779779253195813 -0.0083858849652013387
leaf_weight=5961.1146369576454 2836.0029643177986 14166.347022995353 1929.0938275456429 961.01148250699043 1499.8742232173681 3071.1633528769016 6639.4674454778433 6701.8262456804514 3924.7486196756363 1787.346320733428 896.75825601816177 915.6884959936142 5562.2607954442501 947.17977841198444 3206.6135237216949 1939.6055321991444 5206.8317951261997 2575.1077846437693 766.84452119469643 4809.5772671848536 1910.232783228159 6118.5615385770798 4066.0534548610449 4811.7932019084692 3906.5767568051815 5384.2397606670856 911.84261792898178 4194.7690181136131 15493.246448278427 3316.3911071270704 7206.089490622282 913.24323533475399 1735.4670446366072 4942.4667309969664 1784.3938790857792 7313.8696178644896 30670.078531980515 4420.9527585357428 2407.2679363936186 5495.3118579387665 1826.8036308139563 6623.1209345906973 4664.2890656292439 22034.185723155737 2387.04919077456 13944.76317705214 882.91678836941719 4032.7805061787367 20390.987887769938 488.33534303307533 7781.0663105100393 4718.662186652422 2337.2929892390966 2926.0376753360033 2184.7843915075064 7330.9785022884607 1056.6263374388218 1196.5107488185167 804.93661524355412 2106.8901673108339 1303.4043065607548 414.11749939620495
leaf_count=24518 11136 58436 7478 3702 5816 11857 25565 25529 15031 7395 3738 3568 21390 3641 12589 7435 20964 10175 3135 19546 7334 23679 15602 18808 15669 20695 3669 16081 60844 13295 29658 3603 6667 19706 6895 29756 125646 17522 9562 21270 7267 26049 18006 84476 9266 55855 3397 15704 78051 1873 29742 18184 8921 11259 8340 28155 4051 4714 3106 8117 5192 1613
internal_value=0.00276447 0.0115548 0.0218946 0.0254218 0.0419991 -0.0215852 -0.019729 0.0057399 -0.00256358 0.0483297 -0.0265512 -0.00354177 -0.0382032 -0.0479686 0.0510874 0.0269735 -0.0111051 -0.029628 0.0576374 -0.0240098 -0.0240519 -0.0157139 0.059135 0.0300498 -0.00459445 0.0492176 0.0301791 0.018535 -0.0212758 0.000895999 -0.0385561 -0.0310932 -0.0493472 0.000512344 -0.0387301 -0.0387978 -0.0538671 -0.0557974 -0.057387 0.0335404 0.0165814 -0.000366762 0.0199636 0.0643849 0.0571664 -0.0332692 -0.0190889 -0.0265252 0.0748545 -0.0442399 0.0399843 0.0289005 0.0317079 0.048889 0.0498211 0.0392542 -0.00468005 0.0303662 0.0693894 0.058491 -0.0518729 0.0721945
internal_weight=304744 223911 168289 159046 86331.7 80832.6 55622.1 72714.4 60979.7 78776.7 75576.7 25406.5 50170.2 38874.6 76989.4 2836.36 52345.3 46645.3 64092.7 7554.98 15797.9 48420.6 63325.9 9682.78 11295.6 8634.36 9608.6 12896.7 42302 10555.8 36089.5 28883.5 18309.1 10574.4 6593.97 9242.96 36038.2 35091 16573.6 9690.08 7389.06 8533.35 7239.4 53643.1 31752.2 24555.6 10610.9 9727.95 21890.9 5695.17 8696.75 5631.91 8976.76 11734.8 5255.95 9718.03 17746.4 2253.14 4870.99 8808.72 7264.52 5798.36
internal_count=1199943 877366 655588 618354 333893 322577 221778 284461 239556 303750 302380 100072 202308 157982 296355 11173 206112 187292 246415 30143 63093 191081 243280 37516 44326 33444 36979 49940 167402 41476 145816 116158 74665 41493 26441 37234 146809 143168 67998 37351 28657 33383 28181 205764 121897 97793 41938 38541 83867 22837 33310 21787 34486 44905 20197 37421 69609 8765 18708 33646 29710 22308
cat_boundaries=0 4 8 12 16
cat_threshold=268460268 2273511426 1342595205 12836 268453896 2156032000 1343094913 7712 2214593728 2273490944 403099777 8932 2097252 2374146312 1344028805 9184
is_linear=0
shrinkage=0.05


Tree=6
num_leaves=63
num_cat=4
split_feature=213 173 170 215 174 171 152 15 214 218 214 215 218 171 216 216 214 216 3 173 216 174 216 216 170 174 218 173 171 173 174 216 173 15 219 219 3 218 216 218 218 170 144 215 173 173 3 219 5 122 215 171 214 216 20 219 171 192 218 173 19 218
split_gain=23720.2 26331.7 13096.8 11710.2 12351 10451.7 10442 10324.2 10254.5 8733.19 7016.1 6689.07 6075.43 6052.22 5706.35 7031.31 5107.74 4979.87 4771.16 4708.7 5254.27 4057.09 5420.32 4366.64 4007.03 3957.77 3868.4 3113.56 3101.93 2933.13 2897.73 2678.29 2358.19 2333.41 2330.13 2324.1 2303.46 2089.79 2063.38 2044.53 2812.69 6452.69 1970.37 2065.79 1947.29 1864.81 1715.35 1612.38 1607.46 1529.25 1489.36 1792.19 1356.17 1352.32 1342.79 1322.6 1270.59 1266.81 1255.01 1197.54 1184.53 1183.43
threshold=1.5000000000000002 0.017245631664991382 12.500000000000002 -0.018954178318381306 -0.029030155390501019 0.80124047398567211 0.092128552496433272 0.24657785147428515 -0.025155574083328244 1.229418992996216 -0.0043218680657446376 -0.050206668674945824 0.92330175638198864 -0.73897290229797352 0.043167786672711379 0.13200516253709796 -0.025155574083328244 0.21453891694545749 2079379.9375000002 -0.088138956576585756 0.036417031660676009 -0.01958272140473127 -0.062940400093793855 -0.018703313544392582 13.500000000000002 0.026050256565213207 1.4296665787696841 0.072848945856094374 0.60466378927230846 -0.039337057620286935 0.016790719702839855 0.07449213415384294 -0.051706122234463685 0.0033756868215277795 0 1 3266657.2500000005 0.91105332970619213 0.16609505563974383 1.1056040525436404 0.93962970376014721 1.5000000000000002 8.5625500679016131 -0.041920218616724007 0.08421719074249269 0.0012895800755359235 810753.96875000012 2 36.614299774169929 0.041463952511549003 -0.021733066067099568 0.22902134805917743 -0.020046146586537358 0.20412039756774905 0.067106269299983992 3 1.1892259716987612 -5.0305001735687247 0.83337947726249706 -0.010471360292285679 0.36100141704082495 1.0009154975414278
decision_type=2 2 2 2 2 2 8 8 2 2 2 2 2 2 2 2 2 2 2 2 2 2 2 2 2 2 2 2 2 2 2 2 2 8 9 9 2 2 2 2 2 2 8 2 2 2 2 9 8 2 2 2 2 2 10 9 2 2 2 2 10 2
left_child=6 2 3 12 5 32 10 13 57 18 11 -1 17 -3 24 44 -13 29 25 -12 39 22 26 50 34 48 36 47 61 -2 -22 56 -5 54 -15 -20 -14 42 -17 40 49 -42 43 -31 46 -4 -16 -18 59 -21 -23 -52 -49 -9 -7 -11 -8 -6 -58 -10 -40 -24
right_child=1 7 45 4 8 33 31 53 9 55 19 16 21 14 15 38 27 -19 35 20 30 23 28 -25 -26 -27 -28 -29 -30 37 -32 -33 -34 -35 -36 -37 -38 -39 60 -41 41 -43 -44 -45 -46 -47 -48 52 -50 -51 51 -53 -54 -55 -56 -57 58 -59 -60 -61 -62 -63
leaf_value=-0.057577006873543571 -0.051216886518138487 -0.059304976844117341 -0.048756483458781232 -0.028067290380241305 0.016444855974711053 -0.054550231447675325 0.032433439269794764 0.016860003992379507 0.063460382554655498 0.020684371694857848 0.071449534600837791 -0.049036578298539975 0.073901270128027607 -0.0090209279235786612 0.065821747370784556 -0.058310932759739809 -0.018995085455399061 0.067489049783536495 -0.018473312109969511 -0.062420140648448856 0.033123253892644616 -0.028428891692348992 0.030284003144420951 0.044638807046828349 0.029928465471455792 -0.050438278800974838 -0.038754258672753381 -0.052107674406975835 0.066537172134492201 0.008155902311574972 -0.029985581039481464 0.058381200905170551 0.057450091874316128 0.024031760926953045 -0.057233133320464563 0.036659088431041403 -0.017367588646157391 0.026139625905704414 -0.028760504473965959 -0.07186717949367713 0.042159697396025403 -0.05421759196538195 0.025032202040712683 -0.032808254447960782 -0.010396569365717633 0.0065513700523279102 0.011179805071785726 -0.0046239472880662763 0.067832784730987292 -0.031864179996754095 -0.027269606829336313 0.069667062717755954 0.036069349393688353 0.059474157350755397 -0.0057232182009170837 -0.024446703459232569 0.065148392700313223 -0.042812157696606019 -0.026000463289027439 0.039663814367970757 0.023004978959448988 -0.013903865595197962
leaf_weight=5262.9912199825048 4641.8748412132263 12025.08841522038 7248.342264637351 937.98694513738155 1215.0520443767309 7009.6983418464661 2540.5625354200602 7249.5021652430296 9616.4181481450796 2748.8497718423605 931.88232173025608 3580.6303714066744 9728.1779573708773 3200.0046491771936 4395.4605011343956 3603.5658355802298 2005.7481396794319 1959.095976665616 2655.8690247684717 13866.800299853086 3073.2855479568243 7545.7481779158115 1962.3166396170855 3863.4694747924805 1906.6659200042486 805.94255846738815 934.39403368532658 1512.8203827887774 1913.9601761549711 4256.3655347526073 4456.2211344838142 4070.6868895441294 5729.4889631718397 1434.9874045699835 11830.602123767138 6780.8714064955711 744.06684942543507 3820.1501397490501 2721.4028173834085 8341.1520933508873 2823.5131653696299 4511.627826243639 2675.2263949662447 11111.285184204578 1829.5736458301544 1929.5993638187647 2133.8139903247356 2485.564953789115 34459.833299964666 5812.1781462281942 956.88418447971344 950.11989095807076 11608.585877761245 2505.2399565577507 1762.3482691347599 3935.7745150476694 432.89466619491577 3498.0598925352097 2953.3836225271225 11749.256199657917 1860.4992252141237 6648.7279138714075
leaf_count=21791 18801 49864 29756 3726 4746 28628 9775 27950 37029 10607 3643 14769 37845 12818 16813 14808 7862 7570 10392 57469 11786 29966 7518 14987 7328 3238 3751 6124 7462 16471 17832 15688 22168 5605 48946 26163 2915 14862 10862 34961 10885 18578 10334 44460 7242 7478 8284 9701 133360 23651 3795 3691 44744 9636 6982 15469 1639 14149 11679 45380 7227 26284
internal_value=0.00264358 0.0110498 0.0209377 0.0243096 0.035494 -0.00326819 -0.0206565 -0.0188727 0.0439377 0.048568 -0.0274585 -0.0071263 0.00774835 -0.0288787 -0.0179506 0.00293459 0.00540221 -0.00943325 0.0540782 -0.0397348 -0.0421511 0.0216233 0.0348412 -0.000146251 -0.0383514 0.0595632 0.0587181 0.01647 0.00896348 -0.0151193 -0.00422596 0.0271546 0.0454184 -0.0350721 -0.0470133 0.0211614 0.0674159 -0.00745482 -0.0300043 -0.0502278 -0.0435458 -0.0171184 -0.014568 -0.0214621 0.0351908 -0.0371279 0.0479656 0.0229145 0.0611514 -0.0533959 -0.0184513 0.0210253 0.0288721 0.0278053 -0.0447414 -0.00589276 0.00570604 -0.0275345 -0.0143451 0.0503748 -0.00773979 -0.00383336
internal_weight=302762 222492 167230 158052 94340.4 16874.5 80270.5 55261.4 77465.9 72752.8 70273 26456.3 63711.9 45506.7 33481.6 16544.3 21193.3 28464 66068.2 43816.7 42884.8 35247.9 21931.6 13316.2 16937.3 56631.5 11406.6 17612.7 10525 26504.9 7529.51 9997.53 6667.48 10207 15030.6 9436.74 10472.2 21863 8185.47 35355.3 27014.1 7335.14 18042.9 15367.7 8358.85 9177.94 6529.27 16099.9 55825.5 19679 9452.75 1907 14094.2 9754.74 8772.05 6684.62 5926.84 4713.11 3386.28 21365.7 4581.9 8611.04
internal_count=1199943 877366 655588 618354 367642 67109 322577 221778 300533 281638 283796 104991 250712 184192 134328 65236 83200 112498 255562 178805 175162 138214 85775 52439 69092 219007 44511 68431 41264 104928 29618 38781 25894 41215 61764 36555 40760 86127 32897 145544 110583 29463 71265 60931 32339 37234 25097 62307 215769 81120 37452 7486 54445 37586 35610 26076 23093 18895 13318 82409 18089 33802
cat_boundaries=0 4 8 12 16
cat_threshold=2181175569 1104 536871040 2 268845160 2273314850 3624296581 13092 2214593732 2676144128 352759936 8804 34740499 2018254916 553713984 10
is_linear=0
shrinkage=0.05


Tree=7
num_leaves=63
num_cat=2
split_feature=213 173 172 170 160 144 218 214 172 5 173 160 173 174 173 12 171 174 172 15 172 218 219 171 174 144 173 214 218 172 173 174 172 218 218 218 218 172 170 174 171 171 12 170 14 15 170 14 174 174 174 173 218 174 172 219 160 174 171 173 173 110
split_gain=21584.5 23952.4 12039.4 18218.9 10350.3 9772.43 8704.87 7844.42 7455.42 7333.99 6973.84 6103.21 5882.22 5310.16 4283.17 3552.2 3506.38 3421.27 3406.74 3372.43 3302.06 3325.54 3164.36 3033.81 2954.83 2689.77 2465.41 4669.34 2492.5 2404.94 2398.49 3954.7 2847.69 2661.79 2225.66 5782.05 2200.85 2197.8 2315.29 2118.5 1806.31 2591.34 1626.81 1497.97 1372 1370.75 1361.67 1346.47 1260.13 1242.5 1247.32 1196.33 2183.74 2874.77 1194.28 1137.5 1131.89 1414.53 1093.54 1184.46 1723.39 1088.53
threshold=1.5000000000000002 0.017245631664991382 -0.865024834871292 12.500000000000002 4.1527056694030771 18.226249694824222 0.73859173059463512 0.039294270798563964 -1.3589423298835752 25.479550361633304 0.13026138395071032 3.9749115705490117 -0.01294055813923478 0.026050256565213207 -0.09344864264130591 0.12163408100605012 -1.4333280920982359 -0.010641990695148705 -1.6548297405242918 0.17315600812435153 -1.7398520708084104 0.84419053792953502 0 1.0000000180025095e-35 -0.043213693425059312 37.884300231933601 -0.015964531805366274 -0.023774040862917897 1.229418992996216 -0.54717811942100514 -0.079254437237977968 -0.033758427947759621 -1.7398520708084104 0.84419053792953502 1.1056040525436404 1.0354831218719485 0.82202002406120311 1.8440799713134768 13.500000000000002 0.017777305096387867 0.37776781618595129 -0.81096372008323658 0.14070099592208865 1.5000000000000002 0.22300092130899432 0.15067129582166675 13.500000000000002 0.15010469406843188 0.016790719702839855 -0.027384212240576741 -0.0018453542725183068 -0.033269589766860001 0.9482056498527528 0.010089238639920952 2.5283441543579106 1 4.0043766498565683 -0.0062428545206785193 1.8518825173377993 -0.05259872414171695 -0.0056866568047553292 0.37610816955566412
decision_type=2 2 2 2 8 8 2 2 2 8 2 8 2 2 2 10 2 2 2 10 2 2 9 2 2 8 2 2 2 2 2 2 2 2 2 2 2 2 2 2 2 2 8 2 8 10 2 8 2 2 2 2 2 2 2 9 10 2 2 2 2 8
left_child=5 2 11 6 17 8 47 9 12 22 16 20 18 24 -10 19 -6 -3 -1 34 49 -22 -8 55 40 -12 -26 -28 56 46 -13 61 -33 -34 35 51 -31 38 45 58 41 -11 48 -20 -15 -19 -18 -4 -7 -2 -51 -16 53 -53 -38 -14 57 -29 59 -24 -61 -32
right_child=1 4 3 -5 10 42 7 -9 14 13 25 30 23 44 15 -17 29 37 43 -21 21 -23 39 -25 26 -27 27 28 -30 36 31 32 33 -35 -36 -37 54 -39 -40 -41 -42 -43 -44 -45 -46 -47 -48 -49 -50 50 -52 52 -54 -55 -56 -57 -58 -59 -60 60 -62 -63
leaf_value=-0.048538721866811907 -0.027182078535430129 0.041392860599918715 -0.056741839935694573 -0.046786487697695445 -0.04040764381807211 0.040997184791950497 -0.016123597776071395 -0.066471326164927291 0.068961231046895319 -0.042041720536961633 -0.05070113543697069 0.056063082053568275 -0.014865349378544713 -0.039918024753764436 -0.056290611377420058 0.027580213372614289 -0.018355636683778969 -0.061079098531482912 0.037796849072435856 0.0098307287545616028 0.022598285069851218 -0.034084930615073561 -0.015424196553637038 -0.061118814134333649 0.067402315807572166 0.01291719958883405 -0.044488425875106728 0.012824375614644315 0.0035778796023431241 0.00097697535504619269 -0.029220039605295834 0.047023475766507665 0.051212275217768589 -0.0054632178895234265 -0.065060698609096718 0.034915113996101255 0.052599850129802228 -0.0049781624457749364 0.013868440438090896 -0.020875716869423407 -0.016775918462657715 0.074096350632507482 0.061749943200842483 -0.012733702769149709 0.038420829368686946 -0.020674847883549868 0.058486889558812621 0.012627047124945763 -0.0054127097278546619 0.039761729209093211 -0.00042386574025929478 0.018763990821440882 -0.058276602505463973 -0.0445498325443223 0.0022061634646277028 0.042950320285221 0.062319391929226267 0.053168203261961047 -0.01126136449116511 0.050655438894430228 0.018701834135426112 0.019535312728306522
leaf_weight=7016.0813475698233 1800.3839770853519 1170.2293744683266 2786.2355921715498 7177.6770278066397 2338.2708846181631 2651.4814122617245 5220.7814239859581 1742.6741256713867 920.64043912291527 645.52675926685333 6820.0837588757277 3628.8120596557856 958.31009942293167 2001.9116741716862 13534.208191841841 1865.7125749289989 3900.2234079390764 17056.454716742039 1894.0443063378334 2836.1399396359921 3049.535166144371 17075.772817701101 1089.5095815658569 878.15026035904884 25428.666387349367 2196.3678086102009 1346.7425524741411 3014.5050156116486 2591.8821350634098 3611.145574465394 5630.6548514962196 8093.4133571535349 2728.9762527495623 8599.7887543439865 11608.307619482279 2415.4001227468252 9235.3808455765247 2844.2969116866589 1258.477870285511 2084.7756657898426 2320.8824349939823 1875.3132632523775 2784.5349895358086 6498.7581286281347 775.21913149952888 2394.3536818921566 676.39540569484234 933.83522376418114 3261.5279405415058 3725.7122513353825 4007.8844445943832 3180.4242017418146 5681.448409602046 4108.9328708797693 1347.4437357336283 7563.3749607354403 18314.310992002487 7784.2967615872622 1358.7652422785759 10894.327590376139 6888.7216844558716 1436.7676550149918
leaf_count=29358 7161 4506 11524 29756 9624 10203 20537 7395 3654 2634 28183 14361 3734 8129 56828 7270 15625 71829 7263 11123 11877 68699 4373 3600 99912 8514 5475 11882 10055 14234 22619 31192 10573 33760 49015 9398 35646 11285 4870 8303 9284 7384 10793 25649 2960 9590 2583 3640 12853 14405 15533 12295 23535 16885 5289 29121 71588 30482 5398 42347 26773 5577
internal_value=0.00252965 0.0105758 0.0200382 0.0301354 -0.0180714 -0.0197835 0.0357069 0.0386335 -0.0259148 0.0405898 0.0016052 0.00208677 -0.00380967 0.0496217 -0.0377974 -0.0399707 0.017328 -0.042047 -0.0228255 -0.0428771 -0.0140127 -0.0254956 0.0189094 0.0273619 0.0525896 -0.0352035 0.0556974 0.0466918 0.0505652 0.0245206 0.017941 0.0127183 0.0243722 0.00818918 -0.0465657 -0.0391416 0.0346832 -0.046193 -0.0518533 0.0271006 0.0150504 0.0443537 0.0302386 -0.00132932 -0.0180478 -0.0561058 -0.00699667 -0.0393272 0.0153977 0.0102259 0.0189354 -0.0458907 -0.0350383 -0.0169248 0.0461841 0.0364809 0.0547482 0.0419068 0.0320581 0.0351773 0.0382778 -0.0193075
internal_weight=300561 220903 166054 106277 54849.1 79657.5 99098.9 95378.8 70959.9 93636.1 30125.3 59777.7 24808.7 66099.3 46151.2 45230.6 21108.9 24723.8 15408.9 43364.9 29659.3 20125.3 27536.9 9399.84 63322.1 9016.45 58480.4 33051.7 31705 18770.6 30118.4 26489.6 19422.2 11328.8 40528.7 28920.4 14194 23553.6 20709.3 22316.1 4841.72 2520.84 8697.54 8392.8 2777.13 19450.8 4576.62 3720.07 5913.01 9533.98 7733.6 26505 12970.8 7289.36 10582.8 8521.69 29113.1 10798.8 20231.3 18872.6 17783 7067.42
internal_count=1199943 877366 655588 419831 221778 322577 390075 374911 288728 367516 119698 235757 98725 259785 190003 186349 83001 102080 62270 179079 117675 80576 107731 36455 248696 36697 229394 129482 124007 73377 118082 103721 75525 44333 167956 118941 55169 97574 86289 87194 19302 10018 33849 32912 11089 81419 18208 15164 23056 37099 29938 109543 52715 29180 40935 32855 113952 42364 78891 73493 69120 28196
cat_boundaries=0 4 8
cat_threshold=872431748 2407667712 1410097285 8744 2214593728 2273490944 2550321281 9188
is_linear=0
shrinkage=0.05


Tree=8
num_leaves=63
num_cat=4
split_feature=15 173 173 216 214 172 216 216 214 152 170 174 172 5 172 216 173 174 216 142 172 6 173 172 215 216 15 173 172 214 219 214 11 172 219 142 216 219 151 168 172 215 170 28 34 219 170 216 170 170 216 216 172 174 174 144 15 174 172 217 142 215
split_gain=17421.5 21297 16393.4 14133 13178.3 14785.5 18228.1 12077.1 9471.56 8745.12 7662.72 6782.38 5630.04 4481.97 3806.33 3705.27 3701.55 3273.6 3209.74 3149.06 2684.02 2668.46 2487.14 2290.03 2623.06 2531.44 2111.12 2135.6 2046.14 2398.93 1933.17 1909.56 1880.64 1852.03 1835.45 1667.5 1648.9 1556.25 1409.5 1313.01 1278.8 2790.76 1228.13 1177.57 1149.02 1128.02 1093.55 1086.54 2046.16 1086.06 1071.04 1036.12 1023.38 1073.67 1012.16 1006.13 938.823 932.315 1557 921.454 871.318 831.693
threshold=0.20981595665216449 0.017245631664991382 -0.05259872414171695 -0.058559982106089585 0.039294270798563964 -0.865024834871292 -0.018216993659734722 -0.017620726488530632 -0.025834349915385243 0.069642916321754469 12.500000000000002 0.002532967366278172 2.3306691646575932 25.479550361633304 -0.43771067261695856 0.21453891694545749 -0.079254437237977968 -0.0015690333675593136 0.13200516253709796 19.84014987945557 2.1187472343444829 2.237550020217896 -0.0037640614900737997 4.1388769149780282 0.070080518722534194 0.014847786631435158 0.4208191186189652 0.009024817496538164 -1.6064791083335874 0.0052613909356296071 0 0.025603958405554298 0.035479126498103149 -1.7398520708084104 1 24.755299568176273 -0.011740830726921557 2 11.735887050628664 0.2621500045061112 1.8440799713134768 0.06152313947677613 14.500000000000002 0.13885051757097247 -33.981510162353509 3 5.5000000000000009 -0.0099231866188347322 5.5000000000000009 14.500000000000002 0.12285238504409791 0.045561594888567931 1.237262010574341 0.017777305096387867 0.026050256565213207 28.755650520324711 -0.052689302712678902 -0.014099010732024906 0.7662351429462434 50.807584762573249 15.148449897766115 -0.022922247648239132
decision_type=8 2 2 2 2 2 2 2 2 10 2 2 2 8 2 2 2 2 2 10 2 8 2 2 2 2 10 2 2 2 9 2 10 2 9 10 2 9 10 10 2 2 2 10 10 9 2 2 2 2 2 2 2 2 2 10 10 2 2 2 10 2
left_child=1 2 3 16 5 6 19 20 -9 11 12 18 13 34 51 26 33 37 -3 28 22 40 30 24 25 -11 27 61 29 -4 -7 47 -14 -1 -10 -5 49 -8 -30 59 42 56 -13 -35 -18 -38 -39 48 -16 -23 -27 -15 -49 60 57 -26 -42 -36 -59 -21 -54 -2
right_child=15 9 4 35 -6 7 17 8 10 23 -12 21 32 14 31 -17 44 -19 -20 39 -22 36 -24 -25 55 50 -28 -29 38 -31 -32 -33 -34 43 54 -37 45 46 -40 -41 41 -43 -44 -45 -46 -47 -48 52 -50 -51 -52 -53 53 -55 -56 -57 -58 58 -60 -61 -62 -63
leaf_value=-0.016494893722120627 0.01793004915314372 0.03139258362102363 0.00017271557612589047 -0.052050409285110483 -0.067825543052043857 -0.05459824081534153 0.004952112584599511 -0.056200009410817375 -0.023817154275325922 -0.02313225994015965 -0.050320645056155744 -0.065792138256593385 -0.047689365875547174 -0.021466930391720564 -0.05813936561063348 0.065378405692410227 0.028077747913214185 -0.06479432172789755 -0.042592724167361151 -0.0023125967337897478 -0.025395314599333082 -0.058458092997951898 -0.016150642379777244 0.073505314641693839 -0.033776596441741441 0.063002250490084358 0.049218561048797127 0.0014806510215638088 -0.04458219123660568 -0.066701362130320838 0.068208404187942565 0.012168493823996322 0.025192115365103941 0.00063088591352609676 -0.0039297441004827018 -0.022201704087376206 0.0032464060461322112 0.053032358116321392 -0.020851564935680016 0.023935628799432132 0.053324943200462743 -0.05914541199489947 0.011061750489906494 0.069180968334456763 -0.057846247796942807 -0.030948605153645604 0.025451373337595354 0.057656221885654779 0.069534041748080672 0.03500075432275767 0.0075172032580881135 0.05058335730356061 -0.0071003822663087968 -0.02768254930696485 -0.05065365685083803 0.0099659860501125543 -0.02029497273802219 0.051722501249076895 0.012599326902767187 -0.043946643429694288 0.048927994313946399 0.045900844915507985
leaf_weight=924.47777213156223 4727.9370029121637 4612.6974231302738 10194.771725222468 19071.467069715261 5005.3722380697727 321.34488415718079 2732.1713616997004 4103.1588731855154 3231.2665086388588 1917.738058552146 3438.3537457734346 17449.639424920082 3220.3116943687201 2870.0237235575914 636.61593513190746 7855.6763705313206 559.37459293007851 768.7866594940424 2148.7273337393999 9218.4592658281326 897.34446436166763 5158.5790956169367 954.37125082314014 1182.0603274852037 4647.5401793122292 2898.3124720156193 7528.2735675871372 9870.6348713338375 13883.036061272025 1544.0400578677654 20901.491264835 3693.3860727548599 1220.4608159959316 722.83836394548416 3069.995420396328 6201.3445977270603 3698.4454088509083 13254.55737914145 11394.158450067043 4463.5613110214472 869.21859388053417 4062.8422201275826 535.63882847130299 4707.0630167424679 1277.1026782691479 6936.9664763659239 4932.2774847000837 21516.757609814405 618.70102939009666 330.65018539130688 1242.9916750341654 603.85693462193012 797.33910845220089 614.15657544136047 519.87180134654045 1832.766688644886 862.68357506394386 4070.411487147212 6778.6713518947363 1552.8059563189745 5339.9493798166513 6071.905936434865
leaf_count=3637 18534 17852 39767 80595 21790 1280 10659 17092 12738 7703 14421 75176 13365 11497 2610 31028 2174 3310 8806 36370 3668 22135 3736 4666 18873 11236 29060 38637 56713 6494 83013 14413 4783 2880 12153 25645 14867 51513 45424 17305 3359 17018 2075 18892 5213 28581 18987 85333 2474 1274 4854 2393 3151 2425 2097 7196 3392 15793 26448 6372 21046 23952
internal_value=0.00242162 -0.00205923 0.00573524 -0.026228 0.0120883 0.014537 -0.00200525 0.0282156 0.0173785 -0.0281097 0.0222293 -0.0384273 0.0264718 0.0308938 0.0408571 0.0350096 0.0308485 0.0365285 0.00787962 -0.0179996 0.0593738 -0.0462737 0.062804 0.0069797 0.000707528 0.0243578 0.026549 0.0182921 -0.0258744 -0.00862349 0.0663549 0.0460651 -0.0276581 0.0489185 0.0102053 -0.0447266 -0.0305709 0.0402528 -0.0338855 0.00113336 -0.056921 -0.0364907 -0.0635029 0.0600566 -0.0316717 -0.019083 0.0455278 0.0503054 0.00478285 -0.052827 0.0463505 -0.00894005 0.0523267 0.0353403 0.0178238 -0.0214045 0.0166519 0.0203949 0.0272786 -0.00831546 0.0416481 0.0336566
internal_weight=298267 262213 201826 33463.7 168362 163356 73938.6 89417.8 66343.3 60387.5 62240.1 46666.1 58801.8 54361 36690.8 36054.4 8190.86 21687.8 6761.42 52250.8 23074.6 39904.7 22177.2 13721.4 12539.3 6059.04 28198.8 20670.5 37016 11738.8 21222.8 33216.9 4440.77 6354.38 17670.2 25272.8 16124.6 20919 25277.2 15234.8 23780 5794.74 17985.3 5429.9 1836.48 10635.4 18186.8 29523.5 1255.32 5489.23 4141.3 3473.88 28268.2 6751.45 14439 6480.31 1731.9 13919.1 10849.1 10771.3 6137.29 10799.8
internal_count=1199943 1058732 809669 139036 670633 648843 292914 355929 264232 249063 247140 194535 232719 214571 145342 141211 32796 84469 26658 208445 91697 167877 88029 54528 49862 23793 110183 81123 148398 46261 84293 131452 18148 25409 69229 106240 66857 81159 102137 60047 101020 23769 77251 21772 7387 43448 70500 117039 5084 23409 16090 13890 111955 26622 56491 26069 6751 54394 42241 42742 24197 42486
cat_boundaries=0 4 8 12 16
cat_threshold=128 131072 262272 544 805322820 2239896064 1410080897 8744 2248148160 2374152192 2500124801 8928 2726441745 106971808 603979968 2
is_linear=0
shrinkage=0.05


Tree=9
num_leaves=63
num_cat=0
split_feature=213 173 172 170 29 12 215 215 172 4 157 173 29 172 171 173 171 173 173 173 172 171 108 34 171 172 15 172 170 36 3 18 215 172 215 172 172 110 164 171 18 170 172 173 142 173 173 173 171 173 15 217 3 29 172 142 172 217 173 164 171 192
split_gain=18014.3 19832.9 10138.3 15225.7 9081.67 8368.62 8293.68 6449.44 6003.34 5504.25 4975 4883.9 4435.44 4301.73 4110.36 3972.37 3476.31 3639.88 4490.76 3408.26 3086.43 2999.16 2746.07 2691.69 2581.16 2358.1 2302.55 2232.07 2046.32 2023.95 1929.21 1762.73 1701.65 2342.91 1647.99 3577.6 1980.83 1627.24 1472.53 1397.43 1359.27 1349.64 1330.91 1399.62 1330.21 1276.08 1419.74 1272.79 2262.26 1162.69 1156.24 1175.9 1122.19 1115.52 1098.33 1095.7 1042.01 1006.92 992.115 981.91 976.634 964.569
threshold=1.5000000000000002 0.017245631664991382 -0.865024834871292 12.500000000000002 0.037710018455982215 0.12163408100605012 0.13613539189100268 -0.012768650893121956 -1.3589423298835752 20.661149978637699 0.49958333373069769 -0.01294055813923478 0.037411415949463851 -0.54717811942100514 1.4290145635604861 -0.09344864264130591 1.8518825173377993 -0.05259872414171695 -0.0056866568047553292 -0.079254437237977968 -1.6548297405242918 -0.43097333610057825 -0.0012093637487851081 35.98291206359864 1.0000000180025095e-35 -0.43771067261695856 0.16542887687683108 1.0627120733261111 13.500000000000002 -94.35610198974608 1685564.1875000002 0.09237499907612802 0.015431062318384649 2.5283441543579106 0.0035093316109851007 0.82919213175773632 1.6881119012832644 0.32319916784763342 246.8452072143555 1.8518825173377993 0.59490475058555614 1.5000000000000002 -1.7398520708084104 -0.027978957630693909 13.345099925994875 -0.0056866568047553292 -0.05259872414171695 -0.041233409196138375 0.12020944431424142 -0.0032884306274354454 -0.037889739498496049 42.329538345336921 3266657.2500000005 0.026869799941778186 -1.390980005264282 24.413450241088871 -1.7398520708084104 20.885786056518558 -0.034314177930355065 102.17159652709962 -0.43097333610057825 -2.6414999961853023
decision_type=2 2 2 2 8 8 2 2 2 8 10 2 8 2 2 2 2 2 2 2 2 2 10 8 2 2 10 2 2 8 2 8 2 2 2 2 2 8 10 2 10 2 2 2 10 2 2 2 2 2 8 2 2 8 2 10 2 2 2 8 2 2
left_child=5 2 7 9 44 8 13 12 11 30 15 20 42 28 -9 -10 17 27 34 56 55 22 -20 -8 53 -23 29 -11 38 -17 39 47 -15 -34 52 -36 -37 -18 -6 45 -24 -22 43 -2 -3 46 -4 -21 54 -27 51 -46 -19 -13 -49 -1 -14 -31 -50 -35 -47 -12
right_child=1 4 3 -5 6 -7 23 14 10 16 61 24 19 32 -16 26 37 18 21 31 41 25 40 -25 -26 49 -28 -29 -30 57 -32 -33 33 59 35 36 -38 -39 -40 -41 -42 -43 -44 -45 50 60 -48 48 58 -51 -52 -53 -54 -55 -56 -57 -58 -59 -60 -61 -62 -63
leaf_value=-0.055470130581607685 -0.062579579191651413 -0.063233139887012194 -0.022372490612040143 -0.043275612140482825 -0.047214346151520314 0.043415773312722374 -0.052899084493001083 0.04892669048603198 0.065770025879220803 -0.029235412117101196 0.013876832563118769 -0.01552458411215759 -0.0012958878541087242 0.0023051863077823936 -0.032941403092389986 0.016916444031641439 -0.037101456648769349 0.064458294781710931 0.049376972182972927 -0.032747723630741625 0.037305691858487887 -0.023476387054272171 -0.035467300650879115 0.0033587620569840771 -0.05571037999197237 0.00041050610998525066 0.0047458779799395088 0.07285530556389995 0.050968464601300514 0.0095939385091029471 -0.011173500133774314 0.031801288142298427 0.047209207518084162 -0.035876125458949429 0.059968732953876058 -0.052310384621882325 0.025956871140821985 0.026136143496637666 0.0032673352275204683 -0.033703031232338185 0.021505038326868828 -0.010446829796631453 -0.031627826357394057 0.0064267990087161705 -0.067974418090344976 -0.027694731848979845 0.044408131120970737 0.022523413644645066 0.030569125686418275 0.046445255310358077 -0.043768574915257076 0.010266556965740324 0.021305996702263446 0.040657476484411058 -0.0083004189599258961 -0.0083091224164995939 0.064525614839259018 -0.048730366056565833 -0.042826574171562298 0.031690835353305274 0.018994823820563386 -0.026502325882253003
leaf_weight=5357.4408263862133 859.30259671807289 6515.9341157227755 888.97964617609978 7027.7230246961117 3942.6394852548838 5142.5032513439655 8048.5473344177008 9533.1631865054369 870.13602887094021 2682.6600228101015 5842.6066830158234 1000.2222682386637 751.58580362796783 4808.0586200356483 1826.8444676846266 1261.9978636205196 2037.2182027995586 26553.710972130299 2112.6068141162395 3602.8792787492275 1909.4324363917112 1419.3400703668594 3530.6709776669741 2889.2412163317204 882.47271600365639 1477.6629604399204 2448.0270149260759 668.77290806174278 925.30802184343338 755.74833229184151 6767.5061109960079 3682.9413338005543 10435.912424296141 1355.6339906007051 6683.8894775807858 1268.9556960910559 2226.9228823930025 2031.6562802344561 2279.5729702115059 1091.7364162802696 1488.0152448415756 6572.9681181013584 14761.608868405223 5067.8701817691326 615.9505922049284 1501.2384113818407 7587.397083029151 7547.7182517945766 532.43398100137711 19151.41557200253 9084.2264520525932 2177.6981144100428 1597.7387247532606 7562.3655857890844 4682.8323039859533 1599.5985351502895 3003.5283057540655 35150.03964188695 3398.084951877594 890.99521625041962 4409.4701475948095 1980.0857237577438
leaf_count=23134 3533 28257 3639 29756 16735 20197 34196 37469 3572 11042 23037 3914 2932 18931 7480 5107 8429 107263 8413 14642 7334 5667 14567 11271 3669 5758 9658 2738 3567 2917 26852 14186 40833 5512 26959 5384 8843 8001 9065 4471 5861 26049 59909 19685 2740 6107 30218 29186 2070 76266 38464 8717 6340 29396 18468 6576 12283 149962 13914 3490 17257 8055
internal_value=0.00232018 0.00972701 0.0184043 0.027794 -0.0165534 -0.0182379 -0.00180514 0.00189026 -0.0225698 0.0329338 -0.0328472 -0.00261785 -0.00614395 0.0142799 0.0357606 -0.0399002 0.0394177 0.0419983 0.0445231 0.00712617 -0.0199431 0.0297425 0.00155567 -0.0380381 0.0257023 0.0388589 -0.0422215 -0.00886032 -0.0184018 -0.0453151 0.0110941 4.30716e-05 0.0276356 0.0372381 0.0557747 0.0385321 -0.00245232 -0.00552478 -0.0287193 0.0208301 -0.0185742 0.000302235 -0.0235919 -0.00357757 -0.0450779 0.0249688 0.0374036 -0.00587484 0.000115945 0.043148 -0.0351175 -0.00698423 0.0620094 0.034094 0.0107212 -0.0446276 0.0513504 -0.0475026 -0.0328825 -0.00907716 0.00713521 0.00365518
internal_weight=295761 217426 163456 104205 53969.7 78335.6 35575.9 59250.8 73193.1 97177.6 48308.6 24884.5 47890.8 24638.1 11360 40485.9 74931.2 70862.4 67510.9 27202 15439.4 29179.7 7131.29 10937.8 9445.06 22048.4 39615.8 3351.43 7147.52 37167.8 22246.3 23446.9 17490.6 12682.5 38331.2 10179.8 3495.88 4068.87 6222.21 15478.8 5018.69 8482.4 20688.8 5927.17 18393.8 14387.1 8476.38 19763.9 16161.1 20629.1 11877.9 2793.65 28151.4 8562.59 12230.6 6957.04 3755.11 35905.8 3930.52 2246.63 5910.71 7822.69
internal_count=1199943 877366 655588 419831 221778 322577 143600 235757 302380 390075 202308 100072 190808 98133 44949 171216 301531 285101 271321 107681 63093 116532 28841 45467 36979 87691 167644 13780 29367 157986 88544 92466 68766 49835 154789 41186 14227 16430 25800 61692 20428 33383 83127 23218 78178 57221 33857 78280 63638 82024 49921 11457 113603 33310 47654 29710 15215 152879 15984 9002 23364 31092
is_linear=0
shrinkage=0.05


Tree=10
num_leaves=63
num_cat=2
split_feature=6 15 215 215 215 171 215 171 171 215 170 172 170 172 172 215 219 215 172 108 172 219 29 108 172 215 172 172 171 172 17 172 17 171 172 171 172 172 171 172 14 215 215 122 172 215 171 29 4 151 171 170 15 170 161 215 172 172 172 170 171 215
split_gain=15538.3 8148.56 6769.27 6577.55 6313.59 4897.67 4779.69 4903.33 4375.08 6110.58 3588.41 3861.09 3585.15 3416.67 3390.99 3163.6 3071.5 2956.32 2759.4 2743.94 2740.76 2689.28 2620.43 2572.37 2570.99 2406.53 2185.6 1681.03 2202.63 1785.22 1655.24 2887.29 1635.28 1940.32 1622.7 2165.66 1513.31 1497.48 1447.57 1369.54 1337.64 1261.42 1217.63 1206.27 1191.84 1168.87 1156.78 1141.57 1134.3 1105.17 1064.9 1010.85 1008.31 1004.21 964.464 961.34 1285.76 1856.7 1318.55 1183.32 1081.76 949.572
threshold=1.8176500201225283 0.24657785147428515 -0.045417930930852883 0.065516192466020598 0.06152313947677613 1.0698075294494631 -0.022922247648239132 -0.19088596105575559 1.0698075294494631 -0.022922247648239132 12.500000000000002 -0.51066209375858296 12.500000000000002 0.88283991813659679 4.1388769149780282 0.033286185935139663 0 -0.041426368057727807 -0.51066209375858296 0.011969019193202259 4.1388769149780282 1 0.031039099209010605 0.0055711308959871539 -1.4482945203781126 -0.050206668674945824 0.93332403898239147 0.85161197185516369 0.093586035072803511 -0.51066209375858296 0.077065143734216704 0.62684389948844921 0.061134263873100288 -0.079946324229240404 -1.3589423298835752 -0.24845083057880399 0.93332403898239147 -1.4482945203781126 -0.66950866580009449 0.62684389948844921 0.01966852601617575 0.033286185935139663 0.0035093316109851007 0.044675745069980628 -2.4292712211608882 -0.037019439041614526 0.66743716597557079 0.034768443554639823 16.268300056457523 16.734584808349613 -0.52057814598083485 6.5000000000000009 0.4208191186189652 1.5000000000000002 21.8005485534668 -0.023370094597339627 -0.865024834871292 -1.4890000224113462 0.26479791104793554 6.5000000000000009 -0.98487374186515797 0.016252261586487297
decision_type=8 8 2 2 2 2 2 2 2 2 2 2 2 2 2 2 9 2 2 10 2 9 8 10 2 2 2 2 2 2 10 2 8 2 2 2 2 2 2 2 10 2 2 2 2 2 2 10 8 10 2 2 10 2 10 2 2 2 2 2 2 2
left_child=4 2 34 5 8 6 7 44 9 22 11 15 16 17 -6 37 -11 -9 24 -7 49 -13 -1 -10 -18 -24 -12 28 29 -27 42 -32 46 39 35 38 -14 -8 -2 -34 -36 51 -23 -19 -4 53 48 -44 -20 -5 -33 54 -3 -30 -26 56 57 -46 -58 -59 -60 -48
right_child=1 52 3 20 14 19 10 13 23 12 26 21 36 -15 -16 -17 18 43 32 -21 -22 30 25 -25 41 27 -28 -29 45 -31 31 50 33 -35 40 -37 -38 -39 -40 -41 -42 -43 47 -45 55 -47 61 -49 -50 -51 -52 -53 -54 -55 -56 -57 58 59 60 -61 -62 -63
leaf_value=-0.034443484120128369 -0.020544757052544941 0.030293126346933614 -0.034599186072129688 -0.038030542062929586 -0.051593777327252469 -0.028850812732899835 0.040271975865951631 0.03637775096478349 -0.052920798038786521 -0.016031235304349859 0.037061523979908022 0.003757144198267301 0.0095752923239952898 0.055577825719157786 0.068008709559752023 -0.039665108474861405 0.035705498428557775 -0.03792862329582701 0.018596744418599702 0.022214538087279839 0.070375861847485274 0.057941324527632058 -0.040174060045651799 0.003597169880917581 0.032246288906952567 0.0058553108916451378 -0.034492622568581793 0.041971692416434704 0.052548185826372808 -0.04277791519559293 0.065364260977694044 -0.021523805140442893 0.065445713549508996 0.035501416296017795 -0.055636705520610168 -0.064418662261311127 -0.054013267229190344 0.0069357772624366919 0.028999314569961621 -0.038786024690397727 -0.0063751573234304129 -0.061860611746542775 0.015128921367405049 -0.0072826869807007316 0.031405556234744524 -0.060735035709886823 0.060326103099081242 0.044548085364523524 0.04720118070443835 -0.010365914202017143 0.022526817529140587 -0.045108674991660318 0.05120797810648086 -0.053781240837135008 -0.01380808886565324 -0.055631597226215947 0.063807187899341408 -0.015246001123918202 -0.013000373495273757 0.029882518848388096 0.045999957121309089 -0.046134056866669909
leaf_weight=15392.466535523534 2936.8446707874537 15681.691652864218 973.55599853396416 7884.373389005661 11941.70137578249 9460.8512112051249 5121.389738753438 1976.8881953656673 7891.4694713056087 7617.8987268060446 1494.0757014751434 5480.9267505705357 1344.6251232624054 1585.4336564540863 623.45969787240028 2788.0845508575439 3245.6379484385252 10574.300848484039 4846.4298976063728 3643.6324886083603 787.92735593020916 13062.816051840782 5105.4276353567839 2702.5520834475756 1761.4137768447399 16751.069101020694 3734.0889208912849 1961.2970431149006 503.25532062351704 2126.4128263443708 2490.1513420492411 2750.3451174199581 363.30289122462273 2580.0138590484858 5208.3068169653416 1421.7898351848125 3074.9008505344391 9845.0615489631891 2960.3350619524717 2372.3435744047165 1874.1892831325531 1318.61260651052 4202.1338986009359 4611.9232640862465 8553.0941082537174 2517.0612879246473 293.40085236728191 15328.713755890727 12173.313100025058 6660.4494697451591 2737.3653294891119 1435.6423663794994 9113.4817195385695 397.22014926373959 3205.2643512040377 392.86873023211956 3352.412628158927 5313.3191923648119 1447.8193438798189 1998.9557236135006 1676.0699236690998 731.22293847799301
leaf_count=63783 12134 62155 4187 33081 51052 39885 20195 7863 34055 30853 5780 22127 5245 6488 2526 11934 12768 44479 19271 14486 3199 53423 21796 10889 7079 67073 15964 7887 2043 9134 10183 11308 1484 10331 22849 6114 13243 39712 11582 9833 7595 5850 17057 18851 33397 10878 1175 61262 49085 27359 10931 5988 35846 1747 13047 1662 13896 21567 6070 7730 6705 3058
internal_value=0.00218457 0.0113751 0.00710054 0.01046 -0.0122212 0.0142628 0.0176615 0.00446019 -0.00809045 -0.00455443 0.0257802 0.0290433 0.00816689 -0.0146473 -0.0456584 0.0092338 0.0126802 -0.0211349 0.0190512 -0.0146519 -0.0204421 0.0366802 -0.0177334 -0.0385026 -0.00163293 -0.00897317 -0.014043 -0.00240572 -0.00631001 0.000376665 0.0411167 0.020712 0.0287699 0.00439508 -0.0255404 -0.00902908 -0.0346658 0.0183437 0.00432518 -0.02494 -0.042602 -0.0173297 0.0461235 -0.0286222 0.0195707 -0.0432456 0.0359501 0.0382188 0.0390564 -0.0253627 0.00044851 -0.00815662 0.0379808 0.00563755 0.00252424 0.0218908 0.0232545 0.0155902 0.0420287 -0.0029083 0.0186541 -0.0156414
internal_weight=293403 179126 154330 139929 114277 124596 111492 42456.6 101712 91118.2 69035.2 63807 46364 18748.5 12565.2 17754.5 41944.5 17163.1 34326.6 13104.5 15332.8 46052.5 44754.2 10594 10966.6 29361.7 5228.16 24256.3 22295 18877.5 40571.5 7977.86 23360 5315.66 14401.5 7318.97 4419.53 14966.5 5897.18 2735.65 7082.5 7720.93 32593.7 15186.2 23708.1 3417.54 18044.4 19530.8 17019.7 14544.8 5487.71 6402.32 24795.2 900.475 4966.68 22734.5 22341.7 15865.4 6476.3 7312.27 3123.89 1024.62
internal_count=1200229 729056 631055 570781 471173 507142 452771 172895 417595 372651 279876 258132 188310 77681 53578 71841 169822 71193 138969 54371 63639 186291 184341 44944 44732 120558 21744 98762 90875 76207 164164 32422 94237 21648 60274 29830 18488 59907 23716 11317 30444 31964 131742 63330 95214 14668 72589 78319 68356 60440 22239 26114 98001 3790 20126 91027 89365 62694 26671 29297 12775 4233
cat_boundaries=0 4 8
cat_threshold=1196160 2374121480 352870533 12904 805388484 92461568 1476823053 14560
is_linear=0
shrinkage=0.05


Tree=11
num_leaves=63
num_cat=4
split_feature=213 173 172 170 216 160 144 218 214 173 174 172 219 160 173 216 216 172 171 174 216 216 160 172 218 172 173 174 171 144 214 218 218 12 174 170 214 14 144 216 173 171 18 167 170 172 172 170 219 174 174 14 171 218 142 172 170 219 219 170 172 151
split_gain=15185.2 17051 8528.99 12873.5 9654.01 8061.76 7390.33 6591.55 5896 5763.32 5733.01 5627.77 5177.53 4727.46 4212.93 3718.9 4203.71 4032.64 3682.92 3320.62 4275.62 3914.58 3191.63 3173.26 2828.54 2674.29 2542.39 2346.64 2306 2202.59 2148.55 2227.58 2061.94 1893.61 1831.61 1779.18 1777.97 1665.16 1468.5 1457.33 1452.55 1430.31 1421 1278.73 1266.13 1260.5 1209.06 1357.32 1167.4 1117.83 1067.77 1037.41 993.763 975.13 965.556 952.12 1073.88 938.353 925.908 913.042 868.969 842.329
threshold=1.5000000000000002 0.017245631664991382 -0.865024834871292 12.500000000000002 -0.01321836421266198 3.7710019350051884 18.226249694824222 0.73859173059463512 0.039294270798563964 0.13026138395071032 0.017777305096387867 -1.3589423298835752 0 4.3096146583557138 -0.01294055813923478 -0.070999231189489351 0.16335706412792209 0.13673967123031619 0.93760338425636303 -0.043213693425059312 -0.075596921145915971 -0.0023968768073245879 3.7710019350051884 -0.54717811942100514 0.9135461449623109 -1.6548297405242918 -0.079254437237977968 -0.010641990695148705 1.0000000180025095e-35 31.09799957275391 -0.031390843912959092 0.82202002406120311 1.1056040525436404 0.097261805087327971 -0.0025972222210839386 13.500000000000002 -0.025834349915385243 0.22300092130899432 1.6163499951362612 0.16335706412792209 -0.09344864264130591 -0.43097333610057825 0.09237499907612802 5.4775500297546396 1.5000000000000002 -2.019292831420898 1.8440799713134768 13.500000000000002 1 0.016790719702839855 0.023332814686000351 0.15010469406843188 0.24095805734395984 1.0409911870956423 20.606150627136234 -0.80639457702636708 1.5000000000000002 2 3 5.5000000000000009 -0.43771067261695856 18.798044204711918
decision_type=2 2 2 2 2 8 8 2 2 2 2 2 9 8 2 2 2 2 2 2 2 2 8 2 2 2 2 2 2 8 2 2 2 10 2 2 2 8 10 2 2 2 8 10 2 2 2 2 9 2 2 8 2 2 10 2 2 9 9 2 2 10
left_child=6 2 4 7 13 27 11 51 10 23 12 14 48 34 25 17 32 -13 24 20 -14 55 41 35 -12 54 -15 -3 58 -11 -25 -32 33 38 40 43 -24 -26 -17 49 -2 -23 45 -7 -27 -28 47 -29 -9 -8 -35 -4 57 -40 -1 56 -21 -36 -16 -6 -43 -47
right_child=1 5 3 -5 59 9 39 8 -10 29 18 15 19 26 28 16 -18 -19 -20 21 -22 22 36 30 37 44 42 46 -30 -31 31 -33 -34 50 52 -37 -38 -39 53 -41 -42 60 -44 -45 -46 61 -48 -49 -50 -51 -52 -53 -54 -55 -56 -57 -58 -59 -60 -61 -62 -63
leaf_value=-0.055407199566104876 0.041258584018525481 0.035940541341801961 -0.051395789700653539 -0.040182520614564607 0.046496013665381579 -0.044872261834288767 0.038315561999512505 -0.031577612620116192 -0.060507454774908931 -0.051051254782948974 0.062807021175718944 -0.068720285691307115 0.062438283517466379 0.051377130974479636 -0.014458606154445611 -0.045578031809792557 0.022131370620935256 0.066299123590587969 0.060422997644536708 -0.012178120348718522 -0.021272009525550698 -0.016449901338006272 -0.03221963723844392 -0.057926181128390236 -0.041219617044958419 0.03527627269376199 0.052112220928461142 -0.055649951965637635 -0.054102793805340221 -0.0015538513201122373 -0.0030318471319979827 0.036927870366052148 -0.060496317956566119 -0.0069280182380528068 0.032816741785911409 0.047907607755323517 0.049181200196237874 0.027249024946694136 -0.025201442201140185 0.065999027986765643 -0.033865111333469936 -0.030936178822805884 0.033345352210023882 0.0022033207040975051 -0.011012557935427809 -0.019632004601141187 -0.0097896131300968248 0.0044493455147916567 0.012040599046209547 -0.0026343503666808469 0.080470098938066212 0.0098786001786836941 -0.070074457145443678 0.040224267099707112 -0.014575375746900191 0.065620626275453536 0.068207784858254808 -0.0080447635771881652 0.037649606076504444 0.014675414190924125 0.028735513826454607 0.0087015736668609612
leaf_weight=4650.8290403038263 667.36791157722473 899.227797716856 2687.6340624988079 6897.635509043932 10315.453043445945 3819.5774671137333 3056.5645876228809 2112.8924033343792 1649.5163303911686 6493.8260893970728 941.10907815396786 796.69011253118515 2405.1276319175959 3151.3966526538134 962.88092070817947 18367.996545404196 2839.5294346809387 1807.3492057919502 1865.8605946451426 865.61218896508217 4169.807520955801 2457.0776198804379 687.24308602511883 801.5097983032465 5402.1368074119091 1918.0258703380823 887.1229864358902 14183.507228732109 864.85601234436035 3437.4675850123167 4833.4738182127476 12522.994154065847 9968.77993029356 1531.6141944378614 1798.9038046896458 907.50811013579369 27841.37717474997 1062.514388397336 7974.4997509717941 1860.1046129912138 17855.444900140166 645.19930666685104 2938.4864963591099 2317.5844354629517 6427.7698425501585 7507.9724858552217 1944.3199782967567 1005.9303867667913 5519.037950783968 3663.8791895657778 452.65345053374767 929.50280031561852 522.2810929864645 613.17205511033535 2102.9489935338497 22093.135999083519 798.63094082474709 6281.2778061181307 7380.5510140806437 2885.5173860341311 11169.968663200736 4031.3370993584394
leaf_count=20660 2687 3495 11508 29898 41151 16549 11853 8449 7410 28374 3820 3682 10068 13044 3770 79947 11164 7362 7554 3400 17069 9873 2857 3493 22066 7364 3454 62843 3682 13548 19248 49550 44496 6185 6945 3541 113107 4086 33171 7605 73342 2607 11321 9249 25556 30266 7802 3919 22055 14542 1719 3627 2222 2369 8847 91887 3350 24598 28946 11238 44831 15908
internal_value=0.00208924 0.00894256 0.017048 0.025779 0.00188333 -0.0156087 -0.0169169 0.0305531 0.0331649 -0.00165984 0.0348812 -0.0223844 0.039156 -0.00900841 -0.00304797 -0.0329818 -0.0365978 0.0249878 -0.00235625 0.0432426 0.00934915 0.0465972 0.0375626 0.0110523 -0.0181746 -0.0193034 0.010468 -0.0427852 0.0236068 -0.0339197 0.0221032 0.0257995 -0.040884 -0.0341279 -0.0223036 -0.0174313 0.04722 -0.0299653 -0.0375981 0.0268322 -0.031158 0.018258 0.00207678 -0.0270945 -0.000373592 -0.00531713 -0.0469174 -0.0516695 -6.01802e-05 0.0159899 0.0130099 -0.0356488 -0.00323771 -0.020529 -0.0426944 0.0628732 0.026396 0.00108263 0.0316631 0.0395411 0.0254763 -0.00973305
internal_weight=291451 214211 161044 102201 58842.6 53166.9 77240.7 95303.4 91686.2 35133.9 90036.7 68660.1 80765.1 45641.6 24307.9 44352.3 41748.2 2604.04 9271.62 73133.2 6574.94 66558.2 42800.9 25202.6 7405.76 15099.6 18516.3 18033 9208.29 9931.29 18158 17356.5 38908.7 28939.9 27125.3 7044.67 28528.6 6464.65 26955.7 8580.55 18522.8 14272.2 15364.9 6137.16 8345.8 12426.4 17133.8 15189.4 7631.93 6720.44 1984.27 3617.14 8602.46 8587.67 6753.78 23757.4 1664.24 8080.18 8343.43 13201 11815.2 11539.3
internal_count=1200229 877309 655698 419522 236176 221611 322920 389624 374489 143552 367079 288920 329553 183787 98825 190095 179051 11044 37526 299049 27137 271912 173275 101630 29972 62427 73993 78059 36398 41922 72291 68798 167887 123391 109794 29339 115964 26152 115487 34000 76029 57311 60949 25798 32920 49628 74564 66762 30504 26395 7904 15135 33765 35540 29507 98637 6750 31543 32716 52389 47438 46174
cat_boundaries=0 4 8 12 16
cat_threshold=805322880 2239895552 1409681549 12832 268435584 2156003328 268697728 512 579883084 75776416 1133299809 9249 69272768 2273488896 2416365697 8932
is_linear=0
shrinkage=0.05


Tree=12
num_leaves=63
num_cat=0
split_feature=213 174 217 215 160 170 144 5 215 172 174 170 218 216 216 172 174 216 218 172 215 217 164 160 172 215 216 214 160 216 218 172 174 12 172 216 215 174 215 218 110 142 214 18 217 134 218 216 216 131 216 30 215 217 172 216 15 215 142 174 170 170
split_gain=13849.4 11623.1 11447.4 13599.3 9839.74 7837.19 6757.58 6572.89 5575.4 5295.59 4355.81 4163.37 4130.66 3640.06 3495.4 3720.59 3424.28 3422.21 3053.87 2771.97 2722.2 2634.05 2563.6 2286.02 2179.37 2983.91 2347.3 4339.86 2120.06 1959.02 1913.4 1806.34 1755.23 1694.08 1687.24 1660.13 1336.84 1295.21 1274.06 1264.61 1258.51 1215 1197.63 1186.17 1155.07 1262.65 1094.62 1094.48 2689.59 1532.67 1521.98 1026.43 1014.28 1007.81 1006.07 1241.28 1005.58 987.202 984.401 978.392 918.851 910.504
threshold=1.5000000000000002 0.026050256565213207 37.995069503784187 0.17812956124544146 4.406736135482789 11.500000000000002 16.621500015258793 18.611050605773929 -0.035808188840746873 -1.3589423298835752 -0.032946558669209473 3.5000000000000004 1.329082250595093 -0.025740982964634892 -0.070999231189489351 0.13673967123031619 -0.036604067310690873 0.16335706412792209 0.79882648587226879 0.98684036731719982 0.0054332667496055373 85.581661224365249 145.57320404052737 3.4176772832870488 -0.865024834871292 -0.018954178318381306 -0.0023968768073245879 -0.025834349915385243 3.2650263309478764 -0.021704982966184613 1.1056040525436404 -1.6548297405242918 -0.020106305368244645 0.097261805087327971 1.6983276009559634 0.16335706412792209 -0.044886244460940354 0.016790719702839855 0.050712741911411292 1.0409911870956423 0.34546779096126562 17.480150222778324 0.02114733308553696 0.31576795876026159 28.077179908752445 13.500000000000002 1.215104401111603 -0.018703313544392582 0.070669822394847884 -0.032141160219907754 -0.033292546868324273 -0.09240830689668654 0.0054332667496055373 46.165185928344734 -1.2313737273216245 -0.016802672296762463 0.37784337997436529 0.082740675657987608 17.927899360656742 -0.029669139534234997 3.5000000000000004 6.5000000000000009
decision_type=2 2 2 2 8 2 8 8 2 2 2 2 2 2 2 2 2 2 2 2 2 2 8 8 2 2 2 2 8 2 2 2 2 10 2 2 2 2 2 2 8 8 2 10 2 10 2 2 2 10 2 8 2 2 2 2 10 2 8 2 2 2
left_child=6 2 8 5 34 7 9 46 18 13 11 20 21 31 15 -11 61 30 -2 41 29 24 -6 54 25 60 -26 -28 53 -9 33 -1 -15 39 43 37 -33 -8 -36 44 -13 -7 -38 -3 -16 -46 58 50 59 -50 -25 -22 -48 -29 55 -18 -24 -35 -4 -49 -12 -10
