tree
version=v4
num_class=1
num_tree_per_iteration=1
label_index=0
max_feature_idx=202
objective=regression
feature_names=adx winner_rate holder_pct total_mv pe pe_ttm pb market_score_adj mf_divergence mf_strength mf_consecutive ma_ratio_5 ma_ratio_10 ma_ratio_20 ma_ratio_60 ma_ratio_120 ma5_ma20 ma20_ma60 macd macd_signal macd_hist rsi_6 rsi_14 rsi_24 kdj_k kdj_d kdj_j boll_pct boll_width atr_pct bias_5 bias_10 bias_20 roc_10 roc_20 cci_14 wr_14 mfi_14 trix vol_ratio_5 vol_ratio_20 amplitude amount_ratio_20 vol_price_match obv obv_diff_20 cdl2crows cdl3blackcrows cdl3inside cdl3linestrike cdl3outside cdl3starsinsouth cdl3whitesoldiers cdlabandonedbaby cdladvanceblock cdlbelthold cdlbreakaway cdlclosingmarubozu cdlconcealbabyswall cdlcounterattack cdldarkcloudcover cdldoji cdldojistar cdldragonflydoji cdlengulfing cdleveningdojistar cdleveningstar cdlgapsidesidewhite cdlgravestonedoji cdlhammer cdlhangingman cdlharami cdlharamicross cdlhighwave cdlhikkake cdlhikkakemod cdlhomingpigeon cdlidentical3crows cdlinneck cdlinvertedhammer cdlkicking cdlkickingbylength cdlladderbottom cdllongleggeddoji cdllongline cdlmarubozu cdlmatchinglow cdlmathold cdlmorningdojistar cdlmorningstar cdlonneck cdlpiercing cdlrickshawman cdlrisefall3methods cdlseparatinglines cdlshootingstar cdlshortline cdlspinningtop cdlstalledpattern cdlsticksandwich cdltakuri cdltasukigap cdlthrusting cdltristar cdlunique3river cdlupsidegap2crows cdlxsidegap3methods lr_slope_20 lr_slope_60 lr_angle_20 channel_pos_60 lr_r2_60 break_high_20 break_high_60 break_low_20 gap_up gap_down limit_up limit_consec volume_spike_up volume_spike_dn k_kmid k_klen k_kmid2 k_kup k_kup2 k_klow k_klow2 k_ksft k_ksft2 qtlu_20 qtld_20 rank_20 rsv_20 imax_20 imin_20 imxd_20 corr_close_vol_20 cord_ret_vol_20 cntp_20 cntn_20 cntd_20 sump_20 sumn_20 sumd_20 vma_20 vstd_20 wvma_20 aroon_up aroon_dn aroon_osc kama_20 kama_dist sar_signal cmo_14 bop ppo apo ad adosc natr_14 stochrsi_k stochrsi_d ht_trendmode amount_1d amount_5d_avg amount_20d_avg amount_log amount_zscore_60d amount_breakout regime_days_in regime_intensity hs300_ret60_z60 cyb_rel_strength zz500_rel_strength sm_net_5d mid_net_5d lg_net_5d elg_net_5d main_net_5d lg_net_20d elg_net_20d main_net_20d main_consec_in main_consec_out dispersion_5d elg_ratio_5d buy_sell_imb_5d upward_impact_per_amount range_per_amount_5d amihud_illiq_5d kyle_lambda_20d tail_risk_5d range_compression drawdown_recovery price_impact_asym regime_id mkt_ret_5d mkt_ret_20d mkt_ret_60d mkt_rsi14 mkt_vol_ratio industry_id
feature_infos=[-8:10] [-10:12] [-6:8] [34102:246633129.90560001] [1.0375000000000001:5343.1971000000003] [1.1429:305727.0797] [0.18010000000000001:3182.3728000000001] [-5:2] [-12:8] [-10:10] [0:5] [-0.5375282243804238:0.54424133677245701] [-0.51263563780227339:1.0476045163259076] [-0.5019610284504763:1.6686291427701367] [-0.68623796210003107:3.7071774548656977] [-0.70568951701027172:5.1273912731962454] [-0.45555417202783655:1.238339339186926] [-0.6101273687480584:1.2714428020197626] [-53.0573002615821:66.297670636859266] [-49.008639977543339:45.44821822967463] [-24.476374704156978:31.549289324127443] [0:100] [3.1008463108644677:99.518413597733712] [5.9658561510023871:96.907356978410036] [-9.355479354174652e-14:100.00000000000016] [-8.4870382326900854e-15:100.00000000000018] [-61.411137289718084:164.66503267973863] [-0.58178124585466873:1.5869856564282412] [0.0093192133396114759:3.1504136948666752] [0.0062768005502224673:0.36665168427045308] [-0.5375282243804238:0.54424133677245701] [-0.51263563780227339:1.0476045163259076] [-0.5019610284504763:1.6686291427701367] [-62.109447791788305:393.24577861163226] [-64.171122994652407:809.78723404255322] [-466.66666666666856:466.66666666666447] [-99.999999999999986:0] [-3.8616286954017527e-13:100.00000000000016] [-3.8789306953127989:12.632706400404503] [0.01066789971545423:4.952359118727431] [0.0031473477046966374:11.605816799021882] [0:14.630681818181818] [0.0023462398739358902:12.394307195347883] [1:4] [-65725116.900000021:275923243.72000009] [-58602426.609999985:120582521.39999998] [-100:0] [-100:0] [-100:100] [-100:100] [-100:100] none [0:100] none [-100:0] [-100:100] none [-100:100] none [-100:100] [-100:0] [0:100] [-100:100] [0:100] [-100:100] [-100:0] [-100:0] [-100:100] [0:100] [0:100] [-100:0] [-100:100] [-100:100] [-100:100] [-200:200] [-200:200] [0:100] [-100:0] [-100:0] [0:100] none none [0:100] [0:100] [-100:100] [-100:100] [0:100] none [0:100] [0:100] [-100:0] [0:100] [0:100] [-100:100] [-100:100] [-100:0] [-100:100] [-100:100] [-100:0] [0:100] [0:100] [-100:100] [-100:0] [-100:100] [0:100] none [-100:100] [-12.052819548872163:18.771135338345978] [-5.7661600444567869:6.3171305918310701] [-85.257138762539071:86.950548383450993] [0:0.99999999999999623] [-152.84007164443386:0.9669480641546353] [0:1] [0:1] [0:1] [0:1] [0:1] [0:1] [0:11] [0:1] [0:1] [-0.22731818831261283:2.8484848484848198] [0:3.12121212121209] [-0.99999999999993783:0.9999999999999617] [0:0.60829268292679961] [0:0.99999999999955747] [0:0.20114942528731775] [0:0.99999999999991118] [-0.30237547892720085:2.5757575757575499] [-0.99999999999995692:0.99999999999997402] [-0.58539493293591638:1.3224688684353008] [-0.88355940130963517:1.0118024374599104] [0.050000000000000003:1] [0:0.99999999999999523] [0:19] [0:19] [-19:19] [-0.98230529721567816:0.99638505770722208] [-0.96272449568959184:0.97717560955502691] [0:18] [1:20] [-20:17] [0:406.41329999999999] [0.59499999999999997:119.4344] [-100.05030000000001:346.47749999999996] [117.803:19341765.809500001] [72.465927921155398:13171888.905186148] [133.97369065973109:23215711.128347494] [0:100] [0:100] [-100:100] [0.91162410610306321:1813.5306967396457] [-1.0191657626629433:0.44445493944048503] [-1:1] [-93.798307378271048:99.036827195467438] [-1:1] [-35.63082455573133:75.07663487738418] [-89.2853846153848:77.652307692306977] [-147141872.76308137:164263131.40250862] [-19452674.22098694:16621443.414268527] [0.62768005502224677:36.665168427045309] [0:100.00000000000001] [-2.5105843330190208e-13:100.00000000000024] [0:1] [0.012200000000000001:30405.691800000001] [0.051900000000000002:46030.3629] [0.091899999999999996:32915.587200000002] [0.0121:10.3224] [-2.7364000000000002:7.5397999999999996] [0:1] [0:20] [-5.0295728357595886:24.219086464329553] [-4.1243258261731075:4.8427350422176225] [-0.1049095681899167:0.33222557391029595] [-0.11083488597748514:0.097518923089558784] [-3.1224394000000002:10.4424843] [-1.6256785:10.416854399999998] [-2.8130054000000002:1.3327554999999998] [-20.986871200000007:3.6487238] [-20.859338599999997:4.3115636000000013] [-7.1950169000000006:2.7134184000000015] [-23.3455586:6.3259743999999998] [-30.179003800000011:5.4793036999999991] [0:22] [0:42] [-2:2] [-2:3] [-4.6049939321592878e-05:7.651857248680071e-05] [0:0.0036449999999999998] [0:0.0048659999999999997] [0:0.00049134999999999999] [-0.80649999999999999:0.99450000000000005] [-68.331000000000003:0] [0:6.8700000000000001] [0:18.978999999999999] [-0.0034589999999999998:0.0024239999999999999] [0:5] [-0.094008599422006234:0.26975366283700941] [-0.089900887675234076:0.28140590047058067] [-0.11990600166628373:0.2605765138808922] [9.3665835411471079:98.030634573303857] [0.58250289653193832:3.3435266367196155] -1:74:8:93:1:19:61:25:23:18:97:51:37:68:72:107:33:4:70:0:30:2:34:32:48:16:90:36:87:42:96:6:105:5:22:14:84:76:24:35:38:80:21:64:53:98:17:104:43:13:66:47:9:57:55:31:59:50:108:100:3:58:81:78:75:69:86:92:46:44:103:89:63:56:102:27:29:20:12:54:77:85:39:67:88:109:15:94:41:45:60:82:91:99:65:62:101:10:83:95:28:71:106:7:49:40:26:79:52:11
tree_sizes=12248 12499 12220 12551 12485 12673 12441

Tree=0
num_leaves=127
num_cat=14
split_feature=173 200 144 173 172 171 174 41 171 199 186 171 199 173 196 199 199 196 200 3 170 200 172 200 174 173 143 199 172 14 174 200 172 174 173 197 199 200 202 172 173 173 196 171 8 172 172 173 197 199 202 197 201 29 199 7 172 200 201 171 29 201 110 170 3 201 172 202 143 174 5 199 199 199 197 171 202 172 202 3 202 202 3 202 172 3 202 172 199 174 173 202 29 201 173 171 7 5 172 171 170 171 173 172 8 202 171 200 201 202 172 172 174 197 7 172 143 202 174 173 199 202 157 131 171 171
split_gain=8.03877e+06 1.03532e+07 4.76635e+06 3.14404e+06 1.69364e+06 1.84288e+06 3.44318e+06 1.61874e+06 1.45107e+06 1.44474e+06 1.24314e+06 1.1405e+06 2.62718e+06 1.11541e+06 1.08514e+06 2.06986e+06 1.46539e+06 954537 920280 845754 1.02332e+06 794630 726336 717870 801095 705775 664753 652914 618879 597207 580404 513088 477765 475040 466966 759709 470103 448413 405991 379963 364245 350051 415643 338769 444491 334292 333715 328825 322710 299809 289305 284429 275945 331515 265562 332796 265473 280235 265329 261553 258858 252150 245374 241309 435669 241072 235889 233208 230799 229233 226632 218996 217707 213475 213062 205307 186709 188685 178747 177163 174191 174013 172507 171404 170346 168301 165569 160295 159745 159242 158545 155749 152970 151167 151162 150030 149588 149161 140707 140549 140083 139358 137883 136050 135926 131906 130446 127707 126110 124674 122479 144308 122331 116646 113881 113521 112942 112759 124638 110993 118535 132457 107322 105648 102607 101536
threshold=0.019830105831178394 28.4056413687582 -29.699999999999999 -0.052565253488111745 -1.0591092250240861 1.159207474051547 -0.036848480900196039 0.082477330138967422 0.52724713760661912 -0.018216993336409911 inf -0.43635802032903731 0.063627140334645574 -0.027872494838600211 2.5000000000000004 0.16335706543980302 -0.075596922528613261 1.0000000180025095e-35 21.409830899921001 768059.85540000012 2.5000000000000004 40.159275128797532 1.4538789400863947 39.662746721295235 0.016846294720409442 0.10815181133750075 26.661300000000001 0.021967789028700783 -1.9829856441927363 -0.35679367103289045 -0.01083779170820187 68.141657119161962 -1.177195568842756 0.017012332790824928 -0.026893658381557935 -0.013769612544277663 0.22302557757346933 59.63507644777318 0 -1.2460756524345815 -0.037502242200303508 -0.093448641350924996 3.5000000000000004 -0.13112504765541375 inf 2.5283441267586433 -0.39523491698999863 -0.040619904941920353 0.022347019173549757 0.052922232928957154 1 0.039294271624717554 1.2294189898783385 0.038356717599381578 -0.063667594946234793 1.0000000180025095e-35 -1.527542402853441 35.050514086093671 1.4236425418313474 -0.91596699137914883 0.042671455531562943 1.0508530799909546 0.99999999999826084 1.5000000000000002 515943.90150000009 1.1078365366803373 1.1760276378421735 2 29.474200000000003 -0.019861700249748534 36.276600000000009 -0.033292545571238834 0.23063386230275965 0.074492135107092974 -0.021249561729820839 -2.4186061296643007 3 -1.3526697137077848 4 153972.64145000002 5 6 377293.43015000009 7 -0.74158265752086128 470068.03805000003 8 -1.3704172398165522 0.082932463248273317 0.022396468129462725 -0.052565253488111745 9 0.035140860693460195 1.1907204316598077 -0.011688137115690665 -0.87319145794834563 1.0000000180025095e-35 97.650550000000024 1.5209511081044267 -1.9985121819499327 5.5000000000000009 -2.2909829212980486 -0.00031094573787293628 0.63551703985030483 inf 10 -0.39956102906496976 24.629611387463417 0.9944968285238095 11 -0.34428800055624381 -0.62694477183981501 0.024449916104193451 -0.028981867937155289 1.0000000180025095e-35 1.5209511081044267 18.736550000000005 12 -0.02304441592759909 -0.044439747861948646 -0.051629898249217258 13 1.1477564102564328 0.10559927368682322 -0.74257418119407104 -0.87319145794834563
decision_type=8 8 8 10 10 2 10 2 2 10 8 2 8 10 2 10 8 2 10 2 2 8 10 10 10 10 10 8 8 8 10 8 10 10 8 10 8 10 9 10 10 10 2 2 8 10 8 10 10 10 9 10 10 8 10 10 8 10 10 2 8 10 8 2 2 10 10 9 10 10 8 10 10 10 10 2 9 8 9 2 9 9 2 9 10 2 9 10 10 10 10 9 8 10 10 2 10 8 8 2 2 2 10 10 8 9 2 10 8 9 8 10 10 10 10 10 8 9 10 10 10 9 8 10 2 2
left_child=2 18 7 8 9 6 19 51 26 28 14 12 21 65 15 16 -3 31 80 20 82 61 81 24 104 27 62 54 59 58 -25 98 -20 -27 35 67 52 -17 -34 48 78 85 100 56 50 70 89 -37 73 -42 71 90 53 110 95 112 57 -30 -9 105 -51 107 -4 64 -10 -7 123 106 86 99 -24 -45 94 117 -55 -31 87 102 -23 -35 -2 114 -6 -67 -49 -28 -33 -58 -68 124 -1 115 -21 -86 -15 -12 -39 -38 -18 -44 113 122 -78 -54 -16 -5 -13 -8 -29 -91 111 -36 -56 -43 -19 -48 -40 -11 -119 -52 -121 -122 -72 -14 -32 -59
right_child=1 10 3 4 5 13 11 29 63 39 25 34 66 72 23 37 17 22 32 92 -22 40 45 30 -26 33 41 108 43 75 46 68 38 79 36 47 97 96 116 -41 49 42 69 44 -46 -47 91 84 -50 60 119 -53 103 74 55 -57 76 125 -60 -61 -62 -63 -64 -65 -66 83 88 -69 -70 -71 101 -73 -74 -75 -76 -77 77 -79 -80 -81 -82 -83 -84 -85 93 -87 -88 -89 -90 109 -92 -93 -94 -95 -96 -97 -98 -99 -100 -101 -102 -103 -104 -105 -106 -107 -108 -109 -110 -111 -112 -113 -114 -115 -116 -117 -118 118 -120 120 121 -123 -124 -125 -126 -127
leaf_value=0.82384091289224126 3.2470162548521198 1.6797189544871824 0.59479331771512189 0.8587709425949448 -0.74434648728697916 0.63932407105112621 0.55910519719547913 1.6243906189871311 -0.44680663706360835 0.45796311435834919 1.3193772144506271 0.091724357504671117 0.78660551643470467 0.35475532183098479 0.74424475558957859 0.58417573205780526 0.61568334082838549 1.1041158967301663 1.1316049429148225 0.34245865900617423 0.45183010399247381 0.43589891390745716 0.72411435359739229 0.053577328923935186 1.4541343805261073 3.0475121813459971 0.087558296292245263 0.30540110983734836 0.29923525918923022 1.8658376104903418 0.56129858354714635 0.76227145675828623 2.5778139326178233 2.2400162926728582 0.31297187598190923 0.5562002460605 0.18814862900685264 0.26220012561370976 1.5176811203196729 0.78660480797580368 0.33529742797517958 0.74975707678639347 1.3242527086985398 0.71885660688557995 0.46707825000849423 0.6180122692475809 0.39486591319457631 0.3744980155617697 0.46520263930380257 0.30076313604965998 0.32481531320542645 1.2048202164577175 0.29452776426946592 0.74588451771390507 0.38584181228833564 2.640743046171139 0.59986087036450608 0.64093653579602716 2.4701757886155016 0.46212097331141055 -0.16593004038700243 0.26120713421334341 0.33142940466949544 0.40338407890554873 0.31063952608851397 1.073902153641634 0.29651360277255373 0.085950378884591339 0.92473273090643204 0.62302147254017626 0.92166832510048491 1.4121165181536754 0.15554797581206942 0.0087405640556774689 0.2258995238179301 1.1763503126143644 0.50090299189670973 0.42059526767474581 0.034154181506962866 1.0781390210692263 2.2850319947013711 1.0808414787355738 -0.40876604955323093 0.73003024604191735 0.062766393318144764 0.71232174817263094 0.60523969119989252 0.39478476946870089 0.66475384784898028 0.69749883891711006 0.44286921845886962 0.48600944097346094 -0.065365753866947318 0.27085425006133279 0.51030031461842273 2.4399647914531504 -0.072431129314226905 -0.069489757916734951 0.43419629927669778 0.96548969418849595 0.81778970147499863 0.98546845995234233 0.7604556598286194 0.4933937069949883 0.37768419058174629 0.65091872722108912 -0.34656386403472361 0.42532247487934743 0.79497945666398828 0.54931798966666601 0.32078576041780815 0.50066245251372343 1.137212098642002 0.5499638429921665 1.7449144013229168 0.19088641101840592 1.8512980265302741 0.3602618265257726 0.23292624902225967 0.48800459759328557 0.75866484856214256 0.58071652436130372 0.4330434221774771 1.2008084860964474 0.41137931206558731 0.43249855999729131
leaf_weight=5546 659 3911 58953 13288 8550 30296 23484 1724 3909 8079 505 2117 33775 31128 7784 11722 15589 1053 4014 4903 2755 3134 21470 7657 3900 653 2678 2703 59193 1319 22811 27001 1376 475 17193 8024 15063 23424 6222 4006 62554 13109 3185 2776 138043 23232 26909 11796 22840 5794 3559 2754 11857 2008 694 330 38166 7763 2008 11699 6099 19655 10405 3936 3691 6652 3928 9206 9678 4432 2297 1932 7985 7887 103838 5953 25191 170000 24627 1061 3264 8657 6940 8075 19675 1804 44536 12699 11769 24291 5380 40579 4330 15687 31351 732 3895 8960 33913 19116 17211 24476 6421 31312 3746 18087 8577 74200 2562 34220 84789 25327 2468 16502 2032 9137 4287 25394 79012 14352 17759 25524 2200 1613 22841 23617
leaf_count=5546 659 3911 58953 13288 8550 30296 23484 1724 3909 8079 505 2117 33775 31128 7784 11722 15589 1053 4014 4903 2755 3134 21470 7657 3900 653 2678 2703 59193 1319 22811 27001 1376 475 17193 8024 15063 23424 6222 4006 62554 13109 3185 2776 138043 23232 26909 11796 22840 5794 3559 2754 11857 2008 694 330 38166 7763 2008 11699 6099 19655 10405 3936 3691 6652 3928 9206 9678 4432 2297 1932 7985 7887 103838 5953 25191 170000 24627 1061 3264 8657 6940 8075 19675 1804 44536 12699 11769 24291 5380 40579 4330 15687 31351 732 3895 8960 33913 19116 17211 24476 6421 31312 3746 18087 8577 74200 2562 34220 84789 25327 2468 16502 2032 9137 4287 25394 79012 14352 17759 25524 2200 1613 22841 23617
internal_value=0.475476 0.652924 0.424111 0.414008 0.39197 0.341057 0.309415 1.11387 0.625649 0.446456 0.606217 0.33273 0.410974 0.525595 0.593098 0.661003 0.720531 0.703174 1.77251 -0.238751 -0.436083 0.335828 0.83316 0.506803 0.834686 1.10477 0.667916 0.926653 0.481416 1.56533 0.479956 0.618234 1.60326 1.91791 0.276326 0.164796 0.304207 0.325486 1.76255 0.306331 0.233906 0.768021 0.794161 0.467047 0.51808 0.774952 0.498015 0.260308 0.292896 0.291546 0.624912 0.750717 0.322651 0.301152 1.35307 1.13003 0.436708 0.363271 2.07951 0.663892 0.0614285 0.424607 0.555284 0.0856134 -0.0789546 0.719991 0.733929 -0.100053 0.695572 0.95146 0.847232 1.00224 0.401386 0.260202 0.235764 1.30143 0.463052 0.441455 0.0793343 1.43754 2.45837 1.19838 -0.594003 0.885935 0.209961 0.339026 0.664569 0.548647 0.572605 0.556279 0.63625 0.418811 0.151197 0.155076 0.432805 1.9826 0.214488 0.0920536 0.49135 1.01673 0.704351 0.938465 0.553624 0.438772 0.625152 0.739128 -0.259118 0.457485 0.543635 0.610887 0.355515 0.42477 0.972301 0.638415 1.52283 0.343197 1.65267 0.277834 0.263917 0.595776 0.612529 0.653819 0.682629 0.805487 0.48629 0.484064
internal_weight=2.20489e+06 494966 1.70993e+06 1.68524e+06 1.52631e+06 789026 673539 24684 158931 737287 475144 646061 270632 115487 462961 259086 220045 216134 19822 27478 18245 219547 85417 203875 15430 12183 147395 9994 590069 11004 188445 130717 15899 2189 375429 75082 300347 39041 11885 147218 102208 78037 73555 546995 203945 73675 180788 55182 143212 74447 65902 13680 276324 233155 4729 3492 343050 90573 3732 43074 11893 117339 69358 11536 7600 45023 51085 19900 81215 26733 50443 4708 70464 120372 105846 7272 252477 201612 27761 1536 3923 11742 15490 14727 47158 4482 71537 50865 15697 104163 10926 76625 9233 35362 62479 1237 27319 24023 49502 22301 46822 28973 31612 43169 11530 31375 10694 97684 5265 58511 127309 42520 3162 29611 3085 36046 10509 112485 104406 61194 57635 43283 4497 35388 45652 31380
internal_count=2204894 494966 1709928 1685244 1526313 789026 673539 24684 158931 737287 475144 646061 270632 115487 462961 259086 220045 216134 19822 27478 18245 219547 85417 203875 15430 12183 147395 9994 590069 11004 188445 130717 15899 2189 375429 75082 300347 39041 11885 147218 102208 78037 73555 546995 203945 73675 180788 55182 143212 74447 65902 13680 276324 233155 4729 3492 343050 90573 3732 43074 11893 117339 69358 11536 7600 45023 51085 19900 81215 26733 50443 4708 70464 120372 105846 7272 252477 201612 27761 1536 3923 11742 15490 14727 47158 4482 71537 50865 15697 104163 10926 76625 9233 35362 62479 1237 27319 24023 49502 22301 46822 28973 31612 43169 11530 31375 10694 97684 5265 58511 127309 42520 3162 29611 3085 36046 10509 112485 104406 61194 57635 43283 4497 35388 45652 31380
cat_boundaries=0 3 6 10 14 18 22 26 30 34 38 42 46 50 54
cat_threshold=2181038081 0 603979776 16 64 536870912 1108345107 541852702 2712683792 466 268567825 269750464 554172544 3 2483046568 3230822400 1477318785 14888 33554449 0 603980032 2 33555219 0 562036736 2 1108508947 671876178 2684355840 3 33554707 606601236 2701132080 322 3264348563 4982848 612437344 2 58855699 810287184 570491200 2 1073774859 541901326 2167440656 1347 67241088 2281701472 285212801 8736 3280109827 808224256 2097600 8194
is_linear=0
shrinkage=1


Tree=1
num_leaves=127
num_cat=17
split_feature=173 200 144 173 172 171 174 201 171 199 183 198 7 198 170 171 199 173 172 198 198 3 170 200 143 32 199 7 172 174 143 172 174 173 197 199 202 172 202 173 173 201 201 174 173 199 197 199 16 18 174 199 171 197 160 197 170 3 15 174 201 160 199 171 198 202 199 172 202 122 199 174 199 202 174 174 201 202 172 202 173 201 170 202 172 3 197 170 171 200 172 202 202 3 3 171 198 201 160 9 201 193 202 171 202 200 173 3 151 171 4 202 202 143 198 8 171 15 202 3 7 200 202 202 170 174
split_gain=7.25553e+06 9.34662e+06 4.30164e+06 2.83749e+06 1.52853e+06 1.66327e+06 3.10747e+06 1.47999e+06 1.3096e+06 1.30389e+06 1.12194e+06 1.03522e+06 1.90308e+06 1.41031e+06 1.87243e+06 1.02929e+06 2.37105e+06 1.00672e+06 985045 831620 819642 763294 923549 717172 601609 588804 565211 581600 558575 498616 452015 439484 431311 421454 685678 424268 367064 342917 331960 328759 313355 309457 297308 297030 296765 296123 291246 270578 268764 258323 251369 299980 236068 235883 234021 233985 233362 231584 230784 229784 227565 220890 218318 250077 427848 341649 217161 212890 209905 198323 196481 195745 192661 189641 186723 173214 242914 171896 171281 164374 163290 161509 159719 156359 156196 156110 155874 154909 154884 154495 153737 153289 150046 146597 145614 144949 144170 143520 138118 137128 136429 129770 125838 119079 118715 115256 112256 111569 110398 109793 109326 109311 109201 101930 101656 100933 112618 100879 99504.9 99388.5 98678.2 96306.2 95870.2 95814.1 94208 94198.9
threshold=0.019830105831178394 28.4056413687582 -29.699999999999999 -0.052565253488111745 -1.0591092250240861 1.159207474051547 -0.038657013159626379 1.2149997218243678 0.52724713760661912 -0.018216993336409911 inf 0.078937329090058031 1.0000000180025095e-35 -0.024622635863657035 3.5000000000000004 -0.43635802032903731 0.063627140334645574 -0.027872494838600211 4.1388769362214797 -0.055410517378997597 0.17812956693284568 768059.85540000012 2.5000000000000004 40.159275128797532 27.205450000000003 -0.25778971703405129 -0.062106014840140993 1.0000000180025095e-35 -1.9829856441927363 -0.01083779170820187 18.076250000000005 1.3373030851493881 0.0074970146400527024 -0.024193103765248466 -0.013769612544277663 0.22302557757346933 0 -1.2460756524345815 1 -0.037502242200303508 -0.093448641350924996 0.74975949260844899 0.98634359417330708 0.017012332790824928 -0.040619904941920353 -0.032851504078822695 0.021052284892299936 0.052922232928957154 -0.059911615198727834 0.46519678533181269 0.017012332790824928 -0.0079275130503065321 -0.91596699137914883 0.043309248675765917 4.1092458847356719 0.014567870290008724 4.5000000000000009 706911.4524500001 0.3051471237925229 0.0087334635740446993 1.0508530799909546 6.0519193973130356 -0.096575642676159631 -0.17802900510369588 -0.033298533545295043 2 -0.024460822159180658 1.1760276378421735 3 0.068627450980380797 0.11984315709735106 0.024449916104193451 0.074492135107092974 4 -0.019861700249748534 0.01679071918119868 0.8967540805736719 5 1.5209511081044267 6 -0.006378273298363323 1.1078365366803373 9.5000000000000018 7 -0.82805715433012728 383582.76515000005 0.0096889789051637382 1.0000000180025095e-35 -1.9985121819499327 32.051347745855701 -0.74158265752086128 8 9 470068.03805000003 470068.03805000003 0.037065034162655504 -0.0038048147048992949 1.0683407502229987 3.4989199612882835 inf 1.1907204316598077 0.51650000000000007 10 -0.39956102906496976 11 24.629611387463417 0.024094615162434278 153972.64145000002 31.42360870453993 -2.2423622721843404 65.957550000000012 12 13 18.736550000000005 0.019376632924174134 inf 0.2390990414923522 0.18128189425981658 14 749304.61280000012 1.0000000180025095e-35 37.43498861367015 15 16 7.5000000000000009 -0.084938411543066514
decision_type=8 8 8 10 10 2 8 10 2 10 8 8 10 10 2 2 10 10 10 10 10 2 2 8 10 10 8 10 8 10 10 10 10 10 10 8 9 10 9 10 10 8 8 10 10 10 8 10 10 8 8 8 2 10 8 8 2 2 8 8 10 8 8 2 8 9 10 10 9 2 8 8 10 9 10 8 10 9 8 9 10 10 2 9 10 2 10 2 2 10 10 9 9 2 2 2 10 10 8 8 10 2 9 2 9 10 10 2 8 2 8 9 9 8 8 8 2 10 9 2 10 10 9 9 2 10
left_child=2 19 7 8 9 6 21 53 24 28 11 12 13 14 73 16 23 61 30 83 26 22 85 60 58 87 84 71 52 -15 77 45 -21 34 68 50 -34 46 -14 79 93 92 101 -22 -36 55 72 -41 94 82 51 89 104 -1 -49 111 80 -58 125 62 105 -7 -43 66 65 -65 -64 119 103 -27 99 -28 108 -3 88 110 -77 86 -73 -25 117 -63 112 -2 -12 -6 -13 -9 -44 -35 -46 -91 -30 -26 -10 -37 -69 -52 -23 124 123 -42 115 -17 -5 -8 -47 -45 -11 -71 -32 -31 -33 -38 -82 116 -61 -53 -116 -18 -20 -117 -57 -92 -19 -4
right_child=1 10 3 4 5 17 15 25 48 37 20 18 38 29 -16 33 67 70 120 32 43 98 -24 39 40 69 27 -29 41 31 75 49 36 35 44 95 113 -39 -40 47 42 59 74 107 90 106 -48 54 -50 -51 97 56 -54 -55 -56 122 57 -59 -60 102 -62 81 63 64 -66 -67 -68 96 -70 109 -72 78 -74 -75 -76 76 -78 -79 -80 -81 114 -83 -84 -85 -86 -87 -88 -89 -90 91 100 -93 -94 -95 -96 -97 -98 -99 -100 -101 -102 -103 -104 -105 -106 -107 -108 -109 -110 -111 -112 -113 -114 -115 118 121 -118 -119 -120 -121 -122 -123 -124 -125 -126 -127
leaf_value=0.13163034040957824 2.5146663345689584 1.7338400719842526 0.44033218260078261 0.36230504433820743 -1.1552151526310379 0.15347268154891913 0.079452440762339982 0.98424854877248491 -0.87062252139203766 -0.16616494376702765 0.81133647212574322 0.13472426389740724 1.1983530044557476 -0.40079932325897688 0.031801840343121883 -0.36334738122461352 0.37792033062678554 -0.032906821282017794 -0.16352823136971129 0.62332800511157282 2.4434587113763451 -0.12493343939936574 -0.022458955525923571 -0.48454091518341741 -0.36844606725456108 0.18704111493368766 -0.20161284114846789 2.0369984162448378 0.024190940981300847 -0.096762319603721322 0.36489016724377726 -0.15409964631569181 1.9979917224115233 0.048847801735257268 0.07669277411133546 -0.53790136301739133 0.99010040570538482 0.29557744346313936 0.53982780467781477 -0.13316496882162254 0.27855750217129283 0.24103483011997648 0.8122720336421001 1.759383433242693 -0.095924444552619906 0.30251356852226075 -0.0097550075288247509 -0.1442699005334008 -0.16995938755434425 -0.24580119668212977 -0.11909406336663192 -0.21369662184967431 -0.012682595078547992 0.66070338218351754 -0.59084928903256795 0.26250903563009248 -0.47136311439615358 -0.14732453143688604 -0.15947132124680011 -0.09971835266301636 -0.2035507944949102 0.23242098655711799 0.0056687411939077307 0.93138002538713449 0.030811141660661907 0.20825533012062808 -0.15198418692049431 -0.17000981780202606 -0.35733183149949149 1.3003753644284508 -0.30392713431837365 0.58434900198141071 -0.44339426321691627 0.94389481541300724 0.019499776599006452 0.37264424905328547 0.14671464865684974 0.11080009960640234 0.05951082016905479 -0.23875890765362914 -0.054762001464079085 0.5594365133019189 0.29323378072199319 1.6916825427380855 1.8569465277695156 -0.83497039703720999 0.33684159491189936 1.6291088313007163 0.43323221817752311 -0.17576983088358372 -0.47605174007060813 -0.03892604287501971 -0.17560067242367308 0.2284090661800455 -0.29210827280631613 -0.27737832138579588 0.1798187247106543 0.09337534513365256 -0.51228219964965749 -0.11317244095690722 -0.19438604252830866 0.083832804104858993 -0.073084941344492213 -0.76840446380983352 0.16554567975209125 -0.047641167762230104 0.10241017664150587 0.71274453840239793 -0.30140145108151728 0.74734099366753259 0.61120229427021433 0.015291627537598777 0.0098684420896549552 1.3070372406410233 -0.022855821375887618 0.11684327767749801 0.31586167807552878 -0.39661594818551021 -0.22567777835690547 0.20449233506164829 -0.52050776065854387 -0.010955240350293202 0.040006964981647609 -0.24567901021150265 0.14823214687866723 0.1017024597288113
leaf_weight=10351 867 887 2125 13517 8756 29883 23484 1288 3002 94527 690 17221 2435 7657 11383 2265 22246 19146 3849 4014 653 4868 2755 15510 2603 1374 2315 449 12500 43590 11586 17903 1376 15448 8024 8010 6222 4006 9266 62554 33124 11958 3096 402 11796 7785 22840 5260 6828 21187 15905 46254 11699 2645 6633 9678 15009 8716 8854 25378 19655 7942 111956 1756 123167 22206 27138 3928 8507 1119 7985 3295 7887 6924 2398 29999 19717 58898 2943 12251 28016 7198 3444 3056 741 6734 21385 3369 20821 52913 12471 33400 37888 1701 1706 16013 11769 15887 4365 31850 15687 11536 110903 9128 17858 74200 70289 695 17958 4538 7372 43459 23448 4287 7725 25543 1742 9005 28046 13142 3895 34860 9704 7204 11483 61137
leaf_count=10351 867 887 2125 13517 8756 29883 23484 1288 3002 94527 690 17221 2435 7657 11383 2265 22246 19146 3849 4014 653 4868 2755 15510 2603 1374 2315 449 12500 43590 11586 17903 1376 15448 8024 8010 6222 4006 9266 62554 33124 11958 3096 402 11796 7785 22840 5260 6828 21187 15905 46254 11699 2645 6633 9678 15009 8716 8854 25378 19655 7942 111956 1756 123167 22206 27138 3928 8507 1119 7985 3295 7887 6924 2398 29999 19717 58898 2943 12251 28016 7198 3444 3056 741 6734 21385 3369 20821 52913 12471 33400 37888 1701 1706 16013 11769 15887 4365 31850 15687 11536 110903 9128 17858 74200 70289 695 17958 4538 7372 43459 23448 4287 7725 25543 1742 9005 28046 13142 3895 34860 9704 7204 11483 61137
internal_value=6.80967e-06 0.168589 -0.048792 -0.0583899 -0.0793257 -0.127694 -0.157754 0.606479 0.142669 -0.0275635 0.124211 0.111747 0.0537488 0.0273958 0.440891 -0.135605 -0.0612727 0.0476219 0.208133 1.23236 0.597837 -0.678511 -0.865977 -0.132662 0.182822 1.01473 0.429862 0.283123 0.00564897 -0.00334932 0.23382 0.00880025 1.07147 -0.189188 -0.295144 -0.162701 1.22282 -0.160683 0.678363 -0.229489 0.281692 -0.00800238 0.306813 1.59917 -0.204405 0.0484059 -0.173446 -0.174729 -0.370365 -0.101949 -0.145179 -0.162374 0.179007 0.239314 -0.393341 -0.00584672 -0.209128 -0.35232 0.0796156 0.00397705 -0.0483208 0.232304 0.0317219 0.022977 0.0684192 0.261727 -0.0250903 0.245536 -0.546758 0.725887 -0.0703808 0.191028 -0.204506 1.03705 0.440128 0.33208 0.283043 0.164614 0.336744 -0.376339 -0.18059 0.387897 -0.0339093 1.88435 1.35287 -1.016 0.24662 1.45078 0.482301 -0.0967777 -0.252235 -0.122841 -0.126067 -0.13256 -0.661003 -0.364247 0.0922772 -0.0129194 -0.308061 -0.0405324 -0.304376 0.228259 -0.037716 -0.687278 0.250483 -0.0170868 0.122364 1.09642 -0.187755 0.856758 0.460674 -0.040829 -0.0611568 1.11834 -0.126086 0.00710856 -0.0730231 -0.243506 -0.181947 0.313515 -0.343083 0.0430878 0.151266 -0.39207 0.0350034 0.113078
internal_weight=2.20489e+06 494966 1.70993e+06 1.68524e+06 1.52631e+06 789026 673539 24684 158931 737287 475144 462961 289039 277338 19194 646061 270632 115487 173922 19822 12183 27478 18245 219547 147395 11688 10433 9002 590069 258144 166178 250487 15899 375429 75082 300347 11885 147218 11701 102208 75279 546995 70975 1750 55182 184505 143212 74447 11536 65982 276324 244532 43074 12996 11893 106431 142771 23725 72116 496607 117339 45023 298181 286223 147129 23962 139094 51085 19900 7031 70464 8553 120372 7811 26315 68674 49716 97504 6238 27761 119046 15140 44795 3923 1431 15490 38606 4657 23917 101761 47158 86313 50388 4304 4708 24023 15697 31792 9233 62479 35362 44660 198426 11393 31375 97684 78074 1097 112485 5657 18958 87049 41351 10509 63787 87523 27120 55259 35771 35388 7744 60403 19382 19675 30629 63262
internal_count=2204894 494966 1709928 1685244 1526313 789026 673539 24684 158931 737287 475144 462961 289039 277338 19194 646061 270632 115487 173922 19822 12183 27478 18245 219547 147395 11688 10433 9002 590069 258144 166178 250487 15899 375429 75082 300347 11885 147218 11701 102208 75279 546995 70975 1750 55182 184505 143212 74447 11536 65982 276324 244532 43074 12996 11893 106431 142771 23725 72116 496607 117339 45023 298181 286223 147129 23962 139094 51085 19900 7031 70464 8553 120372 7811 26315 68674 49716 97504 6238 27761 119046 15140 44795 3923 1431 15490 38606 4657 23917 101761 47158 86313 50388 4304 4708 24023 15697 31792 9233 62479 35362 44660 198426 11393 31375 97684 78074 1097 112485 5657 18958 87049 41351 10509 63787 87523 27120 55259 35771 35388 7744 60403 19382 19675 30629 63262
cat_boundaries=0 3 7 10 14 17 21 25 29 33 37 41 45 49 53 57 61 65
cat_threshold=2181038081 0 603979776 33554705 0 562036736 2 16 64 536870912 1116733715 543949854 2712667408 466 2181038081 0 603979776 34636051 738983964 2713780528 322 1083703571 812384278 2686510354 466 33554705 0 603980032 2 1116635411 806093908 547425736 3 608312209 2182090960 805306497 8938 1376780563 1880961130 2735243648 8195 58855699 806093904 570491200 2 1379402194 4851716 662783265 835 2194936599 302516416 629279818 1027 33555392 96471168 268698757 576 1117815051 537690122 2686551360 3 1116557595 539770900 2694907216 6400
is_linear=0
shrinkage=0.05


Tree=2
num_leaves=127
num_cat=0
split_feature=173 200 13 173 201 172 171 174 171 199 173 184 200 198 201 198 171 172 174 198 198 3 171 201 172 199 201 143 198 174 174 143 172 173 173 173 201 29 174 198 200 172 201 171 198 174 172 173 196 200 16 200 174 16 18 199 199 171 174 173 143 174 172 29 110 174 199 172 173 3 174 200 172 171 29 174 201 172 3 200 3 199 172 29 3 41 173 200 172 173 182 171 200 128 3 171 29 201 108 171 200 5 198 12 201 173 143 5 3 171 199 174 151 171 171 8 174 29 20 200 201 171 164 200 174 173
split_gain=6.54884e+06 8.43779e+06 3.75788e+06 2.44127e+06 1.87351e+06 1.35907e+06 1.70737e+06 2.82155e+06 1.19604e+06 1.18343e+06 1.0435e+06 1.01266e+06 954450 934239 1.71796e+06 1.27328e+06 1.69048e+06 889003 833909 751465 737947 691158 831759 603599 519010 513092 517495 497970 460463 449985 417408 407951 402059 391362 432463 519311 445606 462464 389375 346642 346248 384069 342854 331443 460923 296276 293567 291578 297697 274655 274557 267678 264881 245548 238742 226427 221908 217395 203966 217005 203629 197118 196222 193446 192435 183989 177900 177286 172317 168786 165694 164784 185945 164465 164006 156326 219230 152225 151962 151894 149550 144650 143370 142102 138480 137780 136772 133836 132016 126079 125773 125394 120929 120511 113291 111574 110824 109000 107449 107214 105667 104429 104163 103548 103142 105979 103026 100797 100695 97852.7 97302.3 94704.5 90822.8 89057.2 88771.1 88655.3 88008 87837.2 86255.2 84486.2 82897.3 82866 82048.7 80433.1 81937.6 80005.1
threshold=0.019830105831178394 28.4056413687582 -0.1853792373574977 -0.052565253488111745 1.2149997218243678 -1.0591092250240861 1.159207474051547 -0.038657013159626379 0.52724713760661912 -0.014893822100720986 -0.027872494838600211 32.500000000000007 39.788123430580889 0.078937329090058031 1.4603150440486987 -0.024622635863657035 -1.0000000180025095e-35 4.1388769362214797 0.017512193836091598 -0.055410517378997597 0.17812956693284568 852474.39615000004 1.0996826533231143 0.74705294443386472 -1.9829856441927363 -0.063667594946234793 1.7563159408356561 25.654750000000003 -0.026455579978320206 -0.01083779170820187 -0.021946428045860607 18.076250000000005 1.5209511081044267 -0.049075756200989133 -0.043777726554869938 -0.04260433978984534 0.86566979417740619 0.038197079375142426 0.0074970146400527024 0.0060737276515183689 59.63507644777318 -0.2962481346950106 1.4236425418313474 -0.13112504765541375 -0.032794640394946666 0.00086039139227045436 -1.4658835832250892 -0.093448641350924996 3.5000000000000004 45.54453829744795 -0.11047087596486176 35.050514086093671 0.017012332790824928 -0.059911615198727834 0.34427587294982814 -0.032851504078822695 0.074492135107092974 -0.036167567216119904 -0.0044964316207749535 0.0080883753068409243 21.367750000000004 0.024449916104193451 -1.9212767326421214 0.036333597111234094 0.99999999999898492 0.048604096849524055 0.23063386230275965 1.5209511081044267 -0.03481547456966743 409709.53580000007 -0.017066365835466498 56.84097427237937 1.0456879648981829 1.2141798952611274 0.032382451723560961 0.01679071918119868 0.8967540805736719 1.7330702051914495 449599.70765000005 42.071792822135883 938367.74900000019 0.039249557447792245 -1.3704172398165522 0.035737551476505459 413315.45275000005 0.064738363249163308 -0.037502242200303508 52.230311825016621 -1.4080900788384196 -0.011688137115690665 -0.13948074999999996 -1.2717462014899736 26.678045299547573 -0.072525939889951416 192333.94830000002 -1.1305563166638464 0.034558255869955597 0.79369691891330285 0.0096135037510416983 -0.81790832667593116 35.891021883311105 80.98605000000002 -0.044780263880671571 -0.19340664263336152 1.0508530799909546 0.013898159434774517 36.990450000000003 60.804050000000011 153972.64145000002 -0.072242582760551052 -0.011219262755545021 -0.04197401488309515 30.549290578066497 15.70905451375434 -1.706604445984697 inf 0.013012450082992901 0.034845356967608238 0.067281163054724272 52.230311825016621 0.9481158917489757 4.938651904574761 129.31160000000003 22.337775050509588 -0.084938411543066514 -0.02845406512155518
decision_type=8 8 8 10 10 10 2 8 2 10 8 8 10 8 8 10 2 10 10 10 10 2 2 10 8 8 10 10 10 10 10 10 10 10 8 8 10 8 10 10 8 10 10 2 10 8 8 10 2 10 8 10 10 10 8 10 10 2 10 10 10 8 10 8 8 10 10 8 10 2 10 10 10 2 8 8 10 10 2 10 2 10 8 8 2 2 8 10 8 10 10 2 10 2 2 2 8 10 8 2 10 8 10 10 10 10 10 8 2 2 10 10 8 2 2 8 10 8 10 10 10 2 8 10 10 10
left_child=2 19 4 8 77 9 7 21 27 24 50 13 23 14 15 16 -3 31 33 83 25 22 69 -9 57 91 61 64 102 -17 -25 80 55 -14 -35 -36 39 86 -21 49 41 -39 -30 46 60 70 51 78 100 97 -8 120 -22 84 81 65 73 -5 59 79 -45 -27 -50 -16 123 99 89 94 -60 111 -32 -20 -73 95 -40 107 -77 -1 -29 -43 103 -34 88 -2 -10 -44 -38 -57 -48 -12 -76 -13 -72 -52 -63 -11 -23 -37 -46 -31 109 -70 -6 -15 105 -47 118 -33 -54 110 -49 -7 -97 -19 -64 -99 -53 -18 -84 -81 -26 -105 -101 -4 -125 -51
right_child=1 11 3 5 28 6 10 12 53 56 66 20 18 17 63 29 117 113 71 38 52 96 -24 30 43 26 -28 47 42 32 45 75 54 34 35 36 37 40 74 -41 -42 58 85 44 98 104 82 48 62 125 93 116 108 -55 -56 87 -58 -59 68 -61 -62 67 114 -65 -66 -67 -68 -69 101 -71 92 72 -74 -75 90 76 -78 -79 -80 119 -82 -83 106 -85 -86 -87 -88 -89 -90 -91 -92 -93 -94 -95 -96 112 -98 115 -100 122 -102 -103 -104 121 -106 -107 -108 -109 -110 -111 -112 -113 -114 -115 -116 -117 -118 -119 -120 -121 -122 -123 -124 124 -126 -127
leaf_value=0.026728230836129654 1.5215611698704155 0.030211764514144836 0.36085048683838111 0.22344179059874586 0.61779861190478558 -1.1932090642858675 0.51069626013828395 0.30693586654604293 -0.8595479698507591 -0.086446460033860459 -0.10959550397943701 0.47647646609848415 0.36689669862113949 0.053017346766254692 0.48043898081533387 -0.38075961333739622 0.82195087525721999 -0.49448306508087403 0.14413905657928991 0.59216238448143343 2.3118442790957237 -0.095817718359314685 -0.023423507401307872 -0.56934389737314672 -0.2049844951935057 -0.19069464831213567 1.9351711628777339 -0.34885249610232066 0.84644793962845599 0.072823486563290227 0.34018451592962951 0.33401442329086456 0.28429927421007789 -0.45172700852735875 0.21691384420233512 -0.016598471003712333 -0.31137830033753761 -0.16862002211557492 0.94289437103887419 -0.195319164170625 -0.13915571836025972 -0.6790083233615809 0.58589845681382291 0.083208148849833491 0.046476692479085452 -0.063349237869904054 0.026457345079232759 0.22782814357334097 0.014251757256317872 -0.29230254463655347 0.50185790410040787 0.056246873239134382 1.6714361434161766 -0.16174781443934227 -0.23866438876901463 0.19513379015643653 -0.42145363409912567 -0.066929041516761142 -0.8221694920872441 -0.037205899168476074 0.33640766446110049 0.98037371489260661 0.66125747688581493 0.89643760947890017 -0.13986921711312081 0.15305646713535936 -0.28892841745674641 0.056813915819169308 -0.35328023447590923 -0.75818759038266614 0.081931505932377136 -0.24597736839927414 0.048464022523994094 -0.012444775759863459 1.9737940730342771 0.35401210346042111 0.13937895601744019 0.68317656443894315 0.19920510070981534 -0.39698676089146612 0.074894996327575347 -0.060558554885667859 -0.016866663110289434 2.1274924419536756 -0.32308042286905048 1.5491368089206743 -0.15308676128735652 0.061031347155086985 0.26647392406124049 0.032443173687470975 1.2498194274099113 1.6498874867481115 -0.044994705549464394 0.15994526119408237 0.37526397021197294 -0.17924315433699031 -0.46002803639676543 0.23047632424936115 -0.031001086864020318 -0.022539855581354025 0.29573594976265044 -0.56122080616813441 -0.33067553677349582 0.28226809985844403 -0.19913346437745047 -0.32889417604627491 0.14100570775413793 0.56592245007916309 0.67711243106655472 -0.12736299853609098 0.018634387091858353 -0.85671947751178446 -0.32393380206616229 -0.15535202502035986 0.40836692978546546 -0.038072392405248047 -0.13688492308247355 1.1574820029983539 -0.10124847510572017 -0.22960972744163355 -0.082838443926985625 0.15337039950971157 -0.13550138487321936 0.41740600582853804 0.074739081244221378 -0.087559511530645812
leaf_weight=10172 2181 11383 2824 35236 4357 6483 7658 11994 2761 26919 31162 301 3112 9654 7086 7657 4007 3895 19873 4014 656 4425 2847 3925 47285 2404 449 2957 4323 19000 3882 10487 3347 15880 7854 19679 15223 23210 4977 59221 25850 3754 407 15219 92067 66587 19684 21801 2869 8016 2770 23530 402 6829 21594 27252 7904 7889 3779 5356 16604 1189 4176 4615 9783 15604 7991 2944 11868 6756 31176 8075 15959 18863 664 29999 19717 967 2210 23960 35694 33219 182262 1742 2132 4247 131780 58641 8081 31331 6244 936 47142 37004 2214 59612 3956 11653 87070 47538 18891 12293 310 31524 23573 3982 9079 8471 695 2956 7461 3089 13258 3849 20541 4174 7872 3804 36320 11002 19669 20629 24288 1808 49631 11788
leaf_count=10172 2181 11383 2824 35236 4357 6483 7658 11994 2761 26919 31162 301 3112 9654 7086 7657 4007 3895 19873 4014 656 4425 2847 3925 47285 2404 449 2957 4323 19000 3882 10487 3347 15880 7854 19679 15223 23210 4977 59221 25850 3754 407 15219 92067 66587 19684 21801 2869 8016 2770 23530 402 6829 21594 27252 7904 7889 3779 5356 16604 1189 4176 4615 9783 15604 7991 2944 11868 6756 31176 8075 15959 18863 664 29999 19717 967 2210 23960 35694 33219 182262 1742 2132 4247 131780 58641 8081 31331 6244 936 47142 37004 2214 59612 3956 11653 87070 47538 18891 12293 310 31524 23573 3982 9079 8471 695 2956 7461 3089 13258 3849 20541 4174 7872 3804 36320 11002 19669 20629 24288 1808 49631 11788
internal_value=8.79055e-06 0.160171 -0.0463527 -0.0553417 0.564861 -0.0748091 -0.120281 -0.151024 0.1307 -0.0258286 0.0552273 0.118005 -0.129876 0.10616 0.0510633 0.0260245 0.418917 0.197726 -0.169465 1.1709 0.567841 -0.646507 -0.812057 -0.0365214 0.00313186 0.408397 0.279839 0.169229 0.95766 -0.0031891 -0.0593734 0.222129 0.00835296 -0.191672 -0.195949 -0.185547 -0.193809 -0.229078 1.01796 -0.111255 -0.301442 -0.345498 1.1671 -0.00963527 0.0399687 -0.0480222 -0.0392141 0.249404 0.273294 -0.0212456 0.236544 -0.112613 1.51706 -0.35546 -0.106841 0.0431885 -0.16493 0.170323 -0.402507 -0.335505 0.215319 0.194885 0.405664 0.64452 0.0642478 -0.00554924 -0.0667896 0.340929 -0.508194 -0.949565 0.0213356 0.0376167 -0.0504635 -0.147841 1.16176 0.315476 0.268891 0.083722 -0.11444 -0.376771 0.156381 -0.0289918 -0.0109507 1.79067 -0.625808 1.46492 -0.169479 0.103579 0.096315 -0.0383841 1.31944 1.36443 0.00553071 0.183759 0.586712 -0.173435 -0.267736 0.0619666 0.00881839 -0.0327981 0.201847 -0.459081 0.554791 0.203439 -0.108582 -0.0783337 -0.0240327 0.437641 1.04161 0.146794 0.17449 -1.08463 -0.205569 -0.32593 0.451096 0.159653 0.00783125 0.98537 -0.0308878 -0.344317 -0.169102 0.231283 -0.0607381 0.101048 0.0867842 -0.170434
internal_weight=2.20489e+06 494966 1.70993e+06 1.68514e+06 24783 1.52552e+06 791092 673176 159630 734423 117916 475144 645620 462954 289035 277334 19194 173919 453359 19822 12190 27556 19175 192261 607867 10437 9200 147908 13644 258140 180267 166175 250483 409452 406340 390460 382606 268075 15899 114531 121072 95222 8977 564742 210960 176342 353782 83862 78695 55310 47432 98356 1753 11722 58160 192323 126556 43125 72012 44072 31823 8751 27586 11701 64046 106430 70484 6347 27940 16328 82200 43907 24034 118652 11885 68674 49716 11139 5167 38716 97501 36566 255426 3923 4893 4654 147003 85893 27765 62493 6908 1237 78318 39774 3403 99789 8381 35506 179137 90826 51109 24161 4667 61807 94142 70569 227661 18958 1097 32218 29262 9572 72870 7744 24717 15827 31402 7811 218582 34962 66954 52153 71826 54263 51439 19804
internal_count=2204894 494966 1709928 1685145 24783 1525515 791092 673176 159630 734423 117916 475144 645620 462954 289035 277334 19194 173919 453359 19822 12190 27556 19175 192261 607867 10437 9200 147908 13644 258140 180267 166175 250483 409452 406340 390460 382606 268075 15899 114531 121072 95222 8977 564742 210960 176342 353782 83862 78695 55310 47432 98356 1753 11722 58160 192323 126556 43125 72012 44072 31823 8751 27586 11701 64046 106430 70484 6347 27940 16328 82200 43907 24034 118652 11885 68674 49716 11139 5167 38716 97501 36566 255426 3923 4893 4654 147003 85893 27765 62493 6908 1237 78318 39774 3403 99789 8381 35506 179137 90826 51109 24161 4667 61807 94142 70569 227661 18958 1097 32218 29262 9572 72870 7744 24717 15827 31402 7811 218582 34962 66954 52153 71826 54263 51439 19804
is_linear=0
shrinkage=0.05


Tree=3
num_leaves=127
num_cat=17
split_feature=173 198 172 144 173 198 7 172 171 174 171 199 41 173 171 199 172 202 3 171 12 174 183 199 172 198 174 172 183 29 202 199 14 142 197 110 173 172 199 108 171 8 197 173 197 202 197 172 198 173 29 16 171 172 202 197 199 198 174 171 174 197 172 202 199 196 171 202 174 15 196 202 199 172 202 172 197 198 202 121 202 199 196 173 3 197 151 199 198 3 172 172 198 171 202 171 3 4 202 171 3 202 198 202 202 172 173 131 167 198 172 172 202 173 199 202 135 174 108 171 3 171 171 172 173 199
split_gain=5.91035e+06 6.38709e+06 3.66829e+06 3.53901e+06 2.51804e+06 1.22385e+06 1.8894e+06 1.22362e+06 1.45058e+06 2.57172e+06 1.11484e+06 1.07004e+06 913330 891969 859936 1.96352e+06 782148 719923 628473 761592 504624 490209 485944 657142 457626 450074 444302 459026 474906 371436 371311 366811 356404 347626 339972 316429 310544 287529 281121 266309 250850 349849 249965 249293 248063 243603 241045 237858 264116 287818 224647 216632 216181 208491 206916 206186 204368 204050 196903 195818 195753 191448 184405 183641 179381 176077 174804 170868 170858 169967 164669 163268 155495 153262 152390 150740 148098 146855 143928 140787 139580 137460 159467 133343 131979 131393 129120 127714 126003 123446 121688 164108 120666 118428 117809 117050 110480 108414 108296 105938 104633 104627 104546 104047 102216 99664.9 98312.4 98260.6 98074.7 97912.4 136894 115621 97744.6 97725.4 97666 123309 97494 95803.3 94526.7 94401.6 92851.1 90996.3 90965.6 89073.9 88760.9 88002.7
threshold=0.019830105831178394 -0.030111372423233081 -1.177195568842756 -33.186999999999991 -0.052565253488111745 0.078937329090058031 1.0000000180025095e-35 -1.0591092250240861 1.159207474051547 -0.038657013159626379 0.52724713760661912 -0.018216993336409911 0.079207920792079153 -0.027872494838600211 -0.43635802032903731 0.063627140334645574 4.1388769362214797 0 768059.85540000012 1.0996826533231143 -0.066799028635254984 -0.024431483625243441 17.000000000000004 0.066114872170062525 -1.9829856441927363 -0.055410517378997597 -0.01083779170820187 1.5209511081044267 inf 0.044152151939025559 1 -0.018216993336409911 -0.35679367103289045 31.041400000000007 -1.0000000180025095e-35 0.86021505376274721 -0.024193103765248466 -1.2460756524345815 -0.063667594946234793 0.038328980272297641 -0.13112504765541375 inf -0.013769612544277663 -0.093448641350924996 -0.022942847026357901 2 0.022347019173549757 1.3193339736755245 -0.018336432386466758 -0.038244576978606441 0.063715470047869219 -0.059911615198727834 6.2508275561605418 -1.527542402853441 3 0.0060666800078965641 -0.032851504078822695 -0.016467583537436267 0.01679071918119868 -0.91596699137914883 0.026610767295186192 0.016212726650221002 1.1760276378421735 4 -0.033292545571238834 3.5000000000000004 -2.4186061296643007 5 0.024449916104193451 0.17609230229568965 3.5000000000000004 6 0.074492135107092974 -1.3704172398165522 7 -1.3526697137077848 0.039294271624717554 0.023762767760590834 8 -0.071718642670684327 9 0.20412039811827234 3.5000000000000004 -0.040619904941920353 319287.22285000008 0.012056739527038231 4.2727896858430769 -0.034232052093907832 -0.038634351378633296 470068.03805000003 -1.128410514459991 -1.1160153235761816 -0.0038048147048992949 0.38425017325767202 10 5.9635312563374265 1189506.0478000003 65.957550000000012 11 -2.4186061296643007 123941.32040000001 12 -0.016467583537436267 13 14 1.847880701798102 -0.00031094573787293628 0.10559927368682322 4.7490500000000013 0.018867756060493738 -0.34428800055624381 0.82919214735760016 15 -0.044439747861948646 -0.051629898249217258 16 7.5000000000000009 -0.02304441592759909 0.030246874131703027 -0.19269718358161489 386751.12135000009 -0.072242582760551052 -0.23444714346377291 -1.6915925810734369 0.023117489387028015 -0.018613793667085262
decision_type=8 8 10 8 8 8 10 10 2 8 2 10 2 10 2 10 10 9 2 2 8 10 8 10 8 10 10 10 8 10 9 10 8 10 10 8 10 10 8 8 2 8 10 10 10 9 10 10 10 10 8 10 2 8 9 10 10 8 8 2 10 10 10 9 10 2 2 9 10 10 2 9 10 10 9 8 10 8 9 2 9 8 2 10 2 10 8 10 10 2 10 8 10 2 9 2 2 8 9 2 2 9 10 9 9 10 10 10 10 10 8 8 9 10 10 9 10 10 10 2 2 2 2 8 10 10
left_child=3 2 34 12 10 6 26 11 9 18 20 24 76 50 15 21 22 66 19 84 43 -11 33 -24 59 -19 -3 28 56 36 -8 70 79 78 -2 57 42 46 -30 74 53 45 103 120 -33 64 72 48 93 -50 -10 89 54 55 -29 -26 61 63 97 98 109 112 107 116 -42 -45 -4 -46 -40 95 -23 73 104 102 -25 106 -1 81 85 -14 -27 82 122 -44 -9 -7 119 -52 -43 -12 123 -92 -64 125 -20 -15 124 -35 -6 -34 -70 -32 -55 -16 -13 -85 -73 -17 -80 110 -51 -111 -28 -47 -115 -116 121 -106 -90 -60 -5 -22 -38 -67 -58 -31
right_child=1 5 17 4 7 16 30 8 13 14 51 37 32 69 29 62 -18 25 94 -21 35 31 23 39 40 80 27 52 38 47 101 44 99 58 -36 -37 77 -39 68 -41 41 88 83 65 67 113 -48 -49 49 60 87 -53 -54 71 -56 -57 96 -59 86 -61 -62 -63 92 -65 -66 90 -68 -69 100 -71 -72 75 -74 -75 -76 -77 -78 -79 108 -81 -82 -83 -84 105 -86 -87 -88 -89 118 -91 91 -93 -94 -95 -96 -97 -98 -99 -100 -101 -102 -103 -104 -105 117 -107 -108 -109 -110 111 -112 -113 -114 114 115 -117 -118 -119 -120 -121 -122 -123 -124 -125 -126 -127
leaf_value=0.15082484983493449 0.56255500070329245 -0.36403687857739264 2.4539313618401932 -0.28745535201291655 0.33526503220883952 0.11651252315031491 1.4215916275402971 -1.0914270512516928 0.14690184096337244 -0.38922143151167848 -0.78239873668944482 -0.060990940656049021 1.7440539157497117 -0.068905699314743468 -0.093449660252402741 0.26787632926688265 -0.28300895109994467 1.5715604656471103 -0.44543630484585428 -0.020067255463989617 0.18515807965700218 0.1147157798695059 0.14279508620391004 0.98006628419803299 -0.12116098457557185 1.0534157135546602 -0.089444872715129728 -0.22669418543927403 1.3133768675567761 -0.18716163823811202 0.68013993644571724 -0.043511162750735688 1.2276809981001695 0.33317859180495474 0.028462995840869157 -0.077127016318699226 -0.2093066002566627 0.27218763155112263 -0.1533855601707062 0.85375466810049727 0.22591308241391475 0.87106219230536652 0.095503105182276019 0.23756318092780027 -0.43048390337760262 -0.1469959079632093 -0.0079418510000878392 -0.10543809086824558 -0.74245994616359978 -0.22944999610357117 0.59258588030138792 -0.15344039399623779 0.25412534252246227 0.17641834491171579 -0.034238423126775684 0.14820936433702883 0.32222208636845229 0.35928573629219274 0.6151016964420134 -0.011904909439404523 0.25870063941823335 0.13683965779152485 -0.15850078406432844 0.066149784689573429 0.88250974078945554 0.47646741079865002 1.6281707762491466 -0.18148950962789012 1.2972193784567425 -0.28972534206362638 -0.079660410366069245 0.026189601009679125 -0.39925191792393155 -0.082004364822875042 2.4453072620338392 -0.047474243811850114 0.67978692202588409 -0.17968323759665222 0.1489259829871592 1.1287188509962649 0.75156111321068586 -0.22213475861017176 -0.095929648722647032 -0.18271348464852399 -0.79650597893076736 0.3282666793874634 0.21683554991944565 0.27503313712337391 0.0014863348486308867 -0.25945098558491314 1.1054826902329953 0.52961174187672888 0.16126289110744069 -0.30092794200153689 -0.087533913433137017 0.10811934839677302 0.0056289598889455571 0.57894718936599632 0.147148694838243 0.64924996238886479 0.43610904750391316 0.35978798511567839 -0.020185720582380849 -0.47878682986406107 -0.10229496660680204 -0.4774325676304364 0.24321273536767696 0.65022710578363097 0.017241072159635901 -0.30370085232652433 -0.43877043772828062 -0.036111151171474169 0.016517968850770809 0.0091783508219381686 0.25880884698029544 0.088266154469301208 0.29595065580971236 -0.21935757523643679 -0.14872593401705028 0.22545209973937524 0.24339543673858396 -0.074602317174579685 0.065576726760840226 0.13710309939034973 0.11430141889160504 0.011834991400008162
leaf_weight=5617 4014 7877 956 1900 13348 12991 1367 6518 32523 15635 3072 18105 1645 51719 2068 33882 7955 3444 4943 2770 21569 11733 2076 307 82975 11212 43892 27617 923 12360 6159 11853 975 11219 11561 16650 3389 4015 1206 1023 2525 406 3988 10573 15095 3591 22864 25183 4089 11318 4899 6829 3933 26366 28271 7769 5642 11198 3785 11765 1481 19382 3933 48450 1769 5779 1949 12769 404 7433 152708 25729 7913 11804 654 173448 1731 52919 39627 2140 6271 15768 101664 30911 9081 16799 49657 8953 126326 1784 1487 7365 11807 10533 4324 11395 23363 7479 18058 4211 2780 4505 9094 12210 23121 3162 6546 1768 21983 17393 25211 5257 43157 14473 18122 25604 18208 71613 11420 2638 1454 3996 26883 2906 56888 10092
leaf_count=5617 4014 7877 956 1900 13348 12991 1367 6518 32523 15635 3072 18105 1645 51719 2068 33882 7955 3444 4943 2770 21569 11733 2076 307 82975 11212 43892 27617 923 12360 6159 11853 975 11219 11561 16650 3389 4015 1206 1023 2525 406 3988 10573 15095 3591 22864 25183 4089 11318 4899 6829 3933 26366 28271 7769 5642 11198 3785 11765 1481 19382 3933 48450 1769 5779 1949 12769 404 7433 152708 25729 7913 11804 654 173448 1731 52919 39627 2140 6271 15768 101664 30911 9081 16799 49657 8953 126326 1784 1487 7365 11807 10533 4324 11395 23363 7479 18058 4211 2780 4505 9094 12210 23121 3162 6546 1768 21983 17393 25211 5257 43157 14473 18122 25604 18208 71613 11420 2638 1454 3996 26883 2906 56888 10092
internal_value=8.39809e-06 0.152163 0.76285 -0.0440351 -0.051096 0.0993364 0.0336492 -0.0710064 -0.114197 -0.142373 0.135589 -0.0247261 0.688756 0.048391 -0.122199 -0.0543372 0.201582 1.15283 -0.61472 -0.784076 0.171876 -0.119393 0.224226 0.764675 0.00534578 1.04861 0.00586102 0.0171783 0.0539089 -0.171158 0.646492 -0.0987291 1.02729 0.211021 0.166113 0.125168 -0.136511 -0.145139 0.520227 1.41535 -0.00700232 0.0368854 -0.244974 0.350117 -0.235101 0.131503 -0.156806 -0.242462 -0.277768 -0.336434 0.218722 -0.334988 -0.104172 -0.0330793 -0.129387 -0.0980988 0.0410265 0.157736 0.290973 0.162079 -0.309063 -0.00527604 0.223906 0.133263 0.495273 0.398732 1.89348 -0.3166 0.35344 -0.0635783 -0.0657914 -0.00975733 -0.184993 0.0740341 2.01302 -0.0290103 0.275443 -0.108215 0.14561 1.39619 0.946181 -0.0826091 -0.0659339 -0.178048 -0.919744 0.235845 0.244123 0.387345 -0.00837449 -0.590288 0.495898 0.626361 0.0813618 -0.162607 -0.279017 -0.0369443 0.0984005 0.431486 0.227255 0.758021 0.545409 0.545276 0.125998 -0.423377 -0.169967 -0.210065 0.0702069 0.28684 0.101923 -0.323273 -0.373916 -0.241595 -0.0369192 0.106126 0.121762 0.159027 0.207484 -0.190767 -0.0109673 0.455075 -0.0573232 0.144555 0.0348023 0.36292 0.133062 -0.0977143
internal_weight=2.20489e+06 494966 39407 1.70993e+06 1.69361e+06 455559 277366 1.53039e+06 791620 674698 163220 738769 16319 116922 647062 271183 178193 23832 27636 18369 151535 219793 170238 4060 591138 20927 265335 257458 197637 375879 12031 204158 8971 166178 15575 120071 252962 147631 5313 1984 547967 204236 52339 31464 39717 66084 143616 122917 97734 64749 46375 11685 59821 343731 55888 90744 192324 103421 74778 43171 60660 106431 51390 92223 4294 28110 2905 27864 4390 70547 164441 252987 120752 47264 961 205723 7348 200623 91400 3785 17483 147704 131936 38061 15599 29790 56080 13852 138152 4856 17537 8852 15740 32985 9267 63114 85893 18698 31406 5186 3184 10664 35460 14278 112839 34073 32275 35650 61610 59179 36529 22650 87049 61790 58199 43726 43773 94734 137746 6423 3354 25565 30272 8685 62530 22452
internal_count=2204894 494966 39407 1709928 1693609 455559 277366 1530389 791620 674698 163220 738769 16319 116922 647062 271183 178193 23832 27636 18369 151535 219793 170238 4060 591138 20927 265335 257458 197637 375879 12031 204158 8971 166178 15575 120071 252962 147631 5313 1984 547967 204236 52339 31464 39717 66084 143616 122917 97734 64749 46375 11685 59821 343731 55888 90744 192324 103421 74778 43171 60660 106431 51390 92223 4294 28110 2905 27864 4390 70547 164441 252987 120752 47264 961 205723 7348 200623 91400 3785 17483 147704 131936 38061 15599 29790 56080 13852 138152 4856 17537 8852 15740 32985 9267 63114 85893 18698 31406 5186 3184 10664 35460 14278 112839 34073 32275 35650 61610 59179 36529 22650 87049 61790 58199 43726 43773 94734 137746 6423 3354 25565 30272 8685 62530 22452
cat_boundaries=0 3 6 9 13 17 21 25 28 32 36 40 44 48 52 56 60 64
cat_threshold=2181042177 0 603981824 33554433 0 562036736 16 0 536870912 2207650707 709625856 629344576 1026 1077446035 812401410 2695890176 8194 1087374099 812385521 2725258512 2 268566801 269488320 554172544 2 1076183112 603979838 64 33554707 537396252 2701132032 322 1089217434 537707684 25232720 258 1116475667 537415764 538510688 4126 58855699 810287184 2717974848 2 3234603794 40651936 67175760 3 872571016 2172794880 1477318785 14888 67241161 2290221168 1493188737 8755 1379402194 6948868 662783265 771 3280109827 808224320 2097600 8194
is_linear=0
shrinkage=0.05


Tree=4
num_leaves=127
num_cat=17
split_feature=143 13 174 197 197 172 172 172 170 7 170 172 199 200 3 174 199 196 172 200 171 200 171 166 172 199 174 199 202 172 200 172 29 171 199 171 171 14 171 174 200 3 199 187 200 170 197 170 197 196 172 170 196 202 170 170 202 202 3 197 199 172 174 197 174 172 174 170 171 170 196 202 172 199 128 202 199 200 202 200 202 202 171 172 172 171 170 197 197 202 172 200 202 174 202 170 202 170 202 202 202 174 5 171 172 170 200 172 190 197 200 167 199 142 187 8 177 197 200 166 199 202 151 197 164 172
split_gain=3.24309e+06 2.22132e+06 1.96956e+06 1.15402e+06 1.08112e+06 1.382e+06 1.91589e+06 1.71918e+06 913489 856460 1.15492e+06 851688 1.77575e+06 875979 872743 1.04864e+06 780289 914089 915195 1.92671e+06 757490 624296 674231 601110 594814 571755 508841 480078 457283 448202 385672 363342 350106 339749 665328 476419 1.48787e+06 316627 296111 323570 290994 362159 280033 270070 249670 247809 245377 306538 293168 242772 242708 230208 225139 213993 207894 207609 200429 199706 196063 189657 233375 187641 183781 178784 178755 188799 177422 174997 211865 172624 172168 169046 165750 155368 152451 148810 148728 148383 146013 140887 136346 131841 130705 129484 128597 155390 125639 123958 123101 122434 117487 116285 114730 114153 109215 108996 108954 103731 103363 102831 101852 100177 98714.9 98654.6 98647.5 139162 159974 98500.2 101137 98115.6 97684.1 96216.6 96110.8 94107 119116 93733.3 93077.9 92078.4 91289.2 91093.5 102185 90872.9 88828.8 87592.2 87533 85087.2
threshold=36.990450000000003 -0.21295590776353104 0.0027234213639507625 -0.022942847026357901 -0.019792869838509915 -1.2866646279048841 -1.0859299336551629 -1.177195568842756 9.5000000000000018 1.0000000180025095e-35 3.5000000000000004 -0.74158265752086128 -0.052552170146996251 40.321204754405862 625645.39930000005 -0.035241904611957191 0.22302557757346933 2.5000000000000004 -0.79596615061974585 34.818159012749241 0.98605690555764858 42.623942030675202 -0.65518414337598962 217.20265000000003 -0.5211407658061894 -0.013778657201615472 -0.029600340905420627 -0.059280734024756636 0 0.93995497136728534 59.035919176438235 1.3568173848433036 0.037583296912995202 0.093586038202693192 -0.073892194509144124 -2.864444643642146 -2.9965770669071219 -0.35679367103289045 -1.0000000180025095e-35 -0.02642238059352375 45.15750793313137 123941.32040000001 0.20412039811827234 1.8367430542560181e-06 67.906497192205308 6.5000000000000009 0.039294271624717554 5.5000000000000009 -0.030887191681948919 1.5000000000000002 0.048321344924552818 4.5000000000000009 2.5000000000000004 1 4.5000000000000009 10.500000000000002 2 3 300881.39200000005 -0.0089844587240633361 0.021967789028700783 -2.084155621944157 0.0018814209523265737 -0.025556057699481435 -0.042789478954495301 -1.4658835832250892 0.01599228505938011 1.0000000180025095e-35 -1.5564768127985738 1.5000000000000002 4.5000000000000009 4 -2.3786343421915546 0.074492135107092974 -0.056689042062734125 5 -0.033292545571238834 40.478599280373054 6 42.071792822135883 7 8 1.5197433216704628 -1.9012272142335698 1.1760276378421735 -1.0511811351391607 9.5000000000000018 0.039294271624717554 0.021865614274241722 9 -1.1326277468381818 36.519242661797442 10 0.021705050076551661 11 3.5000000000000004 12 7.5000000000000009 13 14 15 -0.034048885068161942 57.804650000000009 -1.1428051564528106 -1.3526697137077848 7.5000000000000009 57.792329133896004 0.61705842601637728 3.2500000000000006e-07 -0.03232022677875928 56.632825137833272 4.6687500000000011 -0.084200305385370974 34.898450000000004 1.5573381016396612e-06 inf -0.016645099999999999 -0.022020818669541916 43.143977333465649 160.31780000000003 0.076957449899811028 16 2.8420261264812967 0.012056739527038231 147.56710000000001 1.847880701798102
decision_type=8 8 8 10 8 10 10 10 2 10 2 10 10 10 2 10 10 2 10 10 2 10 2 8 8 10 8 10 9 10 10 8 10 2 10 2 2 8 2 10 10 2 10 8 10 2 10 2 8 2 10 2 2 9 2 2 9 9 2 8 10 8 10 10 10 8 10 2 2 2 2 9 8 10 2 9 10 10 9 10 9 9 2 8 10 2 2 10 10 9 10 10 9 8 9 2 9 2 9 9 9 10 8 2 10 2 10 10 2 10 10 10 10 10 8 8 10 10 8 10 8 9 8 10 10 10
left_child=2 26 3 21 5 72 7 55 11 16 28 25 14 62 15 58 17 18 89 53 30 27 -23 46 33 38 37 -1 116 49 32 84 117 35 -35 36 97 74 64 82 61 -42 52 -33 115 66 47 48 109 -10 -32 107 78 -20 -9 -7 77 -38 -13 -49 94 -37 -14 -54 -5 91 -21 -34 -69 -30 -24 76 -4 88 -2 -74 -41 -16 -25 -17 119 -56 -40 -51 85 -8 -18 103 101 90 -6 -66 123 -50 -61 -39 -71 -19 -70 -48 -31 -27 -100 -65 -105 106 -106 108 -29 -3 -79 -85 -63 -47 122 -22 -11 -15 -95 -26 -121 -78 -115 -36 -67 -119
right_child=1 23 4 8 9 6 31 54 29 10 -12 12 13 20 56 79 86 24 19 45 44 22 70 42 80 73 -28 51 69 100 50 43 67 34 92 40 57 95 39 71 41 -43 -44 -45 -46 113 99 59 93 83 -52 -53 63 -55 81 -57 -58 -59 -60 60 -62 112 -64 87 65 124 -68 68 98 96 -72 -73 75 -75 -76 -77 121 110 -80 -81 -82 -83 -84 111 -86 -87 -88 -89 -90 -91 -92 -93 -94 118 -96 -97 -98 -99 102 -101 -102 -103 -104 104 105 -107 -108 -109 -110 -111 -112 -113 -114 114 -116 -117 -118 125 -120 120 -122 -123 -124 -125 -126 -127
leaf_value=0.31830631797833986 1.6440956311702337 0.3213689594323873 0.17521246645926897 0.18226277284568518 0.11919320666113589 0.53742956407780074 0.0051305141877684224 1.0789265402836576 0.18394065895987938 2.127593640002865 -0.43005005211298242 -1.0637478092134456 0.064559117491617177 -0.38639918240444504 -0.54774613912548487 -0.56998111643770766 -0.18971061295439948 0.15279292709130923 1.7520867478144659 0.41205075186803991 0.044778971487449803 -0.33396785869798751 -0.26722022702209919 0.21581842121536715 -0.066563281472660885 0.025626610381701942 -0.033055255710132944 0.044828684572452752 0.60826503640947438 0.3882109230927005 0.1082605958968403 0.36202771854690513 -0.1831766571820565 0.78789404713444611 0.084043938788895572 0.14374120239396451 2.279266074979212 0.60744034494482113 -0.1183616326881948 0.14878371850105634 1.4017541569728054 0.059205516697396134 -0.40112090745583312 1.8557210943216029 0.26225855273192311 0.13468096523223491 0.52376585473186399 0.025711298302465092 0.0046003234752896964 0.14725026268255711 -0.14544780480990213 -0.034355097246671427 0.18231291946536921 0.87533916707338344 2.0545749119555214 0.019066197896463303 -0.064310556203943867 0.98946688126816762 -0.71377128469792794 0.29509727228234595 0.46748498843573022 -0.18365611367969814 -0.29371527787398943 0.071019146189740687 -0.16776219513390195 -0.0093703535603237784 0.052440959739503183 0.12491514520637191 -0.19772102736019892 0.51747138844206364 0.093625875094911812 0.11532150054360915 0.09561363047860616 -0.37979319346462348 1.0314941895424516 -0.081687368862349286 1.042923173170174 -0.26848384100982192 0.022505432307947982 -0.23714077331798256 -0.026952548438431298 1.3764920453481317 0.12122686783552659 -0.024781739100550461 -0.041444802816447551 0.23506076603157028 -0.49329281806775321 0.75746679995756427 -0.0048992446895912544 -0.06254484318726404 -0.13801294974110723 0.1189942053631601 0.01453444795634517 0.63578646163631491 0.15066155368144862 1.0736749172137037 0.11086000969108252 -0.060233774374730688 -0.33273963973537968 0.23716110821514952 0.16691946719652367 -0.17875024619674121 -0.48079642151475821 0.0075296107540561681 -0.39013987097136477 0.088731903144593158 -0.047318211530745904 0.30439136789742283 0.18609783896818571 0.95792627115878437 0.23185543137878184 -0.15749091715078392 -0.065017763263513967 0.74995646720139275 1.0565163247972882 -0.096199465207745763 1.1499894610289467 -0.13073915007666351 0.12603039208303565 -0.19314408301659641 -0.05961425201837528 0.33819464617259931 0.26782713316252404 0.26424460658004828 -0.10801918463920718 -0.42120161274575924
leaf_weight=23208 1791 8129 11377 7894 22307 3898 11185 3840 13679 300 3962 6673 65859 4228 5000 4055 34555 11410 793 3690 21210 18692 3780 22649 116987 6520 1483 31148 7097 7688 10715 14447 16549 3890 13519 7619 336 4611 24213 1954 509 37717 3632 309 8383 12323 7428 8671 36753 7599 78389 36310 7759 6988 1205 3829 14382 3491 10001 28391 12647 30708 3785 7056 44827 106243 48647 2087 6287 2596 26333 46042 16295 7152 2348 43162 1173 9822 17189 14724 144676 2592 7442 38471 11011 21420 3781 432 14666 50591 5543 3838 19451 914 24438 1722 4530 11448 20221 5512 16235 74560 25404 7931 9632 3325 5262 6811 21356 654 1083 21176 38442 997 515 26548 1296 53477 22424 37457 23203 800 22849 13456 28524 2646
leaf_count=23208 1791 8129 11377 7894 22307 3898 11185 3840 13679 300 3962 6673 65859 4228 5000 4055 34555 11410 793 3690 21210 18692 3780 22649 116987 6520 1483 31148 7097 7688 10715 14447 16549 3890 13519 7619 336 4611 24213 1954 509 37717 3632 309 8383 12323 7428 8671 36753 7599 78389 36310 7759 6988 1205 3829 14382 3491 10001 28391 12647 30708 3785 7056 44827 106243 48647 2087 6287 2596 26333 46042 16295 7152 2348 43162 1173 9822 17189 14724 144676 2592 7442 38471 11011 21420 3781 432 14666 50591 5543 3838 19451 914 24438 1722 4530 11448 20221 5512 16235 74560 25404 7931 9632 3325 5262 6811 21356 654 1083 21176 38442 997 515 26548 1296 53477 22424 37457 23203 800 22849 13456 28524 2646
internal_value=9.50421e-06 0.168523 -0.0218116 -0.0678925 0.0329258 0.158091 0.309609 0.80639 -0.0905078 0.00872408 0.333345 -0.10897 -0.158666 -0.113379 -0.396871 -0.565254 -9.76798e-05 0.0121085 0.11073 0.213588 -0.153345 0.0524733 -0.0980885 0.135499 -0.0214948 -0.0545553 0.833763 0.114309 0.524545 0.0481344 -0.195178 0.178851 -0.249797 0.0481749 0.159785 0.00853775 0.198871 0.956518 -0.0166909 0.0630412 -0.0356299 0.077086 0.028413 0.393319 0.0105875 0.147638 0.19377 0.174906 0.0989546 -0.00807298 -0.114939 0.0647995 0.047618 0.968092 1.3384 0.280567 -0.199765 1.11131 -0.853839 0.245455 0.274555 -0.0917553 0.0450872 -0.034038 -0.0507064 -0.0607324 0.0777959 -0.325428 -0.369023 0.433414 0.048329 0.142276 0.00036401 -0.154995 1.29661 -0.0330931 0.456834 -0.322005 0.132469 -0.309015 -0.0629945 1.60077 -0.0620347 -0.0471322 0.106292 0.156185 -0.219654 -0.0839424 -0.138203 -0.0162033 0.0679764 -0.145147 0.107155 0.0595159 0.228368 0.734229 0.259876 0.0461025 -0.388881 0.402273 0.238268 -0.162315 -0.415088 -0.0948913 -0.139659 -0.203732 -0.269024 0.125498 0.10229 0.368779 -0.218792 -0.0718967 -0.117703 0.247282 0.30424 -0.0335889 1.32557 -0.161386 0.145997 -0.0923403 -0.142068 0.764208 0.287988 0.17387 -0.0302499 -0.144434
internal_weight=2.20489e+06 252783 1.95211e+06 1.05986e+06 892249 144570 73736 15364 892224 747679 19781 787376 411528 345788 65740 35453 727898 689562 175243 96802 276144 167638 48805 240828 514319 375848 11955 118833 15819 104848 220003 58372 130899 191996 50316 141680 26685 10472 272950 81624 114995 38226 84867 14756 56141 89021 155961 143021 68874 80925 89104 95625 81235 7781 7637 7727 30287 3827 16674 74147 65476 76769 69644 41397 191326 183432 52337 70548 53999 14223 30113 49969 70834 102898 4139 59457 3927 15905 39838 18779 322323 3797 31655 67246 43616 32605 38336 33638 95746 78441 27850 48665 46426 60091 52829 6333 7126 22858 51912 12940 23923 81080 45625 33206 26150 18219 14894 59315 52504 8783 10905 59647 69150 36684 24361 47758 1596 60351 23338 177647 60660 1973 23846 26975 134767 56123
internal_count=2204894 252783 1952111 1059862 892249 144570 73736 15364 892224 747679 19781 787376 411528 345788 65740 35453 727898 689562 175243 96802 276144 167638 48805 240828 514319 375848 11955 118833 15819 104848 220003 58372 130899 191996 50316 141680 26685 10472 272950 81624 114995 38226 84867 14756 56141 89021 155961 143021 68874 80925 89104 95625 81235 7781 7637 7727 30287 3827 16674 74147 65476 76769 69644 41397 191326 183432 52337 70548 53999 14223 30113 49969 70834 102898 4139 59457 3927 15905 39838 18779 322323 3797 31655 67246 43616 32605 38336 33638 95746 78441 27850 48665 46426 60091 52829 6333 7126 22858 51912 12940 23923 81080 45625 33206 26150 18219 14894 59315 52504 8783 10905 59647 69150 36684 24361 47758 1596 60351 23338 177647 60660 1973 23846 26975 134767 56123
cat_boundaries=0 3 6 10 13 16 20 24 28 32 36 40 44 48 52 56 60 63
cat_threshold=33554432 0 562036736 2181038080 0 545259520 1118574866 808203268 583599456 2 33554432 0 536870912 2151678464 32960 536870912 637665681 1062001 554172544 8354 2250413331 791413782 2687500544 258 1120441091 537412629 2794007840 1280 41943315 524288 603980032 2 269484307 2015244378 3914106912 2 1118340362 541900942 2684454224 1298 1073905939 810288412 2710111536 323 275 15466528 66832 8194 100681800 2239789568 1276088453 10408 34767127 676070474 2709521664 3 835543936 2114176 81791040 6148 0 0 536870912
is_linear=0
shrinkage=0.05


Tree=5
num_leaves=127
num_cat=22
split_feature=173 200 144 173 122 197 199 170 200 174 171 184 198 7 198 170 197 173 198 198 171 9 199 199 110 170 33 171 5 174 199 174 199 12 174 142 173 174 202 15 198 197 197 202 199 174 202 202 199 9 174 197 197 199 7 199 171 170 5 202 202 199 173 202 190 202 202 174 171 202 12 173 170 173 202 197 202 202 171 174 202 5 197 202 170 202 173 202 197 190 198 197 197 142 199 199 200 199 200 150 199 9 198 174 171 199 128 202 202 202 173 115 171 199 171 165 181 166 170 132 202 171 174 202 174 199
split_gain=4.89302e+06 6.30787e+06 2.91292e+06 1.90789e+06 999522 909775 996616 1.16331e+06 1.02934e+06 2.51444e+06 881788 775406 680416 1.21372e+06 916051 1.23481e+06 650255 572779 557086 546195 525860 504015 475820 417968 393614 380833 376139 373295 365008 349782 336985 309368 475630 302112 300747 293465 288333 288029 292392 257380 255789 238206 239797 237157 226835 220348 212465 211883 208501 228233 217924 192059 191400 183006 173052 239061 167573 163953 162900 158826 158587 166434 154919 154267 151261 143084 140224 138763 178090 136147 135981 132873 132191 130796 136687 130100 152560 127460 126983 126751 124865 124663 124266 122942 122505 122497 121304 119522 114509 113519 109503 107111 106766 103699 102608 100885 98804.3 97989.5 98404.2 97402.9 95338.1 94636.4 94077.3 93716.5 93254.8 92026 91733.8 88782.8 88569.8 85386.1 85224.4 84267.7 83983.6 90993.4 106710 82902.1 82558.6 82306.2 81250.7 80197.1 79434.3 79346.8 77984.1 77282.9 75366.9 86935.9
threshold=0.019830105831178394 28.4056413687582 -29.699999999999999 -0.052565253488111745 0.084304210780313596 -0.022942847026357901 -0.0096914506311550058 11.500000000000002 52.406474280049387 -0.040686398516382442 0.52724713760661912 32.500000000000007 0.078937329090058031 1.0000000180025095e-35 -0.03600370149058673 3.5000000000000004 0.20679578557808145 -0.02845406512155518 -0.055410517378997597 0.17812956693284568 0.45285542485531965 inf -0.091158511974270925 0.021967789028700783 0.73417721518956369 1.0000000180025095e-35 -9.2372717979623253 -1.1305563166638464 50.76100000000001 -0.011330141984747797 0.15393300336512386 -0.02642238059352375 -0.037992845674890967 -0.19340664263336152 0.072099826992080188 30.426600000000004 -0.039192214044572619 0.0074970146400527024 0 0.20435457660944148 -0.016467583537436267 -0.028981867937155289 -0.036841014892691086 1 -0.016802671647749731 0.017012332790824928 2 3 -0.029393534103586413 inf -0.019409485761461117 -0.041777273350960646 0.039294271624717554 -0.10470961808011119 1.0000000180025095e-35 -0.063667594946234793 -0.36040488720703751 1.5000000000000002 75.654500000000013 4 5 -0.034812373201982265 -0.040444103578147865 6 3.4500000000000003e-07 7 8 0.026610767295186192 1.2141798952611274 9 -0.082940946669101109 -0.052565253488111745 1.5000000000000002 -0.039192214044572619 10 0.016212726650221002 11 12 -0.021526420727814296 0.01679071918119868 13 20.817500000000003 0.039294271624717554 14 1.0000000180025095e-35 15 -0.040444103578147865 16 0.012056739527038231 2.8500000000000008e-07 0.017251798732775495 -0.057059735201805455 -0.0028841364487214856 18.870850000000001 -0.036458745392931084 -0.032504005779488691 23.81432457144707 -0.014186551130817958 57.011049452082332 46.428571428571438 0.075054236426469814 inf -0.026455579978320206 -1.0000000180025095e-35 0.017908925856033878 -0.043783685126854981 -0.040138011491697441 17 18 19 -0.039192214044572619 1.0000000180025095e-35 -3.1703075380154173 -0.075194340767714904 -2.4186061296643007 111.06700000000002 0.22902860000000005 221.02500000000003 6.5000000000000009 0.83750000000000002 20 5.9635312563374265 0.024449916104193451 21 0.0071873389048434664 -0.037992845674890967
decision_type=8 8 8 10 2 10 10 2 10 10 2 8 8 10 8 2 10 10 10 10 2 8 8 8 8 2 10 2 8 8 10 10 10 10 10 10 10 10 9 10 8 10 8 9 8 10 9 9 10 8 8 10 10 8 10 10 2 2 8 9 9 8 10 9 2 9 9 10 2 9 8 10 2 10 9 10 9 9 2 8 9 8 10 9 2 9 10 9 10 2 10 10 10 8 10 8 10 10 10 8 8 8 10 10 2 8 2 9 9 9 8 2 2 8 2 10 8 8 2 10 9 2 10 9 8 10
left_child=2 18 4 10 52 17 8 20 9 26 24 12 13 14 15 63 35 22 69 23 25 47 -5 54 40 77 62 85 73 -16 51 32 36 84 75 80 -11 -20 -39 67 41 42 91 -15 78 -21 -38 82 50 83 66 -19 71 -52 55 72 -46 64 119 -58 61 92 -7 -3 -12 95 104 68 100 -2 -9 -1 -13 74 -29 76 -31 -8 -43 -60 88 -28 106 -50 -6 -27 -83 -32 -14 -53 -41 -4 96 -30 112 -63 -55 -78 -99 -25 -22 -26 -35 -85 -33 -104 -10 -77 -51 -93 -34 -110 -62 -114 -115 -82 -40 -36 -81 -37 -75 -70 -57 -106 125 -116
right_child=1 11 3 5 33 6 7 70 21 31 57 19 16 43 29 -17 -18 30 37 45 39 -23 -24 99 101 27 81 28 93 34 87 48 110 102 117 58 46 38 116 90 -42 44 -44 -45 56 -47 -48 -49 49 108 53 89 -54 60 -56 122 59 -59 79 -61 94 65 -64 -65 -66 -67 -68 -69 121 -71 -72 -73 -74 120 -76 107 97 -79 -80 118 115 86 -84 103 -86 -87 -88 -89 -90 -91 -92 109 -94 -95 -96 -97 -98 98 -100 -101 -102 -103 105 -105 123 -107 -108 -109 111 -111 -112 -113 113 114 124 -117 -118 -119 -120 -121 -122 -123 -124 -125 -126 -127
leaf_value=0.292851183757045 1.8907098801359976 1.5219116964180543 0.41676295007411596 -0.35564203698720603 0.77216718624994451 -0.87564804946858765 -0.18535438836787799 0.48960657336938262 0.45749005289441724 -0.040264759746322008 -0.19854350079796168 1.8276481239518283 0.10170398689820237 0.86520998974355467 -0.33277132866799147 0.024281110460928977 -0.28039138656939405 0.23213926122364739 0.50739269055421732 2.0388966900330541 -0.19021946517574051 -0.01289463564791982 -0.0098938620597410747 -0.15994285335143676 0.041135098286442788 0.10431081200900001 -0.18909646869371066 -0.64005518203178069 -0.31200207220433351 -0.046423050208007098 0.39541869046405614 0.090269055193172465 -0.12045357098001522 0.41606629412457352 -0.10761562314599001 0.2642868580578609 -0.012569729318119342 1.6905113163721659 0.88288095949772816 -0.29707423961667073 0.38774823947794729 0.058893465542526481 0.86141070794204255 0.38403237504814558 0.032734277169806328 0.88024774327524014 -0.4495699161776206 0.092349693293053148 0.01249158580439268 -0.17535319939394295 0.083934965745681142 -0.017176685438588465 0.57975811139925892 -0.23690900967011153 1.8070450012743455 -0.066381732662109533 0.31176903568962128 -0.042433398760873119 0.5252788203007922 0.10535210133498299 0.031582625366240832 0.60422665087883309 -0.1542227587778176 0.76541036233109661 -0.64621527596913575 -0.0021381728402238456 0.0038037412475306087 0.13452031840146303 -0.04272049912317475 1.2622641893260937 0.15014371334685292 -0.054528246507693327 0.77500517227741605 -0.062443757213786144 -0.21645794004339269 0.18379430331709135 -0.0062695820215634265 -0.073885864016604463 -0.20258851086652616 0.18084605878448914 0.13266526998604136 -0.61989773919890867 0.44867719215588242 -0.22017021399093864 1.3914334648804465 -0.15359046192040868 -0.19249827917793394 0.16250445263199431 0.29687139513356053 0.072679027254820686 -0.049696728058593813 0.27571049933461156 -0.11688883629811211 -0.45842332361267629 0.019725419984995329 0.16203850718695212 0.020675698461914225 0.17355045463319929 0.042128150498297032 0.25639190294917691 -0.074193091594210045 -0.16618755979650865 0.91234658987885009 -0.083351524064409821 0.73324563581810009 0.3468827157615586 0.17282449077600934 0.023502833357878027 -0.0023460975121097657 0.095410909057613194 0.035537424953021916 0.25080163972646236 -0.12109182206485827 -0.2739271663624519 -0.027931100833457158 0.010432966897980823 1.6782337254955946 -0.34153472433751969 0.36902768914353412 0.12987400611490016 -0.22142468836868767 0.12789103183018388 0.52740751369824046 0.26807554013263823 -0.081113139990935362 0.24746886024580547
leaf_weight=5614 1697 766 6745 15752 1126 9163 61679 3464 3331 7912 3501 513 13348 3855 7720 11308 7667 11685 3964 654 38339 74584 27020 2548 14206 6284 4290 3555 19628 79206 7573 7884 15774 2509 9098 23682 3237 1373 10302 19922 13849 13283 1622 7808 17109 1102 20187 33402 9098 6410 27352 81999 2889 4009 332 715 21265 3943 7759 16646 17435 1412 810 7006 4093 18809 20892 7853 59630 2299 19884 5401 713 9661 4167 19291 54952 43974 7138 9665 37185 6854 7712 47307 2751 17169 2191 20373 17201 61520 5769 14439 28249 31502 31428 14909 52141 20979 44364 3131 32897 8986 3576 17019 1070 901 18820 15660 26394 12105 19680 3755 96799 5765 73943 22126 337 6410 14112 20884 42727 7694 2439 5532 115733 2981
leaf_count=5614 1697 766 6745 15752 1126 9163 61679 3464 3331 7912 3501 513 13348 3855 7720 11308 7667 11685 3964 654 38339 74584 27020 2548 14206 6284 4290 3555 19628 79206 7573 7884 15774 2509 9098 23682 3237 1373 10302 19922 13849 13283 1622 7808 17109 1102 20187 33402 9098 6410 27352 81999 2889 4009 332 715 21265 3943 7759 16646 17435 1412 810 7006 4093 18809 20892 7853 59630 2299 19884 5401 713 9661 4167 19291 54952 43974 7138 9665 37185 6854 7712 47307 2751 17169 2191 20373 17201 61520 5769 14439 28249 31502 31428 14909 52141 20979 44364 3131 32897 8986 3576 17019 1070 901 18820 15660 26394 12105 19680 3755 96799 5765 73943 22126 337 6410 14112 20884 42727 7694 2439 5532 115733 2981
internal_value=4.28077e-05 0.138618 -0.0400112 -0.0479239 0.498293 -0.0650944 -0.0811881 -0.142838 -0.0501019 -0.073872 0.116941 0.101957 0.0915905 0.0445135 0.0234578 0.357752 0.169792 0.0275171 1.00906 0.496291 -0.162274 0.0751593 -0.137226 0.358453 0.149892 -0.210049 -0.584796 -0.265792 -0.304012 -0.00129518 0.0659905 -0.056935 -0.159306 0.857647 0.00894255 0.190589 -0.301231 0.876984 0.998944 -0.0955565 0.1852 0.15978 0.267769 0.544155 0.109807 1.31187 -0.389378 0.178967 -0.0461899 -0.108802 -0.0331067 0.0372111 0.21753 -0.041743 0.706581 0.623127 0.162627 -0.304017 0.262838 0.221246 -0.0491578 0.000460858 -0.817057 0.842933 -0.439835 0.0919109 0.0867455 -0.0699432 -0.0815315 1.53708 0.20051 0.122521 1.21558 -0.220479 -0.412586 0.023048 0.00745823 -0.138985 -0.0325058 0.349801 0.129402 -0.411086 0.275725 -0.159626 1.21161 -0.084509 -0.516371 0.225822 0.211527 0.0213403 -0.241525 0.238841 -0.037604 -0.402215 -0.0663925 0.200175 0.00228418 0.0429357 0.0843228 0.0695944 -0.136638 -0.0391945 0.661196 -0.183943 0.20622 0.798558 0.215634 0.112034 -0.00672672 0.193628 -0.0338652 0.0291739 -0.0750512 -0.0813487 -0.0619602 0.0870519 0.907238 -0.204304 0.292536 0.2013 -0.192161 -0.0232222 0.392798 0.344994 -0.0556172 -0.0172583
internal_weight=2.20386e+06 494171 1.70969e+06 1.68492e+06 24767 1.52599e+06 1.30007e+06 435798 864273 726424 158930 474199 462052 288423 276760 19080 173629 225922 19972 12147 412450 137849 42772 10391 147393 240346 23308 134693 111240 257680 183150 703116 66790 10863 249960 165962 31336 15976 12012 172104 124201 110352 34911 11663 75441 1756 23424 63265 636326 109983 526343 155204 13904 490965 4712 4380 55020 11537 76102 37911 463613 119529 9973 7772 7594 35130 35378 146413 138560 3996 23348 11015 1226 60110 7722 234452 199501 105653 20421 31536 89860 13335 29863 73424 3877 23453 9045 27946 30549 143519 25691 33289 84399 51130 344084 16321 56150 120295 65343 5679 71236 23192 6986 64326 14486 4477 22151 34951 36559 26544 35454 30149 312656 295221 198422 59311 10639 15508 23777 44566 52388 67324 3154 6602 192657 76924
internal_count=2203861 494171 1709690 1684923 24767 1525993 1300071 435798 864273 726424 158930 474199 462052 288423 276760 19080 173629 225922 19972 12147 412450 137849 42772 10391 147393 240346 23308 134693 111240 257680 183150 703116 66790 10863 249960 165962 31336 15976 12012 172104 124201 110352 34911 11663 75441 1756 23424 63265 636326 109983 526343 155204 13904 490965 4712 4380 55020 11537 76102 37911 463613 119529 9973 7772 7594 35130 35378 146413 138560 3996 23348 11015 1226 60110 7722 234452 199501 105653 20421 31536 89860 13335 29863 73424 3877 23453 9045 27946 30549 143519 25691 33289 84399 51130 344084 16321 56150 120295 65343 5679 71236 23192 6986 64326 14486 4477 22151 34951 36559 26544 35454 30149 312656 295221 198422 59311 10639 15508 23777 44566 52388 67324 3154 6602 192657 76924
cat_boundaries=0 3 7 11 15 19 23 26 30 34 38 42 46 50 54 58 62 66 70 74 78 82 85
cat_threshold=2181038081 0 603979776 33554707 35651616 562037008 2 3158450848 3499262048 340017293 544 2182251795 671876674 2711618816 8195 1076396307 875381507 2746221840 2 2354184465 69706 2906656896 2 33554433 0 536870912 131089 64 536871040 2 1115717907 539755520 553648384 3 2189426963 524288 612369728 2 1108345107 541853215 2687583248 451 2190868881 134351104 612566208 514 1120408339 575414797 536939872 330 33603859 537657372 3774873888 322 150696 3280091264 1493340289 14888 33554691 136577536 687866112 2 4362776 1074599002 1785925920 2072 1117816091 539755530 2821756304 19 2957136528 3607281904 239341584 1536 1108902163 673973854 2686452992 454 302121092 2374142474 1368154247 8800 16 0 536870912
is_linear=0
shrinkage=0.05


Tree=6
num_leaves=127
num_cat=16
split_feature=143 13 198 7 198 172 201 172 201 196 5 201 15 196 198 152 196 201 187 198 198 202 14 108 137 172 198 201 201 198 172 172 172 172 3 201 202 201 198 172 172 172 198 172 172 198 31 172 196 172 172 172 172 201 201 3 29 198 5 3 172 172 172 202 198 172 201 196 202 172 172 172 172 202 196 172 201 143 201 202 7 8 190 3 201 172 148 201 7 172 202 36 172 198 202 202 201 172 172 29 196 202 7 202 198 198 202 198 3 202 7 201 110 198 201 202 172 202 172 180 9 202 31 180 172 201
split_gain=2.68986e+06 1.81234e+06 1.5167e+06 1.54945e+06 1.52644e+06 813461 1.14376e+06 645816 595612 509286 499762 489107 417155 415226 436111 385431 367160 414290 329073 293728 276810 267498 255608 253842 246884 240851 236388 261638 215727 776654 350417 1.2378e+06 246517 413320 205679 204619 200662 198752 195212 193789 1.29379e+06 187360 184606 792796 1.22106e+06 481532 514618 315766 344952 220819 181539 174654 353329 219739 270192 260054 173770 167933 163987 161629 151436 150216 521620 142829 140595 187698 137237 154678 136824 135315 133627 130891 121548 119597 118508 116009 115955 107834 105976 103222 96861.3 140735 95772.3 95558.3 94359.2 105556 93577.5 92127.3 89245.4 88948.2 87503.1 84863.7 83899.5 82981.2 82810.2 81917.4 80145 79904.4 116317 78894.9 78806.7 82573 92854.3 78056.6 76415.4 75976.9 75081.6 74929.7 74775.3 74523.3 78911.8 74321.5 73835.9 72821.5 81559.7 73600.9 72428.7 95765 81520.4 72044.6 69090.1 69050.7 68822.9 68381 68194.7 65363.9
threshold=36.990450000000003 -0.21295590776353104 0.078937329090058031 1.0000000180025095e-35 -0.049435974054067792 -0.24274418905800857 0.79999870927376227 -0.27035948828172579 2.8799325310288992 2.5000000000000004 26.514400000000006 1.2149997218243678 -0.19301342190329665 1.5000000000000002 0.13613539437611669 -0.051541454092105497 1.5000000000000002 1.5882058318770276 2.4051148473067723e-06 -0.054994785526757288 0.0072702903670194283 0 -0.35679367103289045 0.016770630730758334 0.82166475772175851 2.3569660557607852 -0.0025063796885923524 1.1600259360408434 0.88149519178172098 -0.050773033846033926 -1.177195568842756 -1.0315301639350469 0.011484383118237131 -0.89609849728161295 168132.00675000003 1.1078365366803373 1 0.75306487347399564 0.016802331166441701 -1.177195568842756 -1.0859299336551629 -2.2277755203183536 -0.03600370149058673 -0.61632711641355853 -0.28345885895726636 -0.034477124933751706 -0.076514068841690139 -1.2110738796869998 3.5000000000000004 -1.3526697137077848 0.24556428866846672 1.278701095223638 1.847880701798102 1.2884863849499177 1.4603150440486987 587146.72105000017 0.052675236905727126 -0.037270670899619655 48.537450000000007 290726.69875000004 -2.1838705063677861 -0.89609849728161295 -0.71837832076998398 2 -0.022324979401366848 0.88736852636597008 0.75643562040853329 2.5000000000000004 3 -1.9118146381868095 -1.639275837356321 0.93995497136728534 0.93995497136728534 4 4.5000000000000009 0.28795656960456284 1.4236425418313474 19.441050000000004 1.6367223247868392 5 -1.0000000180025095e-35 inf 1.6500000000000003e-07 478790.19540000003 1.2394647226681699 1.0627120509770147 10.714285714285717 0.84189379747688642 -1.0000000180025095e-35 -0.44945498423580532 6 -97.794117647058826 -1.1160153235761816 0.02228014352543262 7 8 1.5882058318770276 0.084218161230528568 -0.15906527858193484 0.06773420625754635 3.5000000000000004 9 -1.0000000180025095e-35 10 -0.050773033846033926 0.018867756060493738 11 0.01621107798119226 403156.16610000009 12 1.0000000180025095e-35 0.76912032842483513 0.011651899674016969 -0.021997750500278742 1.3044850578770202 13 -1.7398520905506232 14 -1.9012272142335698 -0.043009699999999991 inf 15 0.052246539750410943 -0.1174475 -0.67649182510891459 0.91103594062510773
decision_type=8 8 10 10 8 10 10 10 8 2 8 10 8 2 10 8 2 8 8 10 8 9 8 10 10 10 8 8 10 10 10 10 10 10 2 10 9 10 10 10 10 8 10 10 10 8 10 10 2 10 8 10 10 10 10 2 10 10 8 2 8 10 10 9 10 10 10 2 9 8 10 10 10 9 2 10 10 10 10 9 8 8 2 2 10 10 10 10 8 8 9 10 8 10 9 9 10 10 10 10 2 9 8 9 10 10 9 10 2 9 10 10 10 10 8 9 8 9 10 10 8 9 8 10 10 10
left_child=2 11 3 4 15 7 20 23 18 94 72 -2 35 36 19 39 50 26 25 -15 77 119 76 37 -20 58 51 56 29 30 -17 95 33 -33 -16 71 122 -6 -29 69 104 -30 43 47 68 46 124 48 49 116 -12 53 -53 64 55 -55 121 -50 -4 80 -61 -42 -63 -51 65 -18 89 -68 -45 -1 -48 -3 113 -35 92 108 -13 -7 -64 88 81 87 -69 -19 90 -86 -73 93 -62 -21 -66 -77 105 -47 -9 -32 120 98 -92 -37 101 -94 -103 123 -41 -25 -60 -76 -52 -10 -111 -22 -99 -8 115 -115 118 -118 -39 -5 -74 -28 -14 -23 -44 -67
right_child=1 12 8 21 5 6 10 9 109 -11 16 22 13 14 34 28 17 83 24 66 111 103 -24 74 -26 -27 27 38 41 -31 31 32 -34 73 -36 99 -38 42 -40 40 61 -43 45 44 -46 59 70 -49 57 63 75 52 -54 54 -56 -57 -58 -59 106 60 79 62 78 -65 84 125 67 82 -70 -71 -72 86 96 -75 107 91 -78 -79 -80 -81 -82 -83 -84 -85 85 -87 -88 -89 -90 -91 97 -93 100 -95 -96 -97 -98 112 -100 -101 -102 102 -104 -105 -106 -107 -108 -109 -110 110 -112 -113 -114 114 -116 -117 117 -119 -120 -121 -122 -123 -124 -125 -126 -127
leaf_value=0.20113129042832734 0.15831950892758617 0.033239526943986387 0.17945393983287597 1.8914083936390889 -0.11559110001828619 0.037392556980823492 -0.013773332235399689 1.230657280431696 0.033982089234373604 0.026630694947633388 0.15059601365691522 0.91147369650610865 0.23475035346744205 0.3609373875258905 1.7627626670000849 -0.024707601113220633 0.1477506356925346 -0.85491117727359855 0.12451784245666229 -0.18667443471653322 0.088770570539423083 1.175805270010521 0.71289487964675757 0.00058928203390917397 1.366909930298783 0.087465204132583768 -0.027601136001295802 0.32309890307126654 0.17290855789513895 0.94855564222370836 2.0434818064368914 -0.01882755865126233 0.020256647206983364 1.8320749514414729 0.42273471870849821 0.29768125370880177 0.073765199524278652 0.07564741944851007 -0.054443292063295956 1.5739297167484361 -0.07182457806947079 -0.02793647846737933 -0.20552485155267766 1.4439066461851473 -0.39191303703052255 -0.042014156153501597 0.17055780319713221 -0.15853318287508672 0.13796598371334359 0.91214796708576162 -0.78100245239005361 0.17510368665017123 -0.52619927185536486 -1.0431210952093621 -0.12090657776483493 -0.25890553775549907 -0.27113280923063549 0.4985233533732305 0.49482349582366025 -0.21295012634572 -0.035684716805668898 1.078503832899655 0.089960240899362484 0.16546758178663615 -0.11330213623317167 -0.34988388610292698 -0.31900211464437606 -0.11715338430238548 0.73322380645014951 -0.021750165787234318 -0.22196782950728189 0.11902959882546767 0.0069399346202687678 0.76979989373717084 -0.11583155436545892 -0.44336614504869298 1.4822204170989375 0.15242612974491732 0.40188190203262075 -0.0094946065747698767 -0.053633311905599168 0.14019519127938337 0.015113564331504806 -0.41026691756927253 -0.21044847047106274 0.34798052473469065 0.35828999598533301 0.037009903410756724 -0.12027646463478309 0.26360910128849413 -0.076093729446903124 -0.063064653012399399 0.093263618117803565 -0.36458098143282669 0.68965674020748413 1.1838527005705779 -0.22309817316794178 -0.4986206647003118 -0.44844674521760119 0.5208378683639362 -0.21314431775312506 -0.036780316842474944 -0.25153729739029601 0.28663753262397085 1.0337805617141944 0.29327816654544892 0.30080918651564192 -0.28957917889865409 -0.16969642068558535 -0.1473422652447072 -0.51082754865839497 -0.16421545355264042 -0.24654524808044576 -0.025302405238582751 0.23585087885870848 -0.17742429776980176 0.088307547863051117 -0.042490635910158892 -0.17044568036205457 1.0151983717563113 -0.11073848254974089 -0.15256930151863052 0.12672750322287993 0.52304352212018423 -0.83457570794240743 -0.1283389355231061
leaf_weight=20689 2680 9578 28933 303 47483 38606 15706 1011 1853 3897 9302 1507 51204 4589 314 29547 4993 2564 641 1399 3597 431 5627 25530 1063 31371 12637 4059 13875 2765 383 2349 15833 321 3244 8008 50812 4308 21878 1574 4438 71180 486 779 2964 8683 2933 23966 30345 681 958 6313 2510 2887 2649 1668 31700 3614 6878 10941 117707 1727 11799 9062 6867 5190 5905 26820 6473 10151 8314 6742 80724 1829 66484 1511 2176 43136 3540 344169 27802 31753 27947 2286 2589 1257 10377 76690 42415 5075 2454 50181 7791 2588 2887 1892 4683 3141 14435 7838 9404 19586 6774 4244 1123 2428 18958 6844 1047 2974 2999 15047 38676 9929 1428 40225 18906 53772 15375 1042 14752 89281 20709 5804 3803 9287
leaf_count=20689 2680 9578 28933 303 47483 38606 15706 1011 1853 3897 9302 1507 51204 4589 314 29547 4993 2564 641 1399 3597 431 5627 25530 1063 31371 12637 4059 13875 2765 383 2349 15833 321 3244 8008 50812 4308 21878 1574 4438 71180 486 779 2964 8683 2933 23966 30345 681 958 6313 2510 2887 2649 1668 31700 3614 6878 10941 117707 1727 11799 9062 6867 5190 5905 26820 6473 10151 8314 6742 80724 1829 66484 1511 2176 43136 3540 344169 27802 31753 27947 2286 2589 1257 10377 76690 42415 5075 2454 50181 7791 2588 2887 1892 4683 3141 14435 7838 9404 19586 6774 4244 1123 2428 18958 6844 1047 2974 2999 15047 38676 9929 1428 40225 18906 53772 15375 1042 14752 89281 20709 5804 3803 9287
internal_value=4.27474e-05 0.153586 -0.0198298 -0.029839 -0.0334978 -0.0491437 -0.0955673 -0.022575 0.17431 0.430837 -0.126503 0.753538 0.123683 0.0931643 0.000726521 0.0987844 -0.161995 -0.187413 0.211548 -0.0260734 0.0584444 0.540702 0.924875 -0.0259707 0.899592 0.197936 -0.179015 -0.140683 0.0547056 0.131953 0.0886586 0.236826 0.113065 0.439668 0.541042 0.265734 0.149876 -0.0160431 0.00464084 0.21088 0.316789 0.00482743 -0.0104724 0.0360784 0.46312 -0.0221564 -0.297313 0.00881648 0.0382934 -0.00761953 -0.05333 -0.23731 -0.0244087 -0.256858 -0.52245 -0.755962 -0.168893 0.176339 0.261212 -0.0157062 -0.0289183 0.187317 0.254706 0.218773 -0.235332 -0.116594 -0.0525236 -0.0758738 0.812586 0.12777 -0.119604 0.181252 -0.0560648 0.940581 -0.0873848 -0.0886567 1.24872 0.098097 0.161949 -0.0249256 0.0304401 0.0499652 -0.049659 -0.645346 -0.268635 -0.0279298 0.264063 0.0173929 -0.0580888 0.166303 -0.282752 -0.0741821 -0.0415873 -0.116084 0.834928 1.34284 -0.0211483 -0.302502 -0.394344 0.408065 -0.0849774 -0.049684 -0.0919347 0.454003 1.34907 0.0260089 0.352769 -0.132049 -0.461809 -0.243662 -0.329301 -0.115406 -0.265481 -0.108038 -0.13674 -0.147349 -0.0315016 -0.00845917 -0.116583 1.20377 -0.0112426 -0.137092 0.203615 0.567275 -0.763304 -0.207765
internal_weight=2.20386e+06 252551 1.95131e+06 1.85564e+06 1.84382e+06 1.6488e+06 600153 1.04865e+06 95670 7795 499767 11990 240561 198018 75293 195015 332320 269321 87844 71735 100386 11824 9310 1.04085e+06 1704 86140 264471 159555 139974 54919 52154 22607 20332 4499 3558 42543 122725 896012 25937 55041 24201 85055 848529 170245 10216 678284 15536 160029 136063 102104 62999 104916 8823 96093 7204 4555 133618 33959 54769 662748 515232 21504 17066 9743 88889 19470 67146 60672 7252 30840 11247 26697 167447 2150 144841 53697 3683 81742 15339 504291 147516 119714 54767 4850 69419 3846 17119 87961 160122 6474 65573 51692 71513 11271 3898 2275 100159 58706 16889 15846 43555 34151 26360 10479 2697 27958 25836 73328 2005 7826 5973 18644 41817 67288 51582 50154 92361 72678 19683 1345 95476 101918 71913 6235 4289 14477
internal_count=2203861 252551 1951310 1855640 1843816 1648801 600153 1048648 95670 7795 499767 11990 240561 198018 75293 195015 332320 269321 87844 71735 100386 11824 9310 1040853 1704 86140 264471 159555 139974 54919 52154 22607 20332 4499 3558 42543 122725 896012 25937 55041 24201 85055 848529 170245 10216 678284 15536 160029 136063 102104 62999 104916 8823 96093 7204 4555 133618 33959 54769 662748 515232 21504 17066 9743 88889 19470 67146 60672 7252 30840 11247 26697 167447 2150 144841 53697 3683 81742 15339 504291 147516 119714 54767 4850 69419 3846 17119 87961 160122 6474 65573 51692 71513 11271 3898 2275 100159 58706 16889 15846 43555 34151 26360 10479 2697 27958 25836 73328 2005 7826 5973 18644 41817 67288 51582 50154 92361 72678 19683 1345 95476 101918 71913 6235 4289 14477
cat_boundaries=0 3 7 10 13 16 20 24 27 30 34 38 42 46 50 54 58
cat_threshold=33554433 0 562036736 33718547 575407134 2712667424 339 16 64 536870912 33554433 0 603979776 33554689 0 603980032 1353261568 72507669 33762600 6412 2484103296 3246551040 1544427649 14368 2181038339 0 545259792 2181038083 0 603980032 201457684 743030992 3238195469 353 1089221394 40649892 67175760 259 559944224 1302153790 56693760 2 33555729 33562656 545259520 8194 1010974760 2311262208 1477316743 8744 302122257 939667520 688392320 8202 134236360 3313578112 1477210117 14568
is_linear=0
shrinkage=0.05


end of trees

feature_importances:
hs300_ret60_z60=107
industry_id=103
mkt_ret_60d=71
regime_intensity=70
zz500_rel_strength=61
cyb_rel_strength=53
mkt_ret_20d=49
mkt_vol_ratio=43
mkt_rsi14=41
mkt_ret_5d=40
total_mv=33
regime_days_in=29
regime_id=18
market_score_adj=15
atr_pct=14
sumn_20=13
pe_ttm=10
mf_divergence=7
mf_strength=5
ma_ratio_120=5
channel_pos_60=5
ma_ratio_10=4
ma_ratio_60=4
ma5_ma20=4
lr_slope_60=4
sump_20=4
sumd_20=4
kama_20=4
amihud_illiq_5d=4
ma_ratio_20=3
amplitude=3
k_ksft=3
natr_14=3
amount_20d_avg=3
main_consec_in=3
buy_sell_imb_5d=3
pe=2
macd=2
bias_10=2
k_klen=2
qtld_20=2
amount_1d=2
amount_log=2
lg_net_20d=2
main_consec_out=2
macd_hist=1
bias_20=1
roc_10=1
wr_14=1
gap_up=1
k_kmid=1
rank_20=1
imin_20=1
corr_close_vol_20=1
aroon_up=1
aroon_osc=1
kama_dist=1
apo=1
amount_5d_avg=1
lg_net_5d=1
elg_net_20d=1
main_net_20d=1
elg_ratio_5d=1
range_compression=1

parameters:
[boosting: gbdt]
[objective: regression]
[metric: custom]
[tree_learner: serial]
[device_type: cpu]
[data_sample_strategy: bagging]
[data: ]
[valid: ]
[num_iterations: 2000]
[learning_rate: 0.05]
[num_leaves: 127]
[num_threads: 16]
[seed: 42]
[deterministic: 0]
[force_col_wise: 0]
[force_row_wise: 0]
[histogram_pool_size: -1]
[max_depth: -1]
[min_data_in_leaf: 300]
[min_sum_hessian_in_leaf: 0.001]
[bagging_fraction: 0.8]
[pos_bagging_fraction: 1]
[neg_bagging_fraction: 1]
[bagging_freq: 5]
[bagging_seed: 400]
[bagging_by_query: 0]
[feature_fraction: 0.7]
[feature_fraction_bynode: 1]
[feature_fraction_seed: 30056]
[extra_trees: 0]
[extra_seed: 12879]
[early_stopping_round: 0]
[early_stopping_min_delta: 0]
[first_metric_only: 0]
[max_delta_step: 0]
[lambda_l1: 0.1]
[lambda_l2: 0.1]
[linear_lambda: 0]
[min_gain_to_split: 0]
[drop_rate: 0.1]
[max_drop: 50]
[skip_drop: 0.5]
[xgboost_dart_mode: 0]
[uniform_drop: 0]
[drop_seed: 17869]
[top_rate: 0.2]
[other_rate: 0.1]
[min_data_per_group: 100]
[max_cat_threshold: 32]
[cat_l2: 10]
[cat_smooth: 10]
[max_cat_to_onehot: 4]
[top_k: 20]
[monotone_constraints: ]
[monotone_constraints_method: basic]
[monotone_penalty: 0]
[feature_contri: ]
[forcedsplits_filename: ]
[refit_decay_rate: 0.9]
[cegb_tradeoff: 1]
[cegb_penalty_split: 0]
[cegb_penalty_feature_lazy: ]
[cegb_penalty_feature_coupled: ]
[path_smooth: 0]
[interaction_constraints: ]
[verbosity: -1]
[saved_feature_importance_type: 0]
[use_quantized_grad: 0]
[num_grad_quant_bins: 4]
[quant_train_renew_leaf: 0]
[stochastic_rounding: 1]
[linear_tree: 0]
[max_bin: 255]
[max_bin_by_feature: ]
[min_data_in_bin: 3]
[bin_construct_sample_cnt: 200000]
[data_random_seed: 175]
[is_enable_sparse: 1]
[enable_bundle: 1]
[use_missing: 1]
[zero_as_missing: 0]
[feature_pre_filter: 1]
[pre_partition: 0]
[two_round: 0]
[header: 0]
[label_column: ]
[weight_column: ]
[group_column: ]
[ignore_column: ]
[categorical_feature: 202]
[forcedbins_filename: ]
[precise_float_parser: 0]
[parser_config_file: ]
[objective_seed: 16083]
[num_class: 1]
[is_unbalance: 0]
[scale_pos_weight: 1]
[sigmoid: 1]
[boost_from_average: 1]
[reg_sqrt: 0]
[alpha: 0.9]
[fair_c: 1]
[poisson_max_delta_step: 0.7]
[tweedie_variance_power: 1.5]
[lambdarank_truncation_level: 30]
[lambdarank_norm: 1]
[label_gain: ]
[lambdarank_position_bias_regularization: 0]
[eval_at: ]
[multi_error_top_k: 1]
[auc_mu_weights: ]
[num_machines: 1]
[local_listen_port: 12400]
[time_out: 120]
[machine_list_filename: ]
[machines: ]
[gpu_platform_id: -1]
[gpu_device_id: -1]
[gpu_use_dp: 0]
[num_gpu: 1]

end of parameters

pandas_categorical:[]
