tree
version=v4
num_class=1
num_tree_per_iteration=1
label_index=0
max_feature_idx=202
objective=regression
feature_names=adx winner_rate holder_pct total_mv pe pe_ttm pb market_score_adj mf_divergence mf_strength mf_consecutive ma_ratio_5 ma_ratio_10 ma_ratio_20 ma_ratio_60 ma_ratio_120 ma5_ma20 ma20_ma60 macd macd_signal macd_hist rsi_6 rsi_14 rsi_24 kdj_k kdj_d kdj_j boll_pct boll_width atr_pct bias_5 bias_10 bias_20 roc_10 roc_20 cci_14 wr_14 mfi_14 trix vol_ratio_5 vol_ratio_20 amplitude amount_ratio_20 vol_price_match obv obv_diff_20 cdl2crows cdl3blackcrows cdl3inside cdl3linestrike cdl3outside cdl3starsinsouth cdl3whitesoldiers cdlabandonedbaby cdladvanceblock cdlbelthold cdlbreakaway cdlclosingmarubozu cdlconcealbabyswall cdlcounterattack cdldarkcloudcover cdldoji cdldojistar cdldragonflydoji cdlengulfing cdleveningdojistar cdleveningstar cdlgapsidesidewhite cdlgravestonedoji cdlhammer cdlhangingman cdlharami cdlharamicross cdlhighwave cdlhikkake cdlhikkakemod cdlhomingpigeon cdlidentical3crows cdlinneck cdlinvertedhammer cdlkicking cdlkickingbylength cdlladderbottom cdllongleggeddoji cdllongline cdlmarubozu cdlmatchinglow cdlmathold cdlmorningdojistar cdlmorningstar cdlonneck cdlpiercing cdlrickshawman cdlrisefall3methods cdlseparatinglines cdlshootingstar cdlshortline cdlspinningtop cdlstalledpattern cdlsticksandwich cdltakuri cdltasukigap cdlthrusting cdltristar cdlunique3river cdlupsidegap2crows cdlxsidegap3methods lr_slope_20 lr_slope_60 lr_angle_20 channel_pos_60 lr_r2_60 break_high_20 break_high_60 break_low_20 gap_up gap_down limit_up limit_consec volume_spike_up volume_spike_dn k_kmid k_klen k_kmid2 k_kup k_kup2 k_klow k_klow2 k_ksft k_ksft2 qtlu_20 qtld_20 rank_20 rsv_20 imax_20 imin_20 imxd_20 corr_close_vol_20 cord_ret_vol_20 cntp_20 cntn_20 cntd_20 sump_20 sumn_20 sumd_20 vma_20 vstd_20 wvma_20 aroon_up aroon_dn aroon_osc kama_20 kama_dist sar_signal cmo_14 bop ppo apo ad adosc natr_14 stochrsi_k stochrsi_d ht_trendmode amount_1d amount_5d_avg amount_20d_avg amount_log amount_zscore_60d amount_breakout regime_days_in regime_intensity hs300_ret60_z60 cyb_rel_strength zz500_rel_strength sm_net_5d mid_net_5d lg_net_5d elg_net_5d main_net_5d lg_net_20d elg_net_20d main_net_20d main_consec_in main_consec_out dispersion_5d elg_ratio_5d buy_sell_imb_5d upward_impact_per_amount range_per_amount_5d amihud_illiq_5d kyle_lambda_20d tail_risk_5d range_compression drawdown_recovery price_impact_asym regime_id mkt_ret_5d mkt_ret_20d mkt_ret_60d mkt_rsi14 mkt_vol_ratio industry_id
feature_infos=[-8:10] [-10:12] [-6:8] [32801.5:254474064] [0.99910002946853638:4679.31298828125] [1.2226999998092651:297635.34375] [0.16750000417232513:3353.59521484375] [-5:2] [-12:8] [-10:10] [0:5] [-0.4280107319355011:0.82766222953796387] [-0.47410476207733154:1.1468217372894287] [-0.50809037685394287:2.4609854221343994] [-0.62379699945449829:5.1736111640930176] [-0.72380572557449341:6.641758918762207] [-0.41614937782287598:1.2565516233444214] [-0.53296011686325073:1.261737585067749] [-52.964492797851562:51.430015563964844] [-48.648525238037109:46.549518585205078] [-19.625043869018555:44.784832000732422] [0:100] [0.91973280906677246:98.634773254394531] [5.3144421577453613:96.797813415527344] [-1.1309472103390381e-13:100] [-1.508916418462708e-13:100] [-62.538936614990234:162.72854614257812] [-0.57358014583587646:1.554064154624939] [0.0098681608214974403:3.4135656356811523] [0.0054368157871067524:0.44964936375617981] [-0.4280107319355011:0.82766222953796387] [-0.47410476207733154:1.1468217372894287] [-0.50809037685394287:2.4609854221343994] [-59.461944580078125:448.20022583007812] [-69.694313049316406:931.4285888671875] [-466.66665649414062:466.66665649414062] [-100:0] [-4.4060019304889564e-13:100] [-3.5925531387329102:12.321330070495605] [0.00694689666852355:4.8430767059326172] [0.0026646573096513748:12.001799583435059] [0:5.190058708190918] [0.0020132153294980526:13.998739242553711] [1:4] [-63149900:280335200] [-113925320:169495328] [-100:0] [-100:0] [-100:100] [-100:100] [-100:100] none [0:100] none [-100:0] [-100:100] none [-100:100] none [-100:100] [-100:0] [0:100] [-100:100] [0:100] [-100:100] [-100:0] [-100:0] [-100:100] [0:100] [0:100] [-100:0] [-100:100] [-100:100] [-100:100] [-200:200] [-200:200] [0:100] [-100:0] [-100:0] [0:100] none none [0:100] [0:100] [-100:100] [-100:100] [0:100] none [0:100] [0:100] [-100:0] [0:100] [0:100] [-100:100] [-100:100] [-100:0] [-100:100] [-100:100] [-100:0] [0:100] [0:100] [-100:100] [-100:0] [-100:100] [0:100] none [-100:100] [-12.362533569335938:19.454833984375] [-5.8507466316223145:6.1598587036132812] [-85.375434875488281:87.057525634765625] [0:1] [-140.03054809570312:0.94685393571853638] [0:1] [0:1] [0:1] [0:1] [0:1] [0:1] [0:12] [0:1] [0:1] [-0.49431818723678589:0.63636362552642822] [0:1.7444717884063721] [-1:1] [0:1.0663390159606934] [0:1] [0:0.21548284590244293] [0:1] [-0.51841908693313599:0.48693704605102539] [-1:1] [-0.6040540337562561:1.4263187646865845] [-0.90142607688903809:0.84134000539779663] [0.05000000074505806:1] [0:1] [0:19] [0:19] [-19:19] [-0.98084187507629395:0.99676692485809326] [-0.96327251195907593:0.97629034519195557] [1:19] [1:19] [-18:18] [0.29190000891685486:855.1123046875] [0.4675000011920929:137.601806640625] [-87.401901245117188:778.08441162109375] [121.28399658203125:19362698] [72.989326477050781:12875321] [130.81680297851562:22991982] [0:100] [0:100] [-100:100] [0.93828850984573364:1845.0565185546875] [-0.83653199672698975:0.43897345662117004] [-1:1] [-98.160537719726562:97.269546508789062] [-1:1] [-35.694988250732422:73.36260986328125] [-82.774490356445312:130.93321228027344] [-145228528:136515024] [-13042714:20527754] [0.5436815619468689:44.964935302734375] [0:100] [-2.0842587367380511e-13:100] [0:1] [0.0210999995470047:27494.888671875] [0.073600001633167267:25072.23046875] [0.099799998104572296:33267.08203125] [0.020899999886751175:10.221799850463867] [-2.7592000961303711:7.5689001083374023] [0:1] [0:20] [-5.0295729637145996:24.219085693359375] [-4.1243257522583008:4.8427348136901855] [-0.10490956902503967:0.33222556114196777] [-0.11083488911390305:0.0975189208984375] [-2.9919905662536621:7.4552373886108398] [-2.4671847820281982:3.0754621028900146] [-3.3341634273529053:3.5238358974456787] [-8.5658531188964844:2.9641458988189697] [-9.9590988159179688:3.362802267074585] [-8.0010061264038086:5.6277675628662109] [-23.715078353881836:4.6509966850280762] [-28.753082275390625:6.6076583862304688] [0:25] [0:45] [-2:2] [-2:3] [-4.2944000597344711e-05:4.7579909733030945e-05] [0:0.0016159999649971724] [0:0.0046790000051259995] [0:0.00034152998705394566] [-0.77890002727508545:0.99000000953674316] [-65.629997253417969:0] [0:7.3309998512268066] [0:19] [-0.0034590000286698341:0.0011500000255182385] [0:5] [-0.094008602201938629:0.26975366473197937] [-0.089900888502597809:0.28140589594841003] [-0.11990600079298019:0.2605765163898468] [9.3665838241577148:98.030632019042969] [0.58250290155410767:3.3435266017913818] -1:74:8:93:1:19:61:25:23:18:97:51:37:68:72:107:33:4:70:0:30:2:32:34:48:16:90:36:87:96:42:6:5:105:22:14:84:24:35:76:38:80:64:21:98:43:53:17:104:13:66:47:9:31:57:100:50:59:55:108:81:75:58:3:69:78:92:89:46:103:86:44:63:56:27:102:29:54:77:20:12:85:39:88:41:67:109:94:99:60:91:15:45:82:62:101:83:10:65:28:106:95:7:40:49:71:79:26:52:11
tree_sizes=6045 6164 6141 6235 6176 6178 6199 6030 6072 6102 6134 6069

Tree=0
num_leaves=63
num_cat=2
split_feature=173 200 144 173 200 199 172 199 174 199 171 196 199 201 171 197 196 8 3 171 173 197 143 173 199 172 173 199 183 172 14 174 174 201 174 199 197 171 172 199 202 173 3 170 170 199 201 5 202 172 201 171 172 199 171 170 199 110 29 199 197 172
split_gain=4.26034e+06 5.16295e+06 2.55968e+06 1.8051e+06 1.09096e+06 1.63429e+06 885487 1.15678e+06 1.58235e+06 802866 752006 726236 1.24297e+06 713149 695240 806626 643344 617229 599214 541222 473452 694304 436099 415712 418422 373349 369741 338188 294129 271963 269161 247788 242810 240004 239420 234120 226862 203310 245492 219549 272120 201160 229373 200597 190870 206673 194252 181815 180375 172091 169296 162902 162390 157602 157283 156831 147364 143224 142715 194273 151887 137664
threshold=0.018742951564490799 26.129331588745121 -32.611351013183587 -0.052044548094272607 37.38286209106446 -0.06492013111710547 -0.98364162445068348 -0.062885938212275491 -0.036283012479543679 -0.018216993659734722 0.52558788657188427 2.5000000000000004 0.16256699711084369 1.218429744243622 2.6671428680419926 -0.025556057691574093 1.0000000180025095e-35 inf 645064.15625000012 1.0819866061210635 -0.042235914617776864 -0.018281651660799977 28.852499961853031 -0.039508141577243798 0.20794978737831118 1.3696627020835879 -0.03565725497901439 0.056978076696395881 inf -2.0841555595397945 -0.30476218461990351 0.0086651509627699869 -0.010837791487574576 1.2264270186424258 0.027251229621469978 -0.061965383589267724 0.011925504542887213 -0.13112504780292508 -1.2260556817054746 -0.05201697722077369 0 -0.058068947866559022 592110.43750000012 5.5000000000000009 18.500000000000004 0.0042779494542628535 1.218429744243622 50.115850448608406 1 -0.39523491263389582 1.3962470293045046 -0.025905420072376725 0.9399549961090089 0.070669822394847884 -0.98718750476837147 5.5000000000000009 -0.032632658258080476 0.99988225102424633 0.038070593029260642 0.065602369606494917 -0.0023749668616801496 1.5816240310668948
decision_type=8 8 8 8 8 10 10 10 10 10 2 2 10 10 2 10 2 8 2 2 8 10 10 10 10 10 10 8 8 8 8 10 10 10 10 8 10 2 8 10 9 10 2 2 2 10 10 8 9 8 10 2 10 10 2 2 8 8 8 10 10 10
left_child=2 31 13 10 5 48 9 8 18 29 22 12 16 -1 15 27 36 25 -8 26 21 -17 57 55 44 -18 -10 -9 32 54 50 -2 -13 43 -19 -30 -6 -31 39 -39 -41 42 -12 51 45 61 58 -27 -3 -34 -15 -24 -23 -11 -5 -22 -35 -4 -47 60 -60 -25
right_child=1 4 3 6 11 -7 7 14 19 53 41 28 -14 30 -16 20 17 34 -20 -21 23 52 33 24 -26 47 -28 -29 35 37 -32 -33 49 56 -36 -37 -38 38 -40 40 -42 -43 -44 -45 -46 46 -48 -49 -50 -51 -52 -53 -54 -55 -56 -57 -58 -59 59 -61 -62 -63
leaf_value=0.77845152709552046 1.8155523265773534 2.1195814305205189 0.59609077756706252 0.7598590015508071 0.55249216989949235 0.59251580099114221 -0.62180940017351716 0.4499397026375706 -0.0028862071023328384 0.31772795181455438 -0.39658837950400205 0.17400449449414518 0.31662038492013478 1.5237082786838489 0.67350743504487132 -0.0014500338875760854 1.2917131569772209 2.7121447508301402 0.073207516722395671 0.9532281749126249 -0.22130899819671168 0.55435787679605375 0.67243674307476886 0.40146038150207897 0.13511751667559657 0.69578185265320835 0.30220400742077452 0.75792618521046884 1.7984489938467956 0.43358719031544268 1.1083988449314852 2.4679157718660472 0.54821388393312764 1.2085711897389424 1.3183320807447847 0.74163166230382105 0.7372987923461749 0.46143058981034185 0.46316222703449894 1.2679008015569959 0.65627106612043318 0.41424769565130604 0.35009697036232057 0.88210308940223114 0.6784860822559251 0.33249643249012006 0.44550888054234233 0.9094072844780039 1.3962915875307189 0.41832036987742222 2.2279467365587915 0.20402724037437947 0.86544278291662635 0.0098823427001069053 0.45519769106055913 0.16512821768062286 0.79748413676187513 0.33244415908468139 0.23083814310256878 0.29258014123974718 -0.037088252520267151 0.24859654925989158
leaf_weight=4407 4326 1011 39395 12783 39650 12658 7803 21181 12921 77869 2377 6283 22028 1602 18557 4409 4177 582 5147 2725 4400 8751 16215 111103 26081 21454 42911 15389 669 195902 1569 2195 61101 4747 655 2418 28573 14792 74568 1959 24265 4266 1813 11960 4254 30720 15204 18592 7658 43762 1828 2096 8058 4392 6336 6511 4032 5926 9629 23212 11739 16979
leaf_count=4407 4326 1011 39395 12783 39650 12658 7803 21181 12921 77869 2377 6283 22028 1602 18557 4409 4177 582 5147 2725 4400 8751 16215 111103 26081 21454 42911 15389 669 195902 1569 2195 61101 4747 655 2418 28573 14792 74568 1959 24265 4266 1813 11960 4254 30720 15204 18592 7658 43762 1828 2096 8058 4392 6336 6511 4032 5926 9629 23212 11739 16979
internal_value=0.473228 0.644895 0.42155 0.413099 0.611474 0.954737 0.389457 0.337187 0.15457 0.441071 0.622082 0.582184 0.660378 1.24215 0.376031 0.358651 0.726987 0.872699 -0.345579 0.26518 0.329909 0.557005 0.667135 0.311364 0.324605 0.841883 0.231597 0.579544 0.489288 0.475851 1.65093 2.03517 0.475916 0.789598 1.97424 0.970697 0.629893 0.464616 0.517205 0.615457 0.702337 0.172556 -0.0735118 0.722842 0.346783 0.340327 0.282489 0.794962 1.48363 0.494006 1.89907 0.618818 0.703489 0.301291 0.658895 0.00928708 1.01977 0.561617 0.249574 0.192433 0.0836447 0.381196
internal_weight=1.20058e+06 277792 922783 913377 271271 21327 820550 407684 71507 412866 92827 249944 135711 9406 336177 317620 113683 45460 12950 58557 281050 21218 84371 259832 248921 44223 55832 36570 114233 330605 4999 6521 111146 39050 1237 3087 68223 311486 115584 41016 26224 8456 4190 30271 222840 218586 90504 40046 8669 104863 3430 18311 16809 82261 19119 10911 8779 45321 75300 44580 21368 128082
internal_count=1200575 277792 922783 913377 271271 21327 820550 407684 71507 412866 92827 249944 135711 9406 336177 317620 113683 45460 12950 58557 281050 21218 84371 259832 248921 44223 55832 36570 114233 330605 4999 6521 111146 39050 1237 3087 68223 311486 115584 41016 26224 8456 4190 30271 222840 218586 90504 40046 8669 104863 3430 18311 16809 82261 19119 10911 8779 45321 75300 44580 21368 128082
cat_boundaries=0 3 6
cat_threshold=16 64 536870912 2181038081 0 603979776
is_linear=0
shrinkage=1


Tree=1
num_leaves=63
num_cat=3
split_feature=173 200 144 173 198 170 41 172 199 174 198 7 199 197 171 171 3 197 15 171 173 197 174 143 183 201 143 199 173 174 199 183 201 172 198 202 174 171 172 16 198 202 199 197 199 170 170 171 5 202 197 199 172 199 171 201 201 170 171 173 172 197
split_gain=3.84511e+06 4.65955e+06 2.32879e+06 1.38897e+06 1.10584e+06 1.35878e+06 993762 826082 1.05859e+06 1.3602e+06 817539 1.23326e+06 724766 625815 687743 622478 540335 531052 417642 345448 340314 479845 340011 336734 361086 332377 321341 304660 302897 298231 252938 352250 273965 247376 241648 225395 223631 218493 213836 204118 178708 222108 176745 175348 164163 225133 167501 168333 172492 163160 160542 148524 147666 143564 143175 142584 137393 165352 148560 129509 126139 125462
threshold=0.018742951564490799 26.129331588745121 -26.949599266052243 -0.052044548094272607 -0.030111372470855709 3.5000000000000004 0.082117635756731047 -0.98364162445068348 -0.062885938212275491 -0.036283012479543679 0.079467266798019423 1.0000000180025095e-35 -0.014893822371959685 -0.025556057691574093 2.6671428680419926 0.52558788657188427 760107.84375000012 0.20679578930139544 0.16618594527244571 1.0819866061210635 -0.042235914617776864 -0.018281651660799977 -0.015511460136622189 18.500300407409672 9.5000000000000018 1.3962470293045046 27.218100547790531 0.14912171661853793 -0.039508141577243798 0.01682193856686354 0.039249556139111526 inf 0.85191935300827037 -2.0841555595397945 -0.026119591668248173 0 0.0086651509627699869 -0.13112504780292508 -1.2260556817054746 -0.059227038174867623 -0.032571187242865556 1 -0.033292546868324273 0.022347019053995613 0.0042779494542628535 18.500000000000004 2.5000000000000004 0.56194263696670543 38.979648590087898 2 0.037026284262537963 -0.061965383589267724 0.08421815931797029 -0.025219593197107312 -0.98718750476837147 0.74964570999145519 1.2264270186424258 5.5000000000000009 -0.025905420072376725 -0.016755510121583935 -1.0000000180025095e-35 0.013193953316658737
decision_type=8 8 8 8 8 2 2 10 8 10 8 10 10 10 2 2 2 10 10 2 10 10 10 10 8 10 10 10 8 8 8 8 10 8 10 9 10 2 8 10 10 9 10 10 10 2 2 2 8 9 10 10 8 10 2 10 10 2 2 8 10 10
left_child=2 36 6 15 5 49 50 12 9 16 11 30 33 27 18 26 -9 23 20 22 21 -15 -11 -12 -25 -8 -4 -10 -22 -26 31 42 -32 54 -27 -13 -2 53 40 -17 41 -39 61 -14 59 46 -46 48 -48 -3 -1 -33 -34 55 -5 -35 57 58 -28 -30 -23 -6
right_child=1 4 3 7 10 -7 25 8 13 19 17 35 43 14 -16 39 -18 -19 -20 -21 28 60 -24 24 29 34 56 -29 44 -31 32 51 52 37 -36 -37 -38 38 -40 -41 -42 -43 -44 -45 45 -47 47 -49 -50 -51 -52 -53 -54 -55 -56 -57 -58 -59 -60 -61 -62 -63
leaf_value=0.13365295732710658 1.2750100682318506 1.5646502386048908 0.07251593583640957 0.27082981612623525 -0.067107355048990555 0.066958624969413322 0.70185289277204321 -1.0085220088244407 -0.022334172535417245 -0.41502779660674033 0.16925749073346483 1.5506560628687609 -0.21216105756789189 -0.42006600413427775 0.18244251641384457 -0.66773509499170247 -0.32224948956454519 -0.31755980451202226 -0.29067475408200638 0.39011825450497439 -0.40919172408952886 0.07766796649944524 -0.14723300782668619 0.33590951209689601 2.4344323415949458 0.58329712652275523 0.18255046234158767 0.27040434262941065 -0.12422113192072311 0.72604914733779669 0.10009600693992614 1.3249345288972256 -0.41226566750550586 -0.13795604956409618 1.680502961970894 0.60596670703470368 1.8947583048214733 0.93777071212884988 -0.0096515025333109312 -0.1237359166202068 0.057146503626037008 0.2128217883604068 0.13354951096942422 -0.0048376833486178878 -0.1264549156401201 0.19798714943730672 -0.21019603251169752 -0.11559695946682376 -0.47313392522683495 0.87677157467478173 0.62524363937424443 0.4274265899858134 -0.10514106501747361 -0.16609804243226356 -0.021497930769118642 -0.010385626127722404 0.45927255382415666 0.3631353732000619 -0.25149771204425675 -0.018872583299391857 0.36442138335656565 0.092453852735093572
leaf_weight=9627 4326 1011 40858 12732 35546 8380 4396 8417 21104 17122 54381 714 58843 3726 17844 2456 4351 4357 38487 2343 9355 8170 38518 34459 349 668 16014 15354 69038 953 17163 605 4328 25518 2019 5720 2195 1135 74419 5788 29840 14125 33974 12337 51869 4017 12610 12522 12343 7658 2007 1936 40883 21171 6242 154628 7905 12867 2248 50522 7228 18854
leaf_count=9627 4326 1011 40858 12732 35546 8380 4396 8417 21104 17122 54381 714 58843 3726 17844 2456 4351 4357 38487 2343 9355 8170 38518 34459 349 668 16014 15354 69038 953 17163 605 4328 25518 2019 5720 2195 1135 74419 5788 29840 14125 33974 12337 51869 4017 12610 12522 12343 7658 2007 1936 40883 21171 6242 154628 7905 12867 2248 50522 7228 18854
internal_value=-0.000198288 0.162889 -0.0492936 -0.0607225 0.131139 0.520964 0.502741 -0.0810913 -0.131776 -0.307475 0.104996 0.0360276 -0.0311529 -0.0945786 -0.118522 0.127845 -0.774663 0.221566 -0.13771 -0.204597 -0.113322 0.089072 -0.229642 0.247625 0.366795 0.969664 0.170529 0.100951 -0.130735 1.18414 0.0075632 0.0607624 -0.0699788 -0.000764028 1.40777 0.714177 1.48365 -0.0111386 0.0424125 -0.285807 0.128323 0.267502 0.0440735 -0.176228 -0.118501 -0.168184 -0.184648 -0.265191 -0.34026 0.959828 0.218463 0.641165 -0.134543 -0.0429311 0.174661 -0.0284563 0.273122 0.225849 0.129119 -0.0797045 0.212275 -0.0118063
internal_weight=1.20058e+06 277792 922783 904066 271271 17049 18717 815930 404940 70751 254222 159723 410990 334189 297731 88136 12768 94499 279887 57983 241400 19124 55640 90142 35761 7083 79892 36458 222276 1302 153289 90915 62374 339810 2687 6434 6521 320836 119519 8244 45100 15260 88374 71180 212921 93361 89344 37475 24953 8669 11634 2541 45211 201317 18974 180146 39034 31129 18262 119560 15398 54400
internal_count=1200575 277792 922783 904066 271271 17049 18717 815930 404940 70751 254222 159723 410990 334189 297731 88136 12768 94499 279887 57983 241400 19124 55640 90142 35761 7083 79892 36458 222276 1302 153289 90915 62374 339810 2687 6434 6521 320836 119519 8244 45100 15260 88374 71180 212921 93361 89344 37475 24953 8669 11634 2541 45211 201317 18974 180146 39034 31129 18262 119560 15398 54400
cat_boundaries=0 3 6 9
cat_threshold=33554433 0 545259520 16 64 536870912 2181038081 0 603979776
is_linear=0
shrinkage=0.05


Tree=2
num_leaves=63
num_cat=0
split_feature=173 200 13 173 201 198 172 198 201 172 199 174 199 171 171 200 3 201 174 171 174 198 173 143 184 174 143 199 199 171 29 199 184 201 201 172 198 200 171 172 201 16 198 199 173 171 198 171 174 198 41 198 172 199 172 5 171 199 199 29 199 201
split_gain=3.47048e+06 4.2052e+06 2.08565e+06 1.1752e+06 1.06674e+06 998361 1.22671e+06 737773 1.11358e+06 730522 946635 1.22323e+06 660356 616273 563416 514226 485885 479275 404001 350767 332786 323344 313122 303904 325762 271640 257070 251505 284602 440461 271155 228277 317910 247254 227040 224993 210943 201828 197529 197780 194154 179839 164107 159512 155135 153563 187911 151323 140273 139530 137302 136877 135136 134046 133269 131786 128303 128071 126871 126833 125145 126458
threshold=0.018742951564490799 26.129331588745121 -0.1655652970075607 -0.052044548094272607 1.218429744243622 -0.030111372470855709 -1.3236360549926756 0.079467266798019423 1.7563159465789797 -0.98364162445068348 -0.062885938212275491 -0.036283012479543679 -0.014893822371959685 2.6671428680419926 0.52558788657188427 38.123041152954109 645064.15625000012 2.8799325227737431 -0.038657013326883309 1.0819866061210635 0.026205940172076229 -0.026119591668248173 -0.037178810685873025 18.500300407409672 21.500000000000004 0.01682193856686354 26.505949974060062 0.20794978737831118 0.065602369606494917 -0.13470794260501859 0.040965212509036071 0.039249556139111526 32.500000000000007 0.82397544384002697 0.74433961510658275 -2.0841555595397945 -0.016376619227230545 21.803144454956058 -0.13112504780292508 -1.2260556817054746 1.3962470293045046 -0.059227038174867623 -0.032571187242865556 -0.033292546868324273 -0.037852523848414414 -1.7175631523132322 0.004798540612682701 1.0000000180025095e-35 0.00040645722765475517 -0.041652556508779519 0.06853880733251573 -0.014600004535168408 0.78458887338638317 -0.061965383589267724 0.08421815931797029 98.916049957275405 -0.98718750476837147 0.070669822394847884 -0.0075788607355207196 0.033542392775416381 -0.025219593197107312 0.74964570999145519
decision_type=8 8 8 10 10 8 10 8 10 10 10 10 10 2 2 10 2 10 10 2 8 10 10 10 8 8 10 10 8 2 8 8 8 8 10 8 10 10 2 8 10 10 10 10 10 2 8 2 10 10 2 10 10 10 8 8 2 10 10 8 10 10
left_child=2 37 4 14 -1 6 -3 8 31 12 11 16 35 15 26 34 -11 23 -17 22 27 49 -13 -9 -25 -26 -4 28 30 -30 -20 32 43 -33 -12 56 44 -2 60 42 -23 -16 -40 -7 -32 -38 58 -8 -36 -6 -42 -28 -31 -34 -35 -29 -5 -14 -47 -10 61 -37
right_child=1 5 3 9 21 7 47 17 59 10 13 19 57 -15 41 18 -18 -19 20 -21 -22 40 -24 24 25 -27 51 55 29 52 36 33 53 54 48 38 45 -39 39 -41 50 -43 -44 -45 -46 46 -48 -49 -50 -51 -52 -53 -54 -55 -56 -57 -58 -59 -60 -61 -62 -63
leaf_value=0.099130306600354712 1.8000246846340167 0.063610734047511996 0.063689445866252456 0.25801249259464587 0.58478953663320921 -0.011216008375960242 0.55577819581316434 0.16079463449878992 0.45031470288612196 -0.98594162772752925 0.30125537872409264 -0.4620919227187405 -0.15125572211593441 0.18761035638916401 -0.6169996572211216 0.14033435097974675 -0.35616631124699055 -0.30168217086907045 -0.1299318194895672 0.38540043645399646 0.15140860246968532 0.79465679857642157 -0.16102525465282058 0.31920177329948585 2.3213791751289667 0.68783920518070596 0.20569631236556979 -0.22249799161918726 0.2442201819652326 -0.25242214408214197 0.31055348111890096 0.095091236575503432 1.2586987520358599 -0.39165286583295661 0.064786758524958174 -0.13011676631249039 0.10817368279302896 1.211261016799968 0.25604373527675778 -0.0096819727869716446 0.53605109942124429 -0.11807537075037695 0.054912840384435384 0.12687205740960608 -0.16569480873501236 -0.30182917827557254 -0.24563201256159151 1.0345111244128125 -0.095030433197959438 -0.45705677774132081 1.5170310388240527 0.46487094050616229 -0.055728024017321902 0.40605636579224841 -0.099884022593474356 -0.45526897723252918 -0.018450267384006666 -0.43148725096738449 -0.57422398901523464 0.89451055343884078 -0.15573831223661716 -0.0099238076743157939
leaf_weight=9372 2195 8380 38697 12732 3213 54400 2219 54381 3127 7636 6593 10683 66128 19023 2626 12500 5114 4357 102010 2511 8758 2866 45079 34466 348 947 35425 16366 10649 12677 2078 17163 605 4328 29667 25504 1984 4326 15337 73845 417 5785 29939 33974 9652 7187 22225 6450 25558 357 2473 5950 28063 1936 40883 9676 6260 4345 10551 3307 21087 154185
leaf_count=9372 2195 8380 38697 12732 3213 54400 2219 54381 3127 7636 6593 10683 66128 19023 2626 12500 5114 4357 102010 2511 8758 2866 45079 34466 348 947 35425 16366 10649 12677 2078 17163 605 4328 29667 25504 1984 4326 15337 73845 417 5785 29939 33974 9652 7187 22225 6450 25558 357 2473 5950 28063 1936 40883 9676 6260 4345 10551 3307 21087 154185
internal_value=-0.000185916 0.154753 -0.0468283 -0.0576385 0.475865 0.124591 0.494988 0.0997503 0.0342331 -0.0764149 -0.123917 -0.289735 -0.0292754 -0.0887844 0.115435 -0.105413 -0.733345 0.210488 -0.136846 -0.192673 -0.151171 0.854452 -0.218705 0.235244 0.348456 1.12696 0.156327 -0.162539 -0.144121 -0.0420937 -0.177798 0.00718509 0.0577244 -0.0664799 0.0239322 -0.000316048 -0.268764 1.40947 -0.0102428 0.0407656 1.08631 -0.273851 0.123045 0.0418698 -0.0813238 -0.321179 -0.342495 0.911978 -0.00917621 0.480594 1.37551 0.242969 -0.116934 0.60911 -0.127816 -0.308987 0.166887 -0.168534 -0.463859 0.678637 -0.0405063 -0.0269834
internal_weight=1.20058e+06 277792 922783 904085 18698 271271 17049 254222 159723 815602 406240 71023 409362 335217 88483 316194 12750 94499 254376 58273 241876 9326 55762 90142 35761 1295 80072 233118 207076 51389 155687 153289 90915 62374 61818 338889 53677 6521 319897 119121 5756 8411 45276 88374 11730 41947 39963 8669 55225 3570 2890 41375 40740 2541 45211 26042 18992 70473 17738 6434 200776 179689
internal_count=1200575 277792 922783 904085 18698 271271 17049 254222 159723 815602 406240 71023 409362 335217 88483 316194 12750 94499 254376 58273 241876 9326 55762 90142 35761 1295 80072 233118 207076 51389 155687 153289 90915 62374 61818 338889 53677 6521 319897 119121 5756 8411 45276 88374 11730 41947 39963 8669 55225 3570 2890 41375 40740 2541 45211 26042 18992 70473 17738 6434 200776 179689
is_linear=0
shrinkage=0.05


Tree=3
num_leaves=63
num_cat=6
split_feature=173 198 172 144 173 198 7 172 199 174 199 171 12 171 197 3 197 202 171 15 173 197 12 174 172 8 173 198 199 174 174 202 172 172 197 166 173 3 172 202 197 3 198 197 199 199 197 171 199 199 29 172 197 172 151 171 202 202 202 199 198 172
split_gain=3.13212e+06 3.27224e+06 2.34973e+06 1.94041e+06 1.32874e+06 665840 1.00501e+06 652096 853237 1.17092e+06 597703 554715 523244 508420 596034 455563 432547 400298 397262 364242 321610 436498 298413 284553 282560 359054 271798 257689 249679 208268 214909 202853 200145 198882 239174 168687 163029 198352 153421 151289 145133 142129 141814 142327 139866 136362 133544 132996 153444 131005 170941 130457 124739 122076 121967 116713 115065 114449 112046 107766 109197 106759
threshold=0.018742951564490799 -0.030111372470855709 -1.177195608615875 -32.611351013183587 -0.052044548094272607 0.079467266798019423 1.0000000180025095e-35 -0.98364162445068348 -0.062885938212275491 -0.036283012479543679 -0.018216993659734722 0.52558788657188427 -0.15024470537900922 2.6671428680419926 -0.025556057691574093 821179.78125000012 0.20679578930139544 0 1.0819866061210635 0.17613992840051654 -0.042235914617776864 -0.018281651660799977 -0.061622658744454377 -0.015511460136622189 2.4260883331298833 inf -0.039508141577243798 -0.055410517379641526 0.14912171661853793 0.072099827229976668 -0.010837791487574576 1 -2.0841555595397945 -1.1326277256011961 -0.0050935042090713969 5.0290501117706308 -0.058068947866559022 467587.07812500006 -1.3236360549926756 2 0.016163355670869354 153983.89062500003 -0.026119591668248173 -0.038994742557406419 0.0042779494542628535 -0.06492013111710547 0.022347019053995613 -0.13112504780292508 -0.056133177131414407 0.065602369606494917 0.040965212509036071 0.9399549961090089 0.037026284262537963 1.816492021083832 4.4754047393798837 -0.036167567595839493 3 4 5 -0.05201697722077369 -0.0085036065429449064 -1.1160153150558469
decision_type=8 8 10 8 8 8 10 10 8 10 10 2 10 2 10 2 10 9 2 10 10 8 8 10 8 8 10 10 10 8 10 9 8 10 10 8 10 2 10 9 10 2 10 10 8 8 10 2 10 10 8 10 10 10 8 2 9 9 9 8 10 8
left_child=3 2 38 12 11 6 29 10 9 15 32 22 45 14 28 -9 24 -4 23 20 21 -16 42 -11 25 54 56 -19 -10 30 -3 -8 55 34 -24 -32 37 -13 -2 59 -37 -27 43 -5 53 -1 -12 -41 -49 50 -46 -23 -14 -28 -7 -6 -22 -26 -35 -34 -61 -44
right_child=1 5 17 4 7 16 31 8 13 18 46 36 52 -15 19 -17 -18 27 -20 -21 26 51 33 -25 57 41 44 -29 -30 -31 35 -33 39 58 -36 40 -38 -39 -40 47 -42 -43 61 -45 49 -47 -48 48 -50 -51 -52 -53 -54 -55 -56 -57 -58 -59 -60 60 -62 -63
leaf_value=1.2486061627319089 0.060430235789367417 -0.26069385368680342 1.9324821335051028 0.40490459527710981 0.22543570843240396 0.56276316593695686 1.1908991562086151 -0.90508509208436316 -0.019965759358888127 -0.37628597410286935 -0.175234875730824 -0.84955609435129764 0.19747651592565479 0.17076425975156376 -0.38951809862242115 -0.26655697985345639 -0.28659840952390297 1.5843051781533157 0.41080820318053091 -0.27183594606154921 0.071563097349963453 0.068175814336971619 0.17012547839332842 -0.13197959085692604 0.23626429153219899 2.1375553822039639 -0.059489880785752458 0.95161619575521217 0.24466693092246494 -0.22845227804325893 0.7578969501770878 0.49701192283857965 -0.01287085811165993 0.26533173659962139 -0.12355020275500257 0.0079166168387167137 -0.041043466774850573 -0.15977050227302708 0.52799053083306036 -0.051953047338589887 0.14876958711302649 0.83768926992266168 1.1221369422048748 0.093642998048004841 -0.13354148179700279 0.45769285760641626 0.0030317276756193249 -0.040565112956445687 0.087189328735897298 -0.10277233391880086 -0.34434827539870327 0.35392340206071027 0.71032604945927169 -0.28960252567315092 0.27468883500748803 -0.071206053309770367 -0.44714048660754896 0.094202160729363771 0.09051519035021699 0.17622812570527641 -0.035852713691227785 0.47598189090692511
leaf_weight=3225 8380 6456 1511 8410 14850 4243 1345 8873 21181 17246 69897 1946 3802 18557 3805 4077 4357 1937 2725 35943 1232 8263 13055 38586 25401 338 114483 9523 15389 8862 801 5089 25031 21447 14784 115439 4266 2244 2219 159438 21731 557 793 6520 22974 656 12364 47219 46798 55748 16540 7732 1723 6069 27417 4269 8261 32186 16064 24983 8017 3298
leaf_count=3225 8380 6456 1511 8410 14850 4243 1345 8873 21181 17246 69897 1946 3802 18557 3805 4077 4357 1937 2725 35943 1232 8263 13055 38586 25401 338 114483 9523 15389 8862 801 5089 25031 21447 14784 115439 4266 2244 2219 159438 21731 557 793 6520 22974 656 12364 47219 46798 55748 16540 7732 1723 6069 27417 4269 8261 32186 16064 24983 8017 3298
internal_value=-0.000176574 0.147015 0.710599 -0.0444868 -0.0518446 0.0947629 0.0325216 -0.0721285 -0.116984 -0.273822 -0.0278359 0.127456 0.669988 -0.0836234 -0.0984861 -0.704064 0.199964 1.16188 -0.178673 -0.123193 -0.101396 0.0918056 0.166151 -0.207444 0.223482 0.341219 -0.118374 1.05765 0.0913944 0.00682588 0.0212627 0.644706 0.00217302 0.115419 0.0141679 0.0344563 -0.258626 -0.480148 0.158323 -0.00746529 0.0302312 1.32878 0.340447 0.268977 -0.106857 1.11494 -0.148441 -0.0241392 0.023026 -0.152137 -0.221783 0.206308 0.357422 -0.0710748 0.313298 0.1592 -0.380218 0.156922 0.190562 0.0653521 0.124705 0.601258
internal_weight=1.20058e+06 277792 23570 922783 913377 254222 159723 820550 407684 71507 412866 92827 9406 336177 317620 12950 94499 12971 58557 281050 245107 19800 84371 55832 90142 32555 225307 11460 36570 153289 144427 6434 330605 65350 27839 137971 8456 4190 10599 311486 137170 895 19021 14930 215814 3881 82261 253455 94017 95262 39514 15995 5525 120552 31660 19119 9493 57587 37511 58031 33000 4091
internal_count=1200575 277792 23570 922783 913377 254222 159723 820550 407684 71507 412866 92827 9406 336177 317620 12950 94499 12971 58557 281050 245107 19800 84371 55832 90142 32555 225307 11460 36570 153289 144427 6434 330605 65350 27839 137971 8456 4190 10599 311486 137170 895 19021 14930 215814 3881 82261 253455 94017 95262 39514 15995 5525 120552 31660 19119 9493 57587 37511 58031 33000 4091
cat_boundaries=0 3 7 11 15 19 23
cat_threshold=2181038081 0 603979776 33554705 0 562036736 2 67240209 269488320 2684354688 8194 335691816 3313531136 1477316737 14888 33685779 539510293 2711748880 450 1086169491 539771650 581960976 6
is_linear=0
shrinkage=0.05


Tree=4
num_leaves=63
num_cat=4
split_feature=143 13 174 197 171 174 171 170 199 196 172 199 172 199 200 3 174 171 200 172 197 199 197 172 172 199 170 174 17 202 172 202 170 172 171 171 199 172 166 183 137 171 14 172 16 171 174 200 3 196 199 170 202 196 171 200 3 174 170 5 202 172
split_gain=1.82218e+06 1.23077e+06 994020 625350 619771 1.13552e+06 1.34552e+06 523455 497486 652922 867111 1.38369e+06 457935 991291 528472 478227 547767 431283 368010 454208 334946 334706 332752 352179 584617 324622 273023 260080 254232 243432 237598 196297 194985 192307 294156 352381 187159 189125 184668 184041 172028 162638 161378 157358 151438 148457 201519 147267 192722 144149 139671 132959 132317 127012 125331 122002 119255 116668 113409 150820 111090 110428
threshold=37.103349685668952 -0.2084863483905792 0.0027892134385183458 -0.023726936429738995 -2.8166910409927364 0.01022612862288952 -3.2193186283111568 9.5000000000000018 0.22535358369350436 2.5000000000000004 -0.80639457702636708 -0.021920450031757351 -0.72326812148094166 -0.061965383589267724 40.321205139160163 568254.34375000012 -0.036283012479543679 0.9097048044204713 41.30424880981446 -0.88817018270492543 0.20679578930139544 -0.013342568185180424 -0.019001549109816548 -1.3236360549926756 -1.042633533477783 0.19866202026605609 4.5000000000000009 -0.029600340873003003 -0.10144592821598052 0 0.9399549961090089 1 4.5000000000000009 -0.50038452446460713 0.077639728784561171 0.098615530878305449 -0.0079952976666390878 0.24556428939104083 95.890800476074233 17.500000000000004 0.83830171823501598 -0.19269718974828717 -0.30476218461990351 1.8478806614875796 0.16142141073942187 1.0000000180025095e-35 -0.026672869920730587 45.157508850097663 141630.24218750003 2.5000000000000004 -0.087685015052556978 3.5000000000000004 2 1.5000000000000002 -0.46802453696727747 67.803318023681655 306769.29687500006 0.041853222995996482 2.5000000000000004 54.792148590087898 3 -1.9675106406211851
decision_type=8 8 8 10 2 10 2 2 10 2 10 8 10 8 10 2 10 2 10 10 10 10 10 10 10 10 2 8 8 9 10 9 2 8 2 2 10 8 8 8 10 2 8 10 10 2 10 10 2 2 10 2 9 2 2 10 2 10 2 8 9 10
left_child=2 27 3 18 5 6 -4 12 9 10 60 29 21 15 -15 16 56 36 26 -20 39 45 23 -11 51 28 50 42 -3 -12 53 -8 -7 34 47 -36 43 -38 44 41 -41 -13 -2 -16 -30 -5 -47 61 -49 -40 -1 -25 -17 -9 -51 -19 -14 -43 -39 -60 -6 -24
right_child=1 25 4 7 8 32 31 30 -10 22 11 20 13 14 17 52 -18 55 19 -21 -22 -23 33 24 -26 -27 -28 -29 38 -31 -32 -33 -34 -35 35 -37 37 58 49 40 -42 57 -44 -45 -46 46 -48 48 -50 54 -52 -53 -54 -55 -56 -57 -58 -59 59 -61 -62 -63
leaf_value=0.4316919236367886 1.1390210493484134 0.29926043040909917 0.20277388178499889 -0.047401158912087918 0.075868693379029212 0.50058600199383052 2.3304595517809337 0.18664469910776027 -0.22317463718994657 -0.037463053437461917 1.7027333829945031 0.26894286862164174 -1.076202123663516 0.051719021877621021 -0.063403563227308654 -0.33825280170460531 -0.31683479528627723 -0.027012808025118875 0.10265187848635732 -0.28758552342629823 -0.44590460046470404 -0.16266288835002116 0.1569279341456371 0.50250566034094157 0.13011824331606678 -0.35119300173439749 -0.032858414302317646 0.0083199648455498498 0.19170302557856889 0.75308728157558413 0.24117497345277703 1.225394847357659 -0.018367837800294277 -0.064786899772084655 0.78456880340439461 0.11059072680271294 -0.35771908246176287 -0.14123576596955167 0.13566530131947122 0.2165657478808618 1.4600389096120887 0.17793033932592531 0.61124322944418763 -0.51941540872447522 1.1052563555817787 -0.072920344669620815 0.14482465930294866 1.2373846693323556 0.054350885898329787 0.094971257226707184 0.16499610573281354 1.0634247338879248 -0.066556917448373415 -0.039861290979362106 -0.10771469833555508 0.25493326609939532 -0.6999770707205073 -0.0038465548870737208 -0.17185946783123096 -0.42448957441841606 -0.076401870808486039 -0.11508506636376632
leaf_weight=5735 3734 23224 6211 109730 17715 2004 478 7449 20779 20651 749 23801 3855 39743 30231 9903 9408 26372 15465 14399 2220 52071 4140 2153 19796 3318 17646 866 38167 7638 13076 3757 18691 171440 2101 25197 22537 42740 33702 577 537 20746 2367 2018 459 17327 27474 350 20611 14170 34095 2075 8210 36589 16517 4490 4646 15364 14274 10080 36938 37769
leaf_count=5735 3734 23224 6211 109730 17715 2004 478 7449 20779 20651 749 23801 3855 39743 30231 9903 9408 26372 15465 14399 2220 52071 4140 2153 19796 3318 17646 866 38167 7638 13076 3757 18691 171440 2101 25197 22537 42740 33702 577 537 20746 2367 2018 459 17327 27474 350 20611 14170 34095 2075 8210 36589 16517 4490 4646 15364 14274 10080 36938 37769
internal_value=-0.000166052 0.171802 -0.0222306 -0.0664158 0.0306255 0.246396 0.671365 -0.0882938 0.0158039 0.0272836 0.12295 0.237392 -0.106975 -0.155749 -0.110698 -0.396482 -0.579697 -0.152958 0.056882 -0.0855022 0.157366 -0.0530292 -0.012161 0.113953 0.244109 0.136988 0.130864 0.81918 0.149819 0.840843 0.054023 1.35857 0.031887 -0.0336975 0.0254138 0.162467 -0.195236 -0.232402 0.116129 0.179313 0.81606 0.167471 0.934274 -0.0919404 0.202562 -0.0160868 0.0606107 -0.0340942 0.0741108 0.0642783 0.203398 0.777811 -0.215327 -0.00154749 -0.0141225 0.014007 -0.870597 0.100588 -0.190307 -0.276423 -0.0270455 -0.0882137
internal_weight=1.20058e+06 136524 1.06405e+06 579563 484488 31141 10446 492223 453347 432568 126285 71632 435109 228507 192485 36022 17909 152742 87340 29864 63245 206602 306283 44675 24024 129557 57476 6967 126239 8387 57114 4235 20695 261608 90168 27298 121880 89631 103015 61025 1114 59911 6101 32249 38626 154531 44801 62870 20961 64389 39830 4228 18113 44038 30687 30862 8501 36110 67094 24354 54653 41909
internal_count=1200575 136524 1064051 579563 484488 31141 10446 492223 453347 432568 126285 71632 435109 228507 192485 36022 17909 152742 87340 29864 63245 206602 306283 44675 24024 129557 57476 6967 126239 8387 57114 4235 20695 261608 90168 27298 121880 89631 103015 61025 1114 59911 6101 32249 38626 154531 44801 62870 20961 64389 39830 4228 18113 44038 30687 30862 8501 36110 67094 24354 54653 41909
cat_boundaries=0 3 6 10 14
cat_threshold=33554432 0 536870912 33554433 0 603979776 1116477715 808215620 583599456 2 370278673 940585562 3976726688 10
is_linear=0
shrinkage=0.05


Tree=5
num_leaves=63
num_cat=6
split_feature=173 200 144 173 198 170 122 198 7 197 199 170 200 174 171 197 171 173 9 183 174 199 33 110 174 170 15 5 199 202 202 199 184 200 142 171 198 174 199 173 197 199 197 199 173 199 202 174 199 9 202 199 202 197 174 173 202 171 197 170 171 199
split_gain=2.64035e+06 3.13131e+06 1.60062e+06 940183 734932 903459 675987 531462 838479 476232 527218 654449 553375 1.34711e+06 401783 361438 338068 307545 291835 250194 374080 248667 224246 224131 218259 224931 205690 199886 199183 195594 188494 176157 268164 202911 171694 167912 158708 154905 278670 153408 151376 156210 150378 143577 140781 139999 131173 131163 128502 154535 135487 152938 127167 124221 122067 120855 116419 116086 110535 107848 103293 100136
threshold=0.018742951564490799 26.129331588745121 -26.949599266052243 -0.052044548094272607 -0.030111372470855709 3.5000000000000004 0.082076694816350951 0.079467266798019423 1.0000000180025095e-35 -0.023726936429738995 -0.0079952976666390878 11.500000000000002 52.406475067138679 -0.041304735466837876 0.52558788657188427 0.20679578930139544 1.74983286857605 -0.034815473482012742 inf 16.500000000000004 0.01682193856686354 -0.091701023280620561 -8.9358034133911115 0.86207306385040294 0.026205940172076229 1.5000000000000002 -0.3766279518604278 82.724048614501967 0.14912171661853793 0 1 0.039249556139111526 32.500000000000007 45.680889129638679 31.755700111389164 -1.182545483112335 -0.014600004535168408 -0.026672869920730587 -0.038528708741068833 -0.039508141577243798 -0.029445413500070568 -0.016072562895715233 0.00032680854201316839 -0.03609116002917289 -0.058068947866559022 -0.027240621857345101 2 0.03480824641883374 -0.029393534176051613 inf 3 -0.048649067059159272 4 0.037026284262537963 0.0086651509627699869 -0.0052214704919606439 5 -2.4186061620712276 0.0072305807843804368 3.5000000000000004 0.29152771830558782 0.065602369606494917
decision_type=8 8 8 8 8 2 2 8 10 8 10 2 10 8 2 10 2 10 8 8 8 8 10 8 10 2 8 8 10 9 9 8 8 10 10 2 10 8 10 10 10 10 10 8 10 10 9 10 10 8 9 8 9 10 10 10 9 2 8 2 2 10
left_child=2 30 6 14 5 56 53 8 31 17 12 16 13 22 23 19 24 21 46 34 -21 -5 -11 36 25 55 -8 -27 45 -10 -2 32 43 -33 -9 -29 40 38 39 -15 59 -42 -35 58 -16 47 -14 -19 50 -50 51 -39 -41 -1 -32 -12 -3 -28 -6 -4 -37 -22
right_child=1 4 3 9 7 -7 26 15 29 10 11 -13 18 37 44 -17 -18 28 -20 20 61 -23 -24 -25 -26 27 57 35 -30 -31 54 33 -34 42 -36 60 -38 48 -40 52 41 -43 -44 -45 -46 -47 -48 -49 49 -51 -52 -53 -54 -55 -56 -57 -58 -59 -60 -61 -62 -63
leaf_value=0.10654484484254212 1.8172613072144035 1.2851649101596527 0.23932894490328593 -0.35458141712828589 -0.072619104053642206 0.05557558755485284 1.2242101649902681 0.1296668452451761 1.3762972460605112 -0.81425026039459447 -0.21441941375368662 0.20655311719941835 0.28715313342809956 -0.040469242558463965 -0.44103125137739507 -0.26108318826030485 -0.0012210182182835572 0.089596939201878181 -0.015883134642036525 2.2239033850803613 0.12195711478215739 0.0082361210445647589 -0.39244405384433367 -0.09170612437608322 0.16342225503325164 -0.19707823055696136 1.1333169695453842 -0.041393039083359943 0.22787096971013227 0.49089986330315205 0.91858910105439551 0.14073619082803526 0.56115875551805317 0.0052068471235472624 0.27056238443915409 -0.48017750384618313 0.38077567139511947 -0.038769355841789303 -0.018613658471764414 -0.50297737771640783 -0.051578221152760589 0.15412389048537836 -0.16894456380194975 0.1197163222885882 -0.029278635558306537 -0.10757797198344686 0.089578931938025214 -0.11771569593709036 -0.16958454555329114 -0.01053639640064454 -0.050882646053626884 0.13109885929655604 -0.16869108915467618 0.54198088791404153 1.4216010731212789 -0.094738952529298523 0.71223486559823357 0.51795394507453418 0.071604421527579232 0.85348996413208433 -0.29275740276750589 0.88446336900561284
leaf_weight=9618 1136 1040 17595 8655 31319 8360 2031 49681 700 5707 34074 12549 15638 4158 3961 4382 27519 58578 42423 354 1022 10394 7036 9246 4296 60789 937 3907 15428 5790 3523 10831 2528 21026 38285 15321 7934 29520 17200 8449 13083 31333 30199 33853 4362 14729 18208 8772 41913 24028 228358 24042 4339 1974 1835 55375 7693 4211 23072 745 14135 744
leaf_count=9618 1136 1040 17595 8655 31319 8360 2031 49681 700 5707 34074 12549 15638 4158 3961 4382 27519 58578 42423 354 1022 10394 7036 9246 4296 60789 937 3907 15428 5790 3523 10831 2528 21026 38285 15321 7934 29520 17200 8449 13083 31333 30199 33853 4362 14729 18208 8772 41913 24028 228358 24042 4339 1974 1835 55375 7693 4211 23072 745 14135 744
internal_value=0.000510511 0.135776 -0.0401575 -0.0496488 0.109764 0.427108 0.416831 0.0883904 0.032674 -0.0664251 -0.0820275 -0.144446 -0.0518177 -0.0756395 0.10537 0.182355 -0.164894 0.0271419 0.0714778 0.203925 0.740661 -0.156612 -0.581357 0.139793 -0.188865 -0.197108 0.798107 -0.251051 0.0630404 0.589295 1.22077 0.00903615 0.053421 -0.0558874 0.190988 -0.34939 0.170073 -0.0587696 -0.160394 -0.304299 0.143434 0.093533 -0.0974618 0.0388748 -0.225239 0.0320577 0.180977 0.0625953 -0.048794 -0.11163 -0.0340967 0.0374712 -0.390081 0.1807 1.08885 -0.140329 0.782766 0.629978 -0.0114411 0.264282 -0.390242 0.443229
internal_weight=1.19994e+06 277373 922570 903799 270879 17093 18771 253786 159318 815540 698984 227965 471019 394750 88259 94468 215416 116556 76269 90086 2120 19049 12743 79936 187897 183601 7179 94152 97507 6490 6494 152828 90772 62056 87966 33363 70690 382007 34146 16946 62756 44416 51225 88244 8323 82079 33846 67350 347861 65941 281920 53562 12788 11592 5358 89449 8733 5148 54391 18340 29456 1766
internal_count=1199943 277373 922570 903799 270879 17093 18771 253786 159318 815540 698984 227965 471019 394750 88259 94468 215416 116556 76269 90086 2120 19049 12743 79936 187897 183601 7179 94152 97507 6490 6494 152828 90772 62056 87966 33363 70690 382007 34146 16946 62756 44416 51225 88244 8323 82079 33846 67350 347861 65941 281920 53562 12788 11592 5358 89449 8733 5148 54391 18340 29456 1766
cat_boundaries=0 3 7 11 15 19 22
cat_threshold=33554433 0 553648128 2181038097 0 603980032 2 2181207315 671876674 2694841600 3 131345 4160 2751496320 2 1116471571 539771911 2692810064 6426 2181038081 0 603979776
is_linear=0
shrinkage=0.05


Tree=6
num_leaves=63
num_cat=3
split_feature=143 13 198 7 198 172 201 172 201 5 15 196 198 152 187 108 202 196 201 198 198 201 201 202 172 198 202 201 201 201 172 172 172 198 201 201 34 29 201 172 172 201 172 196 172 172 196 201 201 5 3 172 172 172 196 201 172 201 201 198 198 198
split_gain=1.52937e+06 1.00216e+06 827479 854292 821940 433970 545909 351213 281902 270734 252786 246644 246383 227157 203123 184988 182818 172355 177690 248022 165522 155901 149411 143402 132068 128995 125438 122907 122266 418618 200405 752663 116547 188145 120672 141781 153759 115723 115191 109846 203556 109411 107282 138620 184816 135304 143421 118905 228552 106810 103571 103083 100232 97382.4 97127.9 95811.6 259496 91153.6 84395.8 94299.8 83483.5 83109.3
threshold=37.103349685668952 -0.2084863483905792 0.079467266798019423 1.0000000180025095e-35 -0.049435975030064576 -0.15906527638435361 0.7748752534389497 2.4260883331298833 1.218429744243622 26.514149665832523 -0.19493091851472852 1.5000000000000002 0.097643051296472563 -0.053008608520030968 1.8737924847300749e-06 0.018807585351169113 0 1.5000000000000002 0.86566978693008434 0.0035093316109851007 -0.049435975030064576 2.8799325227737431 1.5715262889862063 1 0.20018943399190905 -0.026119591668248173 2 0.86861076951026928 0.87851688265800487 0.86241498589515697 -1.177195608615875 -1.0315301418304441 0.9399549961090089 -0.018954178318381306 0.91164898872375499 1.4296665787696841 -6.1477379798889151 0.036842172965407378 1.3962470293045046 1.0000000180025095e-35 -0.91280293464660633 1.1062579154968264 -1.4509904980659483 3.5000000000000004 -1.2764421105384824 -0.27035948634147638 2.5000000000000004 1.0890921950340273 1.0868036150932314 50.115850448608406 286151.04687500006 0.24556428939104083 -2.2277754545211788 1.3954387307167055 2.5000000000000004 1.1617913842201235 -0.50038452446460713 0.74964570999145519 1.1496678590774538 0.016414499841630462 0.012463785242289306 -0.029388799332082268
decision_type=8 8 10 10 8 10 10 10 10 8 8 2 10 8 8 10 9 2 10 8 10 10 10 9 10 10 9 10 10 10 10 10 8 10 10 10 10 10 10 10 10 10 10 2 10 10 2 10 10 8 2 10 8 10 2 10 10 8 10 10 10 10
left_child=2 8 3 4 13 15 -7 14 -2 -8 41 23 20 50 49 26 -5 51 24 22 -13 -9 32 -12 -19 -10 -6 -21 29 30 -15 -32 33 -20 -34 36 53 -35 -27 40 -33 -3 57 45 -45 55 -47 48 -46 -4 -1 -11 -30 -36 -22 -44 -57 -28 -29 -60 -26 -49
right_child=1 10 7 16 5 6 9 21 25 17 11 12 -14 28 -16 -17 -18 18 19 27 54 -23 -24 -25 60 38 42 58 52 -31 31 39 34 37 35 -37 -38 -39 -40 -41 -42 -43 43 44 47 46 -48 61 -50 -51 -52 -53 -54 -55 -56 56 -58 -59 59 -61 -62 -63
leaf_value=0.4144086028027073 0.16584974735381769 0.19470096209496118 0.18001554167891953 1.2743465497827513 0.024871423147540605 0.090665365969060219 -0.050088364315822434 0.08849862586486458 0.51316165041096229 0.1523316991834287 0.23260256451525871 0.33866646559581598 0.48177525532154369 -0.024759720376131694 1.2368732566667771 -0.09459884938987051 0.44617509595058896 -0.21265502561303837 -0.18182447914342714 -0.59417950662082131 -0.33665397742056191 -0.24825233331937296 -0.6515150958277689 0.085249375417444651 0.055391468117904311 0.75790207292703871 -0.19167815782132186 -0.15826516014596789 0.16788198106325938 0.93828559010313095 1.3808100697944101 -0.020986057269494332 -0.34465600767054316 -0.32513834042375955 0.19421308281019267 -0.65511910332758438 -0.1922187424500065 -0.6119606492285502 1.3041653094164678 0.023735194871904005 0.88757120530862244 0.42386805946587008 0.013868805491128372 0.096256595130333814 -0.044885960048550957 0.7816921382060259 0.036369562140799179 -0.36060178522974207 0.62301491287118538 0.36987121766570347 0.17220134812177068 -0.090281493292606846 -0.028804610929378111 -0.4076783447042483 -0.03755183845890616 0.086281348754198919 0.825016246223229 -0.046297467000436687 0.35611215498218191 -0.060897186338865622 -0.12701790780840189 -0.11602265430524406
leaf_weight=5445 1638 14081 16123 757 157318 34844 94368 16415 1456 5088 30975 2772 2470 16544 550 78668 5621 13579 10046 1414 2961 4347 2629 35437 15159 1721 11513 39970 7743 1528 1297 1326 9629 7208 5140 1205 12944 6868 2199 8630 1152 8266 39766 22769 68959 1330 1254 4468 1305 13706 23305 31382 39624 773 32556 8855 1373 169807 1531 11833 10700 15603
leaf_count=5445 1638 14081 16123 757 157318 34844 94368 16415 1456 5088 30975 2772 2470 16544 550 78668 5621 13579 10046 1414 2961 4347 2629 35437 15159 1721 11513 39970 7743 1528 1297 1326 9629 7208 5140 1205 12944 6868 2199 8630 1152 8266 39766 22769 68959 1330 1254 4468 1305 13706 23305 31382 39624 773 32556 8855 1373 169807 1531 11833 10700 15603
internal_value=0.000487267 0.158023 -0.0197388 -0.0296525 -0.0333101 -0.0488708 -0.0960251 0.176489 0.740127 -0.119136 0.126499 0.0946011 -0.00222164 0.0979702 0.284811 -0.0232864 0.547187 -0.153963 -0.177576 -0.209919 -0.0334453 0.017991 -0.283466 0.154024 -0.0863907 0.915095 -0.0121625 -0.134095 0.0536119 0.131732 0.0891565 0.241081 -0.265484 -0.34712 -0.199158 -0.129323 -0.0957199 -0.465089 1.06437 0.107991 0.401411 0.27947 -0.0289522 0.000130867 -0.0310514 0.0672091 0.420009 -0.0631396 -0.0324802 0.267253 0.218075 -0.0564336 0.00334758 0.115522 -0.0624886 0.0489733 0.185456 -0.0555286 -0.121896 -0.0131213 -0.0200863 -0.17047
internal_weight=1.19994e+06 136532 1.06341e+06 1.01227e+06 1.00589e+06 899298 316310 51141 7014 281466 129518 107171 40759 106594 30379 582988 6378 187098 150628 111190 38289 20762 56442 66412 39438 5376 504320 54748 77844 30477 28949 12405 53813 24122 29691 20062 18857 14076 3920 11108 2478 22347 347002 165682 113104 52578 2584 90335 70264 29829 28750 36470 47367 5913 35517 49994 10228 181320 53334 13364 25859 20071
internal_count=1199943 136532 1063411 1012270 1005892 899298 316310 51141 7014 281466 129518 107171 40759 106594 30379 582988 6378 187098 150628 111190 38289 20762 56442 66412 39438 5376 504320 54748 77844 30477 28949 12405 53813 24122 29691 20062 18857 14076 3920 11108 2478 22347 347002 165682 113104 52578 2584 90335 70264 29829 28750 36470 47367 5913 35517 49994 10228 181320 53334 13364 25859 20071
cat_boundaries=0 3 7 11
cat_threshold=33554433 0 562036736 33587475 537396250 2709520640 258 2249332113 3087798856 3170926720 8226
is_linear=0
shrinkage=0.05


Tree=7
num_leaves=63
num_cat=0
split_feature=173 200 144 173 200 201 184 201 173 7 201 143 173 17 174 200 200 3 173 170 173 174 143 170 173 160 201 200 174 170 173 14 174 201 174 201 200 174 201 173 160 170 174 35 201 10 174 174 15 201 200 19 200 201 170 17 25 175 174 170 38 160
split_gain=2.23447e+06 2.64368e+06 1.32222e+06 945533 570892 838314 420841 373255 307591 547841 309953 279732 257998 240626 280590 525031 361558 267221 353356 237719 268612 254974 236072 233661 208959 197954 178868 176594 163777 159277 150886 147604 144375 144187 143973 131363 164836 124803 133484 135063 118617 114393 134311 134210 111540 109941 108504 116905 105609 104784 116560 102988 102664 102103 102097 102029 100017 97251.3 94993.1 96534.6 92666.5 92523.3
threshold=0.018742951564490799 26.129331588745121 -32.611351013183587 -0.052044548094272607 37.38286209106446 0.87851688265800487 32.500000000000007 1.218429744243622 0.11875747516751291 1.0000000180025095e-35 2.8799325227737431 30.236149787902836 0.11875747516751291 -0.081862319260835634 -0.041304735466837876 53.524454116821296 35.713146209716804 821179.78125000012 -0.040619904175400727 11.500000000000002 -0.029315629042685028 0.026205940172076229 40.732299804687507 6.5000000000000009 -0.037852523848414414 3.996005773544312 1.4296665787696841 58.782085418701179 0.01682193856686354 13.500000000000002 0.17193669080734256 -0.30476218461990351 0.011583648156374695 0.66023379564285289 0.0086651509627699869 1.3962470293045046 53.524454116821296 -0.012799054849892853 1.5715262889862063 -0.013892659451812504 3.5933411121368413 3.5000000000000004 -0.046875823289155953 -122.34144210815428 1.1038928031921389 inf -0.010837791487574576 0.072099827229976668 -0.063973560929298387 0.82787957787513744 28.744989395141605 -0.015570957213640211 33.778228759765632 1.3962470293045046 2.5000000000000004 -0.12887743115425107 48.235721588134773 inf -0.0071679519023746243 7.5000000000000009 0.65855082869529735 3.2672330141067509
decision_type=8 8 8 10 8 10 8 10 8 10 10 10 10 10 8 10 10 2 10 2 10 8 10 2 8 10 10 10 10 2 8 8 10 10 10 10 10 10 10 10 8 2 10 10 10 8 8 10 10 8 10 8 10 10 2 8 8 8 8 2 10 10
left_child=2 34 7 11 5 45 8 -1 9 23 30 -4 26 22 15 17 32 18 -15 21 -21 24 48 46 27 58 56 35 -14 55 -10 53 33 -16 -2 36 -18 38 39 -35 -11 43 -43 -13 -24 -3 -6 -48 -5 -39 -51 -27 -45 -9 -7 -25 -8 -34 59 -26 -59 -36
right_child=1 4 3 13 6 54 12 31 10 40 -12 41 28 14 16 -17 19 -19 -20 20 -22 -23 44 29 25 51 -28 -29 -30 -31 -32 -33 57 37 61 -37 -38 49 -40 -41 -42 42 -44 52 -46 -47 47 -49 -50 50 -52 -53 -54 -55 -56 -57 -58 60 -60 -61 -62 -63
leaf_value=0.21605138683184602 0.95403275951399591 0.23730844813473842 0.036141526082425469 -0.034512944205148874 -0.22707670132588881 0.82487316203131522 -0.056646010270034769 0.73965020219485589 0.31902991883346921 0.26563889698312004 -0.26339078880673861 0.28946225684881571 2.054494596186538 -0.81757425571376308 0.29446774536327508 0.065067473016533484 -0.22593926562584438 -0.11585535456524741 -0.0088064968119150721 0.2463790082504439 -0.062198193801445714 0.14017237629544169 0.10292933735143245 0.41844152182053107 -0.13451370722264067 -0.088188573034591794 1.5205460098121153 0.15350393679060761 0.75248071290958995 -0.028125491313553255 0.13954505264764039 0.44210831865706129 -0.085235155239526114 0.022797452914853505 1.0833399977884925 0.10153320073950488 -0.50662097552702268 -0.034369265067964838 -0.4724698242632715 -0.14596437082638292 0.64649895461506968 1.0075266041573148 0.28386040425324222 0.18689305492830052 0.42587176155142209 -0.056871559697923318 0.0029249825439307607 -0.1709723940611203 0.13616015771371201 0.15594064770261074 0.014776672847026499 -0.18231811736279882 -0.094050040691944711 1.2830708722004365 0.43090280577459733 0.14612957103071825 0.41789859903317361 -0.1279215618691141 -0.043398667914231165 0.029294221606577395 0.62819038413198036 1.739186902126785
leaf_weight=4419 4307 6315 55043 149185 6275 6535 1642 1633 14629 4938 4259 8775 357 6132 4382 7338 25816 3531 1732 10186 22924 10160 8960 4113 69312 44424 300 2842 747 12428 58673 1562 66918 30327 957 2387 6560 32026 1879 19465 3489 669 15376 6081 3811 6389 102477 10671 9650 26457 32693 84017 6989 1838 2198 21015 3429 711 125083 10335 942 1230
leaf_count=4419 4307 6315 55043 149185 6275 6535 1642 1633 14629 4938 4259 8775 357 6132 4382 7338 25816 3531 1732 10186 22924 10160 8960 4113 69312 44424 300 2842 747 12428 58673 1562 66918 30327 957 2387 6560 32026 1879 19465 3489 669 15376 6081 3811 6389 102477 10671 9650 26457 32693 84017 6989 1838 2198 21015 3429 711 125083 10335 942 1230
internal_value=0.000463804 0.124899 -0.0369481 -0.0430382 0.100998 0.348605 0.0797191 0.551382 0.0691169 0.0305931 0.151272 0.108114 0.477547 -0.0601649 -0.0740955 -0.26479 -0.0684238 -0.477206 -0.639451 -0.0957729 0.0327332 -0.106942 -0.00751457 0.00950967 -0.113714 -0.101103 0.334441 -0.22544 1.17366 0.118289 0.175366 0.845793 -0.0159502 0.01196 1.12184 -0.256421 -0.282812 0.00329349 -0.0587882 -0.043176 0.423331 0.212669 0.31404 0.138212 0.199302 0.089362 -0.0246991 -0.0134754 -0.0241436 0.0384763 0.0779177 -0.149762 0.0366627 1.02744 0.725722 0.190704 0.264241 -0.0758763 -0.0705764 -0.113258 0.302975 1.45226
internal_weight=1.19994e+06 277373 922570 913118 270879 21437 249442 9452 242967 165406 77561 92933 6475 820185 648579 18733 629846 11395 7864 414046 33110 380936 171606 156979 370776 333171 5371 37605 1104 37556 73302 5033 215800 147229 6494 34763 32376 142847 51671 49792 8427 37890 16045 21845 12771 12704 119423 113148 158835 91176 59150 128441 13070 3471 8733 25128 5071 68571 204730 79647 1653 2187
internal_count=1199943 277373 922570 913118 270879 21437 249442 9452 242967 165406 77561 92933 6475 820185 648579 18733 629846 11395 7864 414046 33110 380936 171606 156979 370776 333171 5371 37605 1104 37556 73302 5033 215800 147229 6494 34763 32376 142847 51671 49792 8427 37890 16045 21845 12771 12704 119423 113148 158835 91176 59150 128441 13070 3471 8733 25128 5071 68571 204730 79647 1653 2187
is_linear=0
shrinkage=0.05


Tree=8
num_leaves=63
num_cat=0
split_feature=173 200 13 173 201 198 170 171 174 199 197 170 198 7 171 174 173 199 3 143 174 187 174 197 198 110 160 198 199 184 200 197 143 174 199 171 197 180 3 173 3 197 201 199 200 171 3 197 198 199 160 160 173 197 122 174 197 160 174 160 174 201
split_gain=2.01662e+06 2.38594e+06 1.20345e+06 683471 645125 578143 698340 412587 907652 469003 683984 492962 381026 624844 340410 314263 302474 268815 359980 267014 252999 205016 253972 195668 190994 186124 177312 146747 145178 226598 167800 143155 133525 126471 125099 146938 124764 123860 122597 121422 172706 121202 116609 115225 102588 103373 99950.1 99099 94010.6 93761.7 92384.4 92275.8 91977 91374 90221.3 89503.1 89173.4 82783.1 80566.4 80075.8 76934.4 120544
threshold=0.018742951564490799 26.129331588745121 -0.1655652970075607 -0.052044548094272607 1.218429744243622 -0.030111372470855709 2.5000000000000004 1.3213902711868288 -0.041304735466837876 -0.014186551328748463 -0.025556057691574093 11.500000000000002 0.079467266798019423 1.0000000180025095e-35 0.52558788657188427 -0.026672869920730587 -0.027603575028479096 -0.021500536240637299 545350.46875000012 22.431849479675297 -0.028189466334879395 1.8737924847300749e-06 0.01682193856686354 0.20679578930139544 -0.026119591668248173 0.8849502205848695 5.3658487796783456 -0.014600004535168408 0.039249556139111526 32.500000000000007 45.680889129638679 -0.038994742557406419 19.706549644470218 0.013946870341897013 -0.059875667095184319 1.0819866061210635 0.00032680854201316839 -0.23443614691495893 381912.60937500006 -0.058068947866559022 645064.15625000012 0.014666939154267313 1.3962470293045046 -0.021920450031757351 60.135387420654304 -1.182545483112335 941816.65625000012 -0.024573385715484616 -0.064682647585868822 -0.061965383589267724 3.4406242370605473 3.2672330141067509 -0.040619904175400727 0.065599273890256896 0.078809157013893141 0.0086651509627699869 1.0000000180025095e-35 6.4100089073181161 0.024043420329689983 2.5546314716339116 -0.073165051639080034 0.84020981192588817
decision_type=8 8 8 10 10 8 2 2 10 10 10 2 8 10 2 8 10 10 2 10 10 8 10 10 10 8 8 10 8 8 10 8 8 10 10 2 10 10 2 10 2 8 10 8 8 2 2 10 10 10 8 8 10 10 2 10 8 10 10 10 10 10
left_child=2 32 4 14 53 6 51 8 17 15 -11 26 13 28 25 20 57 18 -5 23 34 -21 -23 46 47 27 33 48 29 41 -30 -17 -2 59 35 -10 -32 -15 -33 40 -16 43 -26 -7 45 -28 -14 -6 -4 -31 -20 -3 -47 -1 -44 -34 -8 -9 -51 -12 -50 -62
right_child=1 5 3 7 24 12 56 16 9 10 11 -13 19 37 39 31 -18 -19 50 21 -22 22 -24 -25 42 -27 44 -29 30 49 36 38 55 -35 -36 -37 -38 -39 -40 -41 -42 -43 54 -45 -46 52 -48 -49 60 58 -52 -53 -54 -55 -56 -57 -58 -59 -60 -61 61 -63
leaf_value=0.02730510037538595 0.87059584544160673 0.5653652719832436 0.33414409604055978 -0.86498297975151184 0.45409992490530943 -0.043478841733964615 0.40935863840866732 0.13511028663120003 -0.24132293295972121 0.18108487884751062 -0.077255542046433867 0.16708580228635012 0.17161685705375221 1.4789293451668188 -0.67220261064656484 0.12524799194846611 -0.012764515071774431 -0.1247009825491644 -0.027181175953617701 0.26040061380523127 -0.44939805228394597 2.0763093604953688 0.48172936189311444 -0.22999735323519924 0.61037496864035912 -0.098635651242450953 0.0038966080471281661 0.34557338190676451 0.12927492100953625 1.0551833738353111 0.0061809838550455336 0.012794332363611771 1.1247602660741858 -0.014076160419302689 -0.028090144588698414 0.37097739194056761 -0.15244708448511746 0.46105153761466311 -0.044946510589729989 -0.02841950005527585 -0.013281089712651951 0.14840322809914908 0.52118345071484906 0.09022940154937012 -0.10709129422654409 -0.68081136667518938 0.040639074581298042 -0.45589576237887341 0.29898081897001094 -0.19256934409813023 -0.46610648254153769 0.94540342527594123 -0.30146816272492649 0.6636017927886676 1.2078767055319741 1.7256394838579234 0.051463447717546386 0.33724258014357983 0.54008636898061668 -0.17035250948159297 0.16237588612610931 0.012728813885960378
leaf_weight=8751 3731 2782 4787 5643 3292 43814 2198 17103 17176 17627 28444 12160 41612 314 2467 16403 62815 4328 2087 25066 6379 342 925 4113 2872 8648 2627 8229 10831 612 21026 139030 1823 18414 21388 1039 30199 6176 271354 4363 1666 18945 608 25485 9235 1697 22410 329 4642 512 2817 3753 27370 603 2247 940 8360 7197 1404 122900 26658 27175
leaf_count=8751 3731 2782 4787 5643 3292 43814 2198 17103 17176 17627 28444 12160 41612 314 2467 16403 62815 4328 2087 25066 6379 342 925 4113 2872 8648 2627 8229 10831 612 21026 139030 1823 18414 21388 1039 30199 6176 271354 4363 1666 18945 608 25485 9235 1697 22410 329 4642 512 2817 3753 27370 603 2247 940 8360 7197 1404 122900 26658 27175
internal_value=0.00044068 0.118655 -0.0351007 -0.0433151 0.361901 0.0959487 0.377413 -0.0576515 -0.0699551 -0.0618931 -0.118743 -0.142459 0.0769913 0.029815 0.0885456 -0.0329764 0.0451835 -0.456516 -0.592674 0.156553 -0.157171 0.291769 0.912287 0.104294 0.655655 0.12045 -0.160325 0.146953 0.00940945 0.0497029 -0.0495294 -0.0195956 1.06575 -0.137802 -0.1101 -0.206395 -0.087336 0.510321 -0.025385 -0.212395 -0.406601 0.0363314 0.835365 0.00569292 -0.253741 -0.296471 0.12577 0.371407 0.121116 0.516435 -0.279318 0.78363 -0.323618 0.0683308 1.06166 1.32924 0.125975 0.194978 0.344301 -0.152856 0.103676 0.086834
internal_weight=1.19994e+06 277373 922570 903868 18702 270879 17093 815233 728118 713243 240474 222847 253786 159318 88635 472769 87115 14875 10547 94468 45982 26333 1267 68135 9348 80139 210687 71491 152828 90772 62056 426787 6494 169758 39603 18215 51225 6490 410384 8496 4133 88244 5727 69299 40929 31694 64022 3621 63262 2528 4904 6535 29067 9354 2855 2763 10558 24300 1916 151344 58475 53833
internal_count=1199943 277373 922570 903868 18702 270879 17093 815233 728118 713243 240474 222847 253786 159318 88635 472769 87115 14875 10547 94468 45982 26333 1267 68135 9348 80139 210687 71491 152828 90772 62056 426787 6494 169758 39603 18215 51225 6490 410384 8496 4133 88244 5727 69299 40929 31694 64022 3621 63262 2528 4904 6535 29067 9354 2855 2763 10558 24300 1916 151344 58475 53833
is_linear=0
shrinkage=0.05


Tree=9
num_leaves=63
num_cat=0
split_feature=173 200 143 14 197 198 170 198 7 108 14 201 170 173 197 201 198 171 143 187 198 31 29 170 198 173 201 171 200 173 171 198 200 143 180 166 200 197 171 201 29 198 173 171 171 171 173 167 41 29 170 200 170 197 20 170 15 29 170 201 197 166
split_gain=1.82e+06 2.15332e+06 1.09873e+06 691125 604434 521776 630253 343876 563926 272961 269675 264633 262239 282721 241924 233775 227259 342047 194615 185286 171233 167989 153254 146340 141795 140006 135863 147586 130160 124852 155733 122904 117632 113743 111789 111449 106664 105732 105331 102716 98523.7 91251.5 89006.1 154937 127706 91237.5 110108 88322.4 86623.5 83495.1 82374.6 141959 219954 89847 81355.2 80479.4 79048.1 77149.6 76337.2 74752.2 86017.4 74285.2
threshold=0.018742951564490799 26.129331588745121 40.732299804687507 -0.30476218461990351 -0.025556057691574093 -0.030111372470855709 2.5000000000000004 0.079467266798019423 1.0000000180025095e-35 0.015031397342681887 -0.0020840754732489582 1.2702647447586062 5.5000000000000009 -0.04874120466411113 0.20679578930139544 1.3962470293045046 -0.018954178318381306 1.0819866061210635 22.431849479675297 1.8737924847300749e-06 -0.022180055268108841 -0.081009261310100542 0.02554598264396191 11.500000000000002 0.18934779614210132 -0.03039242327213287 1.0637283325195315 -0.35917104780673975 59.570692062377937 -0.031813368201255791 -0.046066375449299805 -0.055410517379641526 60.135387420654304 21.710350036621097 -0.23443614691495893 5.0290501117706308 43.883834838867195 0.020387437194585804 6.6419508457183847 0.74433961510658275 0.042760234326124198 0.22755096107721332 -0.069897573441267 -0.17802900075912473 0.077639728784561171 -0.80441102385520924 -0.013892659451812504 5.1758499145507821 0.09022196009755136 0.034405767917633064 1.0000000180025095e-35 43.883834838867195 7.5000000000000009 -0.041777271777391427 0.019409789703786377 3.5000000000000004 -0.031730405986309045 0.032672220841050155 15.500000000000002 1.5715262889862063 -0.012329262215644119 64.315052032470717
decision_type=8 8 10 8 10 8 2 8 10 10 8 10 2 10 10 10 8 2 10 8 10 10 8 2 10 10 10 2 10 10 2 10 10 8 10 8 10 10 2 10 10 10 8 2 2 2 10 8 2 8 2 10 2 10 10 2 8 10 2 10 10 10
left_child=2 31 4 15 11 6 49 8 35 12 25 39 16 33 18 37 21 22 58 -20 -11 26 -18 32 -21 48 -6 -28 42 30 36 57 40 -14 -10 54 -24 -4 47 -1 -22 -26 44 45 -23 -44 -47 56 -5 -3 -41 53 -53 -52 -7 -8 -37 -2 -9 60 -32 -46
right_child=1 5 3 10 9 7 55 14 34 20 -12 -13 13 -15 -16 -17 17 -19 19 24 23 28 29 -25 41 -27 27 -29 -30 -31 59 -33 -34 -35 -36 38 -38 -39 -40 50 -42 -43 43 -45 61 46 -48 -49 -50 -51 51 52 -54 -55 -56 -57 -58 -59 -60 -61 -62 -63
leaf_value=0.23687120098419731 0.98087388925146246 0.56593755686033898 0.13075013055783663 0.21107784258345524 -0.041201661864532245 -0.0030981890586479505 0.38889164340889393 0.14009879714707421 1.405006422045048 -0.054880188686057388 -0.043612670807091275 0.29315099085972174 0.032800204150619294 -0.022715783644898523 -0.2140641908342365 1.1501582124837193 -0.059849863605689495 0.048113590852688085 0.25149002812906168 0.24183812458639842 -0.14707038630784003 0.038185782274934153 -0.55022777283605506 0.04579795402859109 1.9575953513599349 0.03616449882032078 -0.73201823192845827 -0.079977379454773539 0.20845486807271776 -0.14150491657961303 -0.49814742939830703 0.85742464169114241 -0.096089525991274627 0.24330549158157311 0.43799933292685522 -0.038393636795099557 -0.23260785748460086 0.69174294390718627 0.24938316964509585 0.11876571168434154 -0.27168821028390894 0.83512598678901595 0.0054460816628006696 0.027982933566122709 -0.5392406724353308 -0.039882596036656143 -0.14411441050766871 -0.055252289013084668 0.42953871422396039 0.92343009463323478 0.17508987593787756 -0.30815451262994231 0.054672029354698864 0.009244879695389098 0.97936469946605065 0.048890306237997068 0.057693558558922803 1.5797574159248233 -0.025100858889032785 -0.4010836794441206 -0.066912441706830542 -0.15627218947968088
leaf_weight=5959 957 3272 1395 19936 3201 359 2198 56032 314 61775 16663 11056 10979 137710 4382 1962 43422 28775 24803 522 28697 3525 6083 7941 318 9485 2302 1393 5620 85894 1290 4307 30063 15444 6176 31757 4675 2111 4309 18129 35460 421 38850 77436 2613 59312 44233 50236 5875 3263 9741 8443 8267 50524 510 8360 65657 1230 7990 2717 11157 2457
leaf_count=5959 957 3272 1395 19936 3201 359 2198 56032 314 61775 16663 11056 10979 137710 4382 1962 43422 28775 24803 522 28697 3525 6083 7941 318 9485 2302 1393 5620 85894 1290 4307 30063 15444 6176 31757 4675 2111 4309 18129 35460 421 38850 77436 2613 59312 44233 50236 5875 3263 9741 8443 8267 50524 510 8360 65657 1230 7990 2717 11157 2457
internal_value=0.000418703 0.112722 -0.0333456 0.178443 -0.0474039 0.0911514 0.358543 0.0731419 0.0283244 -0.0635302 0.122172 0.0609052 -0.0476497 0.006029 0.148725 0.713133 -0.0683824 -0.110222 0.166373 0.281552 -0.120595 -0.0364282 -0.139572 -0.160332 0.872775 0.200438 -0.27965 -0.486212 -0.0292617 -0.17053 -0.266706 1.01247 -0.177705 0.155839 0.484807 0.00893903 -0.412207 0.468541 0.00570992 0.0354979 -0.215948 1.31834 -0.0351104 -0.0289389 -0.192954 -0.0598937 -0.0844091 -0.00140155 0.260805 0.74445 0.02288 0.000297005 -0.128652 0.0360517 0.573532 0.119676 0.026369 1.31775 0.119482 -0.163478 -0.111609 -0.353656
internal_weight=1.19994e+06 277373 922570 57427 865143 270879 17093 253786 159318 753024 51959 112119 589088 164133 94468 5468 424955 184013 90086 26064 163936 240942 155238 102161 1261 35296 6896 3695 234046 111816 25922 6494 94220 26423 6490 152828 10758 3506 151959 101063 64157 739 228426 219831 8595 142395 103545 147650 25811 6535 95104 76975 16710 60265 869 10558 97414 2187 64022 15164 12447 5070
internal_count=1199943 277373 922570 57427 865143 270879 17093 253786 159318 753024 51959 112119 589088 164133 94468 5468 424955 184013 90086 26064 163936 240942 155238 102161 1261 35296 6896 3695 234046 111816 25922 6494 94220 26423 6490 152828 10758 3506 151959 101063 64157 739 228426 219831 8595 142395 103545 147650 25811 6535 95104 76975 16710 60265 869 10558 97414 2187 64022 15164 12447 5070
is_linear=0
shrinkage=0.05


Tree=10
num_leaves=63
num_cat=0
split_feature=143 13 174 198 171 174 171 170 199 196 166 174 199 200 174 190 197 111 199 171 197 196 9 197 174 199 199 174 171 199 198 198 198 199 160 198 198 198 174 197 170 197 199 199 196 174 200 174 171 171 160 171 180 170 160 171 197 197 200 200 198 170
split_gain=1.06171e+06 691127 559185 452979 380981 677592 706616 375252 288387 369518 263090 252013 562394 314244 272339 236777 224880 214169 388300 300292 194557 255121 199054 193204 179201 175596 174674 163723 358683 156427 152955 153661 137025 134355 126486 125698 121853 237931 120956 118366 117339 116457 189172 139792 109081 108725 104682 154208 104493 103904 102943 102119 99515.2 99184.7 98684.1 96309.3 85248.5 84768.2 83664.7 98552.1 83517.4 85728.9
threshold=35.284399032592781 -0.2084863483905792 0.0022140229120850567 -0.037270670756697648 -2.8166910409927364 0.01022612862288952 -3.2193186283111568 6.5000000000000009 0.22535358369350436 2.5000000000000004 210.63269805908206 -0.026672869920730587 -0.047553513199090951 40.321205139160163 -0.073165051639080034 3.8499999277519242e-07 -0.030365136452019211 inf -0.069096367806196199 1.0000000180025095e-35 0.20679578930139544 1.0000000180025095e-35 inf -0.019001549109816548 -0.029600340873003003 0.20794978737831118 1.0000000180025095e-35 0.03480824641883374 -2.0243763923645015 0.059234524145722396 -0.018954178318381306 0.065516192466020598 -0.026119591668248173 0.20794978737831118 3.6242312192916875 0.097643051296472563 -0.038634350523352616 -0.032011991366744035 -0.041304735466837876 0.017202830873429779 4.5000000000000009 -1.0000000180025095e-35 0.14912171661853793 -0.019450108520686623 2.5000000000000004 0.02891598176211119 58.782085418701179 -0.017902949824929234 0.077639728784561171 1.4058468937873843 3.6242312192916875 0.52558788657188427 -0.23443614691495893 7.5000000000000009 3.1812942028045659 -1.8162432909011839 -0.020704965107142922 -0.025556057691574093 52.788536071777351 46.830163955688484 -0.055410517379641526 2.5000000000000004
decision_type=8 8 10 10 2 10 2 2 10 2 8 10 10 10 10 2 10 8 10 2 10 2 8 10 8 10 8 10 2 10 10 8 10 10 10 10 10 10 10 10 2 10 10 10 2 10 10 10 2 2 10 2 10 2 10 2 10 10 10 10 8 2
left_child=2 24 3 16 5 6 -4 11 9 17 35 12 14 41 -5 50 -1 18 19 -6 21 -20 26 27 32 29 -23 28 -11 48 -15 34 -2 44 -32 39 -25 53 -17 60 -7 42 43 -13 -12 -39 47 -36 55 -14 -16 -52 -37 -38 -8 -9 -30 -46 59 -18 -3 -62
right_child=1 10 4 7 8 40 54 25 -10 23 33 13 49 30 15 38 58 -19 20 -21 -22 22 -24 36 -26 -27 -28 -29 56 -31 31 -33 -34 -35 46 52 37 45 -40 -41 -42 -43 -44 -45 57 -47 -48 -49 -50 -51 51 -53 -54 -55 -56 -57 -58 -59 -60 -61 61 -63
leaf_value=0.18591533796980053 0.35399457241405929 0.38374579175426082 0.18180493503846351 0.42384610147399632 0.016711260075169373 0.39448540891063016 0.72458349204596895 0.04268526643926436 -0.17399267507574334 0.77551908148108961 0.10323956601155762 -0.012185808009350443 -0.099609073019491026 -0.028281594755172036 -0.15998460349066701 -0.68702975039256531 0.011292384832679785 -0.0045050220274196646 0.0097734138876221857 0.75600108432721513 -0.3625841949842683 0.49304379025236494 0.98089631191473536 -0.15821841613343202 -0.042844781339968621 -0.22521070498119311 0.14924470166334453 -0.08678039841291646 0.065763114155521954 0.18790350078009704 -0.10425082715730834 0.30057300686974087 0.86027725849890224 -0.35964097311925114 -0.073635191756968643 1.1017825336259959 0.57267430764512217 -0.045928363549379993 -0.36139168452776554 0.21276617016585672 -0.013632175623568372 0.1151520439626339 0.25013721819372436 -0.18364444093738455 0.14435018497057084 0.030815052565136128 -0.12374008646408248 -0.30941953879578105 0.054241391058924573 0.099261482565738315 -0.48582794706219679 -0.10900399235321057 0.33585203851125445 0.14677160460425773 1.2224426136709234 -0.10436474778852256 0.31035927330419688 -0.084783286642430178 0.15923683248252937 -0.12571071674847961 0.0028610807325624905 0.13119146995054665
leaf_weight=19733 1953 2391 6174 1138 2039 1945 1651 17148 20458 2081 24718 45494 23281 35474 11297 6491 83433 40362 31730 4209 2161 4067 791 16664 933 7889 40336 10461 27291 12170 68890 1908 4235 2343 9069 497 2047 180876 5087 33475 18629 16822 5458 16093 4952 61961 25766 29465 42718 9149 6741 2452 2889 4115 2509 31752 4097 21829 7858 15577 21133 33874
leaf_count=19733 1953 2391 6174 1138 2039 1945 1651 17148 20458 2081 24718 45494 23281 35474 11297 6491 83433 40362 31730 4209 2161 4067 791 16664 933 7889 40336 10461 27291 12170 68890 1908 4235 2343 9069 497 2047 180876 5087 33475 18629 16822 5458 16093 4952 61961 25766 29465 42718 9149 6741 2452 2889 4115 2509 31752 4097 21829 7858 15577 21133 33874
internal_value=-6.03485e-05 0.121958 -0.0181845 -0.0523308 0.0209926 0.19087 0.521195 -0.0767177 0.00947168 0.0180943 0.0988226 -0.104252 -0.191604 -0.0817178 -0.336243 -0.363218 0.0308365 0.0903939 0.135281 0.514743 0.105301 0.118446 0.194742 -0.0112594 0.603105 0.002197 0.180735 0.0858737 0.139838 0.0194827 -0.120681 -0.144943 0.700498 0.0106478 -0.151325 0.149189 -0.0273213 -0.0185611 -0.54396 0.138043 0.0249514 -0.00247311 -0.0319862 -0.0569891 0.0274952 -0.0263469 -0.20176 -0.253928 -0.00288949 -0.0435044 -0.261086 -0.385323 0.448307 0.288263 1.02488 -0.0527979 0.0976907 -0.0424143 0.0022013 -0.010262 0.0944638 0.0818887
internal_weight=1.20023e+06 155222 1.04501e+06 558353 486654 30908 10334 431752 455746 435288 148101 320075 65636 254439 33206 32068 126601 125695 85333 6248 79085 76924 45194 309593 7121 111677 44403 43930 33469 103788 170572 135098 6188 53842 133190 94259 265663 248999 11578 90873 20574 83867 67045 61587 51499 242837 64300 38534 91618 32430 20490 9193 3386 6162 4160 48900 31388 26781 106868 99010 57398 55007
internal_count=1200229 155222 1045007 558353 486654 30908 10334 431752 455746 435288 148101 320075 65636 254439 33206 32068 126601 125695 85333 6248 79085 76924 45194 309593 7121 111677 44403 43930 33469 103788 170572 135098 6188 53842 133190 94259 265663 248999 11578 90873 20574 83867 67045 61587 51499 242837 64300 38534 91618 32430 20490 9193 3386 6162 4160 48900 31388 26781 106868 99010 57398 55007
is_linear=0
shrinkage=0.05


Tree=11
num_leaves=63
num_cat=0
split_feature=173 200 144 173 122 172 200 199 199 199 174 183 199 174 29 199 200 170 170 199 170 29 173 200 201 174 143 200 174 200 201 174 199 201 199 170 172 14 151 173 143 200 200 199 200 199 170 200 5 201 199 201 8 173 172 201 174 199 174 107 172 174
split_gain=1.506e+06 1.78369e+06 909054 552440 412865 405416 379266 552330 376327 365124 657035 317772 292149 241792 222981 221919 316128 219379 225724 203158 207069 207833 193766 187356 224622 194519 172112 152967 182944 143780 143339 143522 200188 139852 149917 136322 133278 131674 120053 118162 117778 117616 125222 108816 105777 95826.6 95167.3 96630.4 94679.2 92442.1 91890.5 91705.7 91553.3 90559.2 86729.8 86427.5 84552.1 84440.3 180504 78684.2 86123.6 76271
threshold=0.018742951564490799 26.129331588745121 -26.949599266052243 -0.052044548094272607 0.0858500972390175 -1.1160153150558469 37.38286209106446 -0.06492013111710547 -0.018216993659734722 -0.062885938212275491 -0.036283012479543679 inf 0.20794978737831118 -0.04278947785496711 0.034405767917633064 0.070669822394847884 57.173038482666023 6.5000000000000009 13.500000000000002 -0.0087248329073190672 6.5000000000000009 0.047271303832530982 0.11875747516751291 66.638854980468764 1.7563159465789797 0.026205940172076229 29.293350219726566 56.460962295532234 -0.018256898038089272 48.03892898559571 0.74964570999145519 0.011583648156374695 -0.089925434440374361 1.4296665787696841 -0.061965383589267724 1.5000000000000002 -1.2460756301879881 -0.30476218461990351 9.6945948600769061 -0.037178810685873025 20.132150650024418 25.798996925354007 72.852306365966811 0.18468507379293445 84.44339752197267 0.070669822394847884 10.500000000000002 40.629507064819343 98.916049957275405 1.3962470293045046 -0.056133177131414407 1.2702647447586062 inf 0.11875747516751291 0.81403082609176647 1.0238313078880312 0.022948808036744598 -0.061965383589267724 -0.073165051639080034 0.10294361039996149 -1.1160153150558469 -0.013363641221076248
decision_type=8 8 8 8 2 10 8 10 10 10 10 8 8 10 8 10 10 2 2 8 2 10 10 8 10 8 10 10 10 10 8 10 8 10 8 2 10 8 8 10 8 8 10 10 10 10 2 10 8 10 10 10 8 10 10 10 8 10 10 8 8 8
left_child=2 40 4 26 -1 8 7 -3 30 10 14 17 13 -11 -7 19 43 23 -19 41 21 39 33 24 59 51 57 28 -12 -22 -5 32 -32 34 -13 -23 45 49 -24 -21 -2 -15 -43 -17 -27 -10 47 50 -14 -6 -28 53 -9 -25 -18 -30 -36 58 -4 61 -61 -8
right_child=1 6 3 5 37 9 11 52 36 12 27 22 48 15 -16 16 54 18 -20 20 29 35 38 25 -26 44 46 -29 55 -31 31 -33 -34 -35 56 -37 -38 -39 -40 -41 -42 42 -44 -45 -46 -47 -48 -49 -50 -51 -52 -53 -54 -55 -56 -57 -58 -59 -60 60 -62 -63
leaf_value=0.13875793038703632 0.74494821304122372 0.59332904260965857 0.27039948258572849 -0.10121433841217525 0.60622066173048672 -0.20779884192704354 -0.33546432436937296 0.20883369593202228 -0.10697558828141435 0.13389606503075699 -0.28693984464689065 0.93652617914521619 -0.14867740595416742 0.08090299050539973 -0.65235873198064875 0.19964200452588168 -0.18427253268041263 0.18185678993366189 -0.0016883027545425895 -0.33348341855897423 -0.13110545120112843 -0.17367222909715951 1.8239405658338315 -0.016082515486528733 0.48005113829275503 0.048639880707366676 0.52061110518409037 0.27820288091071477 -0.027492665045148659 0.10635561338963646 0.20021185540978423 -0.031086736926184484 0.029886878897448749 1.3301882698497769 -0.21952871129688312 -0.44942541639078792 0.27760397799786807 0.39063675739201381 0.67861553575595412 -0.10411311800760809 1.1782623221062802 -0.071476243377713036 0.15547188320347544 0.00576203229159232 -0.21271621217123371 -0.34912450626973413 0.33068402706544059 -0.03463811300568214 -0.34593681421216083 1.1167451560429513 0.14668525414781708 0.33550584814043977 -0.060104180483455255 0.23472333111882124 -0.02322227176394559 -0.15202508920642202 0.26178787985428931 0.054406041041357746 -0.22286220892445954 0.29478066793860391 -0.14767475436382849 -0.0028385467963674004
leaf_weight=12049 3918 8634 2432 25392 1981 4197 1772 6343 73234 17284 14917 644 16320 17023 8602 21486 12927 53966 24290 6345 12855 8130 324 6300 2133 49884 1789 2355 27850 12645 19178 85070 171707 303 1295 9989 2161 3120 779 48796 2616 114736 6418 10913 4197 4327 6989 7135 9698 1606 20126 8250 6315 8395 23660 27880 3088 41844 7812 1164 19919 62722
leaf_count=12049 3918 8634 2432 25392 1981 4197 1772 6343 73234 17284 14917 644 16320 17023 8602 21486 12927 53966 24290 6345 12855 8130 324 6300 2133 49884 1789 2355 27850 12645 19178 85070 171707 303 1295 9989 2161 3120 779 48796 2616 114736 6418 10913 4197 4327 6989 7135 9698 1606 20126 8250 6315 8395 23660 27880 3088 41844 7812 1164 19919 62722
internal_value=-5.72962e-05 0.102133 -0.030754 -0.0379006 0.313783 -0.0507434 0.0824301 0.284986 -0.0130899 -0.0837267 -0.176141 0.0651389 -0.0610214 -0.0480461 -0.506583 -0.0583255 0.0205962 0.0559561 0.124886 -0.0813042 -0.136069 -0.178783 0.41199 0.0232117 -0.0267576 0.0801122 0.0810291 -0.118206 -0.13142 -0.0133525 0.0124669 0.0229274 0.0469994 0.287146 0.224251 -0.325697 -0.109694 0.628204 1.01519 -0.130507 0.918449 -0.0421621 -0.0594538 0.134338 0.0283567 -0.120485 0.165034 0.12518 -0.222206 0.834823 0.177213 0.202098 0.0746624 0.127199 -0.0801254 -0.0897926 0.119575 0.0229071 -0.105756 -0.0393904 -0.123245 -0.0119782
internal_weight=1.20023e+06 277251 922978 904222 18756 816095 270717 21292 381069 435026 85801 249425 349225 323207 12799 305923 68986 242992 78256 236937 98760 73260 6433 164736 87710 77026 88127 73002 70647 25500 301347 275955 190885 5330 5027 18119 79722 6707 1103 55141 6534 138177 121154 32399 54081 77561 36039 29050 26018 3587 21915 22945 12658 14695 36587 55730 4383 52088 10244 85577 21083 64494
internal_count=1200229 277251 922978 904222 18756 816095 270717 21292 381069 435026 85801 249425 349225 323207 12799 305923 68986 242992 78256 236937 98760 73260 6433 164736 87710 77026 88127 73002 70647 25500 301347 275955 190885 5330 5027 18119 79722 6707 1103 55141 6534 138177 121154 32399 54081 77561 36039 29050 26018 3587 21915 22945 12658 14695 36587 55730 4383 52088 10244 85577 21083 64494
is_linear=0
shrinkage=0.05


end of trees

feature_importances:
mkt_ret_60d=83
zz500_rel_strength=64
regime_intensity=58
hs300_ret60_z60=56
mkt_vol_ratio=56
cyb_rel_strength=51
mkt_ret_20d=50
mkt_ret_5d=47
mkt_rsi14=43
regime_days_in=40
industry_id=24
sumn_20=17
total_mv=16
regime_id=13
atr_pct=11
natr_14=11
pe_ttm=8
market_score_adj=7
ma_ratio_60=6
ma_ratio_120=6
sumd_20=6
main_consec_in=6
ma_ratio_20=5
amount_20d_avg=5
main_consec_out=5
mf_divergence=3
mf_strength=3
ma5_ma20=3
ma20_ma60=3
amplitude=3
channel_pos_60=3
k_klen=3
lg_net_20d=3
buy_sell_imb_5d=3
ma_ratio_10=2
lr_slope_60=2
kama_20=2
mf_consecutive=1
macd_signal=1
macd_hist=1
kdj_d=1
bias_10=1
roc_10=1
roc_20=1
cci_14=1
trix=1
lr_slope_20=1
lr_r2_60=1
corr_close_vol_20=1
sump_20=1
kama_dist=1
amount_log=1
sm_net_5d=1
amihud_illiq_5d=1

parameters:
[boosting: gbdt]
[objective: regression]
[metric: custom]
[tree_learner: serial]
[device_type: cpu]
[data_sample_strategy: bagging]
[data: ]
[valid: ]
[num_iterations: 2000]
[learning_rate: 0.05]
[num_leaves: 63]
[num_threads: 4]
[seed: 42]
[deterministic: 0]
[force_col_wise: 1]
[force_row_wise: 0]
[histogram_pool_size: -1]
[max_depth: -1]
[min_data_in_leaf: 300]
[min_sum_hessian_in_leaf: 0.001]
[bagging_fraction: 0.8]
[pos_bagging_fraction: 1]
[neg_bagging_fraction: 1]
[bagging_freq: 5]
[bagging_seed: 400]
[bagging_by_query: 0]
[feature_fraction: 0.7]
[feature_fraction_bynode: 1]
[feature_fraction_seed: 30056]
[extra_trees: 0]
[extra_seed: 12879]
[early_stopping_round: 0]
[early_stopping_min_delta: 0]
[first_metric_only: 0]
[max_delta_step: 0]
[lambda_l1: 0.1]
[lambda_l2: 0.1]
[linear_lambda: 0]
[min_gain_to_split: 0]
[drop_rate: 0.1]
[max_drop: 50]
[skip_drop: 0.5]
[xgboost_dart_mode: 0]
[uniform_drop: 0]
[drop_seed: 17869]
[top_rate: 0.2]
[other_rate: 0.1]
[min_data_per_group: 100]
[max_cat_threshold: 32]
[cat_l2: 10]
[cat_smooth: 10]
[max_cat_to_onehot: 4]
[top_k: 20]
[monotone_constraints: ]
[monotone_constraints_method: basic]
[monotone_penalty: 0]
[feature_contri: ]
[forcedsplits_filename: ]
[refit_decay_rate: 0.9]
[cegb_tradeoff: 1]
[cegb_penalty_split: 0]
[cegb_penalty_feature_lazy: ]
[cegb_penalty_feature_coupled: ]
[path_smooth: 0]
[interaction_constraints: ]
[verbosity: -1]
[saved_feature_importance_type: 0]
[use_quantized_grad: 0]
[num_grad_quant_bins: 4]
[quant_train_renew_leaf: 0]
[stochastic_rounding: 1]
[linear_tree: 0]
[max_bin: 127]
[max_bin_by_feature: ]
[min_data_in_bin: 3]
[bin_construct_sample_cnt: 200000]
[data_random_seed: 175]
[is_enable_sparse: 1]
[enable_bundle: 1]
[use_missing: 1]
[zero_as_missing: 0]
[feature_pre_filter: 1]
[pre_partition: 0]
[two_round: 0]
[header: 0]
[label_column: ]
[weight_column: ]
[group_column: ]
[ignore_column: ]
[categorical_feature: 202]
[forcedbins_filename: ]
[precise_float_parser: 0]
[parser_config_file: ]
[objective_seed: 16083]
[num_class: 1]
[is_unbalance: 0]
[scale_pos_weight: 1]
[sigmoid: 1]
[boost_from_average: 1]
[reg_sqrt: 0]
[alpha: 0.9]
[fair_c: 1]
[poisson_max_delta_step: 0.7]
[tweedie_variance_power: 1.5]
[lambdarank_truncation_level: 30]
[lambdarank_norm: 1]
[label_gain: ]
[lambdarank_position_bias_regularization: 0]
[eval_at: ]
[multi_error_top_k: 1]
[auc_mu_weights: ]
[num_machines: 1]
[local_listen_port: 12400]
[time_out: 120]
[machine_list_filename: ]
[machines: ]
[gpu_platform_id: -1]
[gpu_device_id: -1]
[gpu_use_dp: 0]
[num_gpu: 1]

end of parameters

pandas_categorical:[]
